SVM-light Version V5.00
0 # kernel type
3 # kernel parameter -d 
1 # kernel parameter -g 
1 # kernel parameter -s 
1 # kernel parameter -r 
empty# kernel parameter -u 
4 # highest feature index 
117693 # number of training documents 
4868 # number of support vectors plus 1 
0.98503965 # threshold b, each following line is a SV (starting with alpha*y)
-0.048764752131059442563643102630522 1:0.65744728 2:-0.99964684 3:1.0749213 4:0 
-0.048764752131059442563643102630522 1:-0.25627783 2:0.11011681 3:0.65493089 4:0 
0.048764752131059442563643102630522 1:-1.1068733 2:-0.70352709 3:-0.91504043 4:0 
0.048764752131059442563643102630522 1:2.0680032 2:-1.6094555 3:1.2919286 4:0.28 
0.048764752131059442563643102630522 1:-0.26517245 2:0.19077517 3:0.044253033 4:0 
0.048764752131059442563643102630522 1:-5.3006449 2:-0.62554723 3:-0.72120637 4:0 
-0.048764752131059442563643102630522 1:0.74482912 2:0.25219664 3:-0.50883502 4:0 
-0.048764752131059442563643102630522 1:-4.5876966 2:1.9580705 3:0.89273417 4:0 
-0.048764752131059442563643102630522 1:0.49363992 2:0.51434869 3:-0.45519954 4:0 
0.048764752131059442563643102630522 1:-4.4980102 2:-5.2639909 3:-2.0099163 4:0 
0.048764752131059442563643102630522 1:-1.1286315 2:-1.9094197 3:-2.7142379 4:0 
0.048764752131059442563643102630522 1:-3.4132495 2:-3.8583038 3:-1.8302047 4:0 
-0.048764752131059442563643102630522 1:0.50647658 2:-0.19141129 3:0.67617893 4:0.079999998 
-0.048764752131059442563643102630522 1:-0.165508 2:0.26401544 3:0.31121466 4:0 
0.048764752131059442563643102630522 1:0.48120254 2:0.999089 3:0.98918676 4:0.2 
-0.048764752131059442563643102630522 1:-0.68309683 2:0.64196461 3:0.40867364 4:0 
-0.048764752131059442563643102630522 1:-4.3452067 2:1.0006173 3:1.089427 4:0.51999998 
0.048764752131059442563643102630522 1:-0.66294026 2:-2.5022075 3:-2.4183445 4:0 
0.048764752131059442563643102630522 1:-5.7288003 2:1.0006173 3:1.0643177 4:0.12 
0.048764752131059442563643102630522 1:0.33290625 2:1 3:1.2988522 4:0.12 
0.048764752131059442563643102630522 1:1.3319165 2:-1.0968906 3:-1.4400929 4:0.95999998 
0.048764752131059442563643102630522 1:-1.352048 2:-3.4019608 3:-1.0418096 4:0 
0.048764752131059442563643102630522 1:-5.6841798 2:1.0006173 3:1.1984833 4:0.12 
0.048764752131059442563643102630522 1:0.63396436 2:0.89394808 3:0.82851708 4:0.2 
0.048764752131059442563643102630522 1:-5.6922045 2:1.0006173 3:1.0541304 4:0.12 
-0.048764752131059442563643102630522 1:-0.6241585 2:1.0007634 3:0.16090356 4:0 
-0.048764752131059442563643102630522 1:0.1212215 2:2.1777139 3:1.3183869 4:0.40000001 
0.048764752131059442563643102630522 1:1.6200229 2:-0.30242559 3:-1.6367548 4:0 
0.048764752131059442563643102630522 1:-5.6463432 2:1.0006173 3:1.0849696 4:0.12 
-0.048764752131059442563643102630522 1:-1.0310194 2:1.8745646 3:1.4988806 4:0 
-0.048764752131059442563643102630522 1:-1.6846792 2:2.0717075 3:0.89169377 4:0.40000001 
0.048764752131059442563643102630522 1:-3.7296956 2:-2.9256461 3:-1.5688542 4:0 
0.048764752131059442563643102630522 1:1.3043903 2:-1.0968906 3:-1.8206078 4:0.95999998 
0.048764752131059442563643102630522 1:-1.2542393 2:-3.0234694 3:-0.078456439 4:0 
0.048764752131059442563643102630522 1:-2.456866 2:-2.1378534 3:-1.6782534 4:0 
-0.048764752131059442563643102630522 1:-0.62906963 2:0.45705473 3:0.77578902 4:0 
0.048764752131059442563643102630522 1:-0.66735226 2:-3.4494369 3:-2.9589019 4:0 
0.048764752131059442563643102630522 1:-4.6144662 2:1.7128949 3:0.95498556 4:0 
0.048764752131059442563643102630522 1:-5.4185591 2:1.4395397 3:1.2438586 4:0 
-0.048764752131059442563643102630522 1:-1.9681348 2:2.3021121 3:1.0860733 4:1.6799999 
-0.048764752131059442563643102630522 1:0.64816201 2:0.61342138 3:-0.74826735 4:0 
-0.048764752131059442563643102630522 1:2.0592074 2:-1.9252464 3:1.0202984 4:0 
0.048764752131059442563643102630522 1:1.0205748 2:0.9993065 3:1.0364518 4:0.079999998 
-0.048764752131059442563643102630522 1:-0.39348176 2:-0.30426493 3:0.64370686 4:0 
-0.048764752131059442563643102630522 1:-0.3544566 2:0.99935746 3:-0.89093953 4:0.12 
-0.048764752131059442563643102630522 1:-1.5762806 2:-0.23162153 3:1.0807028 4:0 
0.048764752131059442563643102630522 1:0.35775056 2:0.99952924 3:1.00025 4:0.12 
-0.048764752131059442563643102630522 1:0.75531769 2:-0.25259173 3:0.85403013 4:0 
0.048764752131059442563643102630522 1:2.0410242 2:-0.30805936 3:-1.253129 4:0.12 
0.048764752131059442563643102630522 1:1.3663658 2:-1.0968906 3:-1.1016277 4:0.95999998 
0.048764752131059442563643102630522 1:0.43365744 2:1 3:1.0009456 4:0.16 
-0.048764752131059442563643102630522 1:0.94448882 2:-0.45558009 3:-0.28465885 4:0.079999998 
0.048764752131059442563643102630522 1:-4.0055671 2:1.5294316 3:1.2128834 4:0 
0.048764752131059442563643102630522 1:0.93364483 2:1.0008363 3:0.91913462 4:0.2 
-0.048764752131059442563643102630522 1:-0.37134826 2:-0.21739066 3:0.60998642 4:0 
0.048764752131059442563643102630522 1:-5.5511675 2:1.2080812 3:1.0867311 4:0.16 
-0.048764752131059442563643102630522 1:0.28639603 2:-0.54301649 3:1.293784 4:0 
0.048764752131059442563643102630522 1:2.0448453 2:-0.15916719 3:-1.4382529 4:0.16 
-0.048764752131059442563643102630522 1:-0.82600856 2:-0.027554618 3:0.74048096 4:0 
0.048764752131059442563643102630522 1:-4.0091009 2:1.8686241 3:1.1670244 4:0 
-0.048764752131059442563643102630522 1:-1.8828883 2:0.75431746 3:0.44910875 4:0 
0.048764752131059442563643102630522 1:-0.058786042 2:-0.74179929 3:-0.019137904 4:0.63999999 
0.048764752131059442563643102630522 1:-0.085135147 2:0.99953312 3:0.88464069 4:0.40000001 
-0.048764752131059442563643102630522 1:-0.51780379 2:-0.86403781 3:1.1434981 4:0 
-0.048764752131059442563643102630522 1:0.17345297 2:-0.23689163 3:0.42288652 4:0 
0.048764752131059442563643102630522 1:0.815736 2:0.84663022 3:1.0259945 4:0.2 
0.048764752131059442563643102630522 1:1.0410107 2:0.99949366 3:0.88626862 4:0.12 
0.048764752131059442563643102630522 1:1.1215669 2:1.0003525 3:1.0000653 4:0.12 
-0.048764752131059442563643102630522 1:-0.94478136 2:2.1222565 3:0.81674546 4:0.40000001 
-0.048764752131059442563643102630522 1:-1.4146966 2:2.0504062 3:0.74889857 4:0 
-0.048764752131059442563643102630522 1:-1.2722626 2:2.0504062 3:0.50708497 4:0 
0.048764752131059442563643102630522 1:-3.5681939 2:-2.1931047 3:-1.8620472 4:0 
0.048764752131059442563643102630522 1:-3.3595629 2:-2.6345096 3:-0.77478045 4:0 
0.048764752131059442563643102630522 1:-4.882895 2:-1.5320626 3:-2.3154256 4:0 
0.048764752131059442563643102630522 1:-0.31947291 2:1.5836499 3:1.3223045 4:0 
-0.048764752131059442563643102630522 1:-0.37376755 2:1.0000483 3:0.010551668 4:0.2 
-0.048764752131059442563643102630522 1:0.23606078 2:0.99950337 3:0.79351753 4:0 
0.048764752131059442563643102630522 1:-1.4838723 2:-0.81296974 3:-0.95895433 4:0.80000001 
-0.048764752131059442563643102630522 1:2.0603685 2:0.99921751 3:1.1954558 4:0 
-0.048764752131059442563643102630522 1:2.1285079 2:1.0006797 3:0.55125523 4:0.12 
0.048764752131059442563643102630522 1:-5.6426954 2:-2.1421897 3:-0.081989571 4:0 
0.048764752131059442563643102630522 1:1.0004327 2:1.0833693 3:0.68788439 4:0 
0.048764752131059442563643102630522 1:-4.9450798 2:-1.5320626 3:-2.4325454 4:0 
0.048764752131059442563643102630522 1:1.6027213 2:-0.62671876 3:1.1124681 4:0.23999999 
0.048764752131059442563643102630522 1:-5.844841 2:-1.0976005 3:-0.98522717 4:0 
-0.048764752131059442563643102630522 1:1.9242008 2:1 3:1.3121669 4:0.40000001 
-0.048764752131059442563643102630522 1:1.9099498 2:0.99952924 3:1.1025496 4:0.16 
0.048764752131059442563643102630522 1:-2.7519102 2:1.0004163 3:0.45562586 4:1 
-0.048764752131059442563643102630522 1:0.3932496 2:0.63738006 3:0.92639625 4:0 
-0.048764752131059442563643102630522 1:1.9686408 2:0.99974507 3:1.2995468 4:0 
0.048764752131059442563643102630522 1:-4.8399501 2:-1.5320626 3:-2.1619923 4:0 
0.048764752131059442563643102630522 1:1.5029483 2:-0.62671876 3:1.1650441 4:0.23999999 
-0.048764752131059442563643102630522 1:1.9489574 2:0.99952298 3:1.2297997 4:0.12 
0.048764752131059442563643102630522 1:1.2869462 2:-0.65058017 3:1.2121975 4:0.23999999 
0.048764752131059442563643102630522 1:-5.6749725 2:-0.18645808 3:-1.4929452 4:0.12 
0.048764752131059442563643102630522 1:1.0751843 2:0.99909282 3:0.93201536 4:0 
-0.048764752131059442563643102630522 1:0.58378857 2:0.2399981 3:0.95414281 4:0 
0.048764752131059442563643102630522 1:-5.4498639 2:-0.25042439 3:-1.1133558 4:0.23999999 
-0.048764752131059442563643102630522 1:1.858952 2:1.0005341 3:1.3115385 4:0 
-0.048764752131059442563643102630522 1:1.89417 2:1.0008729 3:1.1240028 4:0.12 
0.048764752131059442563643102630522 1:1.3094575 2:-0.65058017 3:1.0636088 4:0.23999999 
0.048764752131059442563643102630522 1:-5.4787178 2:-0.25042439 3:-1.4807533 4:0.23999999 
0.048764752131059442563643102630522 1:-5.4579039 2:-0.25042439 3:-1.4807533 4:0.23999999 
0.048764752131059442563643102630522 1:1.1546446 2:-0.62827694 3:1.090789 4:0 
-0.048764752131059442563643102630522 1:1.6426378 2:1.0004989 3:1.5114861 4:0.12 
0.048764752131059442563643102630522 1:-4.3282518 2:-1.8132303 3:-0.54831266 4:0 
0.048764752131059442563643102630522 1:0.68176502 2:1.0004592 3:1.0189579 4:0.12 
0.048764752131059442563643102630522 1:1.875432 2:-0.15818135 3:-1.4365019 4:0.079999998 
-0.048764752131059442563643102630522 1:1.8593245 2:1.0003932 3:1.2101483 4:0.079999998 
0.048764752131059442563643102630522 1:-3.7944133 2:-3.3336065 3:1.3197834 4:0 
0.048764752131059442563643102630522 1:-4.3713841 2:-1.856411 3:1.0242416 4:0 
-0.048764752131059442563643102630522 1:1.8985592 2:0.53308034 3:-0.37038401 4:0 
0.048764752131059442563643102630522 1:1.7707989 2:-0.16983274 3:-1.111985 4:0.12 
-0.048764752131059442563643102630522 1:1.4358979 2:1.6862196 3:-0.86237335 4:0.28 
-0.048764752131059442563643102630522 1:1.8037961 2:1.0008729 3:1.232904 4:0.12 
0.048764752131059442563643102630522 1:1.7361516 2:-0.17915708 3:-1.4930032 4:0.079999998 
0.048764752131059442563643102630522 1:0.54529643 2:1.0055053 3:1.1305667 4:0.16 
-0.048764752131059442563643102630522 1:0.90204054 2:1.7690891 3:-0.16400965 4:0 
0.048764752131059442563643102630522 1:0.93436974 2:0.99934077 3:-3.2960458 4:0.12 
0.048764752131059442563643102630522 1:-4.0135875 2:-1.3575871 3:-0.12898554 4:0 
0.048764752131059442563643102630522 1:-3.1570015 2:-1.7741076 3:0.17444995 4:0 
0.048764752131059442563643102630522 1:-2.740375 2:-2.0124989 3:-0.36246207 4:0 
-0.048764752131059442563643102630522 1:1.8124925 2:1.0007248 3:1.1805505 4:0.16 
0.048764752131059442563643102630522 1:1.1366901 2:-0.62827694 3:1.124871 4:0 
-0.048764752131059442563643102630522 1:1.8500977 2:1 3:1.2076988 4:0 
0.048764752131059442563643102630522 1:1.8699116 2:0.18662091 3:-0.46765563 4:0.079999998 
0.048764752131059442563643102630522 1:-5.4533029 2:-0.25042439 3:-1.0632513 4:0.23999999 
0.048764752131059442563643102630522 1:-5.3752732 2:-0.25042439 3:-1.1397856 4:0.23999999 
-0.048764752131059442563643102630522 1:0.41055676 2:0.99974507 3:0.66400486 4:0 
-0.048764752131059442563643102630522 1:0.49334332 2:-0.94698495 3:0.53333586 4:0 
0.048764752131059442563643102630522 1:1.7416713 2:-0.30805936 3:-1.4059339 4:0.12 
-0.048764752131059442563643102630522 1:-0.079294533 2:2.1507049 3:1.069057 4:0.40000001 
-0.048764752131059442563643102630522 1:1.1680254 2:1.4784718 3:0.85294563 4:0.31999999 
-0.048764752131059442563643102630522 1:0.78039873 2:1.6131527 3:1.0028862 4:0.23999999 
-0.048764752131059442563643102630522 1:0.2463937 2:0.99922895 3:0.76483268 4:0 
0.048764752131059442563643102630522 1:1.7569691 2:-0.62827694 3:1.2660478 4:0 
0.048764752131059442563643102630522 1:0.030661279 2:1.0948178 3:0.77047724 4:0.36000001 
0.048764752131059442563643102630522 1:-2.6277237 2:-2.0124989 3:-0.32194692 4:0 
0.048764752131059442563643102630522 1:-2.4191298 2:-1.3729734 3:-2.0672987 4:0 
-0.048764752131059442563643102630522 1:0.26859239 2:1.0005341 3:0.75105387 4:0 
0.048764752131059442563643102630522 1:1.7688084 2:-0.62827694 3:1.2863398 4:0 
-0.048764752131059442563643102630522 1:1.7316359 2:0.99935746 3:1.1044642 4:0.16 
0.048764752131059442563643102630522 1:-5.3735027 2:-0.25042439 3:-1.1397856 4:0.23999999 
0.048764752131059442563643102630522 1:-5.422327 2:-0.25042439 3:-0.82070947 4:0.23999999 
0.048764752131059442563643102630522 1:-3.8703849 2:-1.0976005 3:-0.61686313 4:0 
-0.048764752131059442563643102630522 1:0.47378093 2:1.7414938 3:1.065465 4:0 
-0.048764752131059442563643102630522 1:-0.76128525 2:2.1777139 3:0.8981356 4:0.40000001 
-0.048764752131059442563643102630522 1:0.5603109 2:1.6404961 3:0.92237353 4:0.28 
0.048764752131059442563643102630522 1:-3.7375896 2:-1.856411 3:1.1270583 4:0 
0.048764752131059442563643102630522 1:-1.9172271 2:-1.6992182 3:-1.5470231 4:1.12 
-0.048764752131059442563643102630522 1:0.52742207 2:0.45705473 3:0.99948841 4:0 
-0.048764752131059442563643102630522 1:-0.46752903 2:-0.38450032 3:0.75327432 4:0 
-0.048764752131059442563643102630522 1:1.6640964 2:1.0009552 3:1.2757359 4:0.12 
-0.048764752131059442563643102630522 1:1.643654 2:0.99935746 3:1.235273 4:0.16 
0.048764752131059442563643102630522 1:-2.1354742 2:-0.97345829 3:-2.4691234 4:0 
-0.048764752131059442563643102630522 1:0.39820245 2:1 3:0.71462059 4:0 
0.048764752131059442563643102630522 1:1.083408 2:-0.91659778 3:0.89509416 4:0.36000001 
-0.048764752131059442563643102630522 1:1.6138195 2:0.99921751 3:1.2309638 4:0.16 
0.048764752131059442563643102630522 1:-5.3742251 2:-0.25042439 3:-0.57160729 4:0.23999999 
-0.048764752131059442563643102630522 1:1.3715758 2:-0.11544215 3:-0.0016290917 4:0 
0.048764752131059442563643102630522 1:1.7488163 2:-0.17915708 3:-1.4930032 4:0.079999998 
0.048764752131059442563643102630522 1:0.36303782 2:0.83490318 3:-2.4963477 4:0 
-0.048764752131059442563643102630522 1:-0.65085316 2:-0.021059712 3:0.67454398 4:0 
0.048764752131059442563643102630522 1:0.34530836 2:1.0004722 3:0.99164331 4:0.23999999 
0.048764752131059442563643102630522 1:-3.2901638 2:-1.4580915 3:0.54438406 4:0 
0.048764752131059442563643102630522 1:-2.2818575 2:-1.7551041 3:1.146341 4:0 
0.048764752131059442563643102630522 1:-5.7515588 2:-0.18645808 3:-1.5542406 4:0.12 
-0.048764752131059442563643102630522 1:1.4312556 2:0.99921751 3:1.0002613 4:0.16 
0.048764752131059442563643102630522 1:0.94768381 2:0.99934077 3:-2.6991298 4:0.12 
-0.048764752131059442563643102630522 1:0.77317238 2:1.6879146 3:0.36895838 4:0.23999999 
-0.048764752131059442563643102630522 1:0.68114018 2:1.7690891 3:-0.16487712 4:0 
0.048764752131059442563643102630522 1:0.16447072 2:-0.17908478 3:-1.6270945 4:0 
0.048764752131059442563643102630522 1:1.7938769 2:0.18662091 3:-0.8190574 4:0.079999998 
0.048764752131059442563643102630522 1:1.3917059 2:-0.078095987 3:0.4863584 4:0 
-0.048764752131059442563643102630522 1:1.6809535 2:1 3:1.0633563 4:0.23999999 
0.048764752131059442563643102630522 1:-3.7903404 2:-0.99026322 3:-0.10277078 4:0 
0.048764752131059442563643102630522 1:-3.1804204 2:-1.3329271 3:-0.26313105 4:0 
-0.048764752131059442563643102630522 1:1.4334494 2:1.2449723 3:1.1270583 4:0 
-0.048764752131059442563643102630522 1:1.63553 2:0.99984783 3:1.1690253 4:0.2 
0.048764752131059442563643102630522 1:-3.9792242 2:-0.88183498 3:-0.41834551 4:0 
-0.048764752131059442563643102630522 1:1.7545151 2:1 3:1.0369534 4:0 
0.048764752131059442563643102630522 1:-1.3058048 2:-1.1984917 3:-1.8447549 4:1.24 
0.048764752131059442563643102630522 1:1.6089741 2:0.18662091 3:-0.60402709 4:0.079999998 
-0.048764752131059442563643102630522 1:0.24292158 2:1.9715581 3:-0.022620713 4:0 
-0.048764752131059442563643102630522 1:0.3900719 2:1.7643431 3:0.65303403 4:0 
-0.048764752131059442563643102630522 1:-0.61408675 2:2.1222565 3:-1.3636824 4:0.40000001 
0.048764752131059442563643102630522 1:-1.3769505 2:-1.7157004 3:-1.0134575 4:0 
0.048764752131059442563643102630522 1:-1.0244683 2:-1.7157004 3:-0.93217945 4:0 
0.048764752131059442563643102630522 1:-0.83679938 2:-1.7157004 3:-1.0562063 4:0 
0.048764752131059442563643102630522 1:-2.3013043 2:-1.3714885 3:-1.4892858 4:0 
0.048764752131059442563643102630522 1:-1.333747 2:-0.90498948 3:0.022546582 4:0 
0.048764752131059442563643102630522 1:-0.10959607 2:0.99949533 3:1.1569778 4:0.23999999 
-0.048764752131059442563643102630522 1:2.0780962 2:1.0007248 3:1.2934853 4:0 
-0.048764752131059442563643102630522 1:0.91774637 2:1 3:1.743138 4:0 
-0.048764752131059442563643102630522 1:0.71993446 2:1 3:1.775896 4:0 
0.048764752131059442563643102630522 1:-2.4193077 2:-1.1144109 3:-1.7974305 4:1.16 
-0.048764752131059442563643102630522 1:-1.5946925 2:0.99928552 3:0.10821861 4:0 
0.048764752131059442563643102630522 1:-4.6070967 2:0.33653784 3:1.0848848 4:0.44 
-0.048764752131059442563643102630522 1:1.1733174 2:1.6862196 3:-0.86237335 4:0.28 
-0.048764752131059442563643102630522 1:-0.12183914 2:1.5997161 3:0.65196472 4:0.63999999 
-0.048764752131059442563643102630522 1:0.38543615 2:1.6879146 3:0.25756854 4:0.23999999 
0.048764752131059442563643102630522 1:-2.2090721 2:-1.3714885 3:-0.9791525 4:0 
0.048764752131059442563643102630522 1:-3.1819081 2:-1.0096149 3:-0.41381237 4:0 
0.048764752131059442563643102630522 1:-2.3129969 2:-1.4580915 3:1.0179006 4:0 
-0.048764752131059442563643102630522 1:0.69512063 2:1.1866653 3:-0.055472452 4:0 
0.048764752131059442563643102630522 1:-4.4027109 2:-0.40942201 3:-0.099165261 4:0 
0.048764752131059442563643102630522 1:-3.3119419 2:-0.88139635 3:-0.62155402 4:0 
-0.048764752131059442563643102630522 1:0.16850428 2:0.99950963 3:0.73995614 4:0 
0.048764752131059442563643102630522 1:1.5829886 2:0.18662091 3:-0.60402709 4:0.079999998 
-0.048764752131059442563643102630522 1:0.53366703 2:1.7244767 3:0.52120483 4:0 
0.048764752131059442563643102630522 1:-4.4458594 2:-0.40942201 3:-0.50935084 4:0 
0.048764752131059442563643102630522 1:-2.9539628 2:-1.0895495 3:0.10716096 4:0 
0.048764752131059442563643102630522 1:1.3473943 2:1 3:1.0943475 4:0 
-0.048764752131059442563643102630522 1:0.84858239 2:1.6079804 3:-0.30539048 4:0 
-0.048764752131059442563643102630522 1:0.83842778 2:1.5412339 3:-0.76032805 4:0 
-0.048764752131059442563643102630522 1:1.7068379 2:0.99984783 3:1.1026211 4:0 
0.048764752131059442563643102630522 1:-2.7334087 2:-1.136669 3:-0.019436656 4:0 
-0.048764752131059442563643102630522 1:-5.1060352 2:-1.2260504 3:0.71837324 4:1.72 
0.048764752131059442563643102630522 1:1.6934642 2:-0.17871918 3:-1.32002 4:0.079999998 
-0.048764752131059442563643102630522 1:1.6503733 2:0.99998766 3:1.0817922 4:0.16 
0.048764752131059442563643102630522 1:-3.099263 2:-0.88139635 3:-0.63563585 4:0 
0.048764752131059442563643102630522 1:-2.501121 2:-0.98810506 3:-1.0381892 4:0 
0.048764752131059442563643102630522 1:-2.5128446 2:-1.1586111 3:-0.23338731 4:0 
-0.048764752131059442563643102630522 1:0.085320994 2:0.76071125 3:1.0650783 4:0 
0.048764752131059442563643102630522 1:1.7266105 2:0.18662091 3:-0.60402709 4:0.079999998 
-0.048764752131059442563643102630522 1:1.562363 2:0.99935746 3:1.235273 4:0.16 
-0.048764752131059442563643102630522 1:1.5650443 2:0.99900168 3:1.2376713 4:0.079999998 
0.048764752131059442563643102630522 1:-2.357748 2:-0.98810506 3:-1.2485954 4:0 
-0.048764752131059442563643102630522 1:0.064086802 2:0.99974507 3:0.83828378 4:0 
0.048764752131059442563643102630522 1:1.7399607 2:0.18662091 3:-0.58835131 4:0.079999998 
-0.048764752131059442563643102630522 1:1.5639576 2:1.0009352 3:1.1782393 4:0.16 
-0.048764752131059442563643102630522 1:1.6106803 2:0.99935746 3:1.0054253 4:0.16 
0.048764752131059442563643102630522 1:-2.6858079 2:-0.90498948 3:-0.16657808 4:0 
0.048764752131059442563643102630522 1:-2.1397114 2:-1.2003381 3:-0.98377824 4:0 
0.048764752131059442563643102630522 1:-1.7940896 2:-1.4956191 3:-0.7025193 4:0 
-0.048764752131059442563643102630522 1:0.31912434 2:0.99974507 3:0.75445497 4:0 
-0.048764752131059442563643102630522 1:-4.8012781 2:0.64411098 3:0.090797208 4:1.24 
-0.048764752131059442563643102630522 1:-0.89617264 2:-0.65069115 3:1.1175978 4:0 
-0.048764752131059442563643102630522 1:1.3926702 2:1.0729747 3:-0.9597733 4:0 
-0.048764752131059442563643102630522 1:1.6301731 2:1.0007186 3:0.051896702 4:0.23999999 
0.048764752131059442563643102630522 1:-2.5171423 2:-1.1452862 3:1.1249774 4:0 
0.048764752131059442563643102630522 1:-2.6624002 2:-1.4422114 3:0.6611684 4:1.3200001 
0.048764752131059442563643102630522 1:-2.2100244 2:-1.1048211 3:0.9162063 4:0 
-0.048764752131059442563643102630522 1:1.2243648 2:0.99917436 3:1.2587556 4:0.56 
-0.048764752131059442563643102630522 1:1.2955439 2:1.0006427 3:0.97448391 4:0.56 
0.048764752131059442563643102630522 1:0.59355956 2:1.0006499 3:1.0762327 4:0 
0.048764752131059442563643102630522 1:-1.3303154 2:-1.4956191 3:-0.67160851 4:0 
-0.048764752131059442563643102630522 1:0.62104106 2:0.22281045 3:1.0003654 4:0 
-0.048764752131059442563643102630522 1:-3.0997775 2:0.62375051 3:-0.91554642 4:1.24 
0.048764752131059442563643102630522 1:1.4517785 2:-0.12507042 3:-0.11316142 4:0 
-0.048764752131059442563643102630522 1:0.79150194 2:-0.95586669 3:1.076636 4:0 
-0.048764752131059442563643102630522 1:0.66746992 2:-0.90817654 3:1.0946537 4:0 
-0.048764752131059442563643102630522 1:0.82835716 2:0.90120625 3:0.82381278 4:0 
0.048764752131059442563643102630522 1:0.67620462 2:1.0000485 3:0.81322044 4:0.2 
0.048764752131059442563643102630522 1:-2.9333313 2:0.071921408 3:-1.2521731 4:0 
0.048764752131059442563643102630522 1:-2.4383893 2:0.071921408 3:-0.52956361 4:0 
0.048764752131059442563643102630522 1:-1.6933593 2:-0.69786906 3:0.55920732 4:0 
0.048764752131059442563643102630522 1:0.62734854 2:-0.39132407 3:-1.5450263 4:0 
-0.048764752131059442563643102630522 1:-2.0130248 2:0.73696232 3:1.815117 4:0.88 
-0.048764752131059442563643102630522 1:-0.88172776 2:0.42342347 3:2.1344275 4:0 
-0.048764752131059442563643102630522 1:0.34854212 2:1.3283391 3:1.4989564 4:0.51999998 
-0.048764752131059442563643102630522 1:-0.54901546 2:1.3373038 3:1.3848649 4:0 
0.048764752131059442563643102630522 1:-0.21036962 2:-0.30242559 3:-2.8059995 4:0 
0.048764752131059442563643102630522 1:0.78007197 2:-0.17343307 3:-2.3058903 4:0.12 
0.048764752131059442563643102630522 1:-0.75944424 2:-0.38770315 3:-2.2790997 4:0.75999999 
-0.048764752131059442563643102630522 1:-0.054853134 2:-0.075294159 3:1.1111306 4:0 
0.048764752131059442563643102630522 1:-1.7866459 2:-1.0291309 3:1.0231597 4:0 
0.048764752131059442563643102630522 1:-2.2463284 2:-0.88540536 3:0.67251903 4:0 
-0.048764752131059442563643102630522 1:-2.0919828 2:0.58393228 3:2.3729098 4:0 
-0.048764752131059442563643102630522 1:-1.7727602 2:-0.307899 3:2.143219 4:0 
0.048764752131059442563643102630522 1:0.51715434 2:0.83490318 3:-2.5323887 4:0 
0.048764752131059442563643102630522 1:-0.089301795 2:0.83490318 3:-2.5786183 4:0 
0.048764752131059442563643102630522 1:0.33387741 2:0.83490318 3:-2.4020629 4:0 
-0.048764752131059442563643102630522 1:1.5129956 2:1 3:1.2076988 4:0.12 
-0.048764752131059442563643102630522 1:-0.18424615 2:-1.5751712 3:0.64733231 4:0.40000001 
-0.048764752131059442563643102630522 1:0.1038961 2:-0.25349936 3:0.71733356 4:0 
0.048764752131059442563643102630522 1:-2.6109116 2:-1.2746462 3:0.46387741 4:1.24 
-0.048764752131059442563643102630522 1:-0.15660191 2:0.43077368 3:-0.18292157 4:0 
-0.048764752131059442563643102630522 1:-3.9459019 2:1.4312423 3:0.71795958 4:0 
0.048764752131059442563643102630522 1:0.50815606 2:-0.30805936 3:-1.9560045 4:0.12 
0.048764752131059442563643102630522 1:0.77186793 2:-0.17343307 3:-1.9298381 4:0.12 
0.048764752131059442563643102630522 1:0.41701853 2:-0.30805936 3:-1.9560045 4:0.12 
0.048764752131059442563643102630522 1:0.84455478 2:0.99902892 3:0.60866362 4:0.16 
0.048764752131059442563643102630522 1:0.96422476 2:0.99900168 3:1.0135714 4:0 
0.048764752131059442563643102630522 1:-6.4428434 2:-1.7528257 3:0.51809007 4:0 
0.048764752131059442563643102630522 1:-5.6849627 2:-0.18645808 3:-1.4782016 4:0.12 
0.048764752131059442563643102630522 1:1.5557679 2:-0.16983274 3:-1.5019203 4:0.12 
-0.048764752131059442563643102630522 1:0.8178615 2:-0.64752626 3:0.39012542 4:0 
0.048764752131059442563643102630522 1:1.5822833 2:-0.30805936 3:-1.4145443 4:0.12 
-0.048764752131059442563643102630522 1:2.6492395 2:0.99922895 3:1.2969369 4:0.16 
0.048764752131059442563643102630522 1:-0.064931989 2:0.59522873 3:-1.488561 4:0 
-0.048764752131059442563643102630522 1:-3.227108 2:0.90577877 3:0.90359569 4:1.28 
-0.048764752131059442563643102630522 1:-3.7371054 2:-0.039821155 3:-0.022192797 4:1.24 
0.048764752131059442563643102630522 1:1.6078317 2:-0.17908478 3:-1.3056056 4:0 
0.048764752131059442563643102630522 1:1.4340568 2:-0.17908478 3:-1.4382519 4:0 
0.048764752131059442563643102630522 1:0.90866911 2:-1.0257463 3:-0.071420744 4:0 
0.048764752131059442563643102630522 1:0.067336842 2:0.93247741 3:-2.0141766 4:0 
0.048764752131059442563643102630522 1:-3.3528507 2:-0.45113525 3:-0.31124455 4:1.36 
0.048764752131059442563643102630522 1:-3.3962643 2:-0.45113525 3:-0.93495971 4:1.36 
0.048764752131059442563643102630522 1:-2.9746258 2:-0.32631212 3:-0.13122419 4:0 
0.048764752131059442563643102630522 1:1.1530353 2:0.99952298 3:0.7395606 4:0.2 
0.048764752131059442563643102630522 1:1.6057584 2:-0.15916719 3:-1.4575816 4:0.16 
0.048764752131059442563643102630522 1:0.70322061 2:1.0004914 3:0.9429028 4:0.2 
-0.048764752131059442563643102630522 1:-1.8176882 2:0.99998087 3:1.0947137 4:1.3200001 
0.048764752131059442563643102630522 1:0.70977896 2:-0.62827694 3:1.067946 4:0 
0.048764752131059442563643102630522 1:0.10978332 2:-0.84841108 3:1.2099667 4:0 
0.048764752131059442563643102630522 1:0.41248059 2:-0.65058017 3:1.0800618 4:0 
-0.048764752131059442563643102630522 1:0.49826708 2:-0.64752626 3:0.44434372 4:0 
-0.048764752131059442563643102630522 1:0.20770156 2:1.0015382 3:-0.70450938 4:0.16 
-0.048764752131059442563643102630522 1:0.93386006 2:0.99903727 3:-1.3662798 4:0.12 
0.048764752131059442563643102630522 1:-2.9263055 2:-0.5279578 3:-0.37007678 4:1.4 
0.048764752131059442563643102630522 1:-2.2051983 2:0.091784172 3:-1.3739549 4:0.83999997 
0.048764752131059442563643102630522 1:-2.5266011 2:-0.33855736 3:-0.95776671 4:0.92000002 
0.048764752131059442563643102630522 1:-0.50353587 2:-0.1607518 3:-0.64529818 4:0 
0.048764752131059442563643102630522 1:0.70648593 2:0.999089 3:1.0226294 4:0.12 
0.048764752131059442563643102630522 1:0.47243622 2:0.99950337 3:0.86189789 4:0.2 
-0.048764752131059442563643102630522 1:-0.93039292 2:0.12524228 3:0.7298038 4:0 
0.048764752131059442563643102630522 1:0.31386784 2:-1.13945 3:-1.1225605 4:0 
-0.048764752131059442563643102630522 1:2.3272109 2:-0.57863683 3:1.2573524 4:0.079999998 
-0.048764752131059442563643102630522 1:-0.022000676 2:-1.4388134 3:1.2375827 4:0 
0.048764752131059442563643102630522 1:-3.6180463 2:2.3859241 3:0.67648244 4:0 
-0.048764752131059442563643102630522 1:-1.2631809 2:-0.25935477 3:1.1274337 4:0 
-0.048764752131059442563643102630522 1:-0.053708311 2:-1.0332285 3:1.0970597 4:0 
0.048764752131059442563643102630522 1:-0.55592448 2:-1.7157004 3:-0.39573759 4:0 
0.048764752131059442563643102630522 1:-0.22892638 2:-1.413568 3:1.0638582 4:0.60000002 
0.048764752131059442563643102630522 1:-0.87347353 2:-1.7157004 3:-0.38573593 4:0 
-0.048764752131059442563643102630522 1:-0.73437756 2:1.0009352 3:0.54714489 4:0 
-0.048764752131059442563643102630522 1:0.19283146 2:-0.65961528 3:1.0737675 4:0 
0.048764752131059442563643102630522 1:-0.59855086 2:0.93247741 3:-2.4130247 4:0 
0.048764752131059442563643102630522 1:-0.65430123 2:0.83490318 3:-2.4380097 4:0 
-0.048764752131059442563643102630522 1:-1.6460217 2:1.6170057 3:0.93452692 4:0 
-0.048764752131059442563643102630522 1:-1.0596637 2:1.6485187 3:0.60831821 4:0.88 
-0.048764752131059442563643102630522 1:-0.19006008 2:1.6879146 3:0.99031603 4:0.23999999 
-0.048764752131059442563643102630522 1:-1.502975 2:1.6644871 3:0.49524465 4:0 
0.048764752131059442563643102630522 1:-0.92803544 2:-1.7157004 3:-0.3208015 4:0 
0.048764752131059442563643102630522 1:-0.66447526 2:-1.3024318 3:-1.246833 4:0 
0.048764752131059442563643102630522 1:0.83990914 2:-1.6094555 3:0.78345847 4:0.28 
0.048764752131059442563643102630522 1:1.2960812 2:-1.0968906 3:-1.1029675 4:0.95999998 
-0.048764752131059442563643102630522 1:-0.78901315 2:0.99939877 3:0.47881499 4:0 
0.048764752131059442563643102630522 1:-2.6329525 2:0.065868929 3:-0.58824676 4:0 
0.048764752131059442563643102630522 1:-2.465277 2:-0.22619469 3:-0.38469023 4:0 
0.048764752131059442563643102630522 1:-2.4794338 2:-0.54776204 3:-0.15842237 4:0 
0.048764752131059442563643102630522 1:0.35518056 2:0.89904726 3:0.98921794 4:0.2 
-0.048764752131059442563643102630522 1:0.26028177 2:0.40077165 3:-0.13943505 4:0 
0.048764752131059442563643102630522 1:1.3291609 2:-0.17343307 3:-1.8012849 4:0.12 
0.048764752131059442563643102630522 1:1.5058067 2:-0.16555268 3:-1.5383455 4:0.12 
0.048764752131059442563643102630522 1:0.89972001 2:0.99950337 3:0.99999207 4:0.12 
0.048764752131059442563643102630522 1:-2.6176486 2:-0.79687369 3:0.82818991 4:0 
-0.048764752131059442563643102630522 1:-2.3138247 2:0.90367037 3:0.49314138 4:1.48 
-0.048764752131059442563643102630522 1:-2.1910825 2:0.90367037 3:0.49667516 4:1.48 
-0.048764752131059442563643102630522 1:-2.8242378 2:1.0304056 3:0.36926341 4:1.36 
0.048764752131059442563643102630522 1:0.58831573 2:-0.54083461 3:1.0637369 4:0 
0.048764752131059442563643102630522 1:-0.95895934 2:-1.1452862 3:1.2928518 4:0 
-0.048764752131059442563643102630522 1:-0.55608463 2:0.83154976 3:0.56305063 4:0 
0.048764752131059442563643102630522 1:-1.8059602 2:0.024149787 3:-1.005964 4:1 
0.048764752131059442563643102630522 1:-1.9755061 2:-0.19011082 3:-0.70794576 4:1.08 
-0.048764752131059442563643102630522 1:-1.6380856 2:1.5235837 3:0.86581922 4:0 
-0.048764752131059442563643102630522 1:-2.108104 2:1.4560946 3:0.73750383 4:0 
0.048764752131059442563643102630522 1:-2.1592028 2:-1.1984917 3:-1.0389718 4:1.24 
0.048764752131059442563643102630522 1:1.1881624 2:-0.65186673 3:-1.166871 4:0 
0.048764752131059442563643102630522 1:0.072744437 2:1.4253165 3:1.2437963 4:0 
-0.048764752131059442563643102630522 1:-0.16209067 2:0.56935406 3:-0.27733037 4:0 
0.048764752131059442563643102630522 1:1.0952914 2:-0.17343307 3:-1.7893606 4:0.12 
-0.048764752131059442563643102630522 1:-0.32375133 2:-0.75969285 3:1.3055654 4:0 
-0.048764752131059442563643102630522 1:-0.45028368 2:-1.0158687 3:1.0474052 4:0 
-0.048764752131059442563643102630522 1:-1.5895621 2:0.50766051 3:-0.55548322 4:0.68000001 
-0.048764752131059442563643102630522 1:-0.48816949 2:0.2399514 3:1.0877984 4:0 
-0.048764752131059442563643102630522 1:-1.5941528 2:-0.12952206 3:0.89268273 4:1.36 
-0.048764752131059442563643102630522 1:-2.6111524 2:1.000437 3:0.6534757 4:1.3200001 
0.048764752131059442563643102630522 1:0.94260466 2:-0.62827694 3:1.0131598 4:0 
0.048764752131059442563643102630522 1:1.1826411 2:-0.073141001 3:0.078134373 4:0 
0.048764752131059442563643102630522 1:0.75537699 2:-0.65058017 3:0.40889835 4:0 
0.048764752131059442563643102630522 1:0.32266435 2:0.90385771 3:1.1787721 4:0 
-0.048764752131059442563643102630522 1:-0.021229932 2:0.43734899 3:0.63239509 4:0 
0.048764752131059442563643102630522 1:-1.6414956 2:-0.070670992 3:-0.30671835 4:1.28 
0.048764752131059442563643102630522 1:-2.316854 2:-1.3621742 3:1.1922407 4:1.48 
-0.048764752131059442563643102630522 1:1.095468 2:1.2449723 3:1.1996498 4:0 
-0.048764752131059442563643102630522 1:1.5584054 2:0.99911964 3:1.2170192 4:0.12 
-0.048764752131059442563643102630522 1:1.6547652 2:1 3:1.1169335 4:0 
0.048764752131059442563643102630522 1:0.20908362 2:0.99946779 3:0.54241025 4:0.12 
-0.048764752131059442563643102630522 1:-0.31934983 2:-0.085884787 3:0.7406823 4:0.23999999 
0.048764752131059442563643102630522 1:-1.2627523 2:-0.5279578 3:-0.053874914 4:1.4 
-0.048764752131059442563643102630522 1:-0.64105505 2:1.5841388 3:-1.0352483 4:0.12 
-0.048764752131059442563643102630522 1:-1.0241771 2:0.041667327 3:1.9752434 4:0 
-0.048764752131059442563643102630522 1:0.28678468 2:1.0005817 3:1.6099468 4:0.12 
-0.048764752131059442563643102630522 1:0.70705879 2:0.89888746 3:1.6269872 4:0 
-0.048764752131059442563643102630522 1:-0.77601671 2:0.26781496 3:1.7285587 4:0 
0.048764752131059442563643102630522 1:-2.1205587 2:1.3016402 3:-2.6490245 4:0 
0.048764752131059442563643102630522 1:1.0090539 2:0.99934077 3:-2.3974867 4:0.12 
0.048764752131059442563643102630522 1:-0.86068434 2:0.060319252 3:-2.2284892 4:0.47999999 
0.048764752131059442563643102630522 1:1.0804228 2:0.99934077 3:-2.2988286 4:0.12 
-0.048764752131059442563643102630522 1:0.747657 2:-1.00072 3:1.1013861 4:0 
-0.048764752131059442563643102630522 1:-0.31386855 2:-0.99945033 3:0.65883958 4:0.31999999 
0.048764752131059442563643102630522 1:-0.41889876 2:-1.0677853 3:1.2199348 4:0.47999999 
0.048764752131059442563643102630522 1:-0.88320786 2:-0.97572899 3:1.0699308 4:0 
-0.048764752131059442563643102630522 1:1.4498272 2:0.84068358 3:1.5205945 4:0 
-0.048764752131059442563643102630522 1:1.0493221 2:1 3:1.4137554 4:0.12 
-0.048764752131059442563643102630522 1:1.470109 2:0.58159053 3:1.523728 4:0 
-0.048764752131059442563643102630522 1:0.75376695 2:1.0002393 3:1.3723366 4:0.2 
0.048764752131059442563643102630522 1:-0.22498327 2:-0.65186673 3:-1.6486235 4:0 
0.048764752131059442563643102630522 1:0.35970235 2:-0.15818135 3:-1.8777059 4:0.079999998 
0.048764752131059442563643102630522 1:0.58738971 2:-0.17908478 3:-1.9005727 4:0.079999998 
0.048764752131059442563643102630522 1:0.28074625 2:-0.30805936 3:-1.8125683 4:0.12 
-0.048764752131059442563643102630522 1:-0.70354694 2:1.1760691 3:0.021063734 4:0 
0.048764752131059442563643102630522 1:0.46746591 2:0.84663022 3:1.024667 4:0.2 
-0.048764752131059442563643102630522 1:-1.1211833 2:0.23457602 3:0.50078273 4:0 
-0.048764752131059442563643102630522 1:0.1396488 2:-1.0051811 3:1.0759141 4:0 
0.048764752131059442563643102630522 1:0.041980945 2:1.0359294 3:1.1000272 4:0.2 
0.048764752131059442563643102630522 1:-1.239177 2:-0.96878308 3:0.96472901 4:0 
0.048764752131059442563643102630522 1:1.0504909 2:0.99903727 3:0.99987185 4:0 
0.048764752131059442563643102630522 1:-0.90932137 2:-0.9505381 3:1.0484077 4:0 
0.048764752131059442563643102630522 1:-2.1559839 2:-0.99928373 3:0.21485858 4:0 
-0.048764752131059442563643102630522 1:-0.081965238 2:0.16849233 3:-0.49389273 4:0.47999999 
-0.048764752131059442563643102630522 1:0.34479502 2:0.99922895 3:-0.46942696 4:0.079999998 
-0.048764752131059442563643102630522 1:1.3987679 2:0.99974507 3:1.1996498 4:0.28 
-0.048764752131059442563643102630522 1:1.2887048 2:1.0006427 3:0.97448391 4:0.56 
0.048764752131059442563643102630522 1:-2.0946612 2:-0.56810135 3:-1.2584333 4:0 
0.048764752131059442563643102630522 1:-2.2263789 2:-0.93043393 3:-0.50932372 4:0 
0.048764752131059442563643102630522 1:-2.3125751 2:-0.65092975 3:-0.70729715 4:0 
-0.048764752131059442563643102630522 1:1.1895521 2:0.99845058 3:0.46368158 4:0.80000001 
0.048764752131059442563643102630522 1:0.47834113 2:1.0002393 3:1.0002911 4:0.16 
0.048764752131059442563643102630522 1:0.48345602 2:-0.99267143 3:0.87858486 4:0.12 
0.048764752131059442563643102630522 1:-0.96734178 2:-0.70405024 3:1.0234444 4:0 
0.048764752131059442563643102630522 1:0.26580223 2:0.99902892 3:1.133278 4:0.16 
-0.048764752131059442563643102630522 1:-0.44690752 2:-0.075294159 3:0.76485628 4:0 
0.048764752131059442563643102630522 1:1.0548503 2:0.99998766 3:1.0705101 4:0 
-0.048764752131059442563643102630522 1:-0.47311586 2:0.58979732 3:-0.1822015 4:0 
0.048764752131059442563643102630522 1:-2.2741001 2:-0.2888315 3:-0.8072049 4:0 
0.048764752131059442563643102630522 1:-2.2059698 2:-0.22619469 3:-0.41804269 4:0 
0.048764752131059442563643102630522 1:-1.565513 2:-0.1607518 3:-1.4174663 4:0 
0.048764752131059442563643102630522 1:0.64807636 2:0.9991591 3:1.1531396 4:0 
0.048764752131059442563643102630522 1:0.91700512 2:-1.0257463 3:0.0011707376 4:0 
-0.048764752131059442563643102630522 1:-4.2767253 2:1.0002958 3:0.18059523 4:1.28 
0.048764752131059442563643102630522 1:0.24743107 2:0.999089 3:0.99998498 4:0.16 
0.048764752131059442563643102630522 1:-2.1367407 2:-0.6177755 3:-0.46218413 4:0 
0.048764752131059442563643102630522 1:-2.0351081 2:-0.62975717 3:-0.41967246 4:0 
0.048764752131059442563643102630522 1:-1.7531229 2:-0.44075149 3:-0.25962618 4:0 
-0.048764752131059442563643102630522 1:0.59702629 2:0.99985766 3:-1.0451071 4:0 
0.048764752131059442563643102630522 1:1.6959887 2:-0.17915708 3:-1.3310527 4:0.079999998 
-0.048764752131059442563643102630522 1:0.58112407 2:0.69216865 3:-0.28581113 4:0 
0.048764752131059442563643102630522 1:1.5800107 2:-0.27629188 3:-0.87623221 4:0.12 
0.048764752131059442563643102630522 1:-0.74754119 2:-0.99491453 3:0.9152025 4:0 
0.048764752131059442563643102630522 1:0.80979222 2:-0.62671876 3:1.1660055 4:0.23999999 
-0.048764752131059442563643102630522 1:0.23752435 2:-0.065519542 3:-0.054301433 4:0 
-0.048764752131059442563643102630522 1:-1.2184259 2:-1.0051111 3:1.8654786 4:0 
-0.048764752131059442563643102630522 1:-1.2713054 2:-0.99987656 3:1.8242656 4:0 
0.048764752131059442563643102630522 1:0.5412342 2:-0.15916719 3:-1.8949661 4:0.16 
0.048764752131059442563643102630522 1:-0.53738648 2:1.013797 3:-2.0717149 4:0.51999998 
0.048764752131059442563643102630522 1:-0.21809803 2:0.61182779 3:-0.99365121 4:0 
-0.048764752131059442563643102630522 1:0.62589902 2:-1.0149261 3:1.1851875 4:0 
0.048764752131059442563643102630522 1:0.31227514 2:0.9835493 3:1.0690593 4:0 
0.048764752131059442563643102630522 1:-1.4929971 2:-1.1571895 3:1.2337048 4:1.2 
0.048764752131059442563643102630522 1:-0.46731073 2:-1.7468078 3:1.2359489 4:1.04 
-0.048764752131059442563643102630522 1:1.2338289 2:0.99974507 3:1.2890466 4:0.2 
-0.048764752131059442563643102630522 1:1.1145114 2:1.0004914 3:1.301351 4:0.2 
-0.048764752131059442563643102630522 1:1.1465464 2:0.99946636 3:1.3076936 4:0.16 
0.048764752131059442563643102630522 1:-0.14247251 2:-0.65186673 3:-1.4340255 4:0 
0.048764752131059442563643102630522 1:-0.044089574 2:-0.65186673 3:-1.3858483 4:0 
0.048764752131059442563643102630522 1:0.14959705 2:-0.17908478 3:-1.7270479 4:0.079999998 
-0.048764752131059442563643102630522 1:-3.5207875 2:0.37373561 3:-0.91487753 4:1.12 
-0.048764752131059442563643102630522 1:-3.0522685 2:0.62375051 3:-0.91554642 4:1.24 
0.048764752131059442563643102630522 1:0.64968812 2:-0.87289679 3:0.091887839 4:0 
0.048764752131059442563643102630522 1:1.352443 2:0.99903727 3:1.2283558 4:0 
0.048764752131059442563643102630522 1:0.79905325 2:-0.74768656 3:0.90117711 4:0.31999999 
-0.048764752131059442563643102630522 1:-0.82014537 2:0.90766239 3:-0.98971456 4:0.47999999 
0.048764752131059442563643102630522 1:-2.1816766 2:-0.21026482 3:-1.0779117 4:0 
-0.048764752131059442563643102630522 1:-1.3456216 2:0.38246456 3:-0.70385158 4:0.63999999 
-0.048764752131059442563643102630522 1:-1.7042011 2:1.4686047 3:1.1846091 4:0 
-0.048764752131059442563643102630522 1:-0.21539265 2:1.7244767 3:0.71730852 4:0 
-0.048764752131059442563643102630522 1:-0.16783521 2:1.3373038 3:1.2852206 4:0 
-0.048764752131059442563643102630522 1:-0.067809634 2:1.6719729 3:0.75356114 4:0.28 
0.048764752131059442563643102630522 1:-0.14028127 2:-0.82866263 3:-1.1957306 4:0 
0.048764752131059442563643102630522 1:-0.64421582 2:-1.273562 3:-0.50346798 4:0 
0.048764752131059442563643102630522 1:-1.4305964 2:-1.1654599 3:-0.70805693 4:1 
-0.048764752131059442563643102630522 1:-2.598053 2:0.37373561 3:-0.8985588 4:1.12 
-0.048764752131059442563643102630522 1:0.34312797 2:0.58785194 3:0.22534795 4:0 
-0.048764752131059442563643102630522 1:0.35840541 2:-1.0623894 3:1.2923408 4:0 
0.048764752131059442563643102630522 1:-0.58639097 2:-0.69786906 3:0.82904112 4:0 
0.048764752131059442563643102630522 1:-2.0345495 2:-0.66384274 3:0.68724215 4:0 
0.048764752131059442563643102630522 1:-1.0260396 2:-0.84841108 3:0.65246415 4:0 
-0.048764752131059442563643102630522 1:1.7746911 2:-0.30297071 3:1.2390226 4:0 
-0.048764752131059442563643102630522 1:1.7539561 2:0.22637735 3:1.3001832 4:0 
-0.048764752131059442563643102630522 1:1.7810023 2:0.10387534 3:1.2631098 4:0.079999998 
0.048764752131059442563643102630522 1:-1.1106025 2:0.23525169 3:-1.418382 4:0.40000001 
0.048764752131059442563643102630522 1:-1.5473144 2:0.39127904 3:-1.0468016 4:0 
-0.048764752131059442563643102630522 1:0.4256894 2:0.99946636 3:0.62848252 4:0 
0.048764752131059442563643102630522 1:1.5416985 2:0.18662091 3:-0.60402709 4:0.079999998 
0.048764752131059442563643102630522 1:1.5410861 2:0.18662091 3:-0.60402709 4:0.079999998 
0.048764752131059442563643102630522 1:-2.1888292 2:-1.1403701 3:-0.36481488 4:1.16 
0.048764752131059442563643102630522 1:-1.5324389 2:0.024149787 3:-0.63437986 4:1 
-0.048764752131059442563643102630522 1:0.41165823 2:0.40882152 3:-0.25226825 4:0 
0.048764752131059442563643102630522 1:1.0757079 2:1.0005817 3:1.2663407 4:0 
0.048764752131059442563643102630522 1:1.2871416 2:-0.30805936 3:-1.5187703 4:0.12 
-0.048764752131059442563643102630522 1:1.6601944 2:0.99961889 3:0.78166044 4:0.16 
0.048764752131059442563643102630522 1:-2.508245 2:-0.65988588 3:0.3568019 4:1.24 
-0.048764752131059442563643102630522 1:0.63146311 2:-1.0115496 3:1.0748807 4:0 
-0.048764752131059442563643102630522 1:0.66059369 2:-1.001265 3:1.1630231 4:0 
-0.048764752131059442563643102630522 1:-1.9775338 2:-0.22450773 3:1.4285491 4:1.12 
0.048764752131059442563643102630522 1:0.016664909 2:0.93247741 3:-1.9148498 4:0 
0.048764752131059442563643102630522 1:0.079811588 2:0.93247741 3:-1.9499559 4:0 
-0.048764752131059442563643102630522 1:1.8044972 2:0.51869148 3:1.2297997 4:0 
-0.048764752131059442563643102630522 1:1.632521 2:1 3:1.056015 4:0 
0.048764752131059442563643102630522 1:-2.0014229 2:-0.055873584 3:-0.43691799 4:0.95999998 
0.048764752131059442563643102630522 1:-1.73654 2:-1.0827526 3:-0.11183374 4:0 
0.048764752131059442563643102630522 1:1.4810377 2:0.18662091 3:-0.60402709 4:0.079999998 
0.048764752131059442563643102630522 1:0.90694821 2:0.93247741 3:-1.8971775 4:0 
-0.048764752131059442563643102630522 1:1.6985127 2:1 3:0.80032009 4:0 
-0.048764752131059442563643102630522 1:1.5310417 2:1.0739541 3:1.0258977 4:0.039999999 
0.048764752131059442563643102630522 1:-1.1714051 2:-1.1403701 3:-0.23563708 4:1.16 
0.048764752131059442563643102630522 1:-0.9596467 2:-1.4422114 3:0.83944315 4:1.3200001 
0.048764752131059442563643102630522 1:-1.6797961 2:-0.72047949 3:0.44793174 4:0 
-0.048764752131059442563643102630522 1:-0.44643882 2:0.8684997 3:0.63486689 4:0 
-0.048764752131059442563643102630522 1:0.59787327 2:-0.23689163 3:0.67314559 4:0 
-0.048764752131059442563643102630522 1:0.4501802 2:1.0002877 3:0.76877248 4:0.12 
0.048764752131059442563643102630522 1:-1.1885802 2:-0.24183726 3:-0.55169272 4:0 
0.048764752131059442563643102630522 1:0.12336325 2:1.0005817 3:0.65922427 4:0.31999999 
-0.048764752131059442563643102630522 1:-0.84599584 2:0.99946636 3:0.21407607 4:0 
-0.048764752131059442563643102630522 1:-0.35390788 2:0.2333608 3:0.99034429 4:0 
-0.048764752131059442563643102630522 1:-1.8188547 2:0.50766051 3:-0.55548322 4:0.68000001 
0.048764752131059442563643102630522 1:0.72275537 2:1.0055053 3:1.0347413 4:0.16 
0.048764752131059442563643102630522 1:-0.938627 2:-0.96047771 3:1.0541953 4:0 
0.048764752131059442563643102630522 1:-1.5218586 2:-0.69786906 3:0.60250962 4:0 
0.048764752131059442563643102630522 1:-1.1790206 2:-0.84415323 3:0.59321982 4:0 
0.048764752131059442563643102630522 1:0.51585436 2:-0.91659778 3:0.8083514 4:0.36000001 
-0.048764752131059442563643102630522 1:-0.30125299 2:0.99953312 3:0.23318161 4:0 
0.048764752131059442563643102630522 1:0.57297808 2:0.93247741 3:-1.9517936 4:0 
-0.048764752131059442563643102630522 1:1.5784559 2:1.1487794 3:0.11725622 4:0 
-0.048764752131059442563643102630522 1:-2.6885107 2:1.2837933 3:-0.99130082 4:0.92000002 
-0.048764752131059442563643102630522 1:-2.3165636 2:1.3400677 3:-1.4111871 4:0.80000001 
0.048764752131059442563643102630522 1:-0.35565531 2:-0.91659778 3:0.39021063 4:0.36000001 
0.048764752131059442563643102630522 1:0.60548431 2:-0.91659778 3:1.0662363 4:0.36000001 
0.048764752131059442563643102630522 1:0.95781326 2:-0.74768656 3:0.80141801 4:0.31999999 
0.048764752131059442563643102630522 1:0.17627501 2:-0.91659778 3:1.31473 4:0.36000001 
-0.048764752131059442563643102630522 1:-0.49254724 2:0.2333608 3:0.61407059 4:0 
-0.048764752131059442563643102630522 1:0.47935799 2:-0.13078789 3:-0.11449168 4:0 
-0.048764752131059442563643102630522 1:-0.060470864 2:-0.060753524 3:0.086246394 4:0 
0.048764752131059442563643102630522 1:-1.342024 2:-0.055873584 3:-0.48639897 4:0.95999998 
0.048764752131059442563643102630522 1:-1.1212867 2:-0.12573776 3:-0.74966562 4:1 
0.048764752131059442563643102630522 1:-1.3229486 2:-0.24183726 3:-0.56447452 4:0 
-0.048764752131059442563643102630522 1:-2.7822917 2:1.3007246 3:1.183197 4:0 
-0.048764752131059442563643102630522 1:-1.3416036 2:1.4950697 3:0.59779721 4:0.83999997 
-0.048764752131059442563643102630522 1:-2.7298968 2:1.2378438 3:0.1494538 4:1.16 
0.048764752131059442563643102630522 1:0.039124683 2:-1.1459041 3:-0.37400407 4:0 
0.048764752131059442563643102630522 1:1.063935 2:-0.72066242 3:-0.53655946 4:0 
0.048764752131059442563643102630522 1:0.42208165 2:-1.0257463 3:-0.12999001 4:0 
0.048764752131059442563643102630522 1:1.0287647 2:-0.65186673 3:-0.9903965 4:0 
-0.048764752131059442563643102630522 1:-0.035538998 2:0.22669072 3:0.98873591 4:0 
-0.048764752131059442563643102630522 1:-1.3610849 2:0.99960589 3:-0.63282943 4:0.51999998 
0.048764752131059442563643102630522 1:0.98091644 2:-0.17343307 3:-1.7893606 4:0.12 
-0.048764752131059442563643102630522 1:-0.093225747 2:0.99950963 3:0.49934116 4:0.16 
0.048764752131059442563643102630522 1:0.73528421 2:0.99981797 3:1.0703143 4:0 
0.048764752131059442563643102630522 1:-0.39617974 2:-0.30769351 3:-0.27694255 4:1.16 
-0.048764752131059442563643102630522 1:-0.5299738 2:-0.14742696 3:0.80175042 4:0 
-0.048764752131059442563643102630522 1:-1.2962759 2:2.0079708 3:-0.92618591 4:0 
0.048764752131059442563643102630522 1:0.8101368 2:1.000245 3:0.99927592 4:0.16 
-0.048764752131059442563643102630522 1:-0.55145359 2:1.6404961 3:-1.7607733 4:0.28 
0.048764752131059442563643102630522 1:-0.65624171 2:-1.13945 3:-0.096086629 4:0 
0.048764752131059442563643102630522 1:-0.94826937 2:-1.0990826 3:-0.4559103 4:0 
0.048764752131059442563643102630522 1:-0.80726326 2:-1.0990826 3:-0.41904512 4:0 
-0.048764752131059442563643102630522 1:0.3253037 2:1 3:-0.76922578 4:0 
-0.048764752131059442563643102630522 1:0.0090442616 2:1 3:-0.7672196 4:0.12 
0.048764752131059442563643102630522 1:0.92500842 2:0.93247741 3:-1.8952368 4:0 
0.048764752131059442563643102630522 1:0.21817154 2:0.66238785 3:-1.8989185 4:0.47999999 
0.048764752131059442563643102630522 1:0.19674776 2:0.39300328 3:-1.3806943 4:0 
-0.048764752131059442563643102630522 1:0.0107606 2:0.0051591853 3:0.37981561 4:0 
-0.048764752131059442563643102630522 1:-1.6508205 2:0.98338628 3:-0.0073631974 4:0 
0.048764752131059442563643102630522 1:0.74862677 2:1.0004914 3:0.92090815 4:0.2 
0.048764752131059442563643102630522 1:1.2516416 2:1.0003525 3:0.92266405 4:0.12 
0.048764752131059442563643102630522 1:0.2188205 2:-1.0677853 3:1.1158447 4:0.47999999 
0.048764752131059442563643102630522 1:-0.20528792 2:-0.93970031 3:0.97518033 4:0.40000001 
0.048764752131059442563643102630522 1:-0.1803377 2:-0.99267143 3:0.39405286 4:0.12 
-0.048764752131059442563643102630522 1:-0.082704693 2:1 3:-0.40512612 4:0 
-0.048764752131059442563643102630522 1:-0.032316737 2:0.99949533 3:-0.84805423 4:0.23999999 
-0.048764752131059442563643102630522 1:-0.31066069 2:0.90099907 3:-0.086311467 4:0 
-0.048764752131059442563643102630522 1:0.069192596 2:-1.0578966 3:0.99685591 4:0 
0.048764752131059442563643102630522 1:-0.33894384 2:0.59465212 3:-1.1875504 4:0.2 
0.048764752131059442563643102630522 1:-0.17312327 2:0.99953312 3:0.74405771 4:0.40000001 
-0.048764752131059442563643102630522 1:0.055361029 2:0.95989615 3:0.80899334 4:0 
0.048764752131059442563643102630522 1:0.65167493 2:-0.93970031 3:1.1805505 4:0.40000001 
0.048764752131059442563643102630522 1:0.63493246 2:-0.74768656 3:0.92138869 4:0.31999999 
-0.048764752131059442563643102630522 1:2.2303417 2:0.99921751 3:1.2684058 4:0 
-0.048764752131059442563643102630522 1:1.9415052 2:0.23022567 3:1.2701256 4:0 
-0.048764752131059442563643102630522 1:1.703104 2:0.31008154 3:1.2631098 4:0.12 
-0.048764752131059442563643102630522 1:1.8072488 2:0.13033593 3:1.1238033 4:0.12 
0.048764752131059442563643102630522 1:-1.0988986 2:-0.7766223 3:-1.0720874 4:0 
0.048764752131059442563643102630522 1:-1.0265847 2:-0.7766223 3:-1.1251647 4:0 
0.048764752131059442563643102630522 1:-1.0218477 2:-0.78514826 3:-1.0882609 4:0 
-0.048764752131059442563643102630522 1:1.2086555 2:1.0545841 3:-0.33217448 4:0.36000001 
-0.048764752131059442563643102630522 1:0.94949496 2:0.99909282 3:-1.2600139 4:0.44 
-0.048764752131059442563643102630522 1:1.1596614 2:0.99909282 3:-0.79580241 4:0.31999999 
0.048764752131059442563643102630522 1:-1.3259019 2:-0.65398818 3:-0.52690792 4:0 
0.048764752131059442563643102630522 1:-1.337023 2:-0.37783009 3:-0.12036444 4:0 
0.048764752131059442563643102630522 1:-0.79357773 2:-0.63960755 3:0.66298008 4:0 
0.048764752131059442563643102630522 1:-1.3067915 2:-0.43592426 3:-0.55033731 4:0 
0.048764752131059442563643102630522 1:1.7202573 2:-0.16782793 3:-1.3391533 4:0.079999998 
0.048764752131059442563643102630522 1:1.6946758 2:-0.16983274 3:-1.3049525 4:0.12 
-0.048764752131059442563643102630522 1:1.2667854 2:1.0729747 3:-0.9597733 4:0 
-0.048764752131059442563643102630522 1:1.1040673 2:0.99909282 3:-0.80488253 4:0.31999999 
-0.048764752131059442563643102630522 1:1.3896255 2:0.99466246 3:-0.7173906 4:0 
-0.048764752131059442563643102630522 1:0.89028919 2:1.2358155 3:-0.9524073 4:0.2 
0.048764752131059442563643102630522 1:-1.4423839 2:-0.45778725 3:-0.10547484 4:0 
0.048764752131059442563643102630522 1:-1.4227407 2:-0.09615764 3:-0.19389996 4:0 
0.048764752131059442563643102630522 1:-0.73081976 2:-0.91659778 3:0.30229348 4:0.36000001 
-0.048764752131059442563643102630522 1:0.24009769 2:-0.29214454 3:0.99908537 4:0 
-0.048764752131059442563643102630522 1:0.94439709 2:-0.36371601 3:0.6073004 4:0 
0.048764752131059442563643102630522 1:2.0012352 2:0.18662091 3:-0.48349941 4:0.079999998 
-0.048764752131059442563643102630522 1:1.1285059 2:1.0004284 3:-1.2929996 4:0.12 
-0.048764752131059442563643102630522 1:1.2607368 2:0.95369023 3:-1.3651381 4:0 
-0.048764752131059442563643102630522 1:1.1637768 2:1.0004474 3:-0.9096508 4:0.12 
-0.048764752131059442563643102630522 1:1.1162753 2:0.99909282 3:-0.80488253 4:0.2 
0.048764752131059442563643102630522 1:-0.44532365 2:-1.0257463 3:-0.44402412 4:0 
0.048764752131059442563643102630522 1:-0.33833718 2:-1.0990826 3:-0.35255796 4:0 
0.048764752131059442563643102630522 1:-0.98382097 2:-0.36390746 3:0.19722591 4:0 
-0.048764752131059442563643102630522 1:-1.1792217 2:0.99960589 3:-0.63282943 4:0.51999998 
0.048764752131059442563643102630522 1:1.5936029 2:-0.17908478 3:-1.3056056 4:0.079999998 
0.048764752131059442563643102630522 1:1.5395749 2:-0.15916719 3:-1.314683 4:0.16 
-0.048764752131059442563643102630522 1:1.5258032 2:0.99960148 3:1.1297371 4:0.12 
-0.048764752131059442563643102630522 1:1.5065981 2:0.99935746 3:1.0422932 4:0.16 
-0.048764752131059442563643102630522 1:1.4832689 2:1.0009552 3:1.124231 4:0.12 
-0.048764752131059442563643102630522 1:1.5762872 2:1 3:1.1169335 4:0 
-0.048764752131059442563643102630522 1:1.4495683 2:1.0006443 3:1.2507294 4:0.12 
0.048764752131059442563643102630522 1:-0.75562727 2:-0.62728494 3:-1.0609596 4:0 
0.048764752131059442563643102630522 1:-0.64069641 2:-0.70291102 3:-0.55442041 4:0 
0.048764752131059442563643102630522 1:-0.96067899 2:-0.28337422 3:-0.54955029 4:0 
0.048764752131059442563643102630522 1:-0.76897264 2:-0.45608494 3:-0.75474209 4:0 
0.048764752131059442563643102630522 1:-0.55601227 2:-0.46132791 3:-1.22904 4:0 
-0.048764752131059442563643102630522 1:-0.62893784 2:0.23756152 3:0.96155423 4:0 
0.048764752131059442563643102630522 1:0.59464389 2:-0.65186673 3:-1.0228117 4:0 
-0.048764752131059442563643102630522 1:-0.2031066 2:-0.58080041 3:1.2938184 4:0 
0.048764752131059442563643102630522 1:1.1096166 2:1 3:1.1845648 4:0 
0.048764752131059442563643102630522 1:0.97028089 2:-0.13454196 3:0.38720417 4:0.079999998 
-0.048764752131059442563643102630522 1:1.4487691 2:0.99984783 3:1.2237689 4:0.12 
-0.048764752131059442563643102630522 1:1.45425 2:1.000245 3:1.2126036 4:0.12 
-0.048764752131059442563643102630522 1:1.4517235 2:0.99928552 3:1.2351377 4:0.079999998 
-0.048764752131059442563643102630522 1:1.3664742 2:0.9991591 3:1.2170712 4:0.16 
0.048764752131059442563643102630522 1:0.25626266 2:-0.15916719 3:-1.5863336 4:0.16 
0.048764752131059442563643102630522 1:0.25303763 2:-0.17343307 3:-1.5234596 4:0.12 
0.048764752131059442563643102630522 1:-0.46719572 2:-0.29760271 3:-1.3266462 4:0.40000001 
0.048764752131059442563643102630522 1:0.28841445 2:-0.27629188 3:-1.4769181 4:0.12 
0.048764752131059442563643102630522 1:-0.19665624 2:1.535332 3:1.1590811 4:0 
0.048764752131059442563643102630522 1:1.2661357 2:-0.094097488 3:0.073352292 4:0 
-0.048764752131059442563643102630522 1:-0.29571655 2:1.4950697 3:0.80131882 4:0.83999997 
-0.048764752131059442563643102630522 1:-1.304131 2:0.99999708 3:0.96404445 4:1.08 
-0.048764752131059442563643102630522 1:-0.12214474 2:1.4311943 3:0.43597874 4:0.88 
-0.048764752131059442563643102630522 1:0.70414716 2:1.0427113 3:1.1766043 4:0.36000001 
-0.048764752131059442563643102630522 1:-0.39179695 2:1.4311943 3:0.43597874 4:0.88 
0.048764752131059442563643102630522 1:0.15584882 2:-0.82866263 3:-0.99656481 4:0 
0.048764752131059442563643102630522 1:0.11940309 2:-0.65186673 3:-1.1567005 4:0 
0.048764752131059442563643102630522 1:0.018185258 2:-0.7766223 3:-0.9296571 4:0 
0.048764752131059442563643102630522 1:0.76694959 2:-0.65186673 3:-1.1440616 4:0 
0.048764752131059442563643102630522 1:-0.50721425 2:-0.13299479 3:-0.32917398 4:0 
-0.048764752131059442563643102630522 1:-0.13644414 2:1.0064102 3:-0.35087451 4:0 
0.048764752131059442563643102630522 1:-0.036042809 2:-0.65058017 3:1.0631765 4:0.23999999 
0.048764752131059442563643102630522 1:-0.12643041 2:-0.65058017 3:0.99988049 4:0.23999999 
0.048764752131059442563643102630522 1:-0.8784532 2:-0.10724705 3:-0.10237346 4:1.24 
-0.048764752131059442563643102630522 1:1.4763885 2:0.99935746 3:1.235273 4:0 
-0.048764752131059442563643102630522 1:1.3649936 2:0.99996293 3:1.2507294 4:0 
-0.048764752131059442563643102630522 1:1.3983012 2:0.99935746 3:1.235273 4:0 
0.048764752131059442563643102630522 1:0.20409936 2:0.060319252 3:-1.7809038 4:0.47999999 
0.048764752131059442563643102630522 1:0.32306713 2:0.060319252 3:-1.7405792 4:0.47999999 
0.048764752131059442563643102630522 1:0.57466918 2:-0.65186673 3:-1.0257069 4:0 
0.048764752131059442563643102630522 1:0.79197294 2:-0.65186673 3:-1.1196117 4:0 
-0.048764752131059442563643102630522 1:0.36889452 2:0.99984783 3:0.56588995 4:0 
0.048764752131059442563643102630522 1:0.31184688 2:0.99925172 3:0.81863326 4:0.079999998 
-0.048764752131059442563643102630522 1:-0.44839367 2:-0.085884787 3:0.72973734 4:0.23999999 
0.048764752131059442563643102630522 1:0.33023062 2:-0.74768656 3:0.96246988 4:0.31999999 
-0.048764752131059442563643102630522 1:-0.06905067 2:-1.0051111 3:1.5819839 4:0 
-0.048764752131059442563643102630522 1:-1.2839489 2:-0.82610202 3:1.5786678 4:0 
-0.048764752131059442563643102630522 1:-2.0683899 2:-0.24668352 3:1.6166805 4:0 
-0.048764752131059442563643102630522 1:-0.43056571 2:-1.0630578 3:1.4791152 4:0 
0.048764752131059442563643102630522 1:0.73112613 2:0.060319252 3:-1.7405792 4:0.47999999 
0.048764752131059442563643102630522 1:0.84311086 2:-0.17908478 3:-1.625625 4:0 
0.048764752131059442563643102630522 1:0.68699133 2:-0.15916719 3:-1.6354957 4:0.16 
0.048764752131059442563643102630522 1:0.41766843 2:1.0003904 3:1.1065899 4:0 
-0.048764752131059442563643102630522 1:-2.2160583 2:0.99984366 3:0.79794788 4:1.16 
-0.048764752131059442563643102630522 1:-1.6065925 2:1.0000325 3:0.89702976 4:1.08 
-0.048764752131059442563643102630522 1:-2.4973929 2:1.1541501 3:0.74203622 4:1 
0.048764752131059442563643102630522 1:0.27811423 2:-1.0257463 3:-0.1267183 4:0 
0.048764752131059442563643102630522 1:0.62588543 2:-0.72066242 3:-0.57838798 4:0 
0.048764752131059442563643102630522 1:0.8348425 2:-0.65186673 3:-1.0257069 4:0 
0.048764752131059442563643102630522 1:1.0553038 2:-0.17908478 3:-1.5855141 4:0 
0.048764752131059442563643102630522 1:0.53768069 2:1.0009352 3:0.98431808 4:0 
0.048764752131059442563643102630522 1:0.91768205 2:-0.27629188 3:-1.0752199 4:0.12 
0.048764752131059442563643102630522 1:-0.60693383 2:-0.37783009 3:0.031764276 4:0.95999998 
-0.048764752131059442563643102630522 1:1.5331945 2:1.0009552 3:1.1275603 4:0 
-0.048764752131059442563643102630522 1:1.4086469 2:0.99950963 3:1.2098135 4:0 
0.048764752131059442563643102630522 1:0.39558086 2:-0.15916719 3:-1.5454155 4:0.16 
-0.048764752131059442563643102630522 1:-0.053967889 2:1.0007186 3:-0.32095635 4:0.23999999 
0.048764752131059442563643102630522 1:0.3931945 2:-0.74768656 3:0.90117711 4:0.31999999 
0.048764752131059442563643102630522 1:-0.40143868 2:-0.74768656 3:0.77840441 4:0.31999999 
-0.048764752131059442563643102630522 1:1.4472429 2:0.99981797 3:1.2499347 4:0 
-0.048764752131059442563643102630522 1:1.6784179 2:0.26619133 3:1.207532 4:0 
-0.048764752131059442563643102630522 1:1.4465708 2:0.87034333 3:1.2121975 4:0.2 
-0.048764752131059442563643102630522 1:0.83852649 2:1.0144448 3:1.3891722 4:0 
0.048764752131059442563643102630522 1:1.2042834 2:0.99934077 3:-2.0795903 4:0.12 
0.048764752131059442563643102630522 1:0.64099562 2:0.060319252 3:-1.6115083 4:0.47999999 
0.048764752131059442563643102630522 1:0.61783642 2:-0.15916719 3:-1.5459828 4:0.16 
0.048764752131059442563643102630522 1:-0.039746396 2:0.18662091 3:-1.3605955 4:0.079999998 
0.048764752131059442563643102630522 1:-0.011170891 2:0.18662091 3:-1.3605955 4:0.079999998 
-0.048764752131059442563643102630522 1:-0.68873638 2:0.23039529 3:0.7349627 4:0 
-0.048764752131059442563643102630522 1:-0.99678695 2:-0.36604342 3:0.89553624 4:0 
-0.048764752131059442563643102630522 1:-0.39038008 2:-0.039919332 3:0.64011824 4:0 
-0.048764752131059442563643102630522 1:0.37446603 2:0.90120625 3:0.84040064 4:0 
0.048764752131059442563643102630522 1:1.0810235 2:-0.27629188 3:-1.1222098 4:0.12 
0.048764752131059442563643102630522 1:0.88701296 2:-0.27629188 3:-1.0528322 4:0.12 
0.048764752131059442563643102630522 1:0.2238929 2:-0.65058017 3:1.030861 4:0.56 
0.048764752131059442563643102630522 1:-0.32479331 2:-0.63960755 3:0.73140538 4:0 
0.048764752131059442563643102630522 1:-0.16779824 2:-0.63960755 3:0.73140538 4:0 
0.048764752131059442563643102630522 1:0.97770143 2:0.99946636 3:1.0068777 4:0.16 
0.048764752131059442563643102630522 1:0.29929349 2:0.99956018 3:0.94917053 4:0.2 
-0.048764752131059442563643102630522 1:-0.17602313 2:1.0354437 3:-0.89642465 4:0.16 
0.048764752131059442563643102630522 1:1.167062 2:-0.17908478 3:-1.5855141 4:0 
0.048764752131059442563643102630522 1:1.1025283 2:-0.17908478 3:-1.5855141 4:0 
0.048764752131059442563643102630522 1:0.092937246 2:0.99921751 3:1.1315925 4:0 
-0.048764752131059442563643102630522 1:-1.102397 2:0.99960589 3:-0.843211 4:0.51999998 
0.048764752131059442563643102630522 1:-0.77390021 2:-0.1607518 3:-0.044163212 4:0 
0.048764752131059442563643102630522 1:-0.78208447 2:-0.13299479 3:-0.35848898 4:0 
-0.048764752131059442563643102630522 1:0.08144024 2:1.6879146 3:0.54465008 4:0.23999999 
-0.048764752131059442563643102630522 1:0.1100818 2:1.6879146 3:0.49765939 4:0.23999999 
-0.048764752131059442563643102630522 1:-0.011204331 2:1.4943506 3:0.70798904 4:0.31999999 
0.048764752131059442563643102630522 1:1.0680186 2:-0.65186673 3:-1.077825 4:0 
0.048764752131059442563643102630522 1:0.55879092 2:-0.72066242 3:-0.61193341 4:0 
0.048764752131059442563643102630522 1:0.031287763 2:-0.65058017 3:0.65716583 4:0 
-0.048764752131059442563643102630522 1:0.5262627 2:0.99974507 3:1.3699473 4:0 
-0.048764752131059442563643102630522 1:0.69404101 2:1.000881 3:1.3476236 4:0 
-0.048764752131059442563643102630522 1:1.3131875 2:1.0009552 3:1.2378592 4:0.12 
-0.048764752131059442563643102630522 1:1.2013241 2:1.0006443 3:1.2507294 4:0.12 
-0.048764752131059442563643102630522 1:0.44856581 2:1.0007634 3:1.3658246 4:0 
0.048764752131059442563643102630522 1:0.95397502 2:-0.17908478 3:-1.5855141 4:0 
0.048764752131059442563643102630522 1:1.0337368 2:-0.17908478 3:-1.5855141 4:0 
0.048764752131059442563643102630522 1:1.20293 2:-0.17908478 3:-1.5868285 4:0 
0.048764752131059442563643102630522 1:0.84151465 2:-0.30242559 3:-1.5046648 4:0 
0.048764752131059442563643102630522 1:1.0766577 2:-0.17343307 3:-1.5409878 4:0.12 
-0.048764752131059442563643102630522 1:0.45158586 2:0.52859622 3:0.76474386 4:0.12 
0.048764752131059442563643102630522 1:-0.2117544 2:-0.62827694 3:0.70828307 4:0 
-0.048764752131059442563643102630522 1:-1.1758826 2:1.3007246 3:1.3207443 4:0 
-0.048764752131059442563643102630522 1:-0.77138346 2:0.79043835 3:1.4620163 4:0 
-0.048764752131059442563643102630522 1:-0.65759903 2:0.89075279 3:1.4125543 4:0 
-0.048764752131059442563643102630522 1:-0.71876496 2:0.99923456 3:1.2368426 4:0.40000001 
0.048764752131059442563643102630522 1:1.1890935 2:-0.17908478 3:-1.5436693 4:0 
0.048764752131059442563643102630522 1:1.2353176 2:-0.17908478 3:-1.5211439 4:0 
0.048764752131059442563643102630522 1:1.3189642 2:-0.17915708 3:-1.5668726 4:0.079999998 
-0.048764752131059442563643102630522 1:-1.0109584 2:0.99960589 3:-0.75529689 4:0.51999998 
-0.048764752131059442563643102630522 1:-0.59338921 2:0.85890543 3:0.6231702 4:0 
0.048764752131059442563643102630522 1:-0.81643063 2:-0.33855736 3:-0.047431596 4:0.92000002 
0.048764752131059442563643102630522 1:-0.32389897 2:-0.74768656 3:0.73871773 4:0.31999999 
0.048764752131059442563643102630522 1:-0.28535688 2:-0.91659778 3:0.64678979 4:0.36000001 
-0.048764752131059442563643102630522 1:1.4624441 2:1.0764575 3:1.0316243 4:0.039999999 
0.048764752131059442563643102630522 1:-0.63781583 2:-0.076292552 3:-0.10767369 4:0.88 
-0.048764752131059442563643102630522 1:1.3572263 2:1 3:1.1178112 4:0.23999999 
-0.048764752131059442563643102630522 1:1.3798678 2:1 3:1.0804706 4:0.23999999 
0.048764752131059442563643102630522 1:-0.092888758 2:-0.83135146 3:0.034834046 4:0 
-0.048764752131059442563643102630522 1:-2.0007453 2:0.9997378 3:-1.2015753 4:0.92000002 
0.048764752131059442563643102630522 1:-0.66855836 2:-0.86402255 3:0.1702484 4:1.12 
-0.048764752131059442563643102630522 1:-2.0829823 2:1.0002335 3:-1.4765069 4:0.80000001 
-0.048764752131059442563643102630522 1:-3.0369391 2:0.74523717 3:0.75688237 4:1.2 
0.048764752131059442563643102630522 1:-0.19489606 2:-0.84841108 3:0.38608244 4:0 
0.048764752131059442563643102630522 1:0.57276928 2:-0.91659778 3:0.77193606 4:0.36000001 
0.048764752131059442563643102630522 1:0.49351129 2:-0.74768656 3:0.88745695 4:0.31999999 
0.048764752131059442563643102630522 1:0.35312831 2:1.0009352 3:0.72247696 4:0.2 
-0.048764752131059442563643102630522 1:-0.16615558 2:1.4769752 3:-0.71563888 4:0 
-0.048764752131059442563643102630522 1:-1.4677486 2:0.99902892 3:0.4390859 4:0 
0.048764752131059442563643102630522 1:-0.27780503 2:0.32961726 3:-1.0962152 4:0 
0.048764752131059442563643102630522 1:-0.68216032 2:-0.062326696 3:-0.18888415 4:0.75999999 
0.048764752131059442563643102630522 1:-0.67623627 2:-0.071164943 3:-0.26325771 4:0.63999999 
-0.048764752131059442563643102630522 1:1.0982965 2:1 3:1.1178112 4:0.23999999 
-0.048764752131059442563643102630522 1:-0.033643227 2:1.7342302 3:0.45761558 4:0 
-0.048764752131059442563643102630522 1:1.4191943 2:0.99922895 3:1.1842009 4:0 
-0.048764752131059442563643102630522 1:-2.6855519 2:0.2530342 3:0.16008087 4:1.12 
-0.048764752131059442563643102630522 1:-2.1564965 2:0.52153975 3:0.45839691 4:1.12 
-0.048764752131059442563643102630522 1:-3.1907659 2:-0.22450773 3:0.91244566 4:1.12 
-0.048764752131059442563643102630522 1:-1.9906596 2:0.42849949 3:1.0829629 4:1.12 
0.048764752131059442563643102630522 1:-0.19351219 2:-0.52020693 3:-0.13597524 4:0 
0.048764752131059442563643102630522 1:0.44853383 2:-0.06622766 3:-0.1139075 4:0 
0.048764752131059442563643102630522 1:0.31422487 2:-0.06622766 3:-0.1635188 4:0 
-0.048764752131059442563643102630522 1:-1.1834055 2:1.1418008 3:-0.78956997 4:0.44 
-0.048764752131059442563643102630522 1:1.3966546 2:0.99974507 3:1.1967301 4:0 
0.048764752131059442563643102630522 1:-0.61193365 2:-0.51728892 3:-0.16723067 4:0.68000001 
0.048764752131059442563643102630522 1:-0.51510686 2:-0.74179929 3:0.16153213 4:0.63999999 
-0.048764752131059442563643102630522 1:-0.68172371 2:0.64196461 3:0.40867364 4:0 
-0.048764752131059442563643102630522 1:0.22457075 2:0.60293794 3:-0.55401385 4:0 
0.048764752131059442563643102630522 1:0.54202414 2:-0.91659778 3:0.73568976 4:0.36000001 
0.048764752131059442563643102630522 1:0.39807925 2:-0.91659778 3:0.76160204 4:0.36000001 
-0.048764752131059442563643102630522 1:-0.64202935 2:1.0000232 3:0.088096775 4:0 
-0.048764752131059442563643102630522 1:0.70927268 2:0.34832802 3:-1.027094 4:0.23999999 
-0.048764752131059442563643102630522 1:-0.15563805 2:0.99902892 3:0.10432409 4:0 
-0.048764752131059442563643102630522 1:-0.0050807511 2:-1.0158687 3:1.0422798 4:0 
0.048764752131059442563643102630522 1:-0.63291091 2:-0.1607518 3:-0.56654948 4:0 
0.048764752131059442563643102630522 1:-0.59919232 2:-0.1607518 3:-0.61697441 4:0 
-0.048764752131059442563643102630522 1:-3.259527 2:1.2889838 3:-0.15907122 4:0.92000002 
0.048764752131059442563643102630522 1:0.81226659 2:0.99990499 3:0.95973623 4:0.12 
0.048764752131059442563643102630522 1:1.3659374 2:-0.30805936 3:-1.445455 4:0.12 
-0.048764752131059442563643102630522 1:1.3756741 2:1.0005817 3:1.20645 4:0 
0.048764752131059442563643102630522 1:-0.40380731 2:-0.91659778 3:0.45382184 4:0.36000001 
-0.048764752131059442563643102630522 1:-3.0854797 2:0.74523717 3:0.74855739 4:1.2 
-0.048764752131059442563643102630522 1:-2.44539 2:0.7601018 3:-1.1014493 4:0.88 
-0.048764752131059442563643102630522 1:-2.3390148 2:1.000137 3:-1.3253782 4:0.75999999 
-0.048764752131059442563643102630522 1:-1.8001586 2:1.0993366 3:-0.98298389 4:0.88 
0.048764752131059442563643102630522 1:1.1865799 2:0.17487586 3:-0.42891979 4:0 
0.048764752131059442563643102630522 1:0.50185025 2:-0.28394154 3:-0.5568921 4:0 
0.048764752131059442563643102630522 1:0.084464118 2:-0.91659778 3:0.74796802 4:0.36000001 
0.048764752131059442563643102630522 1:1.3930979 2:-0.27629188 3:-0.87623221 4:0.12 
-0.048764752131059442563643102630522 1:0.16721453 2:1 3:-0.018831758 4:0 
-0.048764752131059442563643102630522 1:0.7276355 2:0.34000093 3:-1.0001792 4:0.23999999 
0.048764752131059442563643102630522 1:-0.27884755 2:0.29371893 3:-0.70729715 4:0.44 
0.048764752131059442563643102630522 1:0.0012432965 2:1.0096745 3:0.89311641 4:0.2 
-0.048764752131059442563643102630522 1:-0.093067601 2:0.99900168 3:-0.8002581 4:0.28 
0.048764752131059442563643102630522 1:0.68082547 2:-0.1667413 3:-1.5049509 4:0.2 
0.048764752131059442563643102630522 1:1.0186697 2:-0.15916719 3:-1.5557075 4:0.16 
0.048764752131059442563643102630522 1:0.44713441 2:0.99953645 3:1.0676064 4:0.2 
-0.048764752131059442563643102630522 1:-0.92092681 2:0.086366519 3:0.47247037 4:0 
0.048764752131059442563643102630522 1:-0.35985002 2:-0.91659778 3:0.39817181 4:0.36000001 
0.048764752131059442563643102630522 1:0.076783396 2:-0.91659778 3:0.68570578 4:0.36000001 
0.048764752131059442563643102630522 1:0.054936517 2:-0.91659778 3:0.27952161 4:0.36000001 
0.048764752131059442563643102630522 1:0.040353756 2:-0.91659778 3:0.26012823 4:0.36000001 
-0.048764752131059442563643102630522 1:1.5399492 2:-0.19141129 3:1.2297997 4:0.079999998 
-0.048764752131059442563643102630522 1:1.4326245 2:-0.17871918 3:1.2253993 4:0.12 
-0.048764752131059442563643102630522 1:1.4976439 2:-0.30430084 3:1.160143 4:0 
-0.048764752131059442563643102630522 1:1.6900285 2:0.13033593 3:1.1644964 4:0.12 
0.048764752131059442563643102630522 1:-0.17001671 2:0.39150235 3:-1.088248 4:0 
0.048764752131059442563643102630522 1:0.50355059 2:0.39300328 3:-1.3531685 4:0 
0.048764752131059442563643102630522 1:0.67899323 2:0.18662091 3:-1.5226729 4:0.079999998 
0.048764752131059442563643102630522 1:1.2246703 2:-0.076142766 3:-0.48935074 4:0.63999999 
0.048764752131059442563643102630522 1:0.77134073 2:-0.17343307 3:-1.4714186 4:0.12 
-0.048764752131059442563643102630522 1:-1.061008 2:1.0003932 3:0.44777176 4:0 
-0.048764752131059442563643102630522 1:-1.1001374 2:0.2399981 3:1.0481995 4:0 
-0.048764752131059442563643102630522 1:-0.69137841 2:0.41166353 3:0.77761137 4:0 
0.048764752131059442563643102630522 1:0.24376674 2:-0.91659778 3:0.37891877 4:0.36000001 
0.048764752131059442563643102630522 1:0.25429356 2:-0.91659778 3:0.26012823 4:0.36000001 
0.048764752131059442563643102630522 1:0.59255463 2:-0.72374594 3:-0.034465071 4:0.28 
-0.048764752131059442563643102630522 1:1.2926098 2:0.23283596 3:-0.79580241 4:0 
0.048764752131059442563643102630522 1:1.1671419 2:-0.17343307 3:-1.5170251 4:0.12 
0.048764752131059442563643102630522 1:1.2028255 2:-0.17871918 3:-1.4545815 4:0.079999998 
-0.048764752131059442563643102630522 1:1.5741471 2:1.0007634 3:1.082695 4:0 
-0.048764752131059442563643102630522 1:1.5324985 2:1.0006797 3:0.75091445 4:0 
-0.048764752131059442563643102630522 1:1.3897963 2:1.0007347 3:1.1665612 4:0.12 
0.048764752131059442563643102630522 1:-0.57403928 2:-0.13299479 3:-0.36082572 4:0 
0.048764752131059442563643102630522 1:-0.46965408 2:-0.1607518 3:-0.60226828 4:0 
-0.048764752131059442563643102630522 1:0.092004783 2:0.99902892 3:0.15157194 4:0 
0.048764752131059442563643102630522 1:-0.40741748 2:-0.1607518 3:-0.51022768 4:0 
0.048764752131059442563643102630522 1:-0.21765438 2:-0.32275888 3:-0.39496475 4:0 
-0.048764752131059442563643102630522 1:-2.6861253 2:0.99954462 3:0.88107193 4:1 
-0.048764752131059442563643102630522 1:-1.3358794 2:1.3432534 3:1.0782433 4:0 
-0.048764752131059442563643102630522 1:-2.64551 2:1.1712288 3:1.0407183 4:0 
0.048764752131059442563643102630522 1:1.3125237 2:-0.15818135 3:-1.5393564 4:0.079999998 
0.048764752131059442563643102630522 1:1.1342064 2:-0.17343307 3:-1.4945948 4:0.12 
-0.048764752131059442563643102630522 1:-1.3051296 2:0.24653026 3:0.99957424 4:0 
-0.048764752131059442563643102630522 1:-0.47900796 2:0.99928552 3:0.25678527 4:0 
-0.048764752131059442563643102630522 1:-0.24257474 2:0.39194885 3:0.4375037 4:0 
0.048764752131059442563643102630522 1:-0.43612802 2:-0.084933378 3:-0.1972905 4:0 
-0.048764752131059442563643102630522 1:-2.5103579 2:1.0000185 3:1.1821485 4:0 
-0.048764752131059442563643102630522 1:-2.7571561 2:1.0000185 3:1.0773478 4:0 
0.048764752131059442563643102630522 1:1.4569906 2:-0.17871918 3:-1.3956741 4:0.079999998 
0.048764752131059442563643102630522 1:1.3764006 2:-0.17343307 3:-1.3733048 4:0.12 
0.048764752131059442563643102630522 1:1.6017004 2:-0.16983274 3:-1.2672101 4:0.12 
0.048764752131059442563643102630522 1:-0.22620054 2:-0.071164943 3:-0.14185759 4:0.63999999 
-0.048764752131059442563643102630522 1:1.3113718 2:0.99911964 3:1.096539 4:0.28 
-0.048764752131059442563643102630522 1:1.4491004 2:1 3:1.2038622 4:0 
-0.048764752131059442563643102630522 1:1.2816262 2:1 3:1.2038622 4:0.12 
0.048764752131059442563643102630522 1:-0.18814352 2:-0.1607518 3:-0.60067451 4:0 
0.048764752131059442563643102630522 1:-0.18192695 2:-0.1607518 3:-0.60226828 4:0 
0.048764752131059442563643102630522 1:0.84458548 2:-0.15916719 3:-1.4710402 4:0.16 
0.048764752131059442563643102630522 1:0.080883816 2:-0.1607518 3:-0.58718151 4:0 
0.048764752131059442563643102630522 1:0.76633155 2:1 3:1.0765626 4:0 
0.048764752131059442563643102630522 1:0.8793059 2:0.89915347 3:0.85783035 4:0.2 
0.048764752131059442563643102630522 1:1.0134267 2:0.1223234 3:-0.01418578 4:0.2 
0.048764752131059442563643102630522 1:0.97147679 2:0.053739578 3:-0.096758962 4:0.44 
-0.048764752131059442563643102630522 1:0.86890143 2:1.4934517 3:0.319267 4:0 
-0.048764752131059442563643102630522 1:1.2055932 2:1.0545841 3:0.79101503 4:0.36000001 
-0.048764752131059442563643102630522 1:1.3916687 2:1.0468594 3:1.0300183 4:0.039999999 
-0.048764752131059442563643102630522 1:1.2343024 2:1.0009552 3:1.237388 4:0.12 
0.048764752131059442563643102630522 1:0.067507014 2:-0.19452792 3:-0.40931687 4:0 
0.048764752131059442563643102630522 1:0.056140609 2:-0.1607518 3:-0.46978965 4:0 
0.048764752131059442563643102630522 1:0.84548432 2:-0.27629188 3:-1.0597444 4:0.12 
0.048764752131059442563643102630522 1:0.78480124 2:-0.51728892 3:0.089779042 4:0.68000001 
0.048764752131059442563643102630522 1:0.53538042 2:0.21983829 3:-0.25635976 4:0 
-0.048764752131059442563643102630522 1:0.37599608 2:1.7690891 3:-0.20022503 4:0 
-0.048764752131059442563643102630522 1:0.373081 2:1.7690891 3:-0.25231397 4:0 
-0.048764752131059442563643102630522 1:0.13436212 2:1.7520241 3:-0.70802689 4:0.28 
-0.048764752131059442563643102630522 1:0.024782622 2:1.6879146 3:-0.0015404093 4:0.23999999 
0.048764752131059442563643102630522 1:0.0011101238 2:-0.31621107 3:-0.032668184 4:0.23999999 
0.048764752131059442563643102630522 1:1.314863 2:-0.34967968 3:-0.64713728 4:0 
-0.048764752131059442563643102630522 1:-0.51846087 2:0.44331154 3:0.75310981 4:0 
-0.048764752131059442563643102630522 1:-0.59118319 2:0.60759801 3:0.59503424 4:0 
0.048764752131059442563643102630522 1:0.064995795 2:0.32961726 3:-0.75976086 4:0 
0.048764752131059442563643102630522 1:0.22790138 2:0.20811746 3:-0.36122653 4:0.47999999 
0.048764752131059442563643102630522 1:0.38085678 2:-0.041814882 3:-0.11217216 4:0.28 
-0.048764752131059442563643102630522 1:-0.90713066 2:1.660991 3:0.54708928 4:0.28 
-0.048764752131059442563643102630522 1:-2.2709689 2:0.99996293 3:0.55227476 4:0.88 
-0.048764752131059442563643102630522 1:-2.1643891 2:0.99952924 3:0.62507725 4:0.72000003 
-0.048764752131059442563643102630522 1:-0.44665906 2:0.99954402 3:0.89634871 4:0.88 
0.048764752131059442563643102630522 1:1.498342 2:-0.27629188 3:-1.0515823 4:0.12 
0.048764752131059442563643102630522 1:1.4801315 2:-0.27629188 3:-1.0515823 4:0.12 
0.048764752131059442563643102630522 1:1.3416554 2:-0.16983274 3:-1.2972344 4:0.12 
0.048764752131059442563643102630522 1:-0.17500776 2:0.87034333 3:1.000791 4:0.40000001 
0.048764752131059442563643102630522 1:-0.31227782 2:-0.30769351 3:-0.27694255 4:1.16 
0.048764752131059442563643102630522 1:0.22400814 2:1 3:0.79619008 4:0.12 
-0.048764752131059442563643102630522 1:1.3368078 2:0.99922895 3:1.0305179 4:0.16 
0.048764752131059442563643102630522 1:1.0167146 2:-0.15916719 3:-1.481948 4:0.16 
0.048764752131059442563643102630522 1:1.2521329 2:-0.27629188 3:-1.0026764 4:0.12 
-0.048764752131059442563643102630522 1:0.98139185 2:1.0586557 3:-0.34047872 4:0.36000001 
-0.048764752131059442563643102630522 1:1.0418392 2:1.0402638 3:-0.16312104 4:0.36000001 
-0.048764752131059442563643102630522 1:1.4977365 2:0.42209893 3:-0.41461006 4:0.56 
-0.048764752131059442563643102630522 1:1.1258836 2:1.0806974 3:0.68860155 4:0.36000001 
0.048764752131059442563643102630522 1:0.59990418 2:0.17713042 3:-0.68208903 4:0.28 
0.048764752131059442563643102630522 1:1.2382894 2:-0.16782793 3:-1.1330967 4:0.079999998 
0.048764752131059442563643102630522 1:1.1383103 2:-0.15916719 3:-1.3832707 4:0.16 
0.048764752131059442563643102630522 1:-0.19663908 2:0.99900168 3:0.76506084 4:0.31999999 
-0.048764752131059442563643102630522 1:-0.70811504 2:1 3:0.48995772 4:0 
0.048764752131059442563643102630522 1:0.97714365 2:0.39150235 3:-0.3180871 4:0 
0.048764752131059442563643102630522 1:1.4787563 2:0.18662091 3:-0.60402709 4:0.079999998 
-0.048764752131059442563643102630522 1:0.74001318 2:1.2543906 3:0.84270728 4:0.16 
0.048764752131059442563643102630522 1:1.4510465 2:-0.15818135 3:-1.3405528 4:0.16 
-0.048764752131059442563643102630522 1:-1.1032205 2:0.55815572 3:0.77535498 4:0 
-0.048764752131059442563643102630522 1:-0.98646557 2:0.35746941 3:0.99184871 4:0 
-0.048764752131059442563643102630522 1:-1.4531807 2:0.69401479 3:0.71165961 4:0 
-0.048764752131059442563643102630522 1:-0.25088507 2:0.23472662 3:0.6014697 4:0 
0.048764752131059442563643102630522 1:1.3282927 2:0.18662091 3:-0.81533867 4:0.079999998 
0.048764752131059442563643102630522 1:0.9670977 2:0.38501126 3:-1.0537271 4:0.28 
0.048764752131059442563643102630522 1:0.59076804 2:0.85077745 3:-1.2098874 4:0.23999999 
-0.048764752131059442563643102630522 1:1.0367262 2:0.99945062 3:1.2427655 4:0.2 
-0.048764752131059442563643102630522 1:0.91443133 2:1.0359294 3:1.2283558 4:0.2 
-0.048764752131059442563643102630522 1:-1.9081115 2:0.27535665 3:1.0742708 4:1.08 
-0.048764752131059442563643102630522 1:-1.3840901 2:-0.24111868 3:1.0526012 4:1.04 
-0.048764752131059442563643102630522 1:-2.7721784 2:0.27535665 3:0.97751629 4:1.08 
-0.048764752131059442563643102630522 1:-0.072227031 2:0.41764167 3:1.2733063 4:1.04 
0.048764752131059442563643102630522 1:-4.491262 2:2.1768546 3:1.1116989 4:0 
0.048764752131059442563643102630522 1:-5.3243442 2:1.1263083 3:0.60564446 4:0 
0.048764752131059442563643102630522 1:-0.63081145 2:2.1256478 3:0.072398424 4:0 
-0.048764752131059442563643102630522 1:1.2467849 2:1 3:1.2311505 4:0 
-0.048764752131059442563643102630522 1:1.091917 2:0.092029959 3:-0.0590108 4:0 
0.048764752131059442563643102630522 1:0.41581124 2:0.99939877 3:0.92350227 4:0.16 
0.048764752131059442563643102630522 1:0.91111958 2:1.000245 3:0.75395846 4:0.16 
0.048764752131059442563643102630522 1:0.97529829 2:0.9991591 3:0.75713706 4:0.16 
-0.048764752131059442563643102630522 1:-1.7832458 2:0.57274801 3:0.57238549 4:0 
-0.048764752131059442563643102630522 1:1.4140731 2:0.99909282 3:1.0994411 4:0 
-0.048764752131059442563643102630522 1:1.3808062 2:0.99984783 3:1.0258977 4:0.039999999 
0.048764752131059442563643102630522 1:-3.6567681 2:-0.49407017 3:1.2577697 4:0 
0.048764752131059442563643102630522 1:-2.4758985 2:-0.95270288 3:1.2347542 4:1.4 
0.048764752131059442563643102630522 1:-2.6745827 2:-0.85893756 3:1.2293456 4:0 
-0.048764752131059442563643102630522 1:-0.71611243 2:1.0008729 3:0.27623466 4:0 
-0.048764752131059442563643102630522 1:-0.56669337 2:0.81182653 3:0.3659074 4:0 
-0.048764752131059442563643102630522 1:0.42399406 2:0.99946392 3:-1.3134423 4:0.2 
-0.048764752131059442563643102630522 1:1.2616922 2:0.99903727 3:1.2283558 4:0 
-0.048764752131059442563643102630522 1:1.3598562 2:0.99902892 3:1.1006958 4:0 
-0.048764752131059442563643102630522 1:1.3123115 2:1 3:1.1603893 4:0 
0.048764752131059442563643102630522 1:-3.0171077 2:-0.031502362 3:0.047786839 4:0 
0.048764752131059442563643102630522 1:-2.7200594 2:-0.13960369 3:-0.33009622 4:1.4 
0.048764752131059442563643102630522 1:-2.5532515 2:0.17141157 3:-0.21846865 4:0 
0.048764752131059442563643102630522 1:0.99335927 2:0.9993065 3:0.97288442 4:0.079999998 
0.048764752131059442563643102630522 1:0.37160411 2:1.0003233 3:0.7201789 4:0.2 
-0.048764752131059442563643102630522 1:1.3070064 2:0.99921751 3:1.0089765 4:0.16 
-0.048764752131059442563643102630522 1:1.3517165 2:0.99928552 3:1.0972663 4:0 
-0.048764752131059442563643102630522 1:1.2782289 2:0.99911964 3:1.0744199 4:0.12 
0.048764752131059442563643102630522 1:-2.6765018 2:-0.41358545 3:0.69402272 4:0 
0.048764752131059442563643102630522 1:-2.3864777 2:-0.85893756 3:1.1291496 4:0 
0.048764752131059442563643102630522 1:-3.1671405 2:0.11641173 3:1.1005594 4:0 
-0.048764752131059442563643102630522 1:-0.26978913 2:0.63373864 3:-1.1823982 4:0.44 
-0.048764752131059442563643102630522 1:0.50818807 2:-0.16782793 3:0.26399684 4:0 
-0.048764752131059442563643102630522 1:0.35045427 2:0.58979732 3:0.061298892 4:0 
0.048764752131059442563643102630522 1:1.3013172 2:0.95369023 3:-0.99066079 4:0 
-0.048764752131059442563643102630522 1:1.3506258 2:0.99998766 3:1.0847664 4:0 
-0.048764752131059442563643102630522 1:1.2511503 2:1.0009552 3:1.1021967 4:0.12 
0.048764752131059442563643102630522 1:-2.644269 2:-0.2651234 3:1.0630875 4:0 
0.048764752131059442563643102630522 1:-2.792551 2:0.29562998 3:-0.24834077 4:1 
0.048764752131059442563643102630522 1:-2.6715679 2:0.19326115 3:1.0586835 4:0 
-0.048764752131059442563643102630522 1:-0.72529054 2:0.35215154 3:0.29166076 4:0 
0.048764752131059442563643102630522 1:0.67860669 2:1.0005341 3:0.92400217 4:0.12 
-0.048764752131059442563643102630522 1:1.210242 2:0.99922895 3:1.1068873 4:0.16 
-0.048764752131059442563643102630522 1:1.2125469 2:0.99921751 3:1.0873412 4:0.16 
-0.048764752131059442563643102630522 1:1.2856599 2:0.87034333 3:1.0005351 4:0.2 
0.048764752131059442563643102630522 1:-2.6486425 2:0.1346959 3:1.1392215 4:0 
0.048764752131059442563643102630522 1:-2.4221649 2:-0.17779067 3:1.0704626 4:0 
0.048764752131059442563643102630522 1:-1.9946324 2:-0.72047949 3:0.97406328 4:0 
0.048764752131059442563643102630522 1:-2.2709327 2:0.48536932 3:0.2657468 4:0 
0.048764752131059442563643102630522 1:-1.7805535 2:0.43505386 3:-0.33332399 4:0 
0.048764752131059442563643102630522 1:-0.91435432 2:0.70452482 3:-1.1379498 4:0 
0.048764752131059442563643102630522 1:-2.3815367 2:0.91742408 3:-0.7011025 4:1 
-0.048764752131059442563643102630522 1:0.30401593 2:0.99935746 3:-0.71733224 4:0 
-0.048764752131059442563643102630522 1:1.4524791 2:0.13033593 3:1.1115222 4:0.12 
-0.048764752131059442563643102630522 1:1.4641973 2:0.10763535 3:1.2130209 4:0 
-0.048764752131059442563643102630522 1:1.4868202 2:0.99956018 3:1.0511886 4:0 
-0.048764752131059442563643102630522 1:1.5095495 2:0.52118748 3:1.0848705 4:0 
0.048764752131059442563643102630522 1:-1.0854464 2:1.0006499 3:-1.468767 4:0 
0.048764752131059442563643102630522 1:-1.8097291 2:0.23731221 3:-0.35937461 4:0 
0.048764752131059442563643102630522 1:1.3248903 2:0.9991591 3:1.107327 4:0 
0.048764752131059442563643102630522 1:0.9286598 2:1.001617 3:0.74896002 4:0.16 
-0.048764752131059442563643102630522 1:1.2133532 2:0.99950963 3:0.98966122 4:0.16 
-0.048764752131059442563643102630522 1:1.4830694 2:0.83118224 3:0.88539839 4:0 
-0.048764752131059442563643102630522 1:1.3681313 2:1 3:1.021589 4:0 
-0.048764752131059442563643102630522 1:1.4762685 2:0.70713031 3:1.1007799 4:0 
0.048764752131059442563643102630522 1:-2.6035266 2:0.42009771 3:1.0591902 4:0 
0.048764752131059442563643102630522 1:-2.3374555 2:0.14826316 3:0.78734708 4:0 
0.048764752131059442563643102630522 1:-2.2422197 2:0.27208433 3:0.45182505 4:0 
-0.048764752131059442563643102630522 1:0.56375849 2:-0.96981984 3:1.0791219 4:0 
-0.048764752131059442563643102630522 1:0.008713467 2:-0.91084385 3:1.2431939 4:0 
-0.048764752131059442563643102630522 1:0.24569511 2:-0.25349936 3:0.73387319 4:0 
-0.048764752131059442563643102630522 1:-0.3937667 2:-0.91151178 3:1.0870113 4:0 
-0.048764752131059442563643102630522 1:1.1558908 2:1.0009352 3:1.2230033 4:0.12 
-0.048764752131059442563643102630522 1:1.2439187 2:0.99939877 3:1.2232023 4:0 
-0.048764752131059442563643102630522 1:1.2286206 2:0.99950963 3:1.2216911 4:0 
-0.048764752131059442563643102630522 1:1.314279 2:0.99961889 3:1.1124681 4:0 
0.048764752131059442563643102630522 1:-1.9554863 2:0.42477524 3:0.0049291751 4:0 
0.048764752131059442563643102630522 1:-2.2643273 2:0.5354057 3:0.38776582 4:0 
0.048764752131059442563643102630522 1:-2.2692008 2:0.5354057 3:1.049664 4:0 
0.048764752131059442563643102630522 1:1.0144562 2:0.87746465 3:1.2150034 4:0 
0.048764752131059442563643102630522 1:0.90781468 2:0.99956018 3:0.75297368 4:0.16 
-0.048764752131059442563643102630522 1:1.5693206 2:0.13269719 3:1.2076988 4:0 
-0.048764752131059442563643102630522 1:1.2302409 2:0.99952298 3:1.0830348 4:0.12 
0.048764752131059442563643102630522 1:-2.2217824 2:0.5354057 3:0.56117219 4:0 
0.048764752131059442563643102630522 1:-2.1542237 2:0.39253396 3:0.53489751 4:0 
0.048764752131059442563643102630522 1:-2.6493428 2:0.98170191 3:1.1573061 4:0 
-0.048764752131059442563643102630522 1:1.3384812 2:-0.076142766 3:-0.20371531 4:0 
-0.048764752131059442563643102630522 1:-0.45241195 2:0.86773479 3:0.25109753 4:0 
-0.048764752131059442563643102630522 1:0.084694505 2:-0.80845737 3:0.73009729 4:0 
0.048764752131059442563643102630522 1:0.78321612 2:1.0003932 3:0.72303045 4:0.2 
-0.048764752131059442563643102630522 1:1.1395302 2:1 3:0.80623865 4:0.28 
-0.048764752131059442563643102630522 1:1.2045894 2:0.99939877 3:0.99961287 4:0.16 
-0.048764752131059442563643102630522 1:1.0127403 2:1.0354421 3:0.78684437 4:0.36000001 
-0.048764752131059442563643102630522 1:1.2264575 2:1 3:1.2109286 4:0 
0.048764752131059442563643102630522 1:-1.8973926 2:-0.82140863 3:1.0817254 4:0 
0.048764752131059442563643102630522 1:-1.9519645 2:-0.76499712 3:1.2773627 4:0 
0.048764752131059442563643102630522 1:-1.9060473 2:-0.5816533 3:0.88675213 4:0 
-0.048764752131059442563643102630522 1:0.087012336 2:-0.23689163 3:0.5873369 4:0 
0.048764752131059442563643102630522 1:0.757438 2:0.9998036 3:0.8770324 4:0.16 
-0.048764752131059442563643102630522 1:1.2264342 2:0.99939877 3:1.2232023 4:0 
-0.048764752131059442563643102630522 1:1.1343501 2:1 3:1.117995 4:0.16 
0.048764752131059442563643102630522 1:-1.9993525 2:0.20073985 3:0.50900078 4:0 
0.048764752131059442563643102630522 1:-1.7457306 2:-0.43877563 3:0.50900078 4:0 
0.048764752131059442563643102630522 1:-3.0471897 2:0.41655356 3:0.10770606 4:1.3200001 
0.048764752131059442563643102630522 1:-1.6289411 2:0.40883458 3:-0.15743242 4:0 
-0.048764752131059442563643102630522 1:0.099671304 2:-0.29578742 3:0.91183496 4:0 
-0.048764752131059442563643102630522 1:0.56676626 2:-0.23689163 3:0.46856222 4:0 
0.048764752131059442563643102630522 1:1.1217687 2:1.0008729 3:0.76038706 4:0.16 
-0.048764752131059442563643102630522 1:-0.59603167 2:1 3:0.31327289 4:0 
-0.048764752131059442563643102630522 1:1.1856189 2:-0.36926618 3:0.90062994 4:0.51999998 
-0.048764752131059442563643102630522 1:0.42813084 2:0.68386674 3:1.0899796 4:0.83999997 
-0.048764752131059442563643102630522 1:1.3588653 2:0.13033593 3:1.0943339 4:0.12 
-0.048764752131059442563643102630522 1:1.1752011 2:0.39950687 3:0.81946713 4:0.36000001 
0.048764752131059442563643102630522 1:-2.4056826 2:0.99877185 3:0.81371939 4:0 
0.048764752131059442563643102630522 1:-2.2230568 2:0.41426945 3:0.84948581 4:0 
0.048764752131059442563643102630522 1:-2.2673097 2:0.76721346 3:0.88066572 4:0 
-0.048764752131059442563643102630522 1:-0.45741081 2:0.23114753 3:0.030717302 4:0 
-0.048764752131059442563643102630522 1:-0.60014772 2:1.0007634 3:0.16090356 4:0 
0.048764752131059442563643102630522 1:1.1475049 2:1.0007396 3:1.0794023 4:0 
0.048764752131059442563643102630522 1:0.3764157 2:1 3:0.87114048 4:0.16 
-0.048764752131059442563643102630522 1:1.1914644 2:1.0009552 3:1.2378592 4:0 
-0.048764752131059442563643102630522 1:1.0919815 2:1.000245 3:1.1433717 4:0.12 
0.048764752131059442563643102630522 1:-5.5034122 2:1.1668665 3:1.0297199 4:0 
0.048764752131059442563643102630522 1:-1.6282382 2:0.44035158 3:-0.93263787 4:1.04 
0.048764752131059442563643102630522 1:-0.58647919 2:0.93247741 3:-1.4499844 4:0 
0.048764752131059442563643102630522 1:-1.2275317 2:-0.022432625 3:-0.0023147084 4:0 
-0.048764752131059442563643102630522 1:1.1030954 2:0.092029959 3:-0.12029692 4:0 
0.048764752131059442563643102630522 1:1.7886896 2:-0.095332168 3:1.0150915 4:0 
0.048764752131059442563643102630522 1:0.46596447 2:0.99939877 3:0.92350227 4:0.16 
-0.048764752131059442563643102630522 1:1.0294286 2:0.99955058 3:1.0760516 4:0.28 
-0.048764752131059442563643102630522 1:1.154379 2:0.99946636 3:1.0121132 4:0.2 
-0.048764752131059442563643102630522 1:1.0906852 2:0.99909282 3:1.0206569 4:0.23999999 
-0.048764752131059442563643102630522 1:1.1689945 2:0.99939877 3:1.0266888 4:0.16 
0.048764752131059442563643102630522 1:-1.7426544 2:-0.027508294 3:0.60955113 4:0 
0.048764752131059442563643102630522 1:-1.9774101 2:-0.17779067 3:1.0910892 4:0 
-0.048764752131059442563643102630522 1:0.95993948 2:0.99976689 3:-1.5816872 4:0.12 
-0.048764752131059442563643102630522 1:-1.2317004 2:1.0003525 3:0.22493081 4:0 
0.048764752131059442563643102630522 1:1.1306536 2:1.1621878 3:0.75583446 4:0.16 
-0.048764752131059442563643102630522 1:1.4774532 2:1.0004489 3:0.65061373 4:0 
-0.048764752131059442563643102630522 1:1.2869658 2:0.86732543 3:1.1842009 4:0 
-0.048764752131059442563643102630522 1:1.2885987 2:0.9991591 3:1.0692589 4:0 
0.048764752131059442563643102630522 1:-2.1698136 2:0.42009771 3:1.0676899 4:0 
0.048764752131059442563643102630522 1:-2.1353004 2:-0.063812695 3:1.4343804 4:0 
0.048764752131059442563643102630522 1:-2.1910217 2:0.5354057 3:1.1257267 4:0 
0.048764752131059442563643102630522 1:-1.9638032 2:0.27208433 3:0.77129292 4:0 
0.048764752131059442563643102630522 1:-1.6364129 2:1.3814908 3:-0.098402947 4:0 
-0.048764752131059442563643102630522 1:-0.1165561 2:-0.98601878 3:0.95212895 4:0 
0.048764752131059442563643102630522 1:1.0727211 2:1.0005817 3:1.1378665 4:0 
-0.048764752131059442563643102630522 1:1.3773085 2:0.22861136 3:1.2390226 4:0 
-0.048764752131059442563643102630522 1:1.1347699 2:0.90954667 3:1.0400759 4:0.2 
-0.048764752131059442563643102630522 1:1.1325322 2:0.99996293 3:1.0854949 4:0.12 
-0.048764752131059442563643102630522 1:1.0467691 2:1.0009352 3:1.1295753 4:0.16 
0.048764752131059442563643102630522 1:-1.1546797 2:0.74071234 3:-0.56296611 4:0 
0.048764752131059442563643102630522 1:-1.9540167 2:0.44035158 3:-0.58305413 4:1.04 
0.048764752131059442563643102630522 1:-1.3466027 2:0.44027674 3:-0.077924281 4:0 
0.048764752131059442563643102630522 1:-1.7535402 2:0.5354057 3:1.1702851 4:0 
-0.048764752131059442563643102630522 1:-0.0039746989 2:0.55812424 3:0.28354639 4:0 
0.048764752131059442563643102630522 1:1.2325886 2:1.000586 3:1.0494626 4:0 
0.048764752131059442563643102630522 1:1.2040465 2:0.99946636 3:1.0871186 4:0 
-0.048764752131059442563643102630522 1:1.284834 2:0.999654 3:0.80039984 4:0.12 
-0.048764752131059442563643102630522 1:1.2213345 2:0.99911964 3:0.86214083 4:0.12 
-0.048764752131059442563643102630522 1:1.1254479 2:0.99952298 3:1.0836509 4:0.12 
-0.048764752131059442563643102630522 1:1.0655627 2:0.99946636 3:0.99954104 4:0.2 
-0.048764752131059442563643102630522 1:1.0996299 2:0.99998766 3:1.0141481 4:0.16 
0.048764752131059442563643102630522 1:-2.1105068 2:-0.34908834 3:1.5604271 4:0 
0.048764752131059442563643102630522 1:-2.0017743 2:-0.063812695 3:1.3228164 4:0 
0.048764752131059442563643102630522 1:-1.6486539 2:-0.41143036 3:0.98001581 4:0 
0.048764752131059442563643102630522 1:-2.0519948 2:0.5354057 3:1.0856673 4:0 
0.048764752131059442563643102630522 1:-0.32072413 2:0.99910641 3:-1.405407 4:0 
-0.048764752131059442563643102630522 1:-0.84902358 2:0.99903727 3:0.23295018 4:0 
0.048764752131059442563643102630522 1:0.62797266 2:1.000888 3:0.90391546 4:0.12 
0.048764752131059442563643102630522 1:0.4135952 2:1 3:0.9817242 4:0.2 
0.048764752131059442563643102630522 1:1.2462797 2:1 3:1.0943475 4:0 
-0.048764752131059442563643102630522 1:1.4447945 2:0.22861136 3:1.1202865 4:0 
-0.048764752131059442563643102630522 1:1.3775146 2:-0.069421433 3:1.235273 4:0 
-0.048764752131059442563643102630522 1:1.4624441 2:-0.12201775 3:1.0316243 4:0.039999999 
-0.048764752131059442563643102630522 1:1.2286685 2:0.20095541 3:1.2418547 4:0.079999998 
0.048764752131059442563643102630522 1:-1.9582798 2:0.99957359 3:0.53993106 4:0 
0.048764752131059442563643102630522 1:-0.80253083 2:1.6620892 3:-0.98285949 4:0 
0.048764752131059442563643102630522 1:-1.8498188 2:1.0969616 3:0.59138417 4:0 
0.048764752131059442563643102630522 1:-2.0251584 2:0.63393587 3:0.93914324 4:0 
-0.048764752131059442563643102630522 1:-0.80167711 2:0.5838452 3:0.55695903 4:0 
-0.048764752131059442563643102630522 1:-0.14922266 2:1.0007746 3:-0.94879055 4:0.23999999 
0.048764752131059442563643102630522 1:1.7579291 2:0.072750293 3:1.231329 4:0.12 
0.048764752131059442563643102630522 1:1.7463439 2:0.27289712 3:1.3051425 4:0 
0.048764752131059442563643102630522 1:1.7633317 2:0.32265997 3:1.2831938 4:0 
-0.048764752131059442563643102630522 1:1.2244602 2:1 3:1.0943475 4:0 
-0.048764752131059442563643102630522 1:1.306995 2:1.0692712 3:0.7004081 4:0 
-0.048764752131059442563643102630522 1:1.2018881 2:0.99909282 3:1.0868886 4:0 
-0.048764752131059442563643102630522 1:1.3086809 2:1 3:0.80446553 4:0 
0.048764752131059442563643102630522 1:-1.4417517 2:-0.41358545 3:0.81548166 4:0 
0.048764752131059442563643102630522 1:-1.7419391 2:-0.17779067 3:1.1191013 4:0 
0.048764752131059442563643102630522 1:0.73669362 2:1 3:1.0944563 4:0.16 
0.048764752131059442563643102630522 1:-1.9968606 2:-0.76713496 3:1.0014813 4:1.24 
-0.048764752131059442563643102630522 1:0.27252883 2:0.99900168 3:-1.1880029 4:0.16 
0.048764752131059442563643102630522 1:1.140314 2:1.0003525 3:1.1212326 4:0 
0.048764752131059442563643102630522 1:1.0461758 2:1.000245 3:1.3293953 4:0 
-0.048764752131059442563643102630522 1:-0.091072403 2:0.99928552 3:-1.3774557 4:0.23999999 
-0.048764752131059442563643102630522 1:0.4011007 2:-0.56250268 3:1.2934853 4:0.88 
-0.048764752131059442563643102630522 1:1.2235 2:0.32306448 3:0.55110055 4:0.44 
-0.048764752131059442563643102630522 1:1.2326165 2:-0.040622264 3:0.81173247 4:0.31999999 
-0.048764752131059442563643102630522 1:0.47834253 2:-0.26838136 3:1.4112339 4:0.51999998 
0.048764752131059442563643102630522 1:-1.9629443 2:0.5354057 3:1.0099275 4:0 
0.048764752131059442563643102630522 1:-1.6698577 2:1.0280687 3:0.52475816 4:0 
0.048764752131059442563643102630522 1:-1.9132713 2:1.3982512 3:0.98246866 4:0 
0.048764752131059442563643102630522 1:-1.9705912 2:0.5354057 3:1.0679584 4:0 
0.048764752131059442563643102630522 1:1.0243098 2:1.0002393 3:1.2272618 4:0 
0.048764752131059442563643102630522 1:1.1135548 2:0.99946636 3:1.1787721 4:0 
0.048764752131059442563643102630522 1:1.6668853 2:0.072750293 3:1.2297997 4:0.12 
0.048764752131059442563643102630522 1:1.6470228 2:0.23912105 3:1.101091 4:0.12 
-0.048764752131059442563643102630522 1:1.0416821 2:0.9998036 3:1.112866 4:0.16 
-0.048764752131059442563643102630522 1:0.96350878 2:0.99946636 3:1.1787721 4:0.2 
-0.048764752131059442563643102630522 1:1.0446887 2:0.99960661 3:1.0802987 4:0.16 
-0.048764752131059442563643102630522 1:1.1314932 2:0.99903727 3:0.96786946 4:0.12 
0.048764752131059442563643102630522 1:-1.9092855 2:0.5354057 3:1.0185119 4:0 
0.048764752131059442563643102630522 1:-1.7765275 2:0.5354057 3:0.93398857 4:0 
0.048764752131059442563643102630522 1:0.68041331 2:0.84663022 3:1.1018811 4:0.2 
0.048764752131059442563643102630522 1:-2.0600538 2:-0.20035309 3:0.83273524 4:0.83999997 
0.048764752131059442563643102630522 1:-1.6249291 2:0.75307977 3:0.66640413 4:0 
-0.048764752131059442563643102630522 1:-0.57600564 2:0.43243054 3:0.6838944 4:0 
0.048764752131059442563643102630522 1:0.98251349 2:1.0005341 3:0.72409886 4:0.2 
0.048764752131059442563643102630522 1:1.2307954 2:1.0000995 3:1.0906919 4:0 
-0.048764752131059442563643102630522 1:0.97148442 2:0.99935746 3:1.1944731 4:0.16 
-0.048764752131059442563643102630522 1:1.0054266 2:1.0008729 3:1.0312544 4:0.2 
-0.048764752131059442563643102630522 1:1.0769614 2:1.0009352 3:0.99958938 4:0.16 
-0.048764752131059442563643102630522 1:0.96056116 2:1.0004888 3:1.2136279 4:0.12 
-0.048764752131059442563643102630522 1:0.59198987 2:0.73168445 3:1.1655018 4:0.44 
0.048764752131059442563643102630522 1:-1.1695728 2:0.66924083 3:-0.14481233 4:0 
0.048764752131059442563643102630522 1:-0.81728822 2:0.23731221 3:-0.32345736 4:0 
0.048764752131059442563643102630522 1:-1.0330973 2:0.44027674 3:-0.083648168 4:0 
0.048764752131059442563643102630522 1:-1.4368373 2:0.99903727 3:0.23295768 4:0 
0.048764752131059442563643102630522 1:0.58193147 2:0.9991591 3:0.9789167 4:0.16 
-0.048764752131059442563643102630522 1:0.39612368 2:-0.27821612 3:0.055183034 4:0 
0.048764752131059442563643102630522 1:1.0498701 2:0.9991591 3:1.1579554 4:0 
0.048764752131059442563643102630522 1:1.3274571 2:0.99956018 3:1.1980526 4:0 
-0.048764752131059442563643102630522 1:1.3012832 2:0.1382862 3:1.2038622 4:0 
-0.048764752131059442563643102630522 1:1.0972095 2:0.88742733 3:1.232904 4:0 
-0.048764752131059442563643102630522 1:1.1196189 2:1 3:1.1733886 4:0 
-0.048764752131059442563643102630522 1:1.2763771 2:0.70316595 3:1.0534952 4:0 
0.048764752131059442563643102630522 1:-1.916061 2:0.9119271 3:0.15364718 4:0.60000002 
0.048764752131059442563643102630522 1:0.1550141 2:1.0096745 3:1.2154635 4:0.2 
0.048764752131059442563643102630522 1:-1.7144086 2:1.1337167 3:0.65583402 4:0 
0.048764752131059442563643102630522 1:1.1299655 2:1.0005341 3:1.1012694 4:0 
0.048764752131059442563643102630522 1:0.49455088 2:1.0007396 3:0.82216418 4:0.2 
-0.048764752131059442563643102630522 1:-1.3768804 2:0.74146777 3:0.3234973 4:0 
0.048764752131059442563643102630522 1:-0.0027763222 2:0.99956018 3:0.86046338 4:0.23999999 
-0.048764752131059442563643102630522 1:1.1297385 2:1.0020093 3:0.8039456 4:0.16 
-0.048764752131059442563643102630522 1:1.0944486 2:1.0020093 3:0.93369985 4:0.16 
-0.048764752131059442563643102630522 1:1.1688894 2:0.87034333 3:0.7437073 4:0.2 
0.048764752131059442563643102630522 1:-1.1851202 2:-0.40316698 3:0.99680471 4:0 
0.048764752131059442563643102630522 1:-1.1327153 2:-0.38919544 3:1.0150391 4:0 
0.048764752131059442563643102630522 1:-1.5761745 2:0.27208433 3:0.93709785 4:0 
-0.048764752131059442563643102630522 1:-1.6748886 2:-0.016274882 3:1.0843152 4:0 
-0.048764752131059442563643102630522 1:-0.73129106 2:0.18376346 3:-1.0565605 4:0.51999998 
0.048764752131059442563643102630522 1:1.2265588 2:0.99960673 3:-0.049558397 4:0 
0.048764752131059442563643102630522 1:1.1168416 2:0.99950337 3:0.99833035 4:0.12 
-0.048764752131059442563643102630522 1:1.4642099 2:0.55908 3:0.90853083 4:0 
-0.048764752131059442563643102630522 1:1.4295126 2:0.44890496 3:0.79119074 4:0 
-0.048764752131059442563643102630522 1:1.4046001 2:-0.12201775 3:1.0316243 4:0.039999999 
-0.048764752131059442563643102630522 1:1.5596484 2:0.24469495 3:0.25494972 4:0 
0.048764752131059442563643102630522 1:-1.979082 2:1.3140202 3:1.1234633 4:0 
0.048764752131059442563643102630522 1:-1.6607021 2:0.52319831 3:0.85488063 4:0 
0.048764752131059442563643102630522 1:-1.7582239 2:0.81907684 3:1.1418056 4:0 
0.048764752131059442563643102630522 1:-1.8073442 2:1.2870806 3:1.1652673 4:0 
0.048764752131059442563643102630522 1:0.40776861 2:1 3:1.016981 4:0.23999999 
0.048764752131059442563643102630522 1:-1.1535583 2:1.0139998 3:0.15126938 4:0.2 
-0.048764752131059442563643102630522 1:0.30593073 2:0.52108359 3:-0.24585287 4:0 
0.048764752131059442563643102630522 1:0.81706893 2:0.99902892 3:0.96755159 4:0.16 
-0.048764752131059442563643102630522 1:1.0303859 2:1 3:1.1202132 4:0.12 
-0.048764752131059442563643102630522 1:0.88299227 2:0.99947703 3:1.0663441 4:0.23999999 
-0.048764752131059442563643102630522 1:0.908732 2:0.99996293 3:1.1406982 4:0.16 
-0.048764752131059442563643102630522 1:0.95242333 2:0.99911964 3:1.1425406 4:0.12 
0.048764752131059442563643102630522 1:-1.0831811 2:-0.10918291 3:0.46563604 4:0 
0.048764752131059442563643102630522 1:-0.8715741 2:0.29978341 3:-0.015995016 4:0 
0.048764752131059442563643102630522 1:-0.83668888 2:0.22232865 3:0.0599549 4:0 
0.048764752131059442563643102630522 1:-0.43274671 2:0.21736237 3:-0.23773327 4:0 
-0.048764752131059442563643102630522 1:0.039837699 2:0.99935746 3:0.025944663 4:0 
-0.048764752131059442563643102630522 1:-0.58196896 2:0.99900043 3:0.27795267 4:0 
-0.048764752131059442563643102630522 1:-0.27307585 2:0.99900043 3:1.0005621 4:0 
-0.048764752131059442563643102630522 1:-1.1470348 2:1.0638953 3:0.44212496 4:0 
-0.048764752131059442563643102630522 1:0.32708231 2:0.99935746 3:0.6341517 4:0 
0.048764752131059442563643102630522 1:0.052272633 2:0.99900043 3:1.0273148 4:0 
0.048764752131059442563643102630522 1:0.40065116 2:0.99900043 3:1.0520271 4:0 
0.048764752131059442563643102630522 1:0.9264189 2:0.99953312 3:1.0394721 4:0.16 
