SVM-light Version V5.00
0 # kernel type
3 # kernel parameter -d 
1 # kernel parameter -g 
1 # kernel parameter -s 
1 # kernel parameter -r 
empty# kernel parameter -u 
20000 # highest feature index 
117693 # number of training documents 
30245 # number of support vectors plus 1 
-0.5043091 # threshold b, each following line is a SV (starting with alpha*y)
-0.0024390359680780235480945794535046 1:13 12:0.75 49:0.5 52:0.25 5005:1 10933:1 15003:0.5 15012:0.25 15037:0.75 
-0.0024390359680780235480945794535046 1:9 27:0.75 9132:1 10057:1 15028:0.25 15085:0.5 15110:0.75 
-0.0024390359680780235480945794535046 1:16 7:0.5 19:0.75 60:0.25 7152:1 10022:1 15049:0.5 15914:0.75 17138:0.25 
-0.0013212488310332477694369890386383 1:23 5:0.75 23:0.25 231:0.5 5028:1 10005:1 15012:0.75 15418:0.5 16519:0.25 
-0.0024390359680780235480945794535046 1:7 26:0.75 182:0.5 1068:0.25 5012:1 10281:1 15023:0.5 15078:0.75 16068:0.25 
-0.0024390359680780235480945794535046 1:12 19:0.75 20:0.5 82:0.25 5069:1 10183:1 15022:0.25 15221:0.5 16175:0.75 
0.024390359680780234613584056546642 1:26 28:0.75 85:0.5 110:0.25 5019:1 10003:1 15004:0.5 15021:0.25 16219:0.75 
-0.0024390359680780235480945794535046 1:15 20:0.75 72:0.25 407:0.5 6367:1 10040:1 15007:0.25 15023:0.75 15084:0.5 
-0.0024390359680780235480945794535046 1:2 7:0.75 19:0.25 640:0.5 5019:1 10042:1 15020:0.75 15040:0.25 15041:0.5 
0.024390359680780234613584056546642 1:6 7:0.25 41:0.75 888:0.5 5005:1 10022:1 15019:0.25 15023:0.5 15507:0.75 
-0.0024390359680780235480945794535046 1:13 5:0.25 76:0.5 364:0.75 5021:1 10020:1 15005:0.5 15714:0.75 16849:0.25 
-0.0024390359680780235480945794535046 1:12 25:0.5 332:0.25 490:0.75 5140:1 10854:1 15007:0.5 15032:0.25 15192:0.75 
0.024390359680780234613584056546642 1:33 27:0.75 5027:1 10021:1 15023:0.25 15143:0.5 16142:0.75 
-0.0024390359680780235480945794535046 1:8 1268:0.75 1467:0.5 2647:0.25 5168:1 10107:1 15019:0.5 15020:0.75 15288:0.25 
0.024390359680780234613584056546642 1:2 19:0.75 20:0.5 3809:0.25 5482:1 10012:1 15007:0.5 15027:0.25 15058:0.75 
0.024390359680780234613584056546642 1:2 2:0.5 19:0.25 539:0.75 5028:1 10012:1 15007:0.75 15024:0.5 15722:0.25 
0.024390359680780234613584056546642 1:2 12:0.75 210:0.25 1786:0.5 5008:1 10085:1 15005:0.75 15036:0.5 15124:0.25 
-0.0024390359680780235480945794535046 1:22 19:0.75 20:0.5 3721:0.25 6911:1 10003:1 15011:0.5 16546:0.75 17028:0.25 
-0.0024390359680780235480945794535046 1:12 275:0.25 629:0.75 3117:0.5 5007:1 10762:1 15005:0.75 15039:0.5 15142:0.25 
-0.0024390359680780235480945794535046 1:2 24:0.75 38:0.25 77:0.5 5079:1 10226:1 15021:0.75 15112:0.25 15118:0.5 
-0.0024390359680780235480945794535046 1:2 7:0.25 19:0.5 115:0.75 5020:1 10029:1 15025:0.25 15037:0.5 15059:0.75 
-0.0024390359680780235480945794535046 1:2 7:0.5 364:0.75 388:0.25 5020:1 10388:1 15050:0.75 15188:0.5 16622:0.25 
-0.0024390359680780235480945794535046 1:2 72:0.5 407:0.75 686:0.25 5020:1 10042:1 15023:0.25 15040:0.5 16740:0.75 
-0.0024390359680780235480945794535046 1:2 19:0.25 30:0.5 4192:0.75 5020:1 12208:1 15002:0.5 15021:0.25 15040:0.75 
-0.0024390359680780235480945794535046 1:2 5:0.5 12:0.75 5005:1 10005:1 15005:0.25 15012:0.5 15021:0.75 
-0.0024390359680780235480945794535046 1:2 19:0.25 30:0.5 128:0.75 5033:1 12208:1 15002:0.5 15021:0.25 15040:0.75 
0.024390359680780234613584056546642 1:2 21:0.75 58:0.5 350:0.25 5012:1 10058:1 15022:0.75 15076:0.25 15616:0.5 
0.024390359680780234613584056546642 1:2 7:0.5 2958:0.75 5003:1 10006:1 15007:0.5 15012:0.25 
-0.0024390359680780235480945794535046 1:2 20:0.25 34:0.75 3311:0.5 5023:1 10021:1 15029:0.75 15307:0.5 15982:0.25 
-0.0024390359680780235480945794535046 1:2 23:0.5 43:0.75 241:0.25 5256:1 10021:1 15024:0.75 15404:0.25 15837:0.5 
-0.0024390359680780235480945794535046 1:2 28:0.25 29:0.75 227:0.5 5003:1 10004:1 15007:0.5 15023:0.25 15997:0.75 
-0.0024390359680780235480945794535046 1:2 33:0.5 122:0.25 395:0.75 6530:1 10021:1 15046:0.25 15107:0.5 16711:0.75 
-0.0024390359680780235480945794535046 1:2 402:0.75 581:0.5 3012:0.25 5077:1 10021:1 15012:0.75 15030:0.25 17508:0.5 
-0.0024390359680780235480945794535046 1:2 12:0.75 20:0.25 1925:0.5 5003:1 10004:1 15005:0.25 15040:0.5 16352:0.75 
-0.0024390359680780235480945794535046 1:2 3:0.75 4:0.25 242:0.5 5002:1 10004:1 15005:0.75 15049:0.25 15052:0.5 
-0.0024390359680780235480945794535046 1:2 3:0.75 883:0.5 1141:0.25 5002:1 10004:1 15022:0.75 15146:0.25 16832:0.5 
-0.0024390359680780235480945794535046 1:2 3:0.75 19:0.25 694:0.5 5002:1 10004:1 15022:0.5 15299:0.75 16149:0.25 
-0.0024390359680780235480945794535046 1:2 3:0.75 50:0.25 4571:0.5 5002:1 10004:1 15034:0.75 15077:0.25 15103:0.5 
-0.0024390359680780235480945794535046 1:2 3:0.5 12:0.25 4446:0.75 5005:1 10005:1 15005:0.5 15012:0.25 
0.024390359680780234613584056546642 1:2 24:0.75 353:0.25 11745:1 15003:0.75 15004:0.25 15012:0.5 
-0.0024390359680780235480945794535046 1:15 24:0.75 36:0.5 124:0.25 5826:1 10005:1 15025:0.5 15170:0.75 16570:0.25 
-0.0024390359680780235480945794535046 1:2 35:0.5 47:0.25 5019:1 10736:1 15007:0.75 15038:0.25 15039:0.5 
-0.0024390359680780235480945794535046 1:2 32:0.75 36:0.5 124:0.25 5024:1 11122:1 15046:0.25 15158:0.5 16304:0.75 
-0.0024390359680780235480945794535046 1:2 23:0.5 88:0.25 1315:0.75 5061:1 10057:1 15007:0.75 15019:0.5 15817:0.25 
-0.0024390359680780235480945794535046 1:2 20:0.25 29:0.75 284:0.5 5003:1 10004:1 15007:0.5 15025:0.25 15213:0.75 
-0.0024390359680780235480945794535046 1:10 33:0.5 1077:0.25 4339:0.75 6889:1 10026:1 15146:0.5 15200:0.75 
-0.0024390359680780235480945794535046 1:2 3:0.25 11:0.75 12:0.5 5012:1 10004:1 15028:0.75 15165:0.5 19354:0.25 
-0.0024390359680780235480945794535046 1:17 24:0.25 111:0.5 2567:0.75 5020:1 10563:1 15024:0.5 15033:0.75 15302:0.25 
-0.0024390359680780235480945794535046 1:13 29:0.25 183:0.5 2263:0.75 5007:1 10964:1 15065:0.25 15090:0.75 16228:0.5 
0.024390359680780234613584056546642 1:4 12:0.75 20:0.5 1023:0.25 5021:1 12561:1 15007:0.25 15039:0.75 17353:0.5 
-0.0024390359680780235480945794535046 1:16 33:0.25 51:0.75 2018:0.5 5020:1 10107:1 15048:0.5 15143:0.25 16532:0.75 
-0.0024390359680780235480945794535046 1:12 25:0.75 534:0.5 942:0.25 5632:1 11308:1 15005:0.75 15047:0.5 16403:0.25 
-0.0024390359680780235480945794535046 1:2 28:0.75 40:0.25 582:0.5 5019:1 10042:1 15024:0.5 15229:0.75 15537:0.25 
-0.0024390359680780235480945794535046 1:2 7:0.75 40:0.5 593:0.25 5019:1 10034:1 15005:0.25 15048:0.5 15407:0.75 
-0.0024390359680780235480945794535046 1:2 7:0.5 23:0.75 37:0.25 5019:1 10005:1 15043:0.25 15997:0.75 
0.024390359680780234613584056546642 1:13 183:0.25 221:0.75 1175:0.5 5022:1 10155:1 15005:0.75 15021:0.5 15327:0.25 
-0.0024390359680780235480945794535046 1:2 23:0.25 153:0.5 1943:0.75 5045:1 10003:1 15004:0.5 15431:0.25 18465:0.75 
-0.0024390359680780235480945794535046 1:2 20:0.5 30:0.75 42:0.25 5966:1 10003:1 15004:0.5 15012:0.75 19152:0.25 
-0.0024390359680780235480945794535046 1:2 11:0.75 269:0.25 391:0.5 5046:1 10003:1 15011:0.5 15350:0.25 15391:0.75 
-0.0024390359680780235480945794535046 1:2 48:0.75 86:0.5 275:0.25 5033:1 10003:1 15002:0.25 15313:0.5 15674:0.75 
-0.0024390359680780235480945794535046 1:2 4:0.25 31:0.5 279:0.75 5025:1 10003:1 15005:0.5 15074:0.25 15083:0.75 
-0.0024390359680780235480945794535046 1:2 5:0.5 64:0.25 115:0.75 5020:1 10029:1 15025:0.25 15037:0.5 15059:0.75 
-0.0024390359680780235480945794535046 1:11 31:0.75 33:0.25 667:0.5 5052:1 10033:1 15005:0.25 15012:0.75 15031:0.5 
-0.0024390359680780235480945794535046 1:2 32:0.5 132:0.25 2830:0.75 5019:1 10300:1 15020:0.25 15110:0.75 15409:0.5 
-0.0024390359680780235480945794535046 1:2 4:0.5 12:0.25 379:0.75 5019:1 11977:1 15129:0.75 15146:0.5 15345:0.25 
0.024390359680780234613584056546642 1:5 46:0.75 68:0.5 3136:0.25 5117:1 10012:1 15005:0.75 15187:0.5 15315:0.25 
-0.0024390359680780235480945794535046 1:2 4:0.25 28:0.75 131:0.5 5167:1 10185:1 15003:0.75 15004:0.25 15012:0.5 
0.024390359680780234613584056546642 1:26 5:0.25 35:0.5 152:0.75 5026:1 10261:1 15148:0.5 16535:0.25 16874:0.75 
-0.0024390359680780235480945794535046 1:2 19:0.25 108:0.75 116:0.5 5020:1 10184:1 15005:0.75 15019:0.5 15031:0.25 
-0.0024390359680780235480945794535046 1:11 24:0.25 216:0.5 3582:0.75 5019:1 10002:1 15058:0.75 15461:0.5 15908:0.25 
-0.0024390359680780235480945794535046 1:17 32:0.75 252:0.25 1777:0.5 5560:1 10007:1 15027:0.25 
-0.0024390359680780235480945794535046 1:6 35:0.5 47:0.25 5019:1 10007:1 15038:0.5 15039:0.75 15077:0.25 
0.024390359680780234613584056546642 1:2 12:0.25 23:0.75 156:0.5 5206:1 10007:1 15020:0.5 15988:0.25 17703:0.75 
-0.0024390359680780235480945794535046 1:2 5:0.5 123:0.25 187:0.75 5002:1 10022:1 15033:0.5 15134:0.75 16343:0.25 
-0.0024390359680780235480945794535046 1:2 28:0.5 58:0.25 1526:0.75 5021:1 10101:1 15020:0.25 15802:0.5 16590:0.75 
-0.0024390359680780235480945794535046 1:2 36:0.5 129:0.75 392:0.25 5002:1 10022:1 15024:0.25 15033:0.5 16257:0.75 
-0.0024390359680780235480945794535046 1:4 5:0.5 19:0.75 694:0.25 7690:1 14866:1 15019:0.5 15028:0.75 16339:0.25 
-0.0024390359680780235480945794535046 1:10 12:0.75 575:0.5 5262:1 10559:1 15002:0.5 15003:0.75 17396:0.25 
-0.0024390359680780235480945794535046 1:16 2:0.25 4:0.75 979:0.5 5648:1 10007:1 15005:0.5 15159:0.75 15196:0.25 
-0.0024390359680780235480945794535046 1:2 5:0.5 12:0.75 5005:1 10005:1 15005:0.5 15012:0.25 
-0.0024390359680780235480945794535046 1:2 5:0.5 12:0.75 5005:1 10005:1 15005:0.5 15012:0.25 
0.024390359680780234613584056546642 1:44 4:0.25 19:0.75 21:0.5 5012:1 10007:1 15019:0.75 15174:0.25 18086:0.5 
0.024390359680780234613584056546642 1:2 5:0.75 58:0.5 350:0.25 5012:1 10058:1 15012:0.5 15021:0.75 15350:0.25 
0.024390359680780234613584056546642 1:2 5:0.5 52:0.75 803:0.25 5049:1 15003:0.25 15005:0.75 16634:0.5 
-0.0024390359680780235480945794535046 1:2 26:0.75 157:0.5 210:0.25 5901:1 10066:1 15023:0.5 15133:0.25 19985:0.75 
-0.0024390359680780235480945794535046 1:2 567:0.75 1810:0.5 1915:0.25 5045:1 10223:1 15005:0.25 15023:0.75 15315:0.5 
-0.0024390359680780235480945794535046 1:2 19:0.25 115:0.5 233:0.75 5020:1 10012:1 15011:0.75 15037:0.25 15059:0.5 
-0.0024390359680780235480945794535046 1:2 5:0.25 29:0.75 5003:1 10004:1 15012:0.25 15021:0.75 15024:0.5 
-0.0024390359680780235480945794535046 1:9 7:0.5 19:0.75 58:0.25 9183:1 11227:1 15011:0.5 15350:0.25 15391:0.75 
-0.0024390359680780235480945794535046 1:2 12:0.5 29:0.75 44:0.25 5003:1 10004:1 15021:0.75 15023:0.25 19748:0.5 
-0.0024390359680780235480945794535046 1:2 29:0.75 30:0.25 3433:0.5 5003:1 10004:1 15021:0.75 15026:0.5 18311:0.25 
-0.0024390359680780235480945794535046 1:3 7:0.5 915:0.75 1208:0.25 5020:1 10050:1 15012:0.25 15020:0.5 15053:0.75 
-0.0024390359680780235480945794535046 1:2 19:0.25 20:0.75 3424:0.5 5019:1 11276:1 15019:0.5 15020:0.75 17079:0.25 
-0.0024390359680780235480945794535046 1:2 2:0.5 19:0.25 1938:0.75 5062:1 10007:1 15019:0.75 15034:0.5 17827:0.25 
-0.0024390359680780235480945794535046 1:2 2:0.25 5:0.5 23:0.75 5019:1 10300:1 15002:0.25 15020:0.75 15042:0.5 
-0.0024390359680780235480945794535046 1:2 21:0.25 25:0.75 244:0.5 5019:1 10109:1 15012:0.5 15020:0.75 15021:0.25 
-0.0024390359680780235480945794535046 1:2 2:0.5 19:0.25 1938:0.75 5062:1 10054:1 15019:0.75 16588:0.25 18286:0.5 
-0.0024390359680780235480945794535046 1:2 33:0.5 310:0.25 620:0.75 5003:1 10004:1 15002:0.75 15055:0.5 15179:0.25 
-0.0024390359680780235480945794535046 1:2 21:0.5 29:0.75 68:0.25 5003:1 10004:1 15007:0.25 16913:0.5 
-0.0024390359680780235480945794535046 1:2 63:0.25 109:0.75 190:0.5 5003:1 10002:1 15002:0.5 15004:0.25 15025:0.75 
-0.0024390359680780235480945794535046 1:2 19:0.25 309:0.75 644:0.5 5003:1 10002:1 15002:0.5 15004:0.25 15025:0.75 
0.024390359680780234613584056546642 1:16 20:0.75 674:0.25 883:0.5 9735:1 10033:1 15022:0.5 15922:0.75 17911:0.25 
-0.0024390359680780235480945794535046 1:2 29:0.5 38:0.75 5028:1 10785:1 15007:0.75 15269:0.25 15810:0.5 
-0.0024390359680780235480945794535046 1:11 5:0.25 12:0.75 21:0.5 5007:1 10041:1 15024:0.25 15040:0.75 15758:0.5 
-0.0024390359680780235480945794535046 1:11 19:0.25 20:0.75 3424:0.5 5019:1 10019:1 15005:0.5 15534:0.25 17079:0.75 
-0.0024390359680780235480945794535046 1:17 19:0.75 20:0.5 144:0.25 7659:1 10055:1 15022:0.5 15155:0.25 15505:0.75 
-0.0024390359680780235480945794535046 1:2 19:0.5 20:0.25 31:0.75 5020:1 10012:1 15005:0.75 15019:0.5 
-0.0024390359680780235480945794535046 1:2 19:0.75 28:0.5 114:0.25 5030:1 11208:1 15007:0.75 15035:0.5 15061:0.25 
-0.0024390359680780235480945794535046 1:8 20:0.25 59:0.75 186:0.5 5051:1 10104:1 15007:0.5 15037:0.75 17879:0.25 
-0.0024390359680780235480945794535046 1:3 12:0.5 54:0.75 229:0.25 5002:1 10007:1 15099:0.5 17062:0.75 17599:0.25 
-0.0024390359680780235480945794535046 1:2 5:0.75 147:0.25 677:0.5 5012:1 12084:1 15002:0.5 15021:0.75 15264:0.25 
-0.0024390359680780235480945794535046 1:2 5:0.75 12:0.25 2864:0.5 5012:1 12084:1 15002:0.5 15021:0.75 15264:0.25 
-0.0024390359680780235480945794535046 1:15 453:0.75 1145:0.5 1478:0.25 5019:1 13458:1 15007:0.75 15039:0.5 15347:0.25 
-0.0024390359680780235480945794535046 1:2 7:0.25 21:0.75 1893:0.5 5012:1 10064:1 15133:0.5 15144:0.25 16930:0.75 
-0.0024390359680780235480945794535046 1:2 3:0.5 12:0.25 4699:0.75 10007:1 15002:0.5 15003:0.75 15004:0.25 
-0.0024390359680780235480945794535046 1:2 26:0.75 73:0.25 141:0.5 5012:1 10067:1 15024:0.5 15281:0.25 15324:0.75 
-0.0024390359680780235480945794535046 1:14 7:0.5 39:0.75 736:0.25 5038:1 10021:1 15022:0.25 15075:0.5 17902:0.75 
-0.0024390359680780235480945794535046 1:2 19:0.75 21:0.5 1062:0.25 5272:1 11977:1 15002:0.25 15019:0.5 15054:0.75 
-0.0024390359680780235480945794535046 1:2 20:0.75 480:0.25 946:0.5 5002:1 10007:1 15019:0.75 15020:0.25 15031:0.5 
-0.0024390359680780235480945794535046 1:2 21:0.75 264:0.25 1984:0.5 5012:1 12084:1 15005:0.25 15007:0.75 15159:0.5 
-0.0024390359680780235480945794535046 1:2 21:0.25 56:0.5 2905:0.75 5012:1 10023:1 15007:0.25 15928:0.5 16280:0.75 
0.024390359680780234613584056546642 1:53 7:0.75 12:0.25 37:0.5 5195:1 10003:1 15004:0.25 15012:0.5 19841:0.75 
-0.0024390359680780235480945794535046 1:16 19:0.25 20:0.75 53:0.5 5515:1 10005:1 15019:0.75 15020:0.25 16118:0.5 
-0.0024390359680780235480945794535046 1:21 37:0.75 264:0.25 4895:0.5 5021:1 10005:1 15022:0.25 15052:0.75 15455:0.5 
-0.0024390359680780235480945794535046 1:2 12:0.75 24:0.5 32:0.25 5003:1 10004:1 15012:0.75 15022:0.25 15060:0.5 
-0.0024390359680780235480945794535046 1:2 12:0.25 235:0.75 303:0.5 5003:1 10004:1 15012:0.75 15024:0.25 15117:0.5 
-0.0024390359680780235480945794535046 1:2 20:0.25 46:0.75 72:0.5 5003:1 10004:1 15059:0.5 15285:0.25 15325:0.75 
-0.0024390359680780235480945794535046 1:3 21:0.5 24:0.75 75:0.25 5002:1 11043:1 15020:0.5 15235:0.75 15295:0.25 
0.024390359680780234613584056546642 1:54 3:0.75 5:0.25 12:0.5 5024:1 10004:1 15005:0.25 15007:0.75 15012:0.5 
-0.0024390359680780235480945794535046 1:2 19:0.5 28:0.25 30:0.75 6530:1 11208:1 15007:0.75 15019:0.5 15561:0.25 
-0.0024390359680780235480945794535046 1:2 36:0.5 124:0.25 130:0.75 5140:1 10040:1 15007:0.75 15019:0.5 15072:0.25 
-0.0024390359680780235480945794535046 1:2 12:0.5 19:0.25 42:0.75 5003:1 10074:1 15004:0.5 15005:0.25 15012:0.75 
-0.0024390359680780235480945794535046 1:5 36:0.75 165:0.5 5012:1 10193:1 15045:0.5 15144:0.75 15768:0.25 
-0.0024390359680780235480945794535046 1:2 12:0.5 19:0.25 42:0.75 5020:1 10074:1 15007:0.5 15012:0.75 15130:0.25 
0.024390359680780234613584056546642 1:2 20:0.25 442:0.5 1228:0.75 5056:1 10051:1 15022:0.5 15339:0.25 17891:0.75 
-0.0024390359680780235480945794535046 1:12 21:0.5 29:0.75 5029:1 10021:1 15007:0.5 15012:0.75 19199:0.25 
-0.0024390359680780235480945794535046 1:6 12:0.25 201:0.5 517:0.75 5494:1 10007:1 15012:0.5 15021:0.25 15065:0.75 
-0.0024390359680780235480945794535046 1:2 5:0.25 22:0.75 81:0.5 5400:1 11122:1 15007:0.75 15019:0.5 15328:0.25 
-0.0024390359680780235480945794535046 1:17 19:0.5 279:0.75 1576:0.25 5020:1 10036:1 15036:0.5 15124:0.75 15670:0.25 
-0.0024390359680780235480945794535046 1:10 21:0.25 39:0.5 113:0.75 5506:1 10440:1 15007:0.25 15051:0.5 15454:0.75 
-0.0024390359680780235480945794535046 1:2 3:0.5 12:0.75 51:0.25 5005:1 10005:1 15005:0.5 15012:0.25 
-0.0024390359680780235480945794535046 1:6 25:0.5 130:0.75 671:0.25 5377:1 10577:1 15011:0.5 15074:0.75 18853:0.25 
-0.0024390359680780235480945794535046 1:16 12:0.75 133:0.25 6375:1 10007:1 15023:0.75 15039:0.5 17601:0.25 
-0.0024390359680780235480945794535046 1:16 12:0.75 19:0.5 20:0.25 7715:1 10005:1 15012:0.25 15021:0.5 
-0.0024390359680780235480945794535046 1:6 52:0.25 67:0.5 4058:0.75 5369:1 10451:1 15021:0.5 15792:0.75 19178:0.25 
-0.0024390359680780235480945794535046 1:2 3:0.75 1981:0.5 4376:0.25 5012:1 10054:1 15020:0.25 19473:0.5 19574:0.75 
0.024390359680780234613584056546642 1:2 28:0.5 582:0.25 1098:0.75 7847:1 10023:1 15024:0.75 15031:0.25 17644:0.5 
-0.0024390359680780235480945794535046 1:2 5:0.25 29:0.75 1605:0.5 5003:1 10004:1 15005:0.5 15881:0.25 16906:0.75 
-0.0024390359680780235480945794535046 1:6 4:0.25 5:0.5 36:0.75 5124:1 10112:1 15044:0.5 15188:0.25 15516:0.75 
0.024390359680780234613584056546642 1:2 2:0.5 19:0.25 1625:0.75 5007:1 15003:0.25 15022:0.75 15261:0.5 
-0.0024390359680780235480945794535046 1:19 24:0.5 111:0.75 891:0.25 6471:1 10003:1 15004:0.5 15005:0.25 15842:0.75 
-0.0024390359680780235480945794535046 1:10 12:0.5 19:0.25 21:0.75 5983:1 10026:1 15490:0.25 15856:0.75 15983:0.5 
-0.0024390359680780235480945794535046 1:2 48:0.5 79:0.75 407:0.25 5033:1 10040:1 15007:0.75 15019:0.5 15593:0.25 
-0.0024390359680780235480945794535046 1:2 12:0.5 433:0.75 2905:0.25 5023:1 10928:1 15007:0.75 15065:0.5 16473:0.25 
-0.0024390359680780235480945794535046 1:11 7:0.25 12:0.5 83:0.75 5069:1 10023:1 15032:0.25 15309:0.75 15595:0.5 
-0.0024390359680780235480945794535046 1:3 28:0.5 34:0.75 175:0.25 5075:1 10007:1 15019:0.75 15316:0.25 15389:0.5 
0.024390359680780234613584056546642 1:2 43:0.75 146:0.5 200:0.25 5976:1 10011:1 15058:0.25 15442:0.75 16191:0.5 
-0.0024390359680780235480945794535046 1:2 5:0.5 12:0.75 5005:1 10005:1 15005:0.5 15012:0.75 
-0.0024390359680780235480945794535046 1:15 12:0.75 19:0.5 20:0.25 5021:1 10007:1 15141:0.25 15180:0.75 15323:0.5 
-0.0024390359680780235480945794535046 1:21 12:0.75 20:0.5 31:0.25 5021:1 10021:1 15012:0.25 15026:0.5 15141:0.75 
0.024390359680780234613584056546642 1:2 20:0.75 642:0.5 1056:0.25 5065:1 15000:1 15005:0.75 15019:0.5 15023:0.25 
0.024390359680780234613584056546642 1:3 25:0.5 178:0.75 468:0.25 5751:1 10005:1 15107:0.25 15569:0.75 16886:0.5 
-0.0024390359680780235480945794535046 1:2 48:0.75 72:0.25 407:0.5 5033:1 10040:1 15007:0.75 15019:0.5 15593:0.25 
-0.0024390359680780235480945794535046 1:2 26:0.5 397:0.25 620:0.75 5003:1 10004:1 15002:0.75 15022:0.25 15067:0.5 
-0.0024390359680780235480945794535046 1:2 20:0.5 519:0.25 620:0.75 5003:1 10004:1 15002:0.75 15030:0.25 15032:0.5 
-0.0024390359680780235480945794535046 1:2 7:0.25 842:0.5 2541:0.75 5028:1 11088:1 15029:0.5 15044:0.75 15311:0.25 
-0.0024390359680780235480945794535046 1:2 12:0.75 74:0.5 476:0.25 5021:1 10074:1 15004:0.5 15005:0.25 15012:0.75 
-0.0024390359680780235480945794535046 1:2 5:0.25 36:0.5 262:0.75 5028:1 10213:1 15003:0.75 15011:0.25 15288:0.5 
-0.0024390359680780235480945794535046 1:2 45:0.75 348:0.5 3808:0.25 5133:1 10279:1 15007:0.75 15012:0.25 15906:0.5 
-0.0024390359680780235480945794535046 1:2 33:0.75 48:0.5 407:0.25 5019:1 10034:1 15007:0.5 15027:0.25 15088:0.75 
-0.0024390359680780235480945794535046 1:2 3:0.25 11:0.75 3795:0.5 5012:1 10005:1 15046:0.25 15546:0.5 16381:0.75 
-0.0024390359680780235480945794535046 1:2 3:0.5 1044:0.25 4817:0.75 5005:1 10005:1 15005:0.5 15012:0.25 
-0.0024390359680780235480945794535046 1:2 25:0.75 31:0.5 34:0.25 5395:1 11926:1 15007:0.75 15395:0.5 16471:0.25 
-0.0024390359680780235480945794535046 1:2 3:0.25 11:0.75 3795:0.5 5012:1 10005:1 15025:0.25 15046:0.5 15546:0.75 
0.00094362733827139835644792764668409 1:4 21:0.25 290:0.5 1075:0.75 5007:1 10005:1 15022:0.25 15025:0.5 15202:0.75 
-0.0024390359680780235480945794535046 1:2 20:0.5 1048:0.25 2854:0.75 5021:1 10478:1 15007:0.5 15027:0.25 15177:0.75 
-0.0024390359680780235480945794535046 1:2 12:0.75 23:0.5 139:0.25 5011:1 10029:1 15028:0.25 15029:0.75 15038:0.5 
-0.0024390359680780235480945794535046 1:2 32:0.25 47:0.5 258:0.75 5741:1 14869:1 15007:0.5 15126:0.25 17400:0.75 
-0.0024390359680780235480945794535046 1:2 43:0.25 405:0.75 3007:0.5 5023:1 10340:1 15007:0.75 15041:0.5 15323:0.25 
0.024390359680780234613584056546642 1:9 7:0.5 103:0.25 682:0.75 5020:1 10166:1 15020:0.25 15021:0.75 15276:0.5 
-0.0024390359680780235480945794535046 1:2 31:0.5 99:0.25 1385:0.75 5888:1 10184:1 15007:0.75 15027:0.25 
-0.0024390359680780235480945794535046 1:2 12:0.5 21:0.25 1972:0.75 5025:1 10029:1 15007:0.5 15019:0.25 16913:0.75 
-0.0024390359680780235480945794535046 1:2 3:0.25 11:0.75 3795:0.5 5012:1 10005:1 15025:0.25 15046:0.5 15546:0.75 
-0.0024390359680780235480945794535046 1:3 12:0.75 28:0.5 175:0.25 5021:1 10004:1 15005:0.75 15021:0.5 15024:0.25 
-0.0024390359680780235480945794535046 1:10 8:0.5 375:0.75 843:0.25 9050:1 10887:1 15061:0.25 15322:0.75 16479:0.5 
-0.0024390359680780235480945794535046 1:25 31:0.5 57:0.75 71:0.25 5020:1 10007:1 15043:0.75 16166:0.5 18586:0.25 
-0.0024390359680780235480945794535046 1:11 5:0.25 24:0.5 444:0.75 5376:1 10038:1 15019:0.5 15028:0.75 16112:0.25 
-0.0024390359680780235480945794535046 1:2 19:0.25 20:0.75 107:0.5 5370:1 11288:1 15005:0.75 15047:0.5 15121:0.25 
-0.0024390359680780235480945794535046 1:2 5:0.25 12:0.75 3152:0.5 5003:1 10012:1 15004:0.75 15005:0.5 15047:0.25 
-0.0024390359680780235480945794535046 1:2 256:0.25 290:0.5 658:0.75 5021:1 10020:1 15005:0.5 15012:0.75 15076:0.25 
-0.0024390359680780235480945794535046 1:2 5:0.5 427:0.75 5007:1 10005:1 15005:0.25 15021:0.75 19699:0.5 
0.024390359680780234613584056546642 1:6 7:0.25 19:0.5 31:0.75 5020:1 10025:1 15050:0.5 15350:0.25 15391:0.75 
-0.0024390359680780235480945794535046 1:17 5:0.5 21:0.75 588:0.25 5019:1 10023:1 15007:0.25 15343:0.75 15897:0.5 
-0.0024390359680780235480945794535046 1:2 7:0.25 35:0.5 93:0.75 5026:1 13915:1 15040:0.75 15049:0.25 15741:0.5 
-0.0024390359680780235480945794535046 1:2 20:0.25 39:0.5 1002:0.75 5007:1 10012:1 15022:0.75 15025:0.25 15691:0.5 
-0.0024390359680780235480945794535046 1:23 7:0.75 20:0.25 2106:0.5 9654:1 10003:1 15012:0.5 15019:0.25 16458:0.75 
-0.0024390359680780235480945794535046 1:20 20:0.25 69:0.5 151:0.75 5026:1 10021:1 15338:0.5 16524:0.25 
-0.0024390359680780235480945794535046 1:2 19:0.75 20:0.5 63:0.25 9908:1 10109:1 15022:0.5 15026:0.75 15495:0.25 
-0.0024390359680780235480945794535046 1:15 7:0.75 371:0.25 477:0.5 6842:1 10005:1 15012:0.75 15406:0.25 16448:0.5 
-0.0024390359680780235480945794535046 1:2 7:0.5 223:0.25 394:0.75 5005:1 10223:1 15158:0.5 15708:0.75 16142:0.25 
-0.0024390359680780235480945794535046 1:15 30:0.25 167:0.5 2665:0.75 5207:1 10021:1 15012:0.75 15033:0.25 16019:0.5 
-0.0024390359680780235480945794535046 1:10 5:0.75 12:0.25 30:0.5 5021:1 10172:1 15020:0.75 15029:0.5 15044:0.25 
-0.0024390359680780235480945794535046 1:2 7:0.75 38:0.5 696:0.25 5019:1 10042:1 15022:0.75 15032:0.25 15755:0.5 
-0.0024390359680780235480945794535046 1:2 25:0.5 678:0.25 2116:0.75 5019:1 10012:1 15023:0.25 15085:0.5 18829:0.75 
-0.0024390359680780235480945794535046 1:15 1055:0.25 1281:0.75 2903:0.5 5019:1 10114:1 15012:0.5 15028:0.75 15260:0.25 
0.024390359680780234613584056546642 1:5 19:0.5 208:0.75 1149:0.25 5020:1 10025:1 15203:0.25 15554:0.5 17420:0.75 
-0.0024390359680780235480945794535046 1:11 5:0.25 20:0.75 1898:0.5 5019:1 10012:1 15022:0.5 15070:0.75 15131:0.25 
-0.0024390359680780235480945794535046 1:2 7:0.25 888:0.5 4370:0.75 5390:1 11122:1 15005:0.5 15012:0.25 15432:0.75 
-0.0024390359680780235480945794535046 1:2 7:0.5 37:0.25 247:0.75 5005:1 10340:1 15025:0.5 16204:0.75 19310:0.25 
-0.0024390359680780235480945794535046 1:2 2:0.5 42:0.75 74:0.25 5003:1 10074:1 15012:0.75 15021:0.5 15476:0.25 
-0.0024390359680780235480945794535046 1:12 12:0.5 20:0.75 116:0.25 5710:1 10799:1 15007:0.5 15027:0.25 15263:0.75 
-0.0024390359680780235480945794535046 1:8 5:0.5 22:0.75 40:0.25 5257:1 10819:1 15022:0.25 15026:0.5 15151:0.75 
-0.0024390359680780235480945794535046 1:14 26:0.25 123:0.75 819:0.5 5020:1 10024:1 15031:0.75 15033:0.25 15062:0.5 
-0.0024390359680780235480945794535046 1:2 7:0.75 1471:0.25 1926:0.5 5395:1 11926:1 15003:0.75 15004:0.25 16088:0.5 
-0.0024390359680780235480945794535046 1:12 20:0.75 22:0.25 167:0.5 5019:1 13104:1 15020:0.75 15030:0.5 15211:0.25 
-0.0024390359680780235480945794535046 1:2 68:0.25 206:0.75 4639:0.5 5966:1 10005:1 15005:0.5 15012:0.75 15021:0.25 
-0.0024390359680780235480945794535046 1:16 19:0.25 42:0.75 254:0.5 5020:1 10048:1 15022:0.75 15025:0.25 15093:0.5 
-0.0024390359680780235480945794535046 1:17 23:0.5 345:0.25 4635:0.75 5025:1 10007:1 15038:0.5 15039:0.75 16505:0.25 
-0.0024390359680780235480945794535046 1:12 26:0.75 650:0.5 949:0.25 6737:1 13316:1 15008:0.75 15012:0.25 15024:0.5 
0.024390359680780234613584056546642 1:52 4:0.5 5:0.75 5019:1 10003:1 15004:0.5 15012:0.75 15021:0.25 
-0.0024390359680780235480945794535046 1:2 20:0.25 38:0.5 77:0.75 7994:1 10109:1 15021:0.75 15074:0.25 15436:0.5 
-0.0024390359680780235480945794535046 1:18 5:0.25 20:0.75 655:0.5 5019:1 10513:1 15012:0.25 15032:0.75 15079:0.5 
0.024390359680780234613584056546642 1:4 24:0.5 74:0.75 77:0.25 5021:1 10742:1 15007:0.75 15019:0.5 15527:0.25 
-0.0024390359680780235480945794535046 1:2 25:0.5 1574:0.25 2854:0.75 5050:1 13329:1 15021:0.25 15032:0.75 17835:0.5 
-0.0024390359680780235480945794535046 1:15 20:0.75 130:0.25 377:0.5 5019:1 13853:1 15007:0.5 15041:0.25 15088:0.75 
-0.0024390359680780235480945794535046 1:10 12:0.75 1863:0.25 5103:1 14306:1 15261:0.75 15774:0.5 17537:0.25 
-0.0024390359680780235480945794535046 1:2 7:0.75 40:0.5 593:0.25 5019:1 10040:1 15005:0.75 15024:0.5 15302:0.25 
-0.0024390359680780235480945794535046 1:2 12:0.5 20:0.25 21:0.75 5019:1 10388:1 15007:0.25 15012:0.5 15020:0.75 
0.024390359680780234613584056546642 1:6 12:0.25 31:0.5 62:0.75 5045:1 10007:1 15041:0.75 15189:0.25 15323:0.5 
-0.0024390359680780235480945794535046 1:11 25:0.25 31:0.5 3091:0.75 5005:1 10024:1 15012:0.75 15028:0.25 15058:0.5 
-0.0024390359680780235480945794535046 1:2 5:0.75 12:0.5 20:0.25 5043:1 10772:1 15007:0.25 15034:0.75 18857:0.5 
-0.0024390359680780235480945794535046 1:3 4:0.5 12:0.25 34:0.75 5021:1 10003:1 15004:0.5 15012:0.75 15185:0.25 
-0.0024390359680780235480945794535046 1:15 29:0.25 287:0.5 1070:0.75 5020:1 10043:1 15024:0.25 15038:0.75 15077:0.5 
-0.0024390359680780235480945794535046 1:2 20:0.25 872:0.5 4791:0.75 5005:1 10520:1 15003:0.5 15905:0.75 18312:0.25 
-0.0024390359680780235480945794535046 1:9 19:0.75 20:0.5 446:0.25 5031:1 11106:1 15021:0.5 15038:0.25 15106:0.75 
-0.0024390359680780235480945794535046 1:10 2:0.25 71:0.75 89:0.5 5925:1 13505:1 15003:0.75 15004:0.25 15012:0.5 
-0.0024390359680780235480945794535046 1:11 5:0.25 21:0.5 909:0.75 5007:1 10154:1 15019:0.25 15045:0.5 18622:0.75 
-0.0024390359680780235480945794535046 1:2 5:0.75 83:0.25 546:0.5 5019:1 10300:1 15020:0.25 15309:0.5 16388:0.75 
0.024390359680780234613584056546642 1:51 20:0.75 24:0.25 1312:0.5 5019:1 10005:1 15100:0.75 15295:0.25 17480:0.5 
-0.0024390359680780235480945794535046 1:10 22:0.25 32:0.75 238:0.5 5019:1 10012:1 15005:0.25 15012:0.5 15021:0.75 
-0.0024390359680780235480945794535046 1:10 19:0.75 52:0.25 1736:0.5 5208:1 14323:1 15005:0.5 15040:0.75 15047:0.25 
-0.0024390359680780235480945794535046 1:13 25:0.25 29:0.5 211:0.75 5021:1 10296:1 15007:0.5 19311:0.25 19412:0.75 
0.024390359680780234613584056546642 1:5 19:0.5 20:0.25 502:0.75 5021:1 10128:1 15023:0.75 15029:0.25 
-0.0024390359680780235480945794535046 1:13 20:0.75 87:0.25 90:0.5 7658:1 11371:1 15007:0.75 15320:0.25 16523:0.5 
-0.0024390359680780235480945794535046 1:2 203:0.75 312:0.5 3484:0.25 5023:1 10153:1 15012:0.5 15081:0.25 16319:0.75 
-0.0024390359680780235480945794535046 1:12 5:0.25 20:0.75 2177:0.5 5040:1 12338:1 15022:0.25 15100:0.5 16692:0.75 
-0.0024390359680780235480945794535046 1:2 95:0.75 205:0.25 251:0.5 5019:1 10042:1 15024:0.5 15036:0.75 15111:0.25 
0.024390359680780234613584056546642 1:5 29:0.5 148:0.75 1698:0.25 5007:1 10022:1 15022:0.25 15025:0.5 16890:0.75 
-0.0024390359680780235480945794535046 1:10 406:0.25 2300:0.5 2733:0.75 7727:1 10825:1 15029:0.5 15222:0.75 15262:0.25 
-0.0024390359680780235480945794535046 1:2 20:0.25 29:0.5 51:0.75 5007:1 11199:1 15024:0.5 15095:0.75 15199:0.25 
-0.0024390359680780235480945794535046 1:12 7:0.5 55:0.25 428:0.75 5023:1 10183:1 15020:0.25 15053:0.5 15419:0.75 
-0.0024390359680780235480945794535046 1:15 19:0.75 349:0.25 703:0.5 5967:1 10021:1 15025:0.25 15067:0.75 15090:0.5 
-0.0024390359680780235480945794535046 1:3 28:0.5 131:0.25 167:0.75 5012:1 10003:1 15004:0.5 15007:0.25 15012:0.75 
0.024390359680780234613584056546642 1:4 21:0.75 230:0.5 2795:0.25 8872:1 10011:1 15005:0.5 15280:0.75 15511:0.25 
-0.0024390359680780235480945794535046 1:2 5:0.25 83:0.75 2009:0.5 5005:1 10083:1 15005:0.75 15083:0.25 19361:0.5 
-0.0024390359680780235480945794535046 1:2 29:0.25 37:0.75 59:0.5 5025:1 10785:1 15005:0.75 15026:0.25 15161:0.5 
0.024390359680780234613584056546642 1:51 19:0.75 77:0.5 85:0.25 5030:1 10021:1 15019:0.75 15109:0.25 18706:0.5 
-0.0024390359680780235480945794535046 1:4 20:0.75 223:0.5 3321:0.25 5019:1 10003:1 15004:0.5 15005:0.25 17311:0.75 
-0.0024390359680780235480945794535046 1:3 19:0.75 110:0.5 185:0.25 7150:1 10021:1 15019:0.75 15032:0.25 15055:0.5 
-0.0024390359680780235480945794535046 1:2 5:0.5 21:0.75 2015:0.25 5026:1 10431:1 15019:0.5 15020:0.75 15916:0.25 
-0.0024390359680780235480945794535046 1:20 67:0.5 258:0.25 1325:0.75 5019:1 10055:1 15019:0.5 15029:0.25 15054:0.75 
-0.0024390359680780235480945794535046 1:2 11:0.25 1217:0.75 1612:0.5 5005:1 10005:1 15012:0.25 15020:0.5 15123:0.75 
-0.0024390359680780235480945794535046 1:12 27:0.75 5019:1 10019:1 15030:0.5 15175:0.25 18158:0.75 
-0.0024390359680780235480945794535046 1:2 23:0.25 329:0.75 1512:0.5 5021:1 11199:1 15005:0.5 15035:0.25 15896:0.75 
-0.0024390359680780235480945794535046 1:10 19:0.5 38:0.75 339:0.25 5020:1 10012:1 15003:0.5 15012:0.25 15034:0.75 
-0.0024390359680780235480945794535046 1:15 25:0.5 1859:0.75 3221:0.25 5019:1 11661:1 15183:0.75 16770:0.25 16792:0.5 
-0.0024390359680780235480945794535046 1:2 12:0.75 20:0.5 305:0.25 5011:1 10029:1 15025:0.25 15037:0.5 15059:0.75 
-0.0024390359680780235480945794535046 1:2 20:0.75 883:0.5 1141:0.25 5002:1 10007:1 15024:0.75 15214:0.25 15462:0.5 
-0.0024390359680780235480945794535046 1:2 21:0.5 23:0.75 4243:0.25 9232:1 10067:1 15024:0.5 15977:0.25 19266:0.75 
-0.0024390359680780235480945794535046 1:2 40:0.25 44:0.75 464:0.5 5236:1 10050:1 15049:0.25 15219:0.5 18575:0.75 
0.024390359680780234613584056546642 1:5 19:0.25 28:0.75 135:0.5 5566:1 10007:1 15011:0.25 15012:0.5 15076:0.75 
-0.0024390359680780235480945794535046 1:2 405:0.75 955:0.25 2279:0.5 5023:1 10031:1 15019:0.25 15021:0.5 15086:0.75 
-0.0024390359680780235480945794535046 1:3 7:0.75 12:0.25 279:0.5 5906:1 10022:1 15025:0.5 15324:0.25 15495:0.75 
-0.0024390359680780235480945794535046 1:10 12:0.75 19:0.5 20:0.25 5388:1 10565:1 15021:0.25 15038:0.75 15158:0.5 
-0.0024390359680780235480945794535046 1:2 12:0.5 20:0.75 24:0.25 5002:1 10005:1 15019:0.25 15026:0.5 15161:0.75 
-0.0024390359680780235480945794535046 1:9 12:0.75 22:0.5 3167:0.25 5028:1 10012:1 15011:0.75 15012:0.5 16730:0.25 
-0.0024390359680780235480945794535046 1:2 2:0.5 5:0.75 74:0.25 5021:1 10074:1 15002:0.75 15004:0.5 15005:0.25 
-0.0024390359680780235480945794535046 1:12 12:0.75 24:0.5 141:0.25 5031:1 10005:1 15032:0.5 15135:0.25 17231:0.75 
-0.0024390359680780235480945794535046 1:11 40:0.25 44:0.5 951:0.75 5007:1 11278:1 15475:0.25 15497:0.5 16573:0.75 
-0.0024390359680780235480945794535046 1:2 11:0.75 132:0.25 242:0.5 5046:1 10058:1 15008:0.75 15056:0.5 15362:0.25 
-0.0024390359680780235480945794535046 1:3 20:0.75 330:0.25 1155:0.5 5019:1 10091:1 15022:0.5 15081:0.75 15251:0.25 
-0.0024390359680780235480945794535046 1:13 26:0.5 151:0.25 276:0.75 5019:1 10041:1 15007:0.25 15029:0.75 15128:0.5 
-0.0024390359680780235480945794535046 1:2 20:0.75 421:0.25 467:0.5 5019:1 10042:1 15020:0.75 17104:0.25 17220:0.5 
-0.0024390359680780235480945794535046 1:2 20:0.75 27:0.25 362:0.5 5019:1 10042:1 15020:0.75 15030:0.5 19388:0.25 
-0.0024390359680780235480945794535046 1:15 20:0.5 29:0.25 284:0.75 5029:1 10007:1 15019:0.25 15025:0.75 15447:0.5 
-0.0024390359680780235480945794535046 1:15 12:0.75 41:0.25 5332:1 10022:1 15025:0.5 15491:0.75 18126:0.25 
-0.0024390359680780235480945794535046 1:10 12:0.75 22:0.25 5007:1 10026:1 15019:0.75 15156:0.25 16408:0.5 
-0.0024390359680780235480945794535046 1:22 21:0.25 373:0.75 1802:0.5 5021:1 10011:1 15007:0.25 15012:0.75 15038:0.5 
-0.0024390359680780235480945794535046 1:17 19:0.25 51:0.5 300:0.75 5005:1 10021:1 15019:0.5 15075:0.25 15415:0.75 
-0.0024390359680780235480945794535046 1:13 11:0.5 12:0.75 5038:1 10022:1 15043:0.25 15054:0.5 15171:0.75 
-0.0024390359680780235480945794535046 1:15 20:0.5 24:0.75 631:0.25 5071:1 10050:1 15024:0.75 15265:0.5 15631:0.25 
-0.0024390359680780235480945794535046 1:10 12:0.25 198:0.5 257:0.75 5565:1 10066:1 15007:0.75 15020:0.25 15907:0.5 
-0.0024390359680780235480945794535046 1:11 19:0.5 23:0.25 143:0.75 5132:1 10184:1 15005:0.25 15007:0.75 15660:0.5 
0.024390359680780234613584056546642 1:45 5:0.75 23:0.25 223:0.5 5019:1 10007:1 15005:0.5 15012:0.25 15136:0.75 
-0.0024390359680780235480945794535046 1:9 7:0.25 77:0.75 85:0.5 5019:1 10003:1 15004:0.5 15012:0.75 15042:0.25 
0.024390359680780234613584056546642 1:42 29:0.25 37:0.75 59:0.5 5025:1 10510:1 15029:0.25 15030:0.5 16324:0.75 
-0.0024390359680780235480945794535046 1:11 19:0.25 20:0.75 599:0.5 5019:1 10012:1 15012:0.5 15025:0.75 15026:0.25 
-0.0024390359680780235480945794535046 1:12 22:0.25 155:0.75 1025:0.5 5045:1 10032:1 15028:0.25 15038:0.5 15056:0.75 
-0.0024390359680780235480945794535046 1:3 7:0.75 508:0.5 1111:0.25 5019:1 10005:1 15005:0.5 15012:0.75 15021:0.25 
-0.0024390359680780235480945794535046 1:15 12:0.75 25:0.5 332:0.25 5005:1 10025:1 15025:0.5 15170:0.75 16067:0.25 
-0.0024390359680780235480945794535046 1:15 19:0.25 60:0.75 196:0.5 5020:1 11268:1 15019:0.75 15144:0.25 15371:0.5 
-0.0024390359680780235480945794535046 1:16 52:0.5 816:0.25 1904:0.75 5019:1 10125:1 15007:0.25 15031:0.75 15042:0.5 
-0.0024390359680780235480945794535046 1:11 5:0.25 21:0.5 24:0.75 5529:1 10044:1 15007:0.5 15012:0.75 16597:0.25 
-0.0024390359680780235480945794535046 1:11 19:0.75 26:0.25 1085:0.5 5439:1 10604:1 15025:0.5 15031:0.75 17479:0.25 
-0.0024390359680780235480945794535046 1:10 23:0.25 153:0.5 1150:0.75 5320:1 10157:1 15026:0.75 15051:0.25 15113:0.5 
-0.0024390359680780235480945794535046 1:20 70:0.75 366:0.25 2938:0.5 5020:1 10061:1 15007:0.25 15022:0.75 16962:0.5 
-0.0024390359680780235480945794535046 1:3 12:0.5 20:0.25 21:0.75 5195:1 10005:1 15005:0.5 15012:0.75 15050:0.25 
-0.0024390359680780235480945794535046 1:2 20:0.25 116:0.5 1142:0.75 5045:1 10223:1 15019:0.5 15811:0.25 17656:0.75 
-0.0024390359680780235480945794535046 1:3 7:0.25 12:0.5 354:0.75 7763:1 10003:1 15004:0.5 15022:0.25 16433:0.75 
-0.0024390359680780235480945794535046 1:18 33:0.5 1460:0.75 2799:0.25 5020:1 11185:1 15007:0.5 15019:0.25 15163:0.75 
-0.0024390359680780235480945794535046 1:2 12:0.5 319:0.75 2083:0.25 5003:1 10002:1 15002:0.5 15004:0.25 15025:0.75 
-0.0024390359680780235480945794535046 1:2 5:0.75 7:0.25 1997:0.5 5012:1 12084:1 15002:0.5 15050:0.75 15264:0.25 
0.024390359680780234613584056546642 1:50 20:0.75 156:0.5 503:0.25 5019:1 10007:1 15012:0.5 15019:0.75 15024:0.25 
-0.0024390359680780235480945794535046 1:2 24:0.75 35:0.25 891:0.5 5111:1 14946:1 15003:0.5 15034:0.75 15842:0.25 
-0.0024390359680780235480945794535046 1:2 45:0.5 47:0.75 310:0.25 8786:1 11276:1 15021:0.25 15022:0.75 16958:0.5 
0.024390359680780234613584056546642 1:49 19:0.5 1407:0.75 3631:0.25 5048:1 10025:1 15007:0.25 15628:0.75 16506:0.5 
-0.0024390359680780235480945794535046 1:8 19:0.25 298:0.5 4924:0.75 5046:1 10683:1 15020:0.5 15040:0.25 15088:0.75 
-0.0024390359680780235480945794535046 1:17 51:0.75 117:0.5 1498:0.25 5020:1 10197:1 15032:0.25 15037:0.5 15104:0.75 
0.024390359680780234613584056546642 1:50 12:0.25 20:0.75 70:0.5 5019:1 10003:1 15004:0.5 17403:0.75 18390:0.25 
-0.0024390359680780235480945794535046 1:21 20:0.75 156:0.5 2987:0.25 5019:1 10021:1 15149:0.25 15482:0.75 19992:0.5 
-0.0024390359680780235480945794535046 1:12 7:0.75 869:0.5 1603:0.25 5019:1 10176:1 15012:0.25 15020:0.5 15082:0.75 
-0.0024390359680780235480945794535046 1:2 2:0.5 5:0.75 74:0.25 5021:1 10074:1 15002:0.75 15019:0.25 15595:0.5 
0.024390359680780234613584056546642 1:6 5:0.75 37:0.5 905:0.25 5187:1 10022:1 15023:0.25 15304:0.5 17032:0.75 
-0.0024390359680780235480945794535046 1:20 23:0.25 24:0.5 873:0.75 5020:1 10007:1 15012:0.25 15022:0.5 18292:0.75 
-0.0024390359680780235480945794535046 1:2 12:0.75 20:0.5 115:0.25 5011:1 10029:1 15007:0.25 15037:0.5 15059:0.75 
-0.0024390359680780235480945794535046 1:2 12:0.75 20:0.5 115:0.25 5011:1 10029:1 15025:0.25 15037:0.5 15059:0.75 
-0.0024390359680780235480945794535046 1:9 24:0.5 28:0.25 87:0.75 5680:1 10047:1 15025:0.25 15544:0.75 15671:0.5 
-0.0024390359680780235480945794535046 1:15 51:0.5 109:0.75 2437:0.25 10007:1 15005:0.5 15024:0.25 15126:0.75 
-0.0024390359680780235480945794535046 1:2 22:0.25 164:0.5 372:0.75 5032:1 10012:1 15007:0.75 15888:0.5 19370:0.25 
0.024390359680780234613584056546642 1:49 20:0.25 42:0.75 1355:0.5 5020:1 10022:1 15025:0.5 15093:0.75 17393:0.25 
-0.0024390359680780235480945794535046 1:15 19:0.75 47:0.25 1594:0.5 7266:1 10005:1 15012:0.75 15021:0.25 15042:0.5 
-0.0024390359680780235480945794535046 1:12 20:0.25 69:0.75 118:0.5 5151:1 10033:1 15012:0.75 15053:0.25 15055:0.5 
-0.0024390359680780235480945794535046 1:2 43:0.5 205:0.25 1727:0.75 5275:1 10340:1 15028:0.75 15031:0.25 15227:0.5 
-0.0024390359680780235480945794535046 1:12 20:0.75 236:0.25 1360:0.5 5039:1 10038:1 15007:0.75 15019:0.5 15371:0.25 
-0.0024390359680780235480945794535046 1:15 12:0.75 24:0.5 645:0.25 5030:1 10718:1 15005:0.75 15035:0.5 15095:0.25 
-0.0024390359680780235480945794535046 1:2 24:0.25 78:0.75 281:0.5 5023:1 10928:1 15024:0.5 15229:0.75 16042:0.25 
-0.0024390359680780235480945794535046 1:17 12:0.75 32:0.5 5021:1 10889:1 15007:0.5 15289:0.75 17887:0.25 
-0.0024390359680780235480945794535046 1:3 5:0.25 28:0.75 547:0.5 5019:1 10075:1 15005:0.5 15012:0.75 15023:0.25 
0.024390359680780234613584056546642 1:48 33:0.75 63:0.25 177:0.5 5500:1 10031:1 15025:0.75 15048:0.25 15056:0.5 
-0.0024390359680780235480945794535046 1:3 20:0.75 38:0.5 265:0.25 5019:1 10048:1 15019:0.5 15028:0.75 15795:0.25 
-0.0024390359680780235480945794535046 1:4 20:0.75 37:0.5 417:0.25 5019:1 10007:1 15012:0.5 15019:0.75 15055:0.25 
-0.0024390359680780235480945794535046 1:3 12:0.25 20:0.5 966:0.75 5003:1 10004:1 15022:0.5 15688:0.75 16003:0.25 
0.024390359680780234613584056546642 1:5 19:0.25 196:0.5 1030:0.75 5020:1 10198:1 15033:0.25 15080:0.5 15363:0.75 
-0.0024390359680780235480945794535046 1:15 20:0.75 31:0.5 3871:0.25 5019:1 10046:1 15034:0.25 15158:0.5 15740:0.75 
-0.0024390359680780235480945794535046 1:15 5:0.25 24:0.5 42:0.75 5026:1 10023:1 15019:0.75 15028:0.25 15038:0.5 
-0.0024390359680780235480945794535046 1:8 7:0.5 35:0.75 2528:0.25 5448:1 10319:1 15012:0.5 15020:0.75 15026:0.25 
-0.0024390359680780235480945794535046 1:10 19:0.75 23:0.5 34:0.25 6760:1 10008:1 15028:0.5 15135:0.75 19010:0.25 
-0.0024390359680780235480945794535046 1:15 7:0.25 19:0.5 276:0.75 5020:1 10034:1 15003:0.5 15012:0.25 
-0.0024390359680780235480945794535046 1:2 5:0.5 70:0.25 215:0.75 5836:1 10388:1 15007:0.75 15020:0.25 15364:0.5 
-0.0024390359680780235480945794535046 1:13 23:0.75 174:0.25 2719:0.5 5227:1 10021:1 15068:0.5 15525:0.25 15833:0.75 
-0.0024390359680780235480945794535046 1:10 19:0.75 26:0.25 461:0.5 5404:1 10025:1 15002:0.25 15083:0.5 15486:0.75 
-0.0024390359680780235480945794535046 1:2 5:0.75 12:0.25 2864:0.5 5002:1 11984:1 15012:0.5 15021:0.75 15264:0.25 
-0.0024390359680780235480945794535046 1:15 4:0.25 7:0.5 586:0.75 5020:1 15003:0.25 15005:0.75 15012:0.5 
-0.0024390359680780235480945794535046 1:10 22:0.25 464:0.75 1865:0.5 5044:1 10036:1 15012:0.25 15043:0.75 17093:0.5 
0.024390359680780234613584056546642 1:49 4:0.25 21:0.5 28:0.75 5063:1 10742:1 15003:0.75 15012:0.5 15021:0.25 
-0.0024390359680780235480945794535046 1:12 12:0.5 57:0.75 461:0.25 5007:1 11061:1 15012:0.5 15034:0.75 17298:0.25 
-0.0024390359680780235480945794535046 1:2 24:0.5 162:0.25 261:0.75 5178:1 10031:1 15005:0.5 15036:0.25 15086:0.75 
-0.0024390359680780235480945794535046 1:2 19:0.25 20:0.75 1820:0.5 5079:1 10074:1 15025:0.25 15066:0.75 15171:0.5 
-0.0024390359680780235480945794535046 1:15 3:0.25 4:0.75 12:0.5 5021:1 10325:1 15007:0.25 15059:0.75 15080:0.5 
-0.0024390359680780235480945794535046 1:3 20:0.75 113:0.25 499:0.5 5019:1 10190:1 15023:0.75 15195:0.25 15510:0.5 
-0.0024390359680780235480945794535046 1:2 19:0.25 21:0.75 127:0.5 5196:1 10109:1 15044:0.75 15164:0.25 15737:0.5 
-0.0024390359680780235480945794535046 1:17 5:0.75 242:0.5 1334:0.25 5021:1 10137:1 15023:0.75 15068:0.25 15118:0.5 
-0.0024390359680780235480945794535046 1:3 20:0.25 30:0.5 1811:0.75 5034:1 10003:1 15004:0.5 15012:0.75 15025:0.25 
0.024390359680780234613584056546642 1:48 23:0.75 25:0.25 728:0.5 5026:1 10047:1 15029:0.25 15064:0.75 16215:0.5 
-0.0024390359680780235480945794535046 1:11 22:0.25 89:0.5 229:0.75 5012:1 10021:1 15024:0.75 15070:0.5 15096:0.25 
-0.0024390359680780235480945794535046 1:15 35:0.25 121:0.5 126:0.75 5026:1 10020:1 15012:0.75 15022:0.5 15327:0.25 
-0.0024390359680780235480945794535046 1:12 37:0.75 59:0.5 227:0.25 5007:1 15020:0.5 15041:0.25 15499:0.75 
-0.0024390359680780235480945794535046 1:12 12:0.5 20:0.25 168:0.75 5046:1 10973:1 15129:0.75 15146:0.25 15904:0.5 
-0.0024390359680780235480945794535046 1:18 21:0.5 51:0.75 181:0.25 5020:1 10075:1 15003:0.75 15004:0.25 18485:0.5 
-0.0024390359680780235480945794535046 1:21 19:0.75 224:0.25 664:0.5 5030:1 10021:1 15332:0.25 15786:0.5 15852:0.75 
-0.0024390359680780235480945794535046 1:17 12:0.75 20:0.5 4183:0.25 6227:1 10005:1 15196:0.25 15391:0.75 15849:0.5 
-0.0024390359680780235480945794535046 1:3 5:0.75 22:0.25 694:0.5 5019:1 10070:1 15019:0.5 15519:0.25 17762:0.75 
-0.0024390359680780235480945794535046 1:15 19:0.25 57:0.75 1205:0.5 5914:1 10005:1 15019:0.5 15031:0.25 15173:0.75 
-0.0024390359680780235480945794535046 1:2 60:0.75 127:0.25 711:0.5 5021:1 10300:1 15007:0.25 15012:0.5 15020:0.75 
-0.0024390359680780235480945794535046 1:3 19:0.5 20:0.25 2175:0.75 5003:1 10004:1 15003:0.5 15048:0.75 16914:0.25 
0.024390359680780234613584056546642 1:2 5:0.5 58:0.25 391:0.75 5181:1 10058:1 15012:0.5 15021:0.75 15058:0.25 
-0.0024390359680780235480945794535046 1:4 7:0.5 76:0.75 5019:1 10003:1 15004:0.25 15012:0.75 15142:0.5 
-0.0024390359680780235480945794535046 1:3 19:0.5 20:0.25 2175:0.75 5003:1 10004:1 15022:0.5 15048:0.75 15122:0.25 
-0.0024390359680780235480945794535046 1:15 19:0.5 23:0.25 212:0.75 5020:1 11599:1 15007:0.5 15041:0.25 15058:0.75 
-0.0024390359680780235480945794535046 1:10 19:0.25 404:0.75 480:0.5 5020:1 10012:1 15048:0.5 15149:0.25 15794:0.75 
-0.0024390359680780235480945794535046 1:2 20:0.5 90:0.75 939:0.25 5033:1 11088:1 15005:0.25 15007:0.75 16166:0.5 
-0.0024390359680780235480945794535046 1:14 19:0.75 20:0.5 689:0.25 5970:1 10023:1 15007:0.25 15030:0.5 18726:0.75 
-0.0024390359680780235480945794535046 1:3 4:0.25 7:0.5 19:0.75 5626:1 10022:1 15022:0.25 15025:0.5 15120:0.75 
-0.0024390359680780235480945794535046 1:10 71:0.5 145:0.75 2150:0.25 5019:1 10030:1 15007:0.5 15023:0.25 15055:0.75 
0.024390359680780234613584056546642 1:8 19:0.5 31:0.75 33:0.25 5025:1 10007:1 15026:0.25 15035:0.75 15152:0.5 
-0.0024390359680780235480945794535046 1:22 26:0.25 3312:0.75 8653:1 10003:1 15004:0.5 15029:0.25 19516:0.75 
-0.0024390359680780235480945794535046 1:10 12:0.5 54:0.75 74:0.25 5103:1 10723:1 15012:0.25 15025:0.5 15119:0.75 
-0.0024390359680780235480945794535046 1:16 19:0.25 125:0.75 250:0.5 5020:1 10046:1 15003:0.75 15004:0.25 15012:0.5 
-0.0024390359680780235480945794535046 1:12 12:0.75 26:0.5 412:0.25 5287:1 10620:1 15003:0.75 15004:0.25 17283:0.5 
-0.0024390359680780235480945794535046 1:15 38:0.25 77:0.5 737:0.75 5021:1 13269:1 15040:0.25 15253:0.5 15737:0.75 
-0.0024390359680780235480945794535046 1:15 7:0.75 12:0.5 25:0.25 5019:1 11927:1 15012:0.75 15101:0.5 15462:0.25 
-0.0024390359680780235480945794535046 1:12 5:0.75 12:0.25 2367:0.5 5047:1 10031:1 15012:0.5 15020:0.75 15025:0.25 
-0.0024390359680780235480945794535046 1:3 12:0.5 28:0.25 229:0.75 5019:1 12995:1 15005:0.75 15012:0.5 15135:0.25 
-0.0024390359680780235480945794535046 1:3 20:0.75 32:0.25 636:0.5 5019:1 10108:1 15019:0.25 15025:0.5 15886:0.75 
-0.0024390359680780235480945794535046 1:11 5:0.5 19:0.75 136:0.25 9111:1 10040:1 15019:0.5 15170:0.75 15181:0.25 
0.024390359680780234613584056546642 1:49 7:0.25 35:0.5 408:0.75 5572:1 10003:1 15004:0.5 15005:0.25 15012:0.75 
-0.0024390359680780235480945794535046 1:11 20:0.5 102:0.25 239:0.75 5282:1 10149:1 15026:0.75 15118:0.25 16395:0.5 
-0.0024390359680780235480945794535046 1:9 4:0.5 12:0.25 58:0.75 5022:1 10992:1 15019:0.25 15023:0.5 16347:0.75 
-0.0024390359680780235480945794535046 1:12 4:0.5 60:0.75 1376:0.25 5005:1 12001:1 15036:0.25 15137:0.75 15310:0.5 
-0.0024390359680780235480945794535046 1:3 46:0.75 296:0.25 685:0.5 5003:1 10004:1 15003:0.25 15012:0.5 15031:0.75 
-0.0024390359680780235480945794535046 1:3 12:0.75 195:0.25 1838:0.5 5003:1 10004:1 15003:0.25 15012:0.5 15021:0.75 
-0.0024390359680780235480945794535046 1:3 4:0.5 7:0.75 12:0.25 5003:1 10245:1 15025:0.25 15049:0.75 15170:0.5 
-0.0024390359680780235480945794535046 1:3 5:0.5 12:0.25 410:0.75 5012:1 10022:1 15023:0.25 15093:0.5 15604:0.75 
-0.0024390359680780235480945794535046 1:2 19:0.5 32:0.25 395:0.75 6530:1 11208:1 15007:0.75 15020:0.25 15915:0.5 
-0.0024390359680780235480945794535046 1:20 24:0.25 192:0.75 1260:0.5 5005:1 10005:1 15024:0.75 15444:0.5 16260:0.25 
-0.0024390359680780235480945794535046 1:11 5:0.75 26:0.5 141:0.25 5023:1 10056:1 15023:0.5 15078:0.75 17093:0.25 
-0.0024390359680780235480945794535046 1:17 24:0.75 28:0.5 34:0.25 8991:1 10021:1 15024:0.75 15196:0.5 16978:0.25 
-0.0024390359680780235480945794535046 1:17 12:0.75 272:0.5 292:0.25 5196:1 10022:1 15025:0.5 16651:0.25 16756:0.75 
-0.0024390359680780235480945794535046 1:3 5:0.5 52:0.75 291:0.25 5049:1 10005:1 15025:0.5 15034:0.25 15109:0.75 
-0.0024390359680780235480945794535046 1:3 19:0.25 330:0.5 649:0.75 5003:1 10004:1 15003:0.25 15031:0.75 15060:0.5 
-0.0024390359680780235480945794535046 1:8 12:0.75 34:0.5 1061:0.25 5175:1 12000:1 15012:0.25 15033:0.5 16188:0.75 
-0.0024390359680780235480945794535046 1:19 12:0.25 1467:0.75 4640:0.5 5457:1 10021:1 15007:0.5 15143:0.75 16891:0.25 
-0.0024390359680780235480945794535046 1:12 22:0.5 24:0.75 359:0.25 5392:1 10031:1 15012:0.25 15024:0.5 15028:0.75 
0.024390359680780234613584056546642 1:48 5:0.25 187:0.5 315:0.75 5023:1 10005:1 15012:0.25 15129:0.75 15256:0.5 
-0.0024390359680780235480945794535046 1:4 20:0.5 1713:0.75 3294:0.25 5030:1 10003:1 15004:0.5 15023:0.25 16866:0.75 
0.024390359680780234613584056546642 1:6 3:0.25 4:0.75 1302:0.5 5011:1 14640:1 15012:0.25 15457:0.5 16467:0.75 
-0.0024390359680780235480945794535046 1:12 12:0.75 25:0.5 31:0.25 5005:1 10304:1 15076:0.75 15657:0.25 15792:0.5 
-0.0024390359680780235480945794535046 1:15 12:0.75 49:0.5 52:0.25 5003:1 10012:1 15004:0.75 15007:0.5 15035:0.25 
-0.0024390359680780235480945794535046 1:2 2:0.25 21:0.75 593:0.5 5002:1 10005:1 15036:0.25 15124:0.5 
-0.0024390359680780235480945794535046 1:3 19:0.5 45:0.25 172:0.75 5020:1 10025:1 15019:0.75 15034:0.25 15895:0.5 
-0.0024390359680780235480945794535046 1:15 12:0.75 20:0.5 356:0.25 5044:1 10032:1 15232:0.75 15239:0.5 15748:0.25 
-0.0024390359680780235480945794535046 1:10 12:0.5 24:0.25 802:0.75 5132:1 10220:1 15007:0.5 15027:0.25 15051:0.75 
0.024390359680780234613584056546642 1:8 28:0.75 68:0.25 311:0.5 6827:1 10021:1 15043:0.75 15293:0.5 16663:0.25 
-0.0024390359680780235480945794535046 1:3 7:0.25 12:0.75 649:0.5 5003:1 10004:1 15022:0.75 15791:0.5 19344:0.25 
-0.0024390359680780235480945794535046 1:11 23:0.75 31:0.25 756:0.5 5232:1 10040:1 15007:0.75 15023:0.5 15204:0.25 
-0.0024390359680780235480945794535046 1:12 29:0.5 90:0.75 452:0.25 5032:1 10552:1 15020:0.5 15057:0.75 15441:0.25 
-0.0024390359680780235480945794535046 1:2 63:0.75 205:0.5 213:0.25 10031:1 15002:0.25 15008:0.5 17597:0.75 
-0.0024390359680780235480945794535046 1:2 2:0.75 74:0.5 476:0.25 5005:1 10074:1 15002:0.75 15005:0.5 15021:0.25 
-0.0024390359680780235480945794535046 1:12 4:0.5 5:0.75 12:0.25 5019:1 10048:1 15005:0.25 15033:0.75 15540:0.5 
-0.0024390359680780235480945794535046 1:2 2:0.75 74:0.5 476:0.25 5005:1 10074:1 15002:0.75 15005:0.5 15021:0.25 
-0.0024390359680780235480945794535046 1:11 12:0.5 26:0.25 101:0.75 5349:1 10138:1 15007:0.25 16964:0.75 17599:0.5 
-0.0024390359680780235480945794535046 1:2 46:0.5 155:0.75 338:0.25 5046:1 10866:1 15005:0.75 15020:0.25 15123:0.5 
-0.0024390359680780235480945794535046 1:3 4:0.25 19:0.75 20:0.5 7631:1 10031:1 15003:0.5 15034:0.75 18674:0.25 
-0.0024390359680780235480945794535046 1:14 25:0.25 212:0.5 2682:0.75 5149:1 10007:1 15005:0.25 15023:0.75 15204:0.5 
-0.0024390359680780235480945794535046 1:3 19:0.5 20:0.25 29:0.75 5003:1 10004:1 15005:0.75 15036:0.5 15408:0.25 
-0.0024390359680780235480945794535046 1:3 301:0.5 1692:0.25 4820:0.75 5003:1 10004:1 15022:0.75 15024:0.5 15462:0.25 
-0.0024390359680780235480945794535046 1:11 5:0.75 60:0.5 70:0.25 5047:1 10023:1 15007:0.5 15039:0.25 15736:0.75 
0.024390359680780234613584056546642 1:7 25:0.5 164:0.25 2102:0.75 7232:1 10021:1 15019:0.25 15136:0.75 15544:0.5 
-0.0024390359680780235480945794535046 1:15 19:0.75 26:0.5 141:0.25 5239:1 10005:1 15005:0.5 15012:0.75 15021:0.25 
-0.0024390359680780235480945794535046 1:17 19:0.5 1083:0.75 1215:0.25 5020:1 10234:1 15007:0.25 15246:0.5 15518:0.75 
-0.0024390359680780235480945794535046 1:24 19:0.25 181:0.5 326:0.75 5020:1 10005:1 15019:0.5 15187:0.75 15240:0.25 
-0.0024390359680780235480945794535046 1:11 56:0.25 60:0.75 127:0.5 5007:1 11042:1 15012:0.25 15020:0.5 15279:0.75 
-0.0024390359680780235480945794535046 1:3 4:0.25 50:0.5 521:0.75 5003:1 10083:1 15004:0.75 15287:0.5 15869:0.25 
-0.0024390359680780235480945794535046 1:14 20:0.5 1531:0.75 3083:0.25 6412:1 10007:1 15027:0.25 
-0.0024390359680780235480945794535046 1:3 12:0.75 21:0.5 5003:1 10004:1 15025:0.25 15031:0.75 15279:0.5 
-0.0024390359680780235480945794535046 1:19 20:0.75 60:0.5 127:0.25 5019:1 10101:1 15007:0.25 15012:0.5 
-0.0024390359680780235480945794535046 1:21 27:0.5 362:0.75 5020:1 10023:1 15019:0.75 15199:0.5 15730:0.25 
-0.0024390359680780235480945794535046 1:2 2:0.75 74:0.5 476:0.25 5005:1 10074:1 15002:0.75 15005:0.5 15476:0.25 
-0.0024390359680780235480945794535046 1:10 24:0.75 67:0.25 324:0.5 5281:1 10928:1 15024:0.5 15229:0.75 16042:0.25 
-0.0024390359680780235480945794535046 1:13 5:0.75 6:0.25 159:0.5 5019:1 12482:1 15002:0.25 15003:0.75 15012:0.5 
-0.0024390359680780235480945794535046 1:20 20:0.75 36:0.25 390:0.5 5019:1 10005:1 15019:0.75 15020:0.25 
-0.0024390359680780235480945794535046 1:20 20:0.75 240:0.5 1688:0.25 5019:1 10007:1 15002:0.25 16177:0.75 16942:0.5 
-0.0024390359680780235480945794535046 1:15 24:0.25 712:0.5 4335:0.75 5020:1 10222:1 15005:0.75 15094:0.25 15173:0.5 
-0.0024390359680780235480945794535046 1:3 242:0.75 338:0.5 566:0.25 5020:1 10005:1 15007:0.5 15012:0.75 15193:0.25 
0.024390359680780234613584056546642 1:48 27:0.75 5027:1 11215:1 15012:0.75 15132:0.25 15143:0.5 
-0.0024390359680780235480945794535046 1:9 7:0.75 105:0.5 268:0.25 5035:1 10026:1 15005:0.5 15012:0.75 15052:0.25 
0.024390359680780234613584056546642 1:5 21:0.25 129:0.75 2282:0.5 5146:1 10022:1 15002:0.25 15096:0.5 16655:0.75 
0.024390359680780234613584056546642 1:4 26:0.75 121:0.5 1932:0.25 5393:1 10175:1 15028:0.75 15197:0.5 15542:0.25 
-0.0024390359680780235480945794535046 1:17 20:0.5 150:0.25 2836:0.75 5427:1 10007:1 15024:0.5 15302:0.75 16705:0.25 
-0.0024390359680780235480945794535046 1:20 5:0.5 12:0.25 944:0.75 5019:1 10005:1 15012:0.5 15178:0.25 16945:0.75 
-0.0024390359680780235480945794535046 1:19 7:0.75 12:0.25 437:0.5 5019:1 10034:1 15021:0.5 15024:0.75 15029:0.25 
-0.0024390359680780235480945794535046 1:3 19:0.75 25:0.5 204:0.25 5048:1 10300:1 15012:0.25 15019:0.5 15021:0.75 
-0.0024390359680780235480945794535046 1:3 19:0.25 2930:0.5 3119:0.75 5003:1 10004:1 15005:0.25 15031:0.75 15034:0.5 
-0.0024390359680780235480945794535046 1:3 2:0.75 20:0.5 946:0.25 5012:1 10005:1 15025:0.5 16696:0.75 16941:0.25 
-0.0024390359680780235480945794535046 1:3 12:0.75 28:0.5 175:0.25 5005:1 10005:1 15005:0.5 15012:0.75 15021:0.25 
-0.0024390359680780235480945794535046 1:2 143:0.75 155:0.5 430:0.25 5023:1 10223:1 15005:0.75 15023:0.25 15065:0.5 
-0.0024390359680780235480945794535046 1:12 7:0.5 12:0.75 2163:0.25 6550:1 10211:1 15024:0.5 15025:0.75 16373:0.25 
-0.0024390359680780235480945794535046 1:2 20:0.5 66:0.25 2994:0.75 5196:1 10042:1 15007:0.75 15027:0.25 
-0.0024390359680780235480945794535046 1:21 65:0.25 1143:0.75 1265:0.5 5021:1 10005:1 15022:0.5 15047:0.75 19288:0.25 
-0.0024390359680780235480945794535046 1:2 5:0.25 945:0.5 1748:0.75 5025:1 10223:1 15523:0.75 15824:0.5 16934:0.25 
-0.0024390359680780235480945794535046 1:15 4:0.75 12:0.25 1730:0.5 5021:1 10028:1 15003:0.5 15012:0.25 18002:0.75 
-0.0024390359680780235480945794535046 1:3 38:0.75 56:0.5 2041:0.25 5028:1 10007:1 15023:0.25 15357:0.5 17122:0.75 
-0.0024390359680780235480945794535046 1:3 32:0.5 53:0.25 1037:0.75 5028:1 10022:1 15032:0.5 15129:0.25 15178:0.75 
-0.0024390359680780235480945794535046 1:3 31:0.5 62:0.75 736:0.25 5003:1 10137:1 15003:0.5 15012:0.25 15310:0.75 
-0.0024390359680780235480945794535046 1:3 66:0.25 96:0.75 4484:0.5 5019:1 10031:1 15003:0.5 15012:0.25 15060:0.75 
-0.0024390359680780235480945794535046 1:17 19:0.5 78:0.75 531:0.25 5020:1 10051:1 15020:0.5 15029:0.25 15423:0.75 
-0.0024390359680780235480945794535046 1:3 4:0.25 12:0.75 31:0.5 5003:1 10012:1 15004:0.75 15021:0.5 15195:0.25 
-0.0024390359680780235480945794535046 1:19 12:0.5 20:0.25 82:0.75 5021:1 10498:1 15012:0.75 15021:0.5 18018:0.25 
-0.0024390359680780235480945794535046 1:21 53:0.75 117:0.5 959:0.25 5020:1 10022:1 15012:0.25 15023:0.5 17149:0.75 
-0.0024390359680780235480945794535046 1:3 12:0.5 58:0.75 5023:1 10329:1 15005:0.5 15021:0.25 15207:0.75 
-0.0024390359680780235480945794535046 1:13 23:0.75 303:0.25 699:0.5 8515:1 10007:1 15024:0.75 15333:0.25 16815:0.5 
-0.0024390359680780235480945794535046 1:19 22:0.25 33:0.75 171:0.5 5019:1 10007:1 15005:0.5 15076:0.25 16997:0.75 
-0.0024390359680780235480945794535046 1:2 21:0.75 3336:0.25 4711:0.5 8875:1 11093:1 15020:0.75 15182:0.25 16357:0.5 
-0.0024390359680780235480945794535046 1:15 7:0.25 479:0.75 845:0.5 5020:1 11360:1 15019:0.25 15023:0.5 16195:0.75 
-0.0024390359680780235480945794535046 1:17 20:0.75 305:0.25 2489:0.5 5243:1 10022:1 15008:0.5 15012:0.25 15432:0.75 
-0.0024390359680780235480945794535046 1:18 22:0.25 24:0.5 336:0.75 5020:1 10055:1 15003:0.5 17081:0.75 19475:0.25 
-0.0024390359680780235480945794535046 1:10 20:0.75 87:0.25 3809:0.5 5019:1 10012:1 15007:0.5 15027:0.25 15058:0.75 
-0.0024390359680780235480945794535046 1:12 5:0.75 7:0.25 136:0.5 5012:1 10021:1 15021:0.25 15373:0.5 16802:0.75 
-0.0024390359680780235480945794535046 1:15 24:0.25 60:0.75 1076:0.5 5020:1 10033:1 15031:0.25 15542:0.5 15600:0.75 
-0.0024390359680780235480945794535046 1:12 8:0.5 351:0.75 2252:0.25 6408:1 13438:1 15024:0.75 15079:0.5 15513:0.25 
-0.0024390359680780235480945794535046 1:13 22:0.25 23:0.75 139:0.5 5019:1 14789:1 15005:0.75 15047:0.5 15067:0.25 
-0.0024390359680780235480945794535046 1:19 12:0.5 33:0.25 119:0.75 5033:1 10497:1 15024:0.75 15034:0.25 15290:0.5 
-0.0024390359680780235480945794535046 1:3 19:0.25 97:0.75 239:0.5 5163:1 10005:1 15005:0.5 15012:0.75 15021:0.25 
-0.0024390359680780235480945794535046 1:3 19:0.25 20:0.75 1449:0.5 5186:1 10012:1 15007:0.5 15012:0.75 15019:0.25 
-0.0024390359680780235480945794535046 1:3 70:0.75 72:0.25 445:0.5 5003:1 10004:1 15007:0.75 15019:0.5 15626:0.25 
-0.0024390359680780235480945794535046 1:3 26:0.25 175:0.75 2388:0.5 5028:1 10005:1 15005:0.5 15012:0.25 
-0.0024390359680780235480945794535046 1:16 47:0.5 291:0.25 1594:0.75 5019:1 11180:1 15005:0.75 15021:0.5 15136:0.25 
-0.0024390359680780235480945794535046 1:12 12:0.25 26:0.75 191:0.5 5089:1 10115:1 15005:0.75 15269:0.25 15810:0.5 
-0.0024390359680780235480945794535046 1:26 45:0.25 345:0.75 1389:0.5 5023:1 10003:1 15004:0.5 15012:0.75 15021:0.25 
0.024390359680780234613584056546642 1:48 3:0.5 12:0.75 5004:1 10003:1 15004:0.5 15021:0.25 15280:0.75 
-0.0024390359680780235480945794535046 1:12 31:0.5 34:0.25 207:0.75 5095:1 12266:1 15003:0.75 15004:0.25 15646:0.5 
-0.0024390359680780235480945794535046 1:3 58:0.75 2488:0.5 2851:0.25 5003:1 10004:1 15007:0.75 15032:0.5 15076:0.25 
-0.0024390359680780235480945794535046 1:3 308:0.75 890:0.5 2039:0.25 5003:1 10004:1 15012:0.25 15019:0.5 15269:0.75 
-0.0024390359680780235480945794535046 1:18 22:0.25 45:0.75 1207:0.5 5019:1 10007:1 15005:0.5 15394:0.75 16318:0.25 
-0.0024390359680780235480945794535046 1:3 19:0.25 552:0.75 2319:0.5 5003:1 10004:1 15005:0.5 15021:0.25 
-0.0024390359680780235480945794535046 1:12 20:0.5 72:0.75 90:0.25 5429:1 10585:1 15007:0.5 15146:0.25 17392:0.75 
-0.0024390359680780235480945794535046 1:3 12:0.75 21:0.25 195:0.5 5005:1 10005:1 15012:0.5 15050:0.75 19340:0.25 
-0.0024390359680780235480945794535046 1:3 21:0.25 24:0.5 2194:0.75 7109:1 10003:1 15006:0.5 15011:0.25 17004:0.75 
-0.0024390359680780235480945794535046 1:3 2:0.25 3:0.5 30:0.75 5004:1 10022:1 15025:0.5 15093:0.75 17393:0.25 
-0.0024390359680780235480945794535046 1:3 4:0.25 12:0.75 21:0.5 5003:1 10004:1 15005:0.5 15021:0.25 17153:0.75 
-0.0024390359680780235480945794535046 1:2 19:0.75 23:0.5 249:0.25 9528:1 10042:1 15026:0.75 16432:0.5 19545:0.25 
-0.0024390359680780235480945794535046 1:2 20:0.25 23:0.5 153:0.75 5197:1 10029:1 15025:0.25 15029:0.75 15115:0.5 
-0.0024390359680780235480945794535046 1:3 46:0.75 107:0.5 1270:0.25 5003:1 10004:1 15022:0.5 15881:0.25 19212:0.75 
-0.0024390359680780235480945794535046 1:12 31:0.75 71:0.5 4845:0.25 5005:1 10605:1 15023:0.25 15048:0.75 15259:0.5 
0.024390359680780234613584056546642 1:5 24:0.5 36:0.25 1496:0.75 5020:1 10760:1 15007:0.75 16763:0.25 19073:0.5 
-0.0024390359680780235480945794535046 1:10 24:0.5 28:0.25 87:0.75 5680:1 10262:1 15025:0.75 15026:0.5 15044:0.25 
-0.0024390359680780235480945794535046 1:3 21:0.75 28:0.5 213:0.25 5849:1 10006:1 15012:0.75 15185:0.25 18203:0.5 
0.024390359680780234613584056546642 1:48 19:0.75 20:0.5 782:0.25 8212:1 10005:1 15025:0.75 15047:0.5 15094:0.25 
-0.0024390359680780235480945794535046 1:14 28:0.25 43:0.5 1165:0.75 6141:1 10007:1 15024:0.75 15214:0.25 15462:0.5 
-0.0024390359680780235480945794535046 1:3 5:0.75 979:0.5 3835:0.25 5218:1 10005:1 15022:0.75 15023:0.25 
-0.0024390359680780235480945794535046 1:3 884:0.75 1068:0.25 4156:0.5 5028:1 10005:1 15005:0.25 15927:0.75 19328:0.5 
-0.0024390359680780235480945794535046 1:13 20:0.75 293:0.25 594:0.5 7436:1 14125:1 15007:0.75 15023:0.5 15511:0.25 
-0.0024390359680780235480945794535046 1:26 20:0.5 30:0.75 221:0.25 5029:1 10003:1 15004:0.5 15028:0.25 16781:0.75 
-0.0024390359680780235480945794535046 1:11 19:0.25 300:0.75 2402:0.5 6388:1 10191:1 15007:0.25 15031:0.75 15062:0.5 
0.024390359680780234613584056546642 1:8 12:0.75 20:0.5 403:0.25 5168:1 10031:1 15025:0.75 15129:0.25 15973:0.5 
-0.0024390359680780235480945794535046 1:3 19:0.75 25:0.5 137:0.25 5748:1 10005:1 15005:0.5 15021:0.25 15602:0.75 
-0.0024390359680780235480945794535046 1:10 19:0.5 26:0.25 4490:0.75 5057:1 10025:1 15007:0.25 15308:0.5 18782:0.75 
-0.0024390359680780235480945794535046 1:15 7:0.25 35:0.5 962:0.75 5021:1 10890:1 15003:0.5 15012:0.25 15333:0.75 
0.024390359680780234613584056546642 1:5 7:0.25 96:0.75 357:0.5 5019:1 10098:1 15024:0.5 15095:0.75 15305:0.25 
-0.0024390359680780235480945794535046 1:3 12:0.75 20:0.25 34:0.5 5136:1 10051:1 15003:0.25 15005:0.75 18261:0.5 
-0.0024390359680780235480945794535046 1:14 215:0.75 365:0.25 822:0.5 5019:1 10457:1 15003:0.75 15004:0.25 17500:0.5 
-0.0024390359680780235480945794535046 1:22 19:0.5 33:0.25 512:0.75 5020:1 10007:1 15028:0.5 15056:0.25 15547:0.75 
-0.0024390359680780235480945794535046 1:12 3:0.25 12:0.75 5007:1 10492:1 15012:0.75 15034:0.25 15253:0.5 
-0.0024390359680780235480945794535046 1:12 12:0.75 21:0.5 5112:1 13926:1 15029:0.75 15160:0.25 16053:0.5 
-0.0024390359680780235480945794535046 1:3 50:0.5 583:0.25 1343:0.75 5003:1 10004:1 15019:0.5 15254:0.25 17656:0.75 
-0.0024390359680780235480945794535046 1:3 275:0.25 687:0.5 1194:0.75 5003:1 10004:1 15007:0.25 15023:0.75 15029:0.5 
0.024390359680780234613584056546642 1:48 4:0.25 117:0.5 5005:1 10005:1 15005:0.5 15012:0.75 15021:0.25 
0.024390359680780234613584056546642 1:4 24:0.5 329:0.75 494:0.25 5020:1 10025:1 15007:0.25 15254:0.75 16220:0.5 
-0.0024390359680780235480945794535046 1:3 20:0.5 34:0.75 316:0.25 5075:1 10005:1 15012:0.25 15021:0.5 
0.024390359680780234613584056546642 1:48 23:0.25 1468:0.75 2492:0.5 5007:1 10003:1 15004:0.5 15005:0.25 15280:0.75 
-0.0024390359680780235480945794535046 1:24 12:0.25 68:0.5 525:0.75 5007:1 10003:1 15004:0.5 15197:0.75 15455:0.25 
-0.0024390359680780235480945794535046 1:3 19:0.25 72:0.5 407:0.75 5046:1 10003:1 15004:0.25 15074:0.5 15577:0.75 
-0.0024390359680780235480945794535046 1:2 2:0.5 7:0.75 11:0.25 5002:1 10005:1 15046:0.25 15546:0.5 16381:0.75 
-0.0024390359680780235480945794535046 1:2 20:0.5 1172:0.25 2413:0.75 5002:1 10941:1 15025:0.25 15368:0.5 15469:0.75 
0.024390359680780234613584056546642 1:5 19:0.5 20:0.25 69:0.75 5046:1 10022:1 15032:0.25 15168:0.5 15349:0.75 
-0.0024390359680780235480945794535046 1:3 5:0.75 256:0.5 2309:0.25 5019:1 10031:1 15007:0.75 15023:0.5 15231:0.25 
-0.0024390359680780235480945794535046 1:20 5:0.25 26:0.75 367:0.5 5030:1 10100:1 15022:0.75 15145:0.25 17991:0.5 
-0.0024390359680780235480945794535046 1:25 29:0.25 143:0.5 423:0.75 5007:1 10003:1 15004:0.5 15403:0.25 16350:0.75 
-0.0024390359680780235480945794535046 1:4 12:0.5 23:0.25 510:0.75 5030:1 10003:1 15004:0.5 15037:0.25 17469:0.75 
-0.0024390359680780235480945794535046 1:3 48:0.75 797:0.5 5003:1 10012:1 15004:0.75 15022:0.5 15147:0.25 
-0.0024390359680780235480945794535046 1:3 8:0.5 12:0.75 432:0.25 5003:1 10006:1 15087:0.25 15340:0.75 16983:0.5 
-0.0024390359680780235480945794535046 1:2 30:0.5 32:0.75 76:0.25 5821:1 10936:1 15007:0.5 15041:0.25 15053:0.75 
-0.0024390359680780235480945794535046 1:20 20:0.25 157:0.75 798:0.5 5026:1 10022:1 15019:0.25 15023:0.5 15345:0.75 
-0.0024390359680780235480945794535046 1:12 20:0.25 424:0.75 1080:0.5 5007:1 10318:1 15020:0.5 15030:0.25 15156:0.75 
0.024390359680780234613584056546642 1:48 25:0.25 48:0.75 56:0.5 5007:1 10003:1 15004:0.5 15022:0.25 15280:0.75 
-0.0024390359680780235480945794535046 1:4 2:0.25 20:0.5 1698:0.75 5148:1 10003:1 15004:0.5 15012:0.75 15021:0.25 
-0.0024390359680780235480945794535046 1:9 32:0.5 1610:0.75 1814:0.25 5085:1 10251:1 15095:0.75 16188:0.5 17380:0.25 
-0.0024390359680780235480945794535046 1:3 3:0.25 4:0.75 12:0.5 5005:1 13451:1 15007:0.25 15022:0.75 19867:0.5 
-0.0024390359680780235480945794535046 1:20 62:0.75 69:0.25 2156:0.5 5021:1 10031:1 15007:0.5 15024:0.25 15062:0.75 
-0.0024390359680780235480945794535046 1:15 25:0.5 38:0.25 1255:0.75 5248:1 10021:1 15019:0.75 15290:0.5 15782:0.25 
-0.0024390359680780235480945794535046 1:14 5:0.5 512:0.25 662:0.75 5021:1 10140:1 15023:0.5 15040:0.75 15153:0.25 
-0.0024390359680780235480945794535046 1:9 12:0.25 22:0.75 641:0.5 5134:1 10031:1 15021:0.75 15290:0.5 15658:0.25 
-0.0024390359680780235480945794535046 1:3 482:0.25 2242:0.75 2401:0.5 5012:1 10005:1 15012:0.75 15264:0.5 17084:0.25 
-0.0024390359680780235480945794535046 1:10 7:0.75 2138:0.25 2858:0.5 5012:1 10101:1 15012:0.5 15025:0.75 15032:0.25 
-0.0024390359680780235480945794535046 1:17 12:0.5 20:0.25 37:0.75 5025:1 10463:1 15012:0.25 15032:0.75 15580:0.5 
-0.0024390359680780235480945794535046 1:15 7:0.5 289:0.25 2887:0.75 5020:1 10319:1 15019:0.5 15138:0.75 16455:0.25 
-0.0024390359680780235480945794535046 1:12 28:0.75 114:0.5 349:0.25 5185:1 10007:1 15020:0.5 15065:0.25 15479:0.75 
-0.0024390359680780235480945794535046 1:10 60:0.75 127:0.25 711:0.5 5021:1 10012:1 15007:0.75 15019:0.5 15596:0.25 
-0.0024390359680780235480945794535046 1:3 31:0.5 62:0.75 652:0.25 5003:1 10004:1 15026:0.25 15066:0.5 17167:0.75 
-0.0024390359680780235480945794535046 1:14 1744:0.5 3033:0.25 3520:0.75 5028:1 13659:1 15026:0.25 15305:0.75 15484:0.5 
-0.0024390359680780235480945794535046 1:3 12:0.75 19:0.5 20:0.25 5011:1 10186:1 15052:0.25 15058:0.5 15059:0.75 
-0.0024390359680780235480945794535046 1:7 7:0.75 12:0.5 21:0.25 5012:1 10174:1 15023:0.5 15227:0.25 17719:0.75 
0.024390359680780234613584056546642 1:5 87:0.25 4248:0.5 4583:0.75 5028:1 10610:1 15025:0.25 15040:0.5 17168:0.75 
-0.0024390359680780235480945794535046 1:3 25:0.5 884:0.25 2165:0.75 5003:1 10105:1 15004:0.75 15007:0.5 15019:0.25 
-0.0024390359680780235480945794535046 1:11 19:0.75 36:0.5 913:0.25 5757:1 10491:1 15023:0.25 15025:0.75 17789:0.5 
-0.0024390359680780235480945794535046 1:20 21:0.25 32:0.5 123:0.75 5020:1 10076:1 15024:0.75 18563:0.25 18811:0.5 
-0.0024390359680780235480945794535046 1:17 12:0.75 20:0.25 521:0.5 5021:1 10032:1 15019:0.75 15383:0.25 16629:0.5 
-0.0024390359680780235480945794535046 1:20 19:0.5 25:0.25 211:0.75 5020:1 10007:1 15061:0.25 15106:0.5 16152:0.75 
-0.0024390359680780235480945794535046 1:3 34:0.25 75:0.75 176:0.5 5003:1 10004:1 15022:0.25 15081:0.75 15759:0.5 
-0.0024390359680780235480945794535046 1:3 29:0.5 2458:0.75 5005:1 10004:1 15022:0.75 15032:0.25 19762:0.5 
-0.0024390359680780235480945794535046 1:13 19:0.25 132:0.75 4408:0.5 5534:1 10082:1 15022:0.75 15032:0.25 15238:0.5 
-0.0024390359680780235480945794535046 1:13 2:0.5 4:0.75 58:0.25 5026:1 10292:1 15020:0.25 15060:0.5 17649:0.75 
-0.0024390359680780235480945794535046 1:3 3:0.5 12:0.75 1718:0.25 5004:1 10005:1 15023:0.5 15043:0.75 15084:0.25 
-0.00044967983667167945021486685774903 1:25 5:0.75 21:0.25 1450:0.5 8150:1 10003:1 15004:0.5 15036:0.25 17165:0.75 
-0.0024390359680780235480945794535046 1:19 12:0.75 28:0.5 5021:1 10028:1 15050:0.5 15276:0.25 17440:0.75 
-0.0024390359680780235480945794535046 1:19 19:0.25 127:0.5 366:0.75 5020:1 10028:1 15019:0.25 15054:0.5 16059:0.75 
0.024390359680780234613584056546642 1:5 5:0.75 12:0.5 5021:1 11083:1 15005:0.75 15036:0.5 15232:0.25 
-0.0024390359680780235480945794535046 1:15 19:0.75 21:0.5 1486:0.25 5203:1 10005:1 15024:0.75 19112:0.5 
-0.0024390359680780235480945794535046 1:11 19:0.5 20:0.25 206:0.75 5619:1 10443:1 15043:0.25 15076:0.5 17694:0.75 
-0.0024390359680780235480945794535046 1:32 33:0.75 861:0.5 3299:0.25 5030:1 10003:1 15004:0.5 15012:0.75 16672:0.25 
0.024390359680780234613584056546642 1:6 32:0.25 46:0.75 2744:0.5 5007:1 10055:1 15023:0.5 15051:0.75 15104:0.25 
0.0023084698032084052278511965283769 1:5 19:0.25 79:0.5 240:0.75 5020:1 10032:1 15012:0.25 15021:0.5 
-0.0024390359680780235480945794535046 1:16 871:0.75 1432:0.25 4545:0.5 5222:1 10005:1 15039:0.25 17108:0.75 17777:0.5 
-0.0024390359680780235480945794535046 1:18 12:0.75 28:0.5 1163:0.25 5965:1 10007:1 15012:0.5 15019:0.75 15965:0.25 
-0.0024390359680780235480945794535046 1:21 33:0.5 530:0.75 1444:0.25 5020:1 10821:1 15012:0.75 15023:0.25 15053:0.5 
-0.0024390359680780235480945794535046 1:17 19:0.75 25:0.5 308:0.25 5030:1 10003:1 15004:0.5 15005:0.25 15012:0.75 
-0.0024390359680780235480945794535046 1:12 25:0.25 145:0.75 1778:0.5 5019:1 10029:1 15021:0.5 15189:0.25 16524:0.75 
-0.0024390359680780235480945794535046 1:12 12:0.5 50:0.75 433:0.25 15050:0.75 15315:0.25 17292:0.5 
-0.0024390359680780235480945794535046 1:13 19:0.75 20:0.5 42:0.25 5030:1 10003:1 15004:0.5 15012:0.75 15244:0.25 
-0.0024390359680780235480945794535046 1:13 7:0.5 12:0.25 35:0.75 9033:1 10393:1 15012:0.75 15025:0.5 15589:0.25 
0.024390359680780234613584056546642 1:41 24:0.25 405:0.75 838:0.5 5023:1 10057:1 15007:0.75 15035:0.5 15121:0.25 
-0.0024390359680780235480945794535046 1:30 57:0.25 85:0.75 110:0.5 5028:1 10003:1 15004:0.5 15021:0.25 16219:0.75 
-0.0024390359680780235480945794535046 1:12 20:0.25 317:0.5 866:0.75 5023:1 11495:1 15019:0.75 15144:0.25 15623:0.5 
-0.0024390359680780235480945794535046 1:12 12:0.5 19:0.25 184:0.75 5007:1 10171:1 15005:0.75 15476:0.25 15551:0.5 
-0.0024390359680780235480945794535046 1:3 12:0.5 39:0.25 1712:0.75 5003:1 10004:1 15585:0.25 16027:0.75 16236:0.5 
-0.0024390359680780235480945794535046 1:11 12:0.5 24:0.25 4432:0.75 5158:1 10023:1 15007:0.25 15019:0.75 15059:0.5 
-0.0024390359680780235480945794535046 1:11 43:0.5 313:0.75 494:0.25 7692:1 10585:1 15023:0.25 15053:0.5 15055:0.75 
-0.0024390359680780235480945794535046 1:3 12:0.75 20:0.25 2259:0.5 5003:1 10004:1 15007:0.75 15038:0.25 15039:0.5 
-0.0024390359680780235480945794535046 1:3 5:0.75 12:0.5 824:0.25 5012:1 10005:1 15012:0.25 15021:0.75 
-0.0024390359680780235480945794535046 1:3 28:0.75 166:0.25 2033:0.5 6503:1 10005:1 15019:0.75 15051:0.5 15137:0.25 
-0.0024390359680780235480945794535046 1:4 12:0.5 20:0.25 25:0.75 5391:1 10058:1 15005:0.75 15181:0.25 15391:0.5 
-0.0024390359680780235480945794535046 1:3 12:0.75 218:0.5 666:0.25 5028:1 10005:1 15026:0.5 15347:0.75 18108:0.25 
-0.0024390359680780235480945794535046 1:3 6:0.5 2570:0.75 4672:0.25 5011:1 10004:1 15007:0.75 15029:0.5 18133:0.25 
-0.0024390359680780235480945794535046 1:3 7:0.5 34:0.25 52:0.75 5406:1 10188:1 15022:0.75 15023:0.25 15093:0.5 
-0.0024390359680780235480945794535046 1:22 19:0.75 33:0.5 739:0.25 5030:1 10007:1 15012:0.25 15019:0.75 15030:0.5 
-0.0024390359680780235480945794535046 1:11 146:0.5 1832:0.25 3818:0.75 5019:1 10805:1 15019:0.5 15020:0.75 15360:0.25 
-0.0024390359680780235480945794535046 1:16 379:0.75 1508:0.5 1937:0.25 5020:1 10028:1 15007:0.25 15012:0.5 16144:0.75 
-0.0024390359680780235480945794535046 1:2 23:0.25 693:0.5 2376:0.75 5002:1 10848:1 15005:0.75 15469:0.25 18647:0.5 
0.024390359680780234613584056546642 1:4 31:0.75 542:0.5 600:0.25 5007:1 10175:1 15019:0.5 15028:0.75 15478:0.25 
-0.0024390359680780235480945794535046 1:25 20:0.25 24:0.5 302:0.75 5020:1 10021:1 15023:0.5 15073:0.75 15322:0.25 
-0.0024390359680780235480945794535046 1:3 79:0.25 82:0.75 176:0.5 5778:1 10051:1 15022:0.75 15023:0.25 15139:0.5 
-0.0024390359680780235480945794535046 1:12 5:0.75 22:0.25 694:0.5 5019:1 12762:1 15019:0.75 15020:0.25 15519:0.5 
-0.0024390359680780235480945794535046 1:12 20:0.75 24:0.25 216:0.5 6127:1 10221:1 15019:0.5 15023:0.75 17791:0.25 
-0.0024390359680780235480945794535046 1:13 21:0.75 2371:0.25 4676:0.5 5026:1 10473:1 15025:0.5 15031:0.25 17481:0.75 
-0.0024390359680780235480945794535046 1:3 2:0.25 21:0.75 209:0.5 5012:1 10005:1 15005:0.5 15022:0.25 15706:0.75 
-0.0024390359680780235480945794535046 1:3 5:0.5 25:0.75 796:0.25 5170:1 10007:1 15023:0.75 15084:0.5 16314:0.25 
-0.0024390359680780235480945794535046 1:3 12:0.5 20:0.25 28:0.75 5012:1 10007:1 15005:0.5 15024:0.25 15247:0.75 
-0.0024390359680780235480945794535046 1:3 19:0.75 1281:0.5 2903:0.25 5815:1 10025:1 15012:0.25 15028:0.5 15114:0.75 
-0.0024390359680780235480945794535046 1:2 12:0.75 464:0.5 4685:0.25 5011:1 10029:1 15037:0.5 15059:0.75 16972:0.25 
-0.0024390359680780235480945794535046 1:12 35:0.25 497:0.75 784:0.5 6103:1 10023:1 15012:0.75 15089:0.5 16377:0.25 
-0.0024390359680780235480945794535046 1:3 5:0.25 12:0.75 21:0.5 5032:1 10005:1 15020:0.25 15049:0.5 15052:0.75 
-0.0024390359680780235480945794535046 1:22 23:0.25 65:0.5 3938:0.75 5021:1 10005:1 15022:0.25 15028:0.75 15369:0.5 
-0.0024390359680780235480945794535046 1:9 12:0.25 21:0.5 22:0.75 5134:1 10094:1 15005:0.25 15025:0.75 16686:0.5 
-0.0024390359680780235480945794535046 1:12 68:0.5 115:0.75 1209:0.25 5005:1 10025:1 15019:0.75 15314:0.5 15807:0.25 
-0.0024390359680780235480945794535046 1:3 19:0.5 45:0.25 420:0.75 5020:1 10102:1 15012:0.5 15019:0.25 15021:0.75 
-0.0024390359680780235480945794535046 1:11 22:0.5 84:0.25 3760:0.75 5032:1 10370:1 15003:0.25 15007:0.5 15012:0.75 
-0.0024390359680780235480945794535046 1:16 20:0.5 594:0.25 2436:0.75 5804:1 10007:1 15023:0.75 15030:0.25 15511:0.5 
-0.0024390359680780235480945794535046 1:15 5:0.75 57:0.5 5021:1 10195:1 15030:0.75 15107:0.25 16115:0.5 
-0.0024390359680780235480945794535046 1:11 27:0.75 5027:1 10020:1 15045:0.25 15092:0.5 15902:0.75 
0.024390359680780234613584056546642 1:47 19:0.25 80:0.75 1752:0.5 5020:1 10005:1 15007:0.25 15012:0.5 18152:0.75 
-0.0024390359680780235480945794535046 1:4 20:0.5 104:0.75 2166:0.25 5021:1 10051:1 15003:0.75 15005:0.25 15012:0.5 
-0.0024390359680780235480945794535046 1:4 3:0.25 181:0.75 391:0.5 5004:1 10058:1 15005:0.75 15012:0.5 15350:0.25 
-0.0024390359680780235480945794535046 1:20 3:0.25 4:0.75 12:0.5 5028:1 10044:1 15007:0.5 15012:0.75 15180:0.25 
0.024390359680780234613584056546642 1:48 3:0.25 4:0.75 12:0.5 5021:1 10003:1 15004:0.5 15280:0.75 15368:0.25 
-0.0024390359680780235480945794535046 1:13 22:0.25 145:0.75 3483:0.5 10005:1 15005:0.25 15030:0.5 18043:0.75 
-0.0024390359680780235480945794535046 1:11 19:0.25 20:0.75 5496:1 13592:1 15029:0.25 17860:0.75 18078:0.5 
-0.0024390359680780235480945794535046 1:19 306:0.5 1583:0.25 2961:0.75 5033:1 10007:1 15027:0.25 
-0.0024390359680780235480945794535046 1:13 1733:0.5 2437:0.25 3272:0.75 5025:1 10108:1 15005:0.25 15012:0.5 15032:0.75 
-0.0024390359680780235480945794535046 1:3 5:0.25 43:0.5 580:0.75 5012:1 10005:1 15019:0.25 15047:0.75 15452:0.5 
-0.0024390359680780235480945794535046 1:3 20:0.5 31:0.75 587:0.25 5025:1 10005:1 15021:0.75 15277:0.25 15728:0.5 
-0.0024390359680780235480945794535046 1:3 12:0.25 88:0.5 377:0.75 5181:1 10005:1 15005:0.5 15021:0.25 17596:0.75 
-0.0024390359680780235480945794535046 1:3 31:0.75 1451:0.5 2025:0.25 5020:1 10005:1 15020:0.25 15173:0.75 15277:0.5 
-0.0024390359680780235480945794535046 1:9 24:0.5 500:0.75 558:0.25 5038:1 10028:1 15012:0.75 15049:0.25 15052:0.5 
-0.0024390359680780235480945794535046 1:22 19:0.5 33:0.25 211:0.75 5020:1 10021:1 15025:0.5 16232:0.25 18244:0.75 
-0.0024390359680780235480945794535046 1:13 24:0.25 42:0.75 55:0.5 5021:1 10190:1 15025:0.25 15031:0.75 15040:0.5 
-0.0024390359680780235480945794535046 1:3 23:0.5 135:0.75 4757:0.25 5028:1 10026:1 15022:0.25 15025:0.5 17602:0.75 
-0.0024390359680780235480945794535046 1:3 31:0.25 77:0.5 1068:0.75 5021:1 10194:1 15022:0.75 15049:0.5 
0.024390359680780234613584056546642 1:35 12:0.25 48:0.5 105:0.75 5287:1 10023:1 15030:0.75 15037:0.25 17200:0.5 
-0.0024390359680780235480945794535046 1:21 53:0.75 157:0.25 1779:0.5 5020:1 10023:1 15215:0.25 15294:0.75 15386:0.5 
-0.0024390359680780235480945794535046 1:3 25:0.25 201:0.5 291:0.75 5083:1 10005:1 15260:0.75 15425:0.25 16017:0.5 
-0.0024390359680780235480945794535046 1:15 20:0.25 44:0.75 316:0.5 5019:1 10591:1 15005:0.75 15569:0.5 15821:0.25 
-0.0024390359680780235480945794535046 1:12 49:0.75 52:0.5 58:0.25 5026:1 10012:1 15012:0.75 15046:0.5 15050:0.25 
-0.0024390359680780235480945794535046 1:11 5:0.25 32:0.75 2231:0.5 5135:1 10300:1 15005:0.5 15062:0.75 16151:0.25 
-0.0024390359680780235480945794535046 1:2 19:0.5 20:0.25 196:0.75 5737:1 10042:1 15007:0.75 15020:0.25 18635:0.5 
-0.0024390359680780235480945794535046 1:3 29:0.75 1000:0.25 2386:0.5 5003:1 10004:1 15007:0.75 15028:0.25 15426:0.5 
-0.0024390359680780235480945794535046 1:16 133:0.25 145:0.75 331:0.5 5019:1 10038:1 15028:0.75 15075:0.25 15176:0.5 
-0.0024390359680780235480945794535046 1:24 5:0.25 47:0.5 245:0.75 5049:1 10003:1 15004:0.5 15005:0.25 16196:0.75 
-0.0024390359680780235480945794535046 1:20 22:0.25 32:0.75 238:0.5 8419:1 10003:1 15011:0.5 15012:0.25 
-0.0024390359680780235480945794535046 1:13 22:0.25 24:0.5 90:0.75 5020:1 14053:1 15019:0.5 15096:0.75 15099:0.25 
-0.0024390359680780235480945794535046 1:3 23:0.25 30:0.5 465:0.75 5007:1 10031:1 15025:0.75 15048:0.25 16243:0.5 
-0.0024390359680780235480945794535046 1:15 12:0.75 66:0.5 485:0.25 5003:1 10004:1 15003:0.25 15012:0.5 15021:0.75 
-0.0024390359680780235480945794535046 1:20 19:0.5 20:0.25 475:0.75 5025:1 10005:1 15007:0.5 15012:0.75 15035:0.25 
-0.0024390359680780235480945794535046 1:13 12:0.5 79:0.25 308:0.75 5005:1 10071:1 15020:0.25 15031:0.75 15057:0.5 
-0.0024390359680780235480945794535046 1:22 20:0.75 27:0.25 38:0.5 5019:1 11433:1 15022:0.75 15032:0.25 15089:0.5 
-0.0024390359680780235480945794535046 1:3 12:0.75 36:0.5 124:0.25 5021:1 10112:1 15005:0.75 15022:0.5 15147:0.25 
-0.0024390359680780235480945794535046 1:3 12:0.5 19:0.25 457:0.75 5012:1 10005:1 15005:0.25 15450:0.5 19161:0.75 
-0.0024390359680780235480945794535046 1:3 12:0.75 313:0.25 5006:1 10005:1 15012:0.25 15313:0.5 15674:0.75 
-0.0024390359680780235480945794535046 1:3 34:0.75 3291:0.25 3615:0.5 5003:1 10004:1 15002:0.5 15048:0.25 15218:0.75 
-0.0024390359680780235480945794535046 1:3 46:0.75 296:0.25 685:0.5 5003:1 10004:1 15021:0.25 15048:0.75 17081:0.5 
-0.0024390359680780235480945794535046 1:3 33:0.25 40:0.75 4171:0.5 5007:1 11096:1 15022:0.5 15061:0.75 15507:0.25 
0.024390359680780234613584056546642 1:47 12:0.25 20:0.75 21:0.5 5019:1 10005:1 15024:0.5 15111:0.25 15504:0.75 
-0.0024390359680780235480945794535046 1:3 24:0.25 281:0.5 3280:0.75 5023:1 10102:1 15005:0.75 15023:0.25 17442:0.5 
-0.0024390359680780235480945794535046 1:3 3:0.25 4:0.75 12:0.5 5007:1 10031:1 15023:0.5 15032:0.75 15084:0.25 
-0.0024390359680780235480945794535046 1:12 20:0.5 53:0.25 872:0.75 6546:1 11135:1 16733:0.5 17437:0.75 18272:0.25 
-0.0024390359680780235480945794535046 1:12 7:0.25 12:0.5 22:0.75 5024:1 10021:1 15024:0.75 15034:0.25 17642:0.5 
0.024390359680780234613584056546642 1:47 5:0.25 12:0.75 3152:0.5 5007:1 10005:1 15003:0.25 15012:0.5 18152:0.75 
-0.0024390359680780235480945794535046 1:16 146:0.75 1544:0.5 7945:1 10005:1 15021:0.75 15026:0.5 15049:0.25 
-0.0024390359680780235480945794535046 1:13 19:0.75 20:0.5 4719:0.25 6854:1 10005:1 15002:0.5 15019:0.75 
-0.0024390359680780235480945794535046 1:3 4:0.25 175:0.75 244:0.5 5028:1 10007:1 15024:0.25 15045:0.5 15348:0.75 
-0.0024390359680780235480945794535046 1:11 25:0.75 67:0.25 473:0.5 5056:1 10703:1 15032:0.25 15252:0.75 16777:0.5 
-0.0024390359680780235480945794535046 1:19 26:0.25 39:0.5 60:0.75 5020:1 10114:1 15024:0.5 15028:0.75 15250:0.25 
0.024390359680780234613584056546642 1:47 223:0.5 523:0.75 987:0.25 5824:1 10003:1 15004:0.5 15005:0.25 15515:0.75 
0.024390359680780234613584056546642 1:5 19:0.25 20:0.75 3781:0.5 5572:1 10022:1 15019:0.25 15145:0.5 17371:0.75 
-0.0024390359680780235480945794535046 1:3 4:0.5 5:0.75 12:0.25 5021:1 11791:1 15022:0.5 15207:0.75 15969:0.25 
-0.0024390359680780235480945794535046 1:13 3:0.25 4:0.75 3570:0.5 5021:1 10020:1 15085:0.25 15424:0.5 16002:0.75 
-0.0024390359680780235480945794535046 1:20 19:0.75 21:0.5 142:0.25 5048:1 10003:1 15004:0.5 15012:0.75 15054:0.25 
-0.0024390359680780235480945794535046 1:13 28:0.5 343:0.25 733:0.75 5118:1 10036:1 15028:0.25 15036:0.5 15124:0.75 
-0.0024390359680780235480945794535046 1:22 196:0.25 364:0.5 403:0.75 5020:1 10031:1 15025:0.75 15129:0.25 15973:0.5 
-0.0024390359680780235480945794535046 1:11 20:0.25 112:0.75 901:0.5 5020:1 10012:1 15005:0.25 15021:0.5 15184:0.75 
-0.0024390359680780235480945794535046 1:3 5:0.5 1472:0.25 5023:1 10021:1 15007:0.5 15019:0.25 19312:0.75 
-0.0024390359680780235480945794535046 1:19 68:0.5 306:0.75 453:0.25 5028:1 10050:1 15028:0.75 15868:0.5 
-0.0024390359680780235480945794535046 1:15 12:0.75 5021:1 10146:1 15019:0.75 15414:0.25 18720:0.5 
-0.0024390359680780235480945794535046 1:3 19:0.25 21:0.75 250:0.5 6136:1 10055:1 15007:0.5 15088:0.75 17260:0.25 
-0.0024390359680780235480945794535046 1:15 52:0.25 3375:0.5 5021:1 13864:1 15012:0.5 15104:0.25 15650:0.75 
-0.0024390359680780235480945794535046 1:2 29:0.5 115:0.75 5025:1 10785:1 15007:0.75 15019:0.5 15115:0.25 
-0.0024390359680780235480945794535046 1:2 4:0.25 23:0.5 990:0.75 5005:1 10074:1 15002:0.75 15595:0.25 15677:0.5 
-0.0024390359680780235480945794535046 1:19 19:0.5 70:0.75 2178:0.25 5020:1 10005:1 15019:0.5 15090:0.25 15937:0.75 
-0.0024390359680780235480945794535046 1:11 28:0.75 34:0.25 1824:0.5 5417:1 13499:1 15019:0.75 15417:0.5 15425:0.25 
0.024390359680780234613584056546642 1:4 134:0.5 144:0.25 1196:0.75 5050:1 10052:1 15012:0.25 15049:0.75 15351:0.5 
-0.0024390359680780235480945794535046 1:20 2:0.5 20:0.75 60:0.25 5019:1 10031:1 15025:0.75 15029:0.25 15039:0.5 
-0.0024390359680780235480945794535046 1:3 24:0.5 88:0.75 1230:0.25 5020:1 10005:1 15020:0.5 15041:0.25 15130:0.75 
-0.0024390359680780235480945794535046 1:3 2:0.75 12:0.5 21:0.25 5012:1 10005:1 15007:0.5 15039:0.25 15706:0.75 
-0.0024390359680780235480945794535046 1:12 96:0.75 374:0.5 1873:0.25 5019:1 12406:1 15020:0.5 15039:0.25 17390:0.75 
-0.0024390359680780235480945794535046 1:13 12:0.75 20:0.5 90:0.25 5007:1 12624:1 15005:0.25 15069:0.75 15151:0.5 
-0.0024390359680780235480945794535046 1:22 4:0.25 5:0.5 4644:0.75 10003:1 15004:0.5 15005:0.25 19262:0.75 
-0.0024390359680780235480945794535046 1:22 20:0.5 596:0.25 709:0.75 5021:1 10082:1 15021:0.75 15064:0.5 
-0.0024390359680780235480945794535046 1:11 24:0.25 99:0.5 138:0.75 5019:1 10042:1 15020:0.75 15043:0.5 16545:0.25 
-0.0024390359680780235480945794535046 1:21 7:0.75 12:0.5 32:0.25 5019:1 10022:1 15025:0.25 15120:0.5 15251:0.75 
-0.0024390359680780235480945794535046 1:3 20:0.75 80:0.5 2351:0.25 5019:1 10248:1 15235:0.25 17098:0.5 17105:0.75 
-0.0024390359680780235480945794535046 1:12 98:0.5 1027:0.75 1648:0.25 5138:1 10050:1 15012:0.5 15019:0.75 15190:0.25 
-0.0024390359680780235480945794535046 1:25 5:0.75 12:0.5 21:0.25 5021:1 10021:1 15012:0.75 15022:0.5 15095:0.25 
-0.0024390359680780235480945794535046 1:3 20:0.75 87:0.25 1306:0.5 5002:1 10005:1 15003:0.25 15024:0.75 17648:0.5 
-0.0024390359680780235480945794535046 1:21 65:0.5 76:0.25 594:0.75 5020:1 10021:1 15020:0.25 15360:0.75 15805:0.5 
-0.0024390359680780235480945794535046 1:3 22:0.25 197:0.75 1918:0.5 5032:1 10005:1 15005:0.5 15050:0.25 15602:0.75 
-0.0024390359680780235480945794535046 1:15 24:0.5 939:0.75 1230:0.25 5020:1 11088:1 15005:0.25 15007:0.75 16166:0.5 
-0.0024390359680780235480945794535046 1:3 25:0.75 34:0.25 101:0.5 5012:1 10023:1 15024:0.75 17099:0.5 19733:0.25 
-0.0024390359680780235480945794535046 1:16 7:0.5 1075:0.25 4750:0.75 5005:1 10005:1 15019:0.25 15047:0.75 15452:0.5 
-0.0024390359680780235480945794535046 1:3 12:0.5 1866:0.75 2377:0.25 5005:1 10021:1 15005:0.25 15034:0.75 
-0.0024390359680780235480945794535046 1:23 31:0.75 193:0.25 1216:0.5 5020:1 10011:1 15003:0.25 15832:0.75 16217:0.5 
-0.0024390359680780235480945794535046 1:19 5:0.25 249:0.75 284:0.5 5020:1 10241:1 15023:0.75 15428:0.25 19049:0.5 
0.024390359680780234613584056546642 1:5 19:0.5 23:0.25 169:0.75 5020:1 11083:1 15007:0.75 15027:0.25 
-0.0024390359680780235480945794535046 1:12 20:0.5 723:0.75 883:0.25 5119:1 10799:1 15007:0.5 15024:0.25 15263:0.75 
-0.0024390359680780235480945794535046 1:3 4:0.5 37:0.75 2469:0.25 5021:1 10223:1 15021:0.75 16725:0.5 17288:0.25 
-0.0024390359680780235480945794535046 1:16 12:0.25 25:0.75 982:0.5 5794:1 10021:1 15025:0.25 15287:0.75 15917:0.5 
-0.0024390359680780235480945794535046 1:16 5:0.5 111:0.75 660:0.25 5116:1 10021:1 15012:0.75 15028:0.5 15332:0.25 
-0.0024390359680780235480945794535046 1:3 19:0.25 156:0.75 503:0.5 5020:1 14156:1 15028:0.5 15071:0.25 15884:0.75 
-0.0024390359680780235480945794535046 1:3 19:0.25 20:0.75 599:0.5 5019:1 13226:1 15031:0.25 15033:0.5 15048:0.75 
-0.0024390359680780235480945794535046 1:12 24:0.25 30:0.5 34:0.75 5026:1 12857:1 15012:0.75 15020:0.25 15040:0.5 
-0.0024390359680780235480945794535046 1:15 7:0.75 1179:0.5 2949:0.25 5019:1 10495:1 15025:0.75 15145:0.25 19294:0.5 
-0.0024390359680780235480945794535046 1:21 37:0.5 232:0.25 432:0.75 5005:1 10021:1 15012:0.75 15021:0.5 15117:0.25 
-0.0024390359680780235480945794535046 1:22 19:0.25 196:0.5 309:0.75 5020:1 10005:1 15032:0.25 15036:0.75 15120:0.5 
-0.0024390359680780235480945794535046 1:4 5:0.5 215:0.75 2382:0.25 5030:1 10005:1 15012:0.75 15037:0.25 19891:0.5 
0.024390359680780234613584056546642 1:45 5:0.75 7:0.25 12:0.5 5024:1 10242:1 15002:0.25 15005:0.75 15054:0.5 
-0.0024390359680780235480945794535046 1:4 4:0.25 7:0.5 370:0.75 5195:1 10005:1 15012:0.25 15049:0.5 15052:0.75 
-0.0024390359680780235480945794535046 1:3 20:0.75 482:0.25 2401:0.5 5012:1 10005:1 15002:0.75 15264:0.5 16984:0.25 
-0.0024390359680780235480945794535046 1:3 46:0.5 83:0.75 685:0.25 5003:1 10083:1 15004:0.75 15021:0.5 16727:0.25 
-0.0024390359680780235480945794535046 1:3 5:0.75 220:0.5 5021:1 10032:1 15024:0.75 15285:0.25 16406:0.5 
-0.0024390359680780235480945794535046 1:2 26:0.25 225:0.75 490:0.5 5003:1 10074:1 15002:0.75 15005:0.5 15476:0.25 
-0.0024390359680780235480945794535046 1:15 19:0.25 633:0.5 1822:0.75 5021:1 12103:1 15005:0.25 15007:0.75 15126:0.5 
-0.0024390359680780235480945794535046 1:3 20:0.5 60:0.25 454:0.75 7080:1 10198:1 15031:0.75 15033:0.25 15080:0.5 
-0.0024390359680780235480945794535046 1:3 24:0.5 1417:0.25 4396:0.75 6508:1 10885:1 15012:0.25 15025:0.75 15998:0.5 
-0.0024390359680780235480945794535046 1:15 23:0.25 24:0.5 939:0.75 5020:1 10090:1 15008:0.25 15012:0.5 15032:0.75 
-0.0024390359680780235480945794535046 1:15 33:0.75 307:0.5 376:0.25 8323:1 10007:1 15019:0.75 16341:0.25 18323:0.5 
0.024390359680780234613584056546642 1:6 12:0.75 19:0.5 3582:0.25 5011:1 10058:1 15461:0.75 15518:0.25 15908:0.5 
-0.0024390359680780235480945794535046 1:18 7:0.25 19:0.5 218:0.75 5002:1 10003:1 15004:0.5 15096:0.25 15770:0.75 
-0.0024390359680780235480945794535046 1:3 19:0.5 26:0.25 38:0.75 5020:1 10028:1 15022:0.25 15228:0.5 17557:0.75 
-0.0024390359680780235480945794535046 1:4 19:0.25 253:0.75 600:0.5 5020:1 10003:1 15004:0.5 15427:0.75 17609:0.25 
-0.0024390359680780235480945794535046 1:4 33:0.75 79:0.5 1345:0.25 5391:1 10058:1 15005:0.25 15012:0.5 15076:0.75 
-0.0024390359680780235480945794535046 1:4 12:0.5 19:0.25 58:0.75 5003:1 13240:1 15004:0.5 15012:0.75 15022:0.25 
-0.0024390359680780235480945794535046 1:23 19:0.75 20:0.5 270:0.25 7155:1 10003:1 15004:0.5 15012:0.75 15045:0.25 
-0.0024390359680780235480945794535046 1:13 12:0.5 24:0.25 1211:0.75 5262:1 10525:1 15022:0.75 15025:0.25 15120:0.5 
-0.0024390359680780235480945794535046 1:4 77:0.75 342:0.25 1074:0.5 5391:1 10058:1 15019:0.5 15021:0.75 15568:0.25 
-0.0024390359680780235480945794535046 1:11 7:0.25 39:0.5 2669:0.75 5053:1 10055:1 15019:0.5 17160:0.25 17778:0.75 
-0.0024390359680780235480945794535046 1:14 7:0.75 2319:0.25 4847:0.5 5019:1 10034:1 15003:0.5 15012:0.75 18122:0.25 
-0.0024390359680780235480945794535046 1:12 21:0.25 23:0.5 153:0.75 5005:1 10529:1 15023:0.75 15907:0.25 19977:0.5 
-0.0024390359680780235480945794535046 1:13 19:0.5 20:0.25 226:0.75 5021:1 10056:1 15007:0.25 15181:0.75 15326:0.5 
-0.0024390359680780235480945794535046 1:3 20:0.75 24:0.25 1023:0.5 8687:1 10773:1 15019:0.5 15032:0.75 15901:0.25 
-0.0024390359680780235480945794535046 1:23 19:0.25 451:0.5 1882:0.75 5020:1 10021:1 17470:0.25 17499:0.75 19087:0.5 
-0.0024390359680780235480945794535046 1:3 19:0.75 25:0.5 788:0.25 6007:1 12215:1 15022:0.5 15047:0.75 16210:0.25 
-0.0024390359680780235480945794535046 1:16 12:0.75 45:0.5 90:0.25 5005:1 10051:1 15020:0.25 15053:0.5 
-0.0024390359680780235480945794535046 1:9 22:0.25 24:0.5 3826:0.75 6416:1 10357:1 15019:0.5 15023:0.75 15055:0.25 
-0.0024390359680780235480945794535046 1:14 3:0.75 22:0.25 1876:0.5 5011:1 10004:1 15005:0.75 15022:0.25 15031:0.5 
-0.0024390359680780235480945794535046 1:4 308:0.75 890:0.5 4224:0.25 5003:1 10004:1 15022:0.75 15025:0.25 15147:0.5 
-0.0024390359680780235480945794535046 1:3 23:0.5 37:0.25 47:0.75 5019:1 10190:1 15005:0.25 15022:0.75 17434:0.5 
-0.0024390359680780235480945794535046 1:19 3:0.75 12:0.5 644:0.25 5026:1 10004:1 15005:0.25 15007:0.75 15136:0.5 
-0.0024390359680780235480945794535046 1:10 312:0.75 2048:0.5 3095:0.25 5203:1 10220:1 15007:0.25 15155:0.75 15420:0.5 
-0.0024390359680780235480945794535046 1:3 22:0.25 64:0.5 139:0.75 5023:1 10240:1 15005:0.75 15035:0.5 19313:0.25 
-0.0024390359680780235480945794535046 1:3 12:0.75 19:0.5 20:0.25 5011:1 10012:1 15020:0.25 15046:0.75 15050:0.5 
-0.0024390359680780235480945794535046 1:11 7:0.75 12:0.25 98:0.5 5051:1 10098:1 15012:0.5 15022:0.25 15032:0.75 
-0.0024390359680780235480945794535046 1:11 26:0.75 76:0.25 1645:0.5 8113:1 10026:1 15022:0.5 16249:0.25 18445:0.75 
-0.0024390359680780235480945794535046 1:3 5:0.75 19:0.25 640:0.5 5021:1 10031:1 15023:0.75 15065:0.5 15227:0.25 
-0.0024390359680780235480945794535046 1:15 19:0.5 20:0.25 1240:0.75 6276:1 10005:1 15024:0.25 15025:0.5 15534:0.75 
-0.0024390359680780235480945794535046 1:4 12:0.25 44:0.5 1344:0.75 5005:1 10005:1 15050:0.75 15522:0.25 15554:0.5 
-0.0024390359680780235480945794535046 1:3 24:0.25 88:0.75 250:0.5 5020:1 11153:1 15025:0.5 15473:0.75 18590:0.25 
-0.0024390359680780235480945794535046 1:3 12:0.5 64:0.75 1233:0.25 5837:1 10252:1 15012:0.25 15032:0.5 15590:0.75 
-0.0024390359680780235480945794535046 1:3 5:0.75 69:0.25 246:0.5 5019:1 10190:1 15002:0.25 15003:0.5 15067:0.75 
-0.0024390359680780235480945794535046 1:12 5:0.75 40:0.5 427:0.25 5228:1 10032:1 15021:0.5 15566:0.25 15872:0.75 
-0.0024390359680780235480945794535046 1:16 19:0.75 20:0.5 125:0.25 5248:1 10007:1 15023:0.75 15025:0.25 15231:0.5 
-0.0024390359680780235480945794535046 1:3 26:0.75 35:0.25 152:0.5 5019:1 10390:1 15012:0.75 15024:0.5 15050:0.25 
-0.0024390359680780235480945794535046 1:3 7:0.5 24:0.75 525:0.25 5030:1 10079:1 15022:0.25 15033:0.75 15798:0.5 
-0.0024390359680780235480945794535046 1:22 20:0.25 31:0.75 191:0.5 5021:1 10031:1 15032:0.75 15041:0.5 15605:0.25 
-0.0024390359680780235480945794535046 1:22 60:0.25 168:0.75 261:0.5 5019:1 10007:1 15041:0.75 15073:0.5 15189:0.25 
-0.0024390359680780235480945794535046 1:3 23:0.5 37:0.25 47:0.75 5019:1 10190:1 15005:0.25 15022:0.75 15694:0.5 
-0.0024390359680780235480945794535046 1:13 24:0.5 87:0.75 2206:0.25 6837:1 10005:1 15012:0.75 15021:0.5 18006:0.25 
0.024390359680780234613584056546642 1:58 20:0.75 31:0.25 109:0.5 5019:1 10003:1 15004:0.5 15005:0.25 15012:0.75 
-0.0024390359680780235480945794535046 1:3 43:0.25 289:0.75 4558:0.5 5007:1 11164:1 15182:0.25 15237:0.5 15329:0.75 
-0.0024390359680780235480945794535046 1:12 27:0.25 254:0.5 1175:0.75 9126:1 12128:1 15049:0.5 15052:0.75 18668:0.25 
-0.0024390359680780235480945794535046 1:3 2:0.75 30:0.25 627:0.5 5003:1 10002:1 15004:0.75 15007:0.5 16440:0.25 
-0.0024390359680780235480945794535046 1:3 2:0.5 20:0.25 21:0.75 5002:1 10005:1 15005:0.5 15164:0.25 15706:0.75 
-0.0024390359680780235480945794535046 1:4 19:0.25 20:0.75 4959:0.5 5019:1 10005:1 15183:0.5 15211:0.25 16602:0.75 
-0.0024390359680780235480945794535046 1:15 70:0.75 414:0.5 3200:0.25 5044:1 10021:1 15235:0.5 15535:0.75 15598:0.25 
-0.0024390359680780235480945794535046 1:15 25:0.5 327:0.25 2963:0.75 5855:1 10007:1 15012:0.75 15021:0.5 15140:0.25 
-0.0024390359680780235480945794535046 1:4 60:0.5 71:0.75 3055:0.25 5007:1 10003:1 15273:0.25 16206:0.75 18055:0.5 
-0.0024390359680780235480945794535046 1:4 21:0.5 3525:0.75 3938:0.25 5030:1 10005:1 15022:0.25 15028:0.75 15369:0.5 
-0.0024390359680780235480945794535046 1:17 24:0.25 1154:0.75 1962:0.5 5032:1 10007:1 15027:0.25 
-0.0024390359680780235480945794535046 1:24 7:0.75 12:0.25 34:0.5 5019:1 10021:1 15012:0.75 15022:0.5 15064:0.25 
-0.0024390359680780235480945794535046 1:5 24:0.25 28:0.75 58:0.5 9110:1 10003:1 15004:0.5 15005:0.25 15012:0.75 
-0.0024390359680780235480945794535046 1:12 12:0.25 20:0.75 51:0.5 5053:1 10346:1 15005:0.75 15012:0.5 15155:0.25 
-0.0024390359680780235480945794535046 1:3 775:0.5 1279:0.75 2818:0.25 8936:1 10025:1 15058:0.25 16895:0.5 18270:0.75 
-0.0024390359680780235480945794535046 1:13 22:0.25 45:0.75 155:0.5 5019:1 10986:1 15005:0.5 17819:0.75 17838:0.25 
-0.0024390359680780235480945794535046 1:16 5:0.5 247:0.25 249:0.75 5020:1 10096:1 15002:0.25 15019:0.75 17585:0.5 
-0.0024390359680780235480945794535046 1:16 7:0.75 12:0.5 206:0.25 5019:1 10031:1 15020:0.5 15206:0.25 15233:0.75 
-0.0024390359680780235480945794535046 1:11 23:0.25 44:0.75 112:0.5 5019:1 10273:1 15019:0.5 15020:0.75 15973:0.25 
-0.0024390359680780235480945794535046 1:15 20:0.75 27:0.25 253:0.5 5063:1 10984:1 15505:0.25 15556:0.75 17041:0.5 
-0.0024390359680780235480945794535046 1:6 19:0.5 50:0.25 4216:0.75 9180:1 13431:1 15007:0.75 15070:0.5 15150:0.25 
0.024390359680780234613584056546642 1:4 69:0.5 151:0.75 2624:0.25 5005:1 10081:1 15024:0.75 15156:0.25 17218:0.5 
0.024390359680780234613584056546642 1:46 12:0.25 34:0.75 295:0.5 5005:1 10003:1 15004:0.5 15007:0.25 15702:0.75 
-0.0024390359680780235480945794535046 1:4 24:0.75 1108:0.5 3254:0.25 5716:1 10011:1 15024:0.75 15096:0.25 15357:0.5 
-0.0024390359680780235480945794535046 1:4 4:0.5 12:0.75 5003:1 10005:1 15002:0.25 15011:0.5 18795:0.75 
-0.0024390359680780235480945794535046 1:15 12:0.75 94:0.25 738:0.5 5019:1 10825:1 15007:0.5 15126:0.25 15222:0.75 
-0.0024390359680780235480945794535046 1:16 12:0.75 20:0.5 60:0.25 5005:1 10786:1 15019:0.25 15025:0.5 15031:0.75 
-0.0024390359680780235480945794535046 1:9 12:0.5 21:0.25 525:0.75 5146:1 10024:1 15007:0.25 15012:0.75 
-0.0024390359680780235480945794535046 1:4 19:0.25 20:0.75 5030:1 13878:1 15003:0.75 15004:0.25 18516:0.5 
-0.0024390359680780235480945794535046 1:13 12:0.75 20:0.5 1400:0.25 6108:1 10537:1 15012:0.5 15575:0.25 16171:0.75 
0.024390359680780234613584056546642 1:44 29:0.5 30:0.25 36:0.75 5043:1 10028:1 15024:0.75 15042:0.5 16090:0.25 
-0.0024390359680780235480945794535046 1:21 43:0.25 225:0.75 545:0.5 6174:1 10003:1 15004:0.5 15438:0.25 16789:0.75 
0.024390359680780234613584056546642 1:5 24:0.5 34:0.25 1448:0.75 5029:1 10011:1 15008:0.5 15012:0.75 15024:0.25 
-0.0024390359680780235480945794535046 1:3 46:0.75 579:0.25 789:0.5 5003:1 10004:1 15002:0.75 15012:0.25 15021:0.5 
-0.0024390359680780235480945794535046 1:3 46:0.75 579:0.25 789:0.5 5003:1 10004:1 15002:0.75 15012:0.25 15021:0.5 
-0.0024390359680780235480945794535046 1:13 20:0.75 60:0.5 190:0.25 5019:1 10083:1 15003:0.5 15012:0.25 15235:0.75 
-0.0024390359680780235480945794535046 1:3 12:0.5 21:0.25 114:0.75 5028:1 10194:1 15019:0.5 15023:0.75 15199:0.25 
-0.0024390359680780235480945794535046 1:3 20:0.75 34:0.5 847:0.25 5002:1 10004:1 15005:0.75 15024:0.25 15036:0.5 
-0.0024390359680780235480945794535046 1:4 5:0.5 21:0.75 29:0.25 5953:1 10003:1 15004:0.5 15005:0.25 17228:0.75 
-0.0024390359680780235480945794535046 1:3 5:0.75 66:0.5 239:0.25 5129:1 10022:1 15033:0.5 15327:0.75 17058:0.25 
-0.0024390359680780235480945794535046 1:15 27:0.75 5019:1 10351:1 15012:0.75 15048:0.5 15105:0.25 
-0.0024390359680780235480945794535046 1:12 33:0.25 51:0.75 113:0.5 5007:1 10150:1 15024:0.25 15081:0.75 18981:0.5 
-0.0024390359680780235480945794535046 1:16 7:0.75 25:0.25 1159:0.5 5019:1 10105:1 15022:0.75 15025:0.25 15147:0.5 
-0.0024390359680780235480945794535046 1:13 27:0.75 5027:1 11580:1 15556:0.25 15984:0.5 17183:0.75 
-0.0024390359680780235480945794535046 1:3 20:0.75 631:0.5 1765:0.25 5024:1 10925:1 15024:0.25 15050:0.5 15137:0.75 
-0.0024390359680780235480945794535046 1:17 12:0.75 49:0.5 52:0.25 5005:1 10995:1 15007:0.25 15012:0.5 15032:0.75 
-0.0024390359680780235480945794535046 1:27 19:0.5 20:0.25 30:0.75 5005:1 10003:1 15004:0.5 15005:0.25 15012:0.75 
-0.0024390359680780235480945794535046 1:15 19:0.5 25:0.25 208:0.75 5020:1 10025:1 15023:0.5 15355:0.25 16651:0.75 
-0.0024390359680780235480945794535046 1:3 26:0.25 28:0.75 2428:0.5 5043:1 10192:1 15003:0.75 15004:0.25 17710:0.5 
-0.0024390359680780235480945794535046 1:21 20:0.75 90:0.5 227:0.25 5019:1 10023:1 15007:0.5 15126:0.25 19102:0.75 
-0.0024390359680780235480945794535046 1:14 47:0.25 276:0.5 774:0.75 5019:1 11713:1 15005:0.25 15448:0.5 19788:0.75 
-0.0024390359680780235480945794535046 1:4 49:0.75 52:0.5 2101:0.25 5971:1 10003:1 15004:0.5 15007:0.25 16690:0.75 
-0.0024390359680780235480945794535046 1:4 19:0.75 49:0.5 52:0.25 5622:1 10005:1 15019:0.5 15025:0.75 15288:0.25 
-0.0024390359680780235480945794535046 1:5 34:0.75 603:0.25 1270:0.5 5020:1 10003:1 15004:0.5 15007:0.25 15012:0.75 
-0.0024390359680780235480945794535046 1:3 5:0.25 12:0.5 135:0.75 5028:1 10151:1 15066:0.5 15345:0.25 15456:0.75 
-0.0024390359680780235480945794535046 1:17 4:0.5 7:0.75 1308:0.25 5116:1 10022:1 15028:0.5 15131:0.75 16642:0.25 
-0.0024390359680780235480945794535046 1:17 32:0.5 65:0.75 5268:1 10021:1 15023:0.5 15030:0.25 16523:0.75 
-0.0024390359680780235480945794535046 1:14 20:0.5 172:0.25 909:0.75 5005:1 10624:1 15005:0.75 15024:0.25 16493:0.5 
-0.0024390359680780235480945794535046 1:10 23:0.5 153:0.75 470:0.25 5007:1 10026:1 15012:0.5 16474:0.25 18567:0.75 
-0.0024390359680780235480945794535046 1:13 27:0.75 5027:1 11665:1 15108:0.25 15520:0.5 19933:0.75 
-0.0024390359680780235480945794535046 1:3 83:0.75 215:0.25 1612:0.5 5005:1 10083:1 15005:0.75 15083:0.25 16805:0.5 
-0.0024390359680780235480945794535046 1:14 20:0.5 911:0.25 3093:0.75 9656:1 10007:1 15027:0.25 
-0.0024390359680780235480945794535046 1:21 25:0.5 45:0.25 121:0.75 5026:1 10022:1 15045:0.25 15155:0.5 16025:0.75 
-0.0024390359680780235480945794535046 1:16 19:0.25 29:0.75 630:0.5 5020:1 10452:1 15021:0.25 15057:0.5 15075:0.75 
-0.0024390359680780235480945794535046 1:3 19:0.75 20:0.5 163:0.25 5815:1 10028:1 15133:0.75 16055:0.5 17903:0.25 
-0.0024390359680780235480945794535046 1:10 12:0.25 188:0.75 255:0.5 5096:1 10098:1 15007:0.75 15020:0.25 15315:0.5 
-0.0024390359680780235480945794535046 1:4 20:0.75 804:0.25 3764:0.5 5019:1 10005:1 15258:0.5 15564:0.75 15574:0.25 
-0.0024390359680780235480945794535046 1:16 5:0.5 3363:0.75 4180:0.25 5485:1 10003:1 15002:0.25 15485:0.75 16174:0.5 
-0.0024390359680780235480945794535046 1:3 3:0.5 12:0.75 5004:1 10007:1 15198:0.25 15224:0.5 15842:0.75 
-0.0024390359680780235480945794535046 1:23 21:0.5 362:0.75 1520:0.25 5020:1 10005:1 15005:0.5 15012:0.75 15026:0.25 
-0.0024390359680780235480945794535046 1:2 7:0.25 33:0.5 4937:0.75 5005:1 10074:1 15002:0.75 15021:0.5 15476:0.25 
-0.0024390359680780235480945794535046 1:15 23:0.75 1173:0.25 2245:0.5 5232:1 10005:1 15026:0.25 15035:0.75 15141:0.5 
-0.0024390359680780235480945794535046 1:3 3:0.75 30:0.25 743:0.5 5218:1 10004:1 15006:0.75 15019:0.5 15087:0.25 
-0.0024390359680780235480945794535046 1:13 128:0.5 808:0.25 2877:0.75 7005:1 10021:1 15055:0.5 15916:0.75 17015:0.25 
-0.0024390359680780235480945794535046 1:15 12:0.5 26:0.25 175:0.75 5028:1 10060:1 15012:0.25 17914:0.75 17921:0.5 
-0.0024390359680780235480945794535046 1:4 7:0.25 12:0.75 2992:0.5 5003:1 10004:1 15022:0.75 15024:0.5 
0.024390359680780234613584056546642 1:44 33:0.25 51:0.75 2018:0.5 5020:1 10143:1 15019:0.5 15032:0.75 15395:0.25 
-0.0024390359680780235480945794535046 1:8 26:0.25 185:0.5 535:0.75 5002:1 12133:1 15021:0.5 15026:0.25 15185:0.75 
-0.0024390359680780235480945794535046 1:11 2:0.25 21:0.5 1072:0.75 5023:1 11598:1 15036:0.5 15243:0.75 18510:0.25 
-0.0024390359680780235480945794535046 1:19 24:0.5 76:0.25 995:0.75 5030:1 10005:1 15038:0.25 15927:0.75 17158:0.5 
-0.0024390359680780235480945794535046 1:16 472:0.25 493:0.5 2591:0.75 5007:1 10005:1 15026:0.25 15035:0.75 15121:0.5 
-0.0024390359680780235480945794535046 1:3 3:0.25 4:0.75 3580:0.5 6508:1 10238:1 15024:0.5 15032:0.75 17626:0.25 
-0.0024390359680780235480945794535046 1:15 28:0.5 131:0.25 293:0.75 5203:1 10007:1 15024:0.25 15035:0.75 17067:0.5 
-0.0024390359680780235480945794535046 1:16 7:0.25 35:0.5 147:0.75 5019:1 10105:1 15025:0.75 15033:0.25 15589:0.5 
-0.0024390359680780235480945794535046 1:15 12:0.5 20:0.25 161:0.75 5026:1 10049:1 15244:0.75 15398:0.5 18287:0.25 
