SVM-light Version V5.00
0 # kernel type
3 # kernel parameter -d 
1 # kernel parameter -g 
1 # kernel parameter -s 
1 # kernel parameter -r 
empty# kernel parameter -u 
19999 # highest feature index 
117693 # number of training documents 
10694 # number of support vectors plus 1 
2.2862081 # threshold b, each following line is a SV (starting with alpha*y)
-0.25235959374059557802638664725237 22:1 6711:1 10031:1 15023:1 
0.00094070218642903276774075438382283 19:1 5011:1 10011:1 15024:1 
-0.25235959374059557802638664725237 3:1 5011:1 14177:1 15125:1 
-0.25235959374059557802638664725237 26:1 6561:1 10011:1 15726:1 
-0.25235959374059557802638664725237 33:1 5879:1 10011:1 15021:1 
-0.18211357094816882362664500760729 19:1 5018:1 10059:1 15048:1 
0.95773309318890798014223264544853 18:1 7040:1 10031:1 15002:1 
-0.20936060428042410630489200684679 6:1 5116:1 10011:1 15124:1 
2.5235959374059557802638664725237 11:1 11333:1 15006:1 
-0.23760566786028269881114738382166 20:1 5294:1 10055:1 15023:1 
-0.25235959374059557802638664725237 11:1 5011:1 10011:1 15006:1 
-0.25235959374059557802638664725237 11:1 5011:1 10011:1 15006:1 
-0.25235959374059557802638664725237 11:1 5011:1 10011:1 15006:1 
-0.25235959374059557802638664725237 19:1 5011:1 10011:1 15006:1 
-0.25235959374059557802638664725237 19:1 5011:1 10011:1 15006:1 
1.4650203228532583388243892841274 69:1 9000:1 14000:1 15035:1 
1.4122783640885694378397374748602 69:1 9411:1 12111:1 15027:1 
0.76972784476559363842085303986096 69:1 7302:1 10041:1 16103:1 
0.34915875241531724171295536507387 69:1 5877:1 10877:1 19432:1 
2.1360166284754926735445224039722 69:1 8793:1 10001:1 15019:1 
-0.25235959374059557802638664725237 69:1 8793:1 10031:1 15001:1 
-0.25235959374059557802638664725237 69:1 5058:1 10031:1 15019:1 
-0.12067258688249861420249686716488 20:1 5011:1 10767:1 17401:1 
-0.25235959374059557802638664725237 18:1 5241:1 10299:1 15005:1 
-0.25235959374059557802638664725237 18:1 6244:1 12398:1 15002:1 
2.5235959374059557802638664725237 11:1 5011:1 10011:1 15006:1 
2.5235959374059557802638664725237 11:1 5011:1 10011:1 15006:1 
-0.25235959374059557802638664725237 18:1 5163:1 10011:1 15066:1 
-0.25235959374059557802638664725237 34:1 5763:1 10001:1 15029:1 
-0.25235959374059557802638664725237 2703:1 5245:1 10011:1 15741:1 
-0.25235959374059557802638664725237 19:1 5011:1 10011:1 15006:1 
-0.25235959374059557802638664725237 19:1 5011:1 10011:1 15006:1 
-0.25235959374059557802638664725237 19:1 5011:1 10011:1 15006:1 
1.6219285687843341126068708035746 18:1 8171:1 10031:1 15019:1 
2.5235959374059557802638664725237 18:1 5785:1 10031:1 15019:1 
2.5235959374059557802638664725237 34:1 5001:1 10031:1 15019:1 
1.5002290069848547293673846070305 40:1 7713:1 10031:1 15024:1 
-0.0067156652622211588515854785441661 25:1 5011:1 11978:1 15041:1 
-0.25235959374059557802638664725237 4:1 5463:1 12114:1 15026:1 
-0.25235959374059557802638664725237 31:1 5095:1 10011:1 15002:1 
-0.20587248073506098089424654062896 11:1 7043:1 10001:1 15003:1 
-0.25235959374059557802638664725237 11:1 6884:1 10031:1 15004:1 
-0.050454875483332099761479838662126 11:1 5194:1 10031:1 15032:1 
-0.030629043223791795752530831009608 18:1 5699:1 10011:1 15677:1 
0.24792318341896740774288332431752 19:1 5011:1 10011:1 17411:1 
2.5235959374059557802638664725237 11:1 5653:1 10653:1 15004:1 
0.325697787127461613199130852081 24:1 5011:1 10011:1 15083:1 
1.4040223847894930386814849043731 11:1 5521:1 10521:1 15003:1 
1.4040224989730696325551662084763 11:1 5521:1 10521:1 15003:1 
1.4038999804279439498344572712085 11:1 5521:1 10521:1 15003:1 
-0.25235959374059557802638664725237 18:1 5011:1 10041:1 15002:1 
-0.25235959374059557802638664725237 10:1 5011:1 10040:1 15002:1 
-0.25235959374059557802638664725237 10:1 5011:1 10117:1 15002:1 
-0.25235959374059557802638664725237 2:1 5011:1 10282:1 15002:1 
-0.25235959374059557802638664725237 1596:1 5011:1 11333:1 15006:1 
2.5235959374059557802638664725237 19:1 5041:1 10001:1 15011:1 
1.6165625208151057634609060187358 4232:1 5379:1 10379:1 15011:1 
2.5235959374059557802638664725237 6:1 5177:1 10177:1 15011:1 
0.60819993397162797066357597941533 2305:1 6366:1 11366:1 15011:1 
-0.15209949756480684035508943452442 407:1 5011:1 11367:1 15313:1 
1.7503408758481058260514373614569 32:1 5126:1 10001:1 15114:1 
-0.25235959374059557802638664725237 36:1 5001:1 10001:1 15011:1 
-0.25235959374059557802638664725237 21:1 5001:1 10001:1 15011:1 
-0.25235959374059557802638664725237 2259:1 5177:1 10177:1 15011:1 
-0.25235959374059557802638664725237 163:1 5041:1 10011:1 15011:1 
-0.25235959374059557802638664725237 536:1 6298:1 11125:1 15031:1 
-0.25235959374059557802638664725237 25:1 5688:1 10011:1 15006:1 
-0.20561140308040112834042645317822 19:1 5733:1 11410:1 15789:1 
2.2950306544165148814329313609051 18:1 5011:1 10208:1 15002:1 
-0.25235959374059557802638664725237 18:1 5011:1 10031:1 15002:1 
-0.25235959374059557802638664725237 18:1 5011:1 10011:1 15002:1 
-0.25235959374059557802638664725237 25:1 5011:1 10031:1 15002:1 
-0.25235959374059557802638664725237 25:1 5011:1 10031:1 15002:1 
1.1120815830464099160934665633249 19:1 5177:1 10177:1 15011:1 
-0.079507224946230997675300500304729 76:1 5150:1 10011:1 15199:1 
-0.039370624726679424865150025425464 67:1 5011:1 10252:1 15311:1 
-0.040887295414779478708311444279389 24:1 5692:1 10261:1 15376:1 
-0.012800210770221951556147033102206 19:1 5018:1 10512:1 15744:1 
-0.1800064585814998285862031934812 6:1 6875:1 11660:1 15536:1 
-0.25235959374059557802638664725237 19:1 5057:1 10041:1 15019:1 
-0.25235959374059557802638664725237 19:1 5057:1 10041:1 15019:1 
-0.25235959374059557802638664725237 19:1 5057:1 10041:1 15019:1 
-0.25235959374059557802638664725237 18:1 5011:1 10052:1 15029:1 
-0.25235959374059557802638664725237 19:1 5448:1 10291:1 15004:1 
-0.25235959374059557802638664725237 3418:1 5750:1 10241:1 15161:1 
-0.25235959374059557802638664725237 23:1 5011:1 10011:1 15002:1 
-0.25235959374059557802638664725237 23:1 5011:1 10011:1 15002:1 
-0.25235959374059557802638664725237 6:1 5011:1 10011:1 15002:1 
-0.25235959374059557802638664725237 4:1 5011:1 10011:1 15002:1 
-0.25235959374059557802638664725237 4:1 5011:1 10011:1 15002:1 
2.5235959374059557802638664725237 19:1 7059:1 10039:1 15019:1 
0.30782355122112192713501599428128 18:1 5057:1 10041:1 15072:1 
2.5235959374059557802638664725237 18:1 5473:1 10214:1 15019:1 
0.23408849707428422415311786153325 19:1 5057:1 10059:1 15254:1 
-0.25235959374059557802638664725237 18:1 5624:1 10031:1 15072:1 
-0.25235959374059557802638664725237 18:1 5379:1 10031:1 15042:1 
-0.25235959374059557802638664725237 34:1 5778:1 10031:1 15072:1 
-0.25235959374059557802638664725237 18:1 5041:1 10199:1 15006:1 
-0.25235959374059557802638664725237 18:1 5041:1 10367:1 15006:1 
-0.25062026577117912928827081486816 96:1 5011:1 11340:1 15011:1 
-0.25235959374059557802638664725237 36:1 5011:1 10438:1 15024:1 
-0.15196872688650997496040417900076 348:1 5011:1 11813:1 16912:1 
-0.15650672721530961561953176897077 3996:1 6344:1 10011:1 15088:1 
-0.11450238753354441412213304829493 10:1 8968:1 10072:1 15006:1 
-0.25235959374059557802638664725237 4:1 6012:1 10011:1 15002:1 
-0.25235959374059557802638664725237 4:1 7261:1 10011:1 15002:1 
-0.25235959374059557802638664725237 4:1 5064:1 10011:1 15002:1 
2.5235959374059557802638664725237 18:1 5341:1 10001:1 15006:1 
1.7486283748292914541622167234891 18:1 7290:1 10031:1 15006:1 
2.4816504092069728848457543790573 18:1 5697:1 10031:1 15006:1 
2.5235959374059557802638664725237 23:1 5527:1 10001:1 15006:1 
1.3471342922719109491680455903406 18:1 5941:1 10001:1 15106:1 
-0.25235959374059557802638664725237 18:1 7555:1 11244:1 15006:1 
-0.071939843744406581360628649690625 3128:1 5311:1 10011:1 15029:1 
-0.25235959374059557802638664725237 18:1 6553:1 10039:1 15006:1 
-0.25235959374059557802638664725237 506:1 5213:1 10011:1 16604:1 
-0.25235959374059557802638664725237 18:1 5493:1 10001:1 15006:1 
-0.2239579596752190593367259907609 37:1 5551:1 10278:1 15044:1 
-0.11105178874442780956321996654879 24:1 7099:1 12099:1 15191:1 
-0.17288512860979796115223905417224 1009:1 5518:1 11234:1 15047:1 
-0.088061157551285559885734244289779 3369:1 5906:1 10318:1 15066:1 
-0.25235959374059557802638664725237 32:1 5959:1 10019:1 15027:1 
-0.25235959374059557802638664725237 6:1 5011:1 10335:1 15002:1 
-0.25235959374059557802638664725237 6:1 5011:1 10126:1 15002:1 
-0.25235959374059557802638664725237 6:1 5011:1 10241:1 15002:1 
-0.25235959374059557802638664725237 6:1 5011:1 10089:1 15002:1 
1.1233336584818314207723233266734 18:1 7690:1 10043:1 15032:1 
2.5235959374059557802638664725237 11:1 5889:1 10889:1 15006:1 
-0.25235959374059557802638664725237 25:1 6596:1 11333:1 15006:1 
-0.24670460911041858231840251391986 11:1 6333:1 11333:1 15006:1 
-0.24670460910727504133532761443348 11:1 6333:1 11333:1 15006:1 
-0.24677902706993290471437774158403 11:1 6333:1 11333:1 15006:1 
-0.25235959374059557802638664725237 23:1 5057:1 10011:1 15006:1 
1.8288462426573990349254472675966 6:1 5011:1 13509:1 15002:1 
-0.25235959374059557802638664725237 6:1 5011:1 10011:1 15004:1 
-0.25235959374059557802638664725237 6:1 5011:1 10011:1 15004:1 
-0.25235959374059557802638664725237 6:1 5011:1 10011:1 15004:1 
-0.25235959374059557802638664725237 6:1 5011:1 10011:1 15004:1 
-0.25235959374059557802638664725237 6:1 5011:1 10011:1 15004:1 
1.0781693055541019532483915099874 1596:1 5011:1 11333:1 15006:1 
2.5235959374059557802638664725237 115:1 5544:1 10039:1 15006:1 
-0.25235959374059557802638664725237 18:1 7890:1 10190:1 16862:1 
1.2805604959804759435115784071968 10:1 9522:1 14522:1 15006:1 
-0.088742354950999441376424670124834 18:1 5025:1 11333:1 15006:1 
-0.088742356413973919049276162240858 18:1 5025:1 11333:1 15006:1 
-0.25235959374059557802638664725237 18:1 5099:1 10043:1 15006:1 
-0.25235959374059557802638664725237 40:1 5177:1 10574:1 15006:1 
-0.22309032835039227515849802330195 3:1 5358:1 10512:1 15010:1 
-0.25235959374059557802638664725237 30:1 5011:1 10304:1 15429:1 
-0.10310358967442305455630702226699 32:1 5860:1 10730:1 15178:1 
-0.25235959374059557802638664725237 19:1 5836:1 10497:1 15033:1 
-0.1610001577507700620817132630691 66:1 5011:1 10761:1 15363:1 
-0.0062728473809527526480755987847715 11:1 5075:1 10500:1 15020:1 
-0.25235959374059557802638664725237 31:1 5001:1 10043:1 15028:1 
-0.019499096282300312082957916004489 11:1 5010:1 11451:1 17795:1 
1.1778028156312607688249727289076 19:1 5936:1 10361:1 15006:1 
-0.0017903052987884892407327575014619 18:1 5512:1 10744:1 15086:1 
-0.25235959374059557802638664725237 771:1 5458:1 10127:1 15006:1 
-0.25235959374059557802638664725237 19:1 5011:1 10001:1 15006:1 
-0.25235959374059557802638664725237 19:1 5011:1 10039:1 15032:1 
-0.25235959374059557802638664725237 19:1 5011:1 10361:1 15006:1 
-0.25235959374059557802638664725237 19:1 5011:1 10043:1 15161:1 
-0.25235959374059557802638664725237 19:1 5011:1 10031:1 15002:1 
2.5235959374059557802638664725237 18:1 5194:1 10011:1 15004:1 
1.3586801466536244653582343744347 18:1 9799:1 10011:1 15004:1 
2.5235959374059557802638664725237 18:1 5060:1 10011:1 15004:1 
1.3778162160602940300435648168786 18:1 5453:1 10011:1 15004:1 
-0.0011156583337413544885358129832298 40:1 6968:1 10234:1 15011:1 
-0.25235959374059557802638664725237 6:1 7157:1 10011:1 15004:1 
-0.25235959374059557802638664725237 6:1 6056:1 10011:1 15004:1 
-0.25235959374059557802638664725237 6:1 10011:1 15004:1 
-0.25235959374059557802638664725237 6:1 10011:1 15004:1 
0.17212910150127380681794875272317 19:1 6727:1 10031:1 15006:1 
1.1325092526448925500659470344544 19:1 7315:1 10031:1 15006:1 
0.058999014254242011789930444365382 19:1 6830:1 10043:1 15161:1 
0.92316137564726119535407633520663 22:1 5011:1 10011:1 15070:1 
-0.24039634061178671853298283167533 18:1 6619:1 11028:1 15031:1 
-0.25235959374059557802638664725237 19:1 5743:1 10001:1 15006:1 
-0.25235959374059557802638664725237 19:1 5222:1 10001:1 15006:1 
-0.25235959374059557802638664725237 19:1 7059:1 10025:1 15006:1 
-0.18992586308968398278729239336826 19:1 5697:1 10218:1 15006:1 
-0.25235959374059557802638664725237 18:1 6398:1 10001:1 15006:1 
-0.25235959374059557802638664725237 6:1 5011:1 10011:1 15004:1 
-0.25235959374059557802638664725237 69:1 5011:1 10011:1 15035:1 
-0.25235959374059557802638664725237 69:1 5011:1 10011:1 15027:1 
-0.25235959374059557802638664725237 11:1 5011:1 10011:1 15004:1 
-0.25235959374059557802638664725237 11:1 5011:1 10011:1 15004:1 
-0.25235959374059557802638664725237 3:1 6224:1 10011:1 15319:1 
2.5235959374059557802638664725237 19:1 5031:1 10011:1 15004:1 
-0.25235959374059557802638664725237 19:1 5915:1 10328:1 15006:1 
-0.25235959374059557802638664725237 19:1 6743:1 12128:1 15006:1 
-0.15192657100031928263383917965257 1532:1 5001:1 10011:1 15031:1 
-0.025530669174626170053743479115838 1090:1 5495:1 12721:1 15128:1 
-0.25235959374059557802638664725237 27:1 5052:1 10058:1 15023:1 
-0.054869291368023598298719889498898 119:1 7916:1 10094:1 15632:1 
-0.091292218447611483966852574667428 4:1 6348:1 10053:1 15011:1 
-0.25235959374059557802638664725237 213:1 5031:1 11331:1 15028:1 
-0.25235959374059557802638664725237 23:1 5011:1 10011:1 15004:1 
-0.25235959374059557802638664725237 23:1 5011:1 10011:1 15004:1 
-0.25235959374059557802638664725237 23:1 5011:1 10011:1 15004:1 
-0.25235959374059557802638664725237 23:1 5011:1 10011:1 15004:1 
-0.25235959374059557802638664725237 23:1 5011:1 10011:1 15004:1 
-0.10812362480304872625058720814195 704:1 6485:1 11436:1 15736:1 
-0.17346536445996824093995769544563 40:1 5200:1 10177:1 15065:1 
-0.12702848731768268120134734999738 1703:1 6299:1 10238:1 15094:1 
-0.024175421396377218263840092049577 32:1 5011:1 11062:1 15679:1 
1.3861331977135518123134261259111 19:1 6413:1 11413:1 15006:1 
-0.25235959374059557802638664725237 19:1 5328:1 11566:1 15006:1 
-0.062542192342599306487116450625763 19:1 5260:1 10691:1 15006:1 
-0.25235959374059557802638664725237 19:1 5317:1 10343:1 15006:1 
-0.063419456037359933642250098273507 111:1 5199:1 10001:1 15002:1 
-0.014240076032424100679896206145258 757:1 5701:1 10060:1 15021:1 
-0.19328695079759544706021756610426 18:1 5529:1 10523:1 15048:1 
-0.23779148464206492641359602657758 18:1 5220:1 10889:1 15021:1 
-0.25235959374059557802638664725237 18:1 8866:1 10200:1 15670:1 
-0.12499347251978812356476566947094 442:1 5031:1 10095:1 15011:1 
-0.020321109039734101819885125905785 6:1 5754:1 10001:1 15021:1 
1.2313049793929142783355246137944 19:1 9310:1 14310:1 15006:1 
0.42612799081657026789571318659 19:1 6032:1 10634:1 15006:1 
2.5235959374059557802638664725237 19:1 5388:1 10315:1 15006:1 
-0.25235959374059557802638664725237 10:1 6112:1 10041:1 15006:1 
-0.11386762644741944827675439455561 18:1 6292:1 11254:1 16908:1 
-0.25235959374059557802638664725237 22:1 7256:1 10011:1 15086:1 
-0.17667582403037271343571035231435 71:1 5602:1 10073:1 15020:1 
-0.25235959374059557802638664725237 362:1 5041:1 10200:1 15010:1 
-0.14757680269947912043981830265693 128:1 5037:1 10653:1 15023:1 
-0.25235959374059557802638664725237 81:1 5867:1 11021:1 16015:1 
-0.25235959374059557802638664725237 23:1 5011:1 10011:1 15004:1 
-0.25235959374059557802638664725237 23:1 5011:1 10011:1 15004:1 
-0.25235959374059557802638664725237 2:1 5011:1 10011:1 15004:1 
-0.25235959374059557802638664725237 34:1 5011:1 10011:1 15004:1 
-0.25235959374059557802638664725237 21:1 5011:1 10011:1 15004:1 
-0.25235959374059557802638664725237 848:1 5819:1 10045:1 15137:1 
-0.01003570271152559763294664918476 18:1 6094:1 10011:1 15225:1 
-0.18320223262833276733907439393079 69:1 5058:1 12378:1 15031:1 
-0.14988771618813787056545550058217 6:1 5011:1 12062:1 17750:1 
-0.25235959374059557802638664725237 42:1 5011:1 11896:1 15066:1 
-0.25235959374059557802638664725237 113:1 5033:1 10011:1 15125:1 
-0.20285884806175263905814176723652 19:1 5011:1 12541:1 19763:1 
-0.25235959374059557802638664725237 114:1 7220:1 10138:1 15087:1 
-0.038652212741822802866131780774595 237:1 5011:1 10205:1 16287:1 
-0.038652099544066315095491859210597 237:1 5011:1 10205:1 16287:1 
-0.25235959374059557802638664725237 446:1 5379:1 12315:1 15031:1 
-0.14246855394431784391784390209068 4:1 5134:1 12366:1 15048:1 
-0.25235959374059557802638664725237 21:1 5011:1 10695:1 15004:1 
-0.25235959374059557802638664725237 21:1 5011:1 10416:1 15004:1 
-0.25235959374059557802638664725237 21:1 5011:1 10363:1 15004:1 
-0.22506959850289753877206067045336 21:1 5011:1 10887:1 15004:1 
-0.023969001752312483338736015525683 6:1 5011:1 10513:1 16123:1 
-0.042873015630527262775917307635609 6:1 5011:1 12101:1 15314:1 
1.4334148123291210463747802350554 19:1 6307:1 11307:1 15006:1 
-0.25235959374059557802638664725237 670:1 5020:1 10011:1 16295:1 
-0.25235959374059557802638664725237 19:1 6062:1 10031:1 15006:1 
-0.25235959374059557802638664725237 19:1 5433:1 10011:1 15006:1 
-0.25235959374059557802638664725237 19:1 5505:1 10011:1 15006:1 
-0.25235959374059557802638664725237 19:1 5415:1 10011:1 15006:1 
-0.053024388373157815834701978019439 268:1 5011:1 11766:1 19955:1 
-0.25235959374059557802638664725237 18:1 5011:1 10877:1 15004:1 
-0.25235959374059557802638664725237 4:1 5011:1 10521:1 15004:1 
-0.25235959374059557802638664725237 18:1 5011:1 10011:1 15004:1 
-0.25235959374059557802638664725237 18:1 5011:1 10011:1 15004:1 
-0.039155011074507722890203353927063 4533:1 5686:1 10031:1 15239:1 
-0.25235959374059557802638664725237 11:1 5341:1 10011:1 15117:1 
2.5235959374059557802638664725237 19:1 5031:1 10011:1 15006:1 
1.1084668191896058786483081348706 19:1 7275:1 10011:1 15006:1 
-0.25235959374059557802638664725237 21:1 6002:1 10011:1 15006:1 
-0.25235959374059557802638664725237 19:1 6853:1 10011:1 15006:1 
-0.25235959374059557802638664725237 19:1 5494:1 10011:1 15006:1 
-0.25235959374059557802638664725237 23:1 5915:1 10077:1 15023:1 
-0.059250969446905270288095124442407 6:1 5092:1 10011:1 15274:1 
2.5235959374059557802638664725237 18:1 5011:1 15004:1 
-0.25235959374059557802638664725237 18:1 5609:1 10001:1 15019:1 
2.4206249570589046804514055111213 23:1 5011:1 10053:1 15004:1 
2.5235959374059557802638664725237 21:1 5058:1 10073:1 15042:1 
-0.25235959374059557802638664725237 36:1 7114:1 10011:1 15366:1 
-0.25235959374059557802638664725237 18:1 5011:1 10498:1 15004:1 
-0.25235959374059557802638664725237 18:1 5057:1 13619:1 15031:1 
-0.25235959374059557802638664725237 389:1 5011:1 10001:1 15004:1 
-0.25235959374059557802638664725237 4371:1 5011:1 10031:1 15004:1 
-0.05033560586775827350169976170946 40:1 6077:1 10813:1 15019:1 
-0.25235959374059557802638664725237 19:1 5031:1 11058:1 15006:1 
-0.062274321250615501111003169398828 19:1 5031:1 10263:1 15006:1 
-0.25235959374059557802638664725237 19:1 5314:1 10011:1 15006:1 
-0.25235959374059557802638664725237 19:1 5129:1 10011:1 15006:1 
-0.25235959374059557802638664725237 19:1 5031:1 10053:1 15252:1 
-0.25235959374059557802638664725237 2210:1 5260:1 10318:1 15302:1 
-0.010626503009779599689954565633343 58:1 5405:1 11078:1 15651:1 
-0.25235959374059557802638664725237 18:1 5011:1 10177:1 15004:1 
-0.25235959374059557802638664725237 34:1 5011:1 10031:1 15004:1 
-0.085210987989902606254410954988998 18:1 6221:1 12577:1 19315:1 
2.5235959374059557802638664725237 19:1 5031:1 10011:1 15074:1 
-0.042509948852532744578702761373279 18:1 5011:1 10944:1 17055:1 
-0.25235959374059557802638664725237 19:1 5360:1 10001:1 16897:1 
-0.25235959374059557802638664725237 19:1 6460:1 10059:1 15024:1 
-0.037576227503481676728291915878799 19:1 5522:1 10011:1 15024:1 
-0.25235959374059557802638664725237 19:1 6392:1 10059:1 15023:1 
-0.25235959374059557802638664725237 19:1 5422:1 10059:1 15769:1 
0.43056367713785526074588005940313 723:1 5011:1 10053:1 15004:1 
-0.0958320411273139716179514380201 105:1 5219:1 10607:1 15128:1 
-0.25235959374059557802638664725237 23:1 5011:1 10073:1 15004:1 
-0.25235959374059557802638664725237 18:1 5011:1 10153:1 15004:1 
-0.011738707784848935108956702322303 126:1 5413:1 10001:1 15042:1 
-0.028237993295791866121824398305762 11:1 5072:1 10869:1 15004:1 
-0.25235959374059557802638664725237 18:1 5107:1 10031:1 15264:1 
0.076511466414645207256839398723969 19:1 6853:1 10252:1 15023:1 
-0.25235959374059557802638664725237 387:1 5138:1 10011:1 15986:1 
-0.15001577821258588185671101200569 6:1 5011:1 14202:1 19071:1 
-0.092381421385579878813310017449112 18:1 5011:1 10048:1 15029:1 
-0.099570320275637488882658487909794 9470:1 10001:1 15011:1 
-0.014922245617087328065086815342966 22:1 5306:1 10011:1 15072:1 
-0.25235959374059557802638664725237 19:1 5031:1 10720:1 15023:1 
-0.25235959374059557802638664725237 19:1 5969:1 10031:1 15023:1 
-0.25235959374059557802638664725237 75:1 5001:1 10001:1 15006:1 
-0.25235959374059557802638664725237 19:1 5177:1 10011:1 15023:1 
2.5235959374059557802638664725237 18:1 5011:1 10011:1 15001:1 
2.5235959374059557802638664725237 18:1 5011:1 10011:1 15001:1 
2.5235959374059557802638664725237 18:1 5011:1 10011:1 15024:1 
-0.25235959374059557802638664725237 18:1 5011:1 10011:1 15021:1 
-0.25235959374059557802638664725237 18:1 5011:1 10011:1 15021:1 
-0.25235959374059557802638664725237 18:1 5011:1 10011:1 15106:1 
-0.25235959374059557802638664725237 18:1 5011:1 10182:1 15021:1 
-0.0073163968172601867925863849961843 22:1 5221:1 11003:1 15048:1 
-0.063112550468940764591962988561136 1956:1 5011:1 11351:1 15058:1 
0.60595134981446951982775317446794 24:1 6339:1 10011:1 15006:1 
-0.25235959374059557802638664725237 22:1 5011:1 10011:1 15415:1 
-0.016305440048405363956396385560765 1013:1 5953:1 10041:1 15002:1 
0.45720520924547142227467588782019 19:1 5405:1 10550:1 15023:1 
-0.25235959374059557802638664725237 19:1 5151:1 10177:1 15023:1 
-0.25235959374059557802638664725237 19:1 5325:1 10058:1 15023:1 
0.25284794739393512408298647642368 21:1 5677:1 10677:1 19097:1 
-0.030453214719772244561957208475178 1414:1 5993:1 10031:1 15042:1 
-0.25235959374059557802638664725237 19:1 5563:1 10071:1 15023:1 
2.5235959374059557802638664725237 18:1 5836:1 10011:1 15021:1 
-0.02008938988733416364240724760748 608:1 5546:1 10543:1 15029:1 
0.03915928047783174409390838377476 848:1 5011:1 10011:1 17762:1 
0.037611505910038998956590461375527 357:1 5011:1 10011:1 15023:1 
-0.026349686993597541684319907062672 1012:1 5011:1 10483:1 15019:1 
-0.25235959374059557802638664725237 18:1 5011:1 10011:1 15006:1 
-0.25235959374059557802638664725237 22:1 5011:1 10011:1 15021:1 
-0.25235959374059557802638664725237 43:1 5011:1 10011:1 15021:1 
-0.10842237028733189840856709906802 28:1 5450:1 11422:1 15039:1 
0.19352766225662587640243827991071 19:1 5706:1 10706:1 15023:1 
-0.25235959374059557802638664725237 6:1 5058:1 12373:1 15070:1 
0.11108497518507956525191104901751 506:1 5011:1 10011:1 15023:1 
0.5684218972300479899573133479862 19:1 7269:1 12269:1 15023:1 
-0.25235959374059557802638664725237 19:1 5679:1 10001:1 15023:1 
-0.25235959374059557802638664725237 19:1 10001:1 15023:1 
-0.25235959374059557802638664725237 19:1 6059:1 10001:1 15023:1 
-0.25235959374059557802638664725237 19:1 6839:1 10001:1 15023:1 
-0.25235959374059557802638664725237 19:1 5836:1 10497:1 15004:1 
-0.056495377459606657688517827864416 1567:1 5001:1 10563:1 15061:1 
-0.13746551505104231960530114520225 70:1 5335:1 10011:1 15023:1 
-0.04986528403918672608385875832937 786:1 5041:1 12851:1 15006:1 
-0.08604180237695042976486803354419 18:1 5421:1 10521:1 15240:1 
0.80636999346912330288716930226656 2259:1 5011:1 10011:1 19338:1 
-0.25235959374059557802638664725237 23:1 5011:1 10011:1 15006:1 
-0.25235959374059557802638664725237 23:1 5011:1 10011:1 15006:1 
-0.25235959374059557802638664725237 23:1 5011:1 10011:1 15006:1 
-0.25235959374059557802638664725237 23:1 5011:1 10011:1 15006:1 
-0.25235959374059557802638664725237 23:1 5011:1 10011:1 15006:1 
2.5235959374059557802638664725237 43:1 5588:1 10001:1 15021:1 
-0.039900488344589833678011103756944 11:1 9347:1 10073:1 15499:1 
-0.042411892467829559461023336552898 41:1 5002:1 10043:1 17164:1 
-0.25235959374059557802638664725237 18:1 6702:1 10382:1 15002:1 
-0.25235959374059557802638664725237 18:1 5341:1 10001:1 15073:1 
-0.25235959374059557802638664725237 2259:1 5177:1 10001:1 16569:1 
-0.25235959374059557802638664725237 19:1 7275:1 10031:1 15011:1 
-0.2336591517921423610815168103727 19:1 6702:1 11702:1 15011:1 
-0.057998563964697692763028413764914 63:1 6225:1 10011:1 15010:1 
-0.25235959374059557802638664725237 20:1 5446:1 10011:1 15105:1 
-0.2135351246379433853839202583913 2:1 5365:1 10073:1 15011:1 
0.14178282418656246166577261647035 25:1 6001:1 11003:1 15236:1 
-0.088269903652359357759671354415332 6:1 8643:1 10387:1 15011:1 
2.5235959374059557802638664725237 18:1 5001:1 10031:1 15002:1 
2.5235959374059557802638664725237 18:1 5001:1 10031:1 15002:1 
1.3786756779233311220878022140823 18:1 8504:1 10031:1 15004:1 
-0.068509792878578612551621063175844 18:1 5031:1 10203:1 15004:1 
0.088483911329768058506850536559796 18:1 7058:1 10382:1 15002:1 
-0.25235959374059557802638664725237 18:1 5060:1 10059:1 15004:1 
-0.25235959374059557802638664725237 18:1 5501:1 10860:1 15004:1 
-0.25235959374059557802638664725237 18:1 5505:1 10505:1 15023:1 
-0.25235959374059557802638664725237 18:1 5901:1 10901:1 15072:1 
2.1349462507262839672250720468583 34:1 5989:1 10511:1 15002:1 
-0.25235959374059557802638664725237 23:1 5011:1 10011:1 15006:1 
-0.25235959374059557802638664725237 23:1 5011:1 10011:1 15006:1 
-0.25235959374059557802638664725237 21:1 5011:1 10011:1 15006:1 
2.0287967994393363291294463124359 18:1 6843:1 11843:1 15011:1 
2.5235959374059557802638664725237 18:1 5909:1 10909:1 15011:1 
2.5235959374059557802638664725237 18:1 5451:1 10451:1 15011:1 
2.5235959374059557802638664725237 18:1 5001:1 10059:1 15072:1 
2.5235959374059557802638664725237 22:1 6445:1 11445:1 15032:1 
-0.25235959374059557802638664725237 18:1 9799:1 10041:1 15011:1 
0.76177419638722088102156249078689 435:1 5451:1 10451:1 16286:1 
-0.25235959374059557802638664725237 19:1 7290:1 10053:1 15011:1 
-0.25235959374059557802638664725237 18:1 5828:1 10053:1 15049:1 
-0.25235959374059557802638664725237 4:1 5011:1 10011:1 15006:1 
-0.25235959374059557802638664725237 69:1 5011:1 10011:1 15006:1 
-0.25235959374059557802638664725237 23:1 5011:1 10011:1 15030:1 
-0.25235959374059557802638664725237 11:1 9132:1 10011:1 15066:1 
-0.16522182422388670408608390971494 443:1 6175:1 10011:1 15070:1 
-0.21500229868378623043767561284767 88:1 5815:1 10227:1 15032:1 
-0.018109650570019675264177294593537 10:1 5011:1 11810:1 15022:1 
1.116225582024024109983884045505 4:1 5860:1 10860:1 15027:1 
-0.25235959374059557802638664725237 19:1 5070:1 10041:1 15027:1 
-0.25235959374059557802638664725237 19:1 5177:1 10785:1 15387:1 
-0.24949825672220279915158869243896 19:1 7581:1 10041:1 15001:1 
-0.22070231528429190559492667489394 6:1 7156:1 10001:1 
-0.057210844551687976833331816806094 659:1 5031:1 10001:1 15174:1 
1.1234993320119488480202107894002 18:1 5011:1 10011:1 15031:1 
-0.25235959374059557802638664725237 34:1 5423:1 10168:1 15029:1 
-0.073419608527371116313275933862315 23:1 9169:1 11498:1 15024:1 
-0.098435563584440222140159448827035 21:1 5506:1 10011:1 15023:1 
1.2903993957509292123120303585893 359:1 5011:1 10011:1 15023:1 
-0.25235959374059557802638664725237 21:1 5649:1 10011:1 15023:1 
-0.047284214249630786286449080080274 76:1 5011:1 10468:1 17369:1 
-0.25235959374059557802638664725237 21:1 7251:1 10011:1 15023:1 
2.5235959374059557802638664725237 19:1 5058:1 10073:1 15030:1 
2.5235959374059557802638664725237 19:1 5315:1 10039:1 15004:1 
-0.013410782316472824940434271923095 22:1 8915:1 10294:1 16482:1 
2.5235959374059557802638664725237 19:1 6107:1 10240:1 15030:1 
1.4247720731334794219691275429795 19:1 8886:1 13886:1 15030:1 
-0.25235959374059557802638664725237 19:1 5011:1 10001:1 15030:1 
-0.25235959374059557802638664725237 19:1 5011:1 10039:1 15030:1 
-0.25235959374059557802638664725237 19:1 5011:1 10840:1 15004:1 
-0.25235959374059557802638664725237 19:1 5011:1 10317:1 15010:1 
-0.25235959374059557802638664725237 19:1 5011:1 10317:1 15010:1 
-0.25235959374059557802638664725237 21:1 10011:1 15023:1 
-0.25235959374059557802638664725237 21:1 7186:1 10011:1 15023:1 
-0.25235959374059557802638664725237 21:1 5011:1 10240:1 15023:1 
-0.25235959374059557802638664725237 417:1 5011:1 10011:1 15023:1 
-0.25235959374059557802638664725237 18:1 5054:1 10011:1 15370:1 
-0.25235959374059557802638664725237 31:1 5043:1 10011:1 15021:1 
-0.22490426354362780259066312282812 295:1 5208:1 10011:1 15110:1 
0.10005945939674409927988563140389 4:1 5041:1 10634:1 15183:1 
-0.16511903258963353535726525933569 2644:1 5349:1 10011:1 15083:1 
-0.089102594992898118131385842843883 6:1 6336:1 10011:1 15439:1 
-0.25235959374059557802638664725237 19:1 5298:1 10477:1 15010:1 
-0.25235959374059557802638664725237 19:1 5284:1 10375:1 15010:1 
-0.25235959374059557802638664725237 19:1 5018:1 10059:1 15010:1 
-0.25235959374059557802638664725237 19:1 5018:1 10379:1 15010:1 
1.0017995329403499571441216176027 6:1 5011:1 10011:1 15023:1 
-0.004927062176031958388999765219296 20:1 5011:1 10366:1 16515:1 
-0.0014898622260688511396292676991493 32:1 5147:1 10414:1 15004:1 
-0.0028972716869267649102137607286522 319:1 5437:1 10011:1 16111:1 
-0.0016068959445751820717951385830702 19:1 5760:1 10124:1 15024:1 
-0.25235959374059557802638664725237 4:1 5011:1 10011:1 15023:1 
-0.25235959374059557802638664725237 4:1 5011:1 10011:1 15023:1 
-0.25235959374059557802638664725237 4:1 5011:1 10011:1 15023:1 
-0.25235959374059557802638664725237 69:1 5011:1 10011:1 15023:1 
-0.25235959374059557802638664725237 1596:1 5011:1 10011:1 15023:1 
-0.25235959374059557802638664725237 967:1 5011:1 10975:1 15020:1 
1.4564431829636579340814250826952 18:1 5011:1 10011:1 15055:1 
-0.035452915439871481029232569426313 5011:1 11493:1 15004:1 
1.9160303662493878285033588326769 2:1 5900:1 10900:1 15003:1 
-0.25235959374059557802638664725237 19:1 5922:1 10325:1 15004:1 
-0.25235959374059557802638664725237 19:1 5122:1 10059:1 15004:1 
-0.25235959374059557802638664725237 19:1 5315:1 10220:1 15004:1 
-0.25235959374059557802638664725237 19:1 6366:1 10404:1 15004:1 
-0.16141026510185954578879830023652 6559:1 10011:1 15048:1 
-0.0024816096175128529895126394677618 1245:1 5673:1 12528:1 15004:1 
-0.25235959374059557802638664725237 4:1 5011:1 10011:1 15003:1 
-0.25235959374059557802638664725237 4:1 5011:1 10011:1 15003:1 
-0.039232155363912925294389566488462 1325:1 5435:1 10345:1 15074:1 
0.093042136920572532376993990510528 19:1 5011:1 10011:1 15024:1 
-0.25235959374059557802638664725237 725:1 5139:1 10011:1 15066:1 
-0.04973289851565597385896211335421 19:1 6757:1 10295:1 15463:1 
2.5235959374059557802638664725237 19:1 14471:1 15004:1 
-0.25235959374059557802638664725237 19:1 6140:1 10909:1 15004:1 
-0.25235959374059557802638664725237 21:1 5031:1 11974:1 15004:1 
-0.25235959374059557802638664725237 19:1 6843:1 10039:1 15004:1 
-0.25235959374059557802638664725237 19:1 5360:1 12824:1 15004:1 
-0.0017886027926530924988396398234158 1555:1 5472:1 14810:1 15004:1 
-0.22631837672123958360437256942532 396:1 5043:1 10053:1 15023:1 
0.01833824256563393664820615924782 21:1 6349:1 11349:1 15004:1 
2.2091981914629901240232356940396 21:1 5830:1 10830:1 15004:1 
1.6804855229415351924870947186719 21:1 6543:1 11446:1 15004:1 
0.60380719451787634444173136216705 34:1 5498:1 10498:1 16034:1 
-0.25235959374059557802638664725237 11:1 6445:1 11445:1 15023:1 
-0.25235959374059557802638664725237 90:1 5845:1 10031:1 15004:1 
-0.25235959374059557802638664725237 4:1 5044:1 10252:1 15023:1 
-0.25235959374059557802638664725237 4:1 5317:1 10252:1 15343:1 
-0.25235959374059557802638664725237 4:1 5477:1 11806:1 15023:1 
2.5235959374059557802638664725237 2:1 5018:1 12393:1 15003:1 
-0.16532539442404761698135473579896 19:1 5234:1 10011:1 15002:1 
-0.25235959374059557802638664725237 18:1 6280:1 10001:1 15021:1 
-0.25235959374059557802638664725237 1:1 5075:1 10011:1 15147:1 
2.5235959374059557802638664725237 23:1 5011:1 10367:1 15002:1 
-0.25235959374059557802638664725237 2:1 5011:1 10011:1 15002:1 
-0.25235959374059557802638664725237 24:1 5668:1 11112:1 15002:1 
-0.25235959374059557802638664725237 2:1 5011:1 11026:1 15003:1 
-0.25235959374059557802638664725237 2:1 5011:1 10160:1 15003:1 
0.089987203659278924838815783004975 4:1 6306:1 10001:1 15023:1 
-0.25235959374059557802638664725237 33:1 5011:1 10011:1 15023:1 
-0.25235959374059557802638664725237 4:1 10011:1 15023:1 
-0.011873290746117599880893322961128 3077:1 5496:1 11848:1 15104:1 
-0.0011703526514418129741285090616998 245:1 6251:1 10920:1 15049:1 
-0.032977572189486770160016249064938 162:1 8038:1 10011:1 15214:1 
-0.18431122799361437936127572356781 106:1 5113:1 10717:1 15980:1 
-0.16040514119714338603372993929952 69:1 5011:1 11791:1 19344:1 
1.8023367457335579544519532646518 11:1 7472:1 12472:1 15002:1 
-0.25235959374059557802638664725237 527:1 6306:1 10001:1 15002:1 
-0.25235959374059557802638664725237 11:1 5031:1 10001:1 15002:1 
-0.25235959374059557802638664725237 11:1 8838:1 10001:1 15002:1 
-0.25235959374059557802638664725237 6:1 5011:1 10149:1 15304:1 
-0.045751008989941888138730519131059 122:1 5175:1 10011:1 15023:1 
-0.12040048080486187576099155194242 29:1 7207:1 10011:1 15105:1 
-0.25235959374059557802638664725237 24:1 5011:1 10011:1 15023:1 
-0.25235959374059557802638664725237 24:1 5011:1 14026:1 15023:1 
-0.19794406092945887598588683431444 108:1 5137:1 10011:1 15027:1 
-0.1063959698667172604213959630215 376:1 5723:1 10453:1 15265:1 
-0.2049965083955173072993716232304 4:1 5011:1 13317:1 15023:1 
0.26684904736223530319350061290606 23:1 5802:1 10802:1 16255:1 
0.90794952436660947281410471987328 18:1 8667:1 10001:1 15002:1 
0.90794952436661446881771553307772 18:1 8482:1 10001:1 15002:1 
-0.050092316028349785639317559571282 4055:1 5168:1 10011:1 15020:1 
1.6823158890933671560929951738217 7:1 5872:1 10001:1 15002:1 
-0.25235959374059557802638664725237 446:1 5360:1 10001:1 15002:1 
-0.25235959374059557802638664725237 5360:1 10001:1 15002:1 
-0.25235959374059557802638664725237 4899:1 5360:1 10001:1 15002:1 
-0.25235959374059557802638664725237 23:1 7120:1 10001:1 15002:1 
-0.25235959374059557802638664725237 23:1 5001:1 10001:1 15002:1 
2.5235959374059557802638664725237 11:1 5011:1 10011:1 15023:1 
-0.13618595590956755758682561463502 18:1 5797:1 11746:1 15004:1 
-0.040452541444597367448210434304201 23:1 5447:1 12786:1 15644:1 
-0.058083432072375505705874587647486 37:1 7892:1 13218:1 18706:1 
-0.11098902655217127155573564323277 6:1 5318:1 10063:1 15114:1 
-0.25235959374059557802638664725237 18:1 5011:1 10011:1 15023:1 
-0.25235959374059557802638664725237 18:1 5011:1 10011:1 15023:1 
-0.25235959374059557802638664725237 18:1 5011:1 10011:1 15023:1 
-0.25235959374059557802638664725237 19:1 5011:1 10011:1 15023:1 
0.98900410802374960628213784730178 267:1 8065:1 10001:1 15002:1 
-0.010770779681170516983712559522246 19:1 5738:1 11156:1 15018:1 
1.1210516905210581306562289682915 25:1 9662:1 10001:1 15002:1 
-0.056084624369980427827098168336306 19:1 6588:1 13816:1 15237:1 
2.5235959374059557802638664725237 19:1 5057:1 10001:1 15002:1 
-0.25235959374059557802638664725237 25:1 8598:1 10001:1 15002:1 
-0.15358867308660575923262570086081 3595:1 6527:1 10011:1 17076:1 
1.4829661950258528069213070921251 4:1 5057:1 10059:1 15004:1 
-0.25235959374059557802638664725237 337:1 5419:1 10001:1 15002:1 
-0.027932537491628890713446509153073 69:1 8998:1 13221:1 17604:1 
-0.092677017076314108234846855793876 45:1 5632:1 10001:1 15117:1 
-0.25235959374059557802638664725237 22:1 5001:1 10011:1 15032:1 
0.016624655513327753902919070583266 18:1 5403:1 10031:1 15055:1 
0.016625049623770739304351451437469 18:1 5403:1 10031:1 15055:1 
-0.25235959374059557802638664725237 18:1 5011:1 10011:1 15030:1 
-0.25235959374059557802638664725237 18:1 5388:1 10011:1 15006:1 
-0.022249101310480506182853943641931 19:1 5433:1 10011:1 15112:1 
0.059123738901223396591255720977642 813:1 5011:1 10011:1 15029:1 
-0.25235959374059557802638664725237 27:1 5052:1 10011:1 15042:1 
-0.12824837978282885297964810433768 6:1 5058:1 10993:1 15418:1 
2.5235959374059557802638664725237 4:1 5152:1 10001:1 15004:1 
-0.25235959374059557802638664725237 4:1 5041:1 10001:1 15004:1 
-0.25235959374059557802638664725237 4:1 5149:1 10001:1 15004:1 
-0.25235959374059557802638664725237 4:1 5876:1 10001:1 15004:1 
-0.25235959374059557802638664725237 4:1 5001:1 10001:1 15002:1 
2.5235959374059557802638664725237 18:1 5011:1 10011:1 15011:1 
2.5235959374059557802638664725237 18:1 5011:1 10011:1 15011:1 
2.5235959374059557802638664725237 18:1 5011:1 10011:1 15011:1 
-0.25235959374059557802638664725237 18:1 5011:1 10011:1 15011:1 
-0.25235959374059557802638664725237 18:1 5011:1 10011:1 15011:1 
-0.25235959374059557802638664725237 18:1 5011:1 10011:1 15011:1 
-0.25235959374059557802638664725237 18:1 5011:1 10011:1 15011:1 
-0.25235959374059557802638664725237 18:1 5011:1 10011:1 15011:1 
0.99778876585384168595993514827569 3:1 5011:1 10011:1 18747:1 
0.8275331106832187755273366747133 4:1 6532:1 10001:1 15429:1 
1.5262108911046052828197616690886 33:1 7104:1 10001:1 15004:1 
0.19542067672172583336909212903265 183:1 5031:1 10001:1 15004:1 
-0.25235959374059557802638664725237 19:1 5233:1 10001:1 15004:1 
-0.25235959374059557802638664725237 281:1 5031:1 10001:1 15004:1 
-0.25235959374059557802638664725237 3:1 5031:1 10001:1 15023:1 
-0.25235959374059557802638664725237 34:1 5419:1 10001:1 15043:1 
-0.25235959374059557802638664725237 3:1 5521:1 10521:1 15042:1 
2.5235959374059557802638664725237 110:1 5011:1 10011:1 15011:1 
2.5235959374059557802638664725237 66:1 5011:1 10011:1 15011:1 
2.5235959374059557802638664725237 10:1 5001:1 10031:1 15042:1 
2.5235959374059557802638664725237 34:1 5001:1 10031:1 16026:1 
2.5235959374059557802638664725237 11:1 5677:1 10677:1 15043:1 
-0.25235959374059557802638664725237 6:1 8793:1 10031:1 15001:1 
-0.067165469651945516882385334156425 6:1 5662:1 10001:1 15023:1 
-0.25235959374059557802638664725237 28:1 9215:1 10031:1 15042:1 
-0.16537753418988646036957845808502 6:1 5011:1 15224:1 
-0.25235959374059557802638664725237 110:1 5011:1 10011:1 15004:1 
-0.25235959374059557802638664725237 18:1 5011:1 10011:1 15011:1 
-0.25235959374059557802638664725237 32:1 5011:1 10011:1 15004:1 
-0.25235959374059557802638664725237 60:1 5041:1 10059:1 15021:1 
1.8389954017772236483097003656439 6:1 8179:1 10200:1 15002:1 
1.796033448077511751606039069884 28:1 5388:1 10031:1 15002:1 
-0.25235959374059557802638664725237 460:1 5011:1 11063:1 15023:1 
-0.1102983830162883038816801217763 28:1 5610:1 10011:1 15006:1 
-0.25235959374059557802638664725237 11:1 7207:1 13509:1 15002:1 
-0.20702087734776825067584127282316 2207:1 9887:1 13509:1 15002:1 
-0.20702087734776786209778265401837 4887:1 8509:1 13509:1 15002:1 
-0.25235959374059557802638664725237 19:1 5195:1 11128:1 15002:1 
-0.014428838396506790328621683272559 34:1 5011:1 10510:1 15040:1 
-0.019134016346124185087296254437206 23:1 5011:1 10028:1 15027:1 
0.44835330737697470793179377324122 36:1 5766:1 10766:1 15004:1 
-0.011778799843594931276435922029577 18:1 5100:1 10011:1 15032:1 
-0.25235959374059557802638664725237 18:1 5011:1 10011:1 15072:1 
-0.25235959374059557802638664725237 18:1 5011:1 10011:1 15019:1 
0.58626976470859970547166994947474 19:1 5031:1 10252:1 15023:1 
0.58626976852752255009448845157749 19:1 5031:1 10252:1 15023:1 
1.2644831264119440472626365590259 19:1 9381:1 14381:1 15042:1 
-0.25235959374059557802638664725237 5194:1 10031:1 15020:1 
2.5235959374059557802638664725237 18:1 5011:1 10011:1 15019:1 
-0.13355605911121626316884203333757 3993:1 5043:1 10001:1 18784:1 
-0.25235959374059557802638664725237 754:1 9439:1 10011:1 15031:1 
2.3631912174798177517232034006156 18:1 5011:1 10707:1 15021:1 
-0.25235959374059557802638664725237 18:1 5011:1 10011:1 15042:1 
-0.25235959374059557802638664725237 18:1 5011:1 10011:1 15043:1 
-0.25235959374059557802638664725237 18:1 5011:1 10011:1 15043:1 
1.8319881686314394286796414235141 23:1 6568:1 10001:1 15023:1 
2.5235959374059557802638664725237 30:1 5472:1 10001:1 15023:1 
0.12597412590650317043561301488808 113:1 5472:1 10001:1 15023:1 
-0.045369529286913012899873365313397 2240:1 7030:1 10739:1 16482:1 
0.19618081158436026512070782246155 481:1 8501:1 10001:1 15023:1 
-0.25235959374059557802638664725237 32:1 6116:1 10001:1 15004:1 
-0.25235959374059557802638664725237 3706:1 6032:1 10001:1 15010:1 
-0.25235959374059557802638664725237 21:1 7189:1 10001:1 15023:1 
-0.25235959374059557802638664725237 34:1 5588:1 10001:1 15125:1 
-0.25235959374059557802638664725237 18:1 5169:1 10644:1 15842:1 
-0.25235959374059557802638664725237 18:1 5011:1 10011:1 15027:1 
-0.25235959374059557802638664725237 18:1 5011:1 10011:1 15027:1 
-0.25235959374059557802638664725237 18:1 5011:1 10011:1 15094:1 
-0.25235959374059557802638664725237 18:1 5011:1 10011:1 16712:1 
-0.25235959374059557802638664725237 18:1 5011:1 10011:1 15135:1 
-0.015239342972024050998358646324959 22:1 5881:1 10011:1 15502:1 
0.46770214412109339940926133749599 19:1 6040:1 10001:1 15031:1 
1.5349684600223330033230695335078 69:1 7872:1 10001:1 15029:1 
-0.25235959374059557802638664725237 341:1 5075:1 10001:1 15006:1 
-0.25235959374059557802638664725237 341:1 5075:1 10001:1 15006:1 
-0.25235959374059557802638664725237 19:1 5129:1 10001:1 15020:1 
0.45834671641117369356166477700754 24:1 5337:1 11866:1 15004:1 
-0.032514181302204785140030907086839 291:1 5075:1 10485:1 15227:1 
-0.029555764352589986715402758932214 1460:1 5553:1 10059:1 15024:1 
-0.098584008937618941570413255703897 160:1 5094:1 12575:1 15023:1 
-0.25235959374059557802638664725237 22:1 5011:1 10011:1 15027:1 
-0.25235959374059557802638664725237 22:1 5011:1 10011:1 15027:1 
2.5235959374059557802638664725237 21:1 5341:1 10001:1 15006:1 
2.0902710562088948620385053800419 96:1 5075:1 10001:1 15006:1 
1.520122065443793024641649935802 2402:1 5382:1 10001:1 15006:1 
2.5235959374059557802638664725237 24:1 5075:1 10001:1 15006:1 
-0.25235959374059557802638664725237 18:1 5962:1 10001:1 15006:1 
-0.25235959374059557802638664725237 18:1 5382:1 10325:1 15006:1 
-0.25235959374059557802638664725237 96:1 5476:1 10001:1 15006:1 
-0.25235959374059557802638664725237 113:1 5076:1 10001:1 15006:1 
2.5235959374059557802638664725237 22:1 5011:1 10011:1 15027:1 
2.5235959374059557802638664725237 22:1 5011:1 10011:1 15035:1 
1.2404618285658073340016471775016 22:1 5011:1 10011:1 15986:1 
2.2786134881449693345700779900653 22:1 5011:1 10011:1 15160:1 
1.2757873569223616705414769967319 22:1 5011:1 10011:1 16499:1 
-0.25235959374059557802638664725237 22:1 5011:1 10011:1 15035:1 
-0.25235959374059557802638664725237 22:1 5011:1 10011:1 15027:1 
-0.25235959374059557802638664725237 22:1 5011:1 10011:1 15002:1 
1.4309435458803028140550850366708 96:1 8788:1 10094:1 15006:1 
-0.25235959374059557802638664725237 43:1 5075:1 11333:1 15006:1 
-0.25235959374059557802638664725237 21:1 5057:1 10094:1 15006:1 
-0.25235959374059557802638664725237 19:1 5057:1 10094:1 15006:1 
-0.25235959374059557802638664725237 11:1 5731:1 10001:1 15006:1 
-0.25235959374059557802638664725237 11:1 5571:1 10001:1 15006:1 
2.350851472598087354981544194743 22:1 5011:1 10011:1 15868:1 
1.5279935326125380079531623778166 22:1 5011:1 10011:1 15664:1 
2.5235959374059557802638664725237 22:1 5011:1 10011:1 15070:1 
-0.25235959374059557802638664725237 22:1 5011:1 10011:1 15031:1 
1.823646547136327678018119513581 43:1 6393:1 11393:1 15006:1 
1.1300350946219963610417380550643 18:1 5396:1 10396:1 15094:1 
1.7961415991495364163910153365578 21:1 6553:1 10094:1 15002:1 
-0.25235959374059557802638664725237 19:1 5889:1 10011:1 15029:1 
-0.25235959374059557802638664725237 21:1 5341:1 10073:1 15001:1 
-0.25235959374059557802638664725237 69:1 7259:1 10011:1 19338:1 
-0.050668078428961975390176775135842 40:1 5616:1 10011:1 17373:1 
-0.25235959374059557802638664725237 21:1 7168:1 10011:1 15029:1 
1.6682795294831065380236623241217 11:1 5537:1 10537:1 15031:1 
-0.17192157927178985943328370922245 4:1 5041:1 10183:1 15031:1 
0.0064293155461452927354470965326527 25:1 6234:1 11234:1 16372:1 
-0.25235959374059557802638664725237 22:1 5011:1 10031:1 15002:1 
-0.25235959374059557802638664725237 22:1 5011:1 10031:1 15002:1 
-0.21485435963109589252439945994411 23:1 6567:1 10563:1 15061:1 
1.0359376574357530564896023861365 931:1 5360:1 10011:1 15125:1 
-0.25235959374059557802638664725237 4:1 8292:1 12456:1 15055:1 
-0.25235959374059557802638664725237 1743:1 5360:1 10001:1 15006:1 
-0.25235959374059557802638664725237 1932:1 5360:1 10011:1 15372:1 
-0.25235959374059557802638664725237 20:1 6107:1 10165:1 15006:1 
-0.25235959374059557802638664725237 11:1 6568:1 11568:1 15106:1 
-0.25235959374059557802638664725237 19:1 5537:1 10390:1 15006:1 
-0.25235959374059557802638664725237 23:1 5360:1 10011:1 15051:1 
2.5235959374059557802638664725237 18:1 10031:1 15002:1 
0.83400051997824875549270018382231 21:1 5303:1 10031:1 15002:1 
0.83368961940976549218618174563744 21:1 5303:1 10031:1 15002:1 
-0.25235959374059557802638664725237 25:1 6278:1 10031:1 15002:1 
-0.25235959374059557802638664725237 446:1 5379:1 10031:1 15002:1 
-0.25235959374059557802638664725237 19:1 5152:1 10011:1 15042:1 
1.6834851053357138273014470541966 25:1 5011:1 11568:1 15048:1 
1.5209501080375631421048865377088 22:1 9369:1 14369:1 15002:1 
2.3026241536552736199894297897117 69:1 5011:1 10031:1 15023:1 
-0.25235959374059557802638664725237 18:1 5011:1 10317:1 15004:1 
-0.25235959374059557802638664725237 18:1 5011:1 10451:1 15023:1 
-0.25235959374059557802638664725237 18:1 5011:1 10059:1 15055:1 
-0.25235959374059557802638664725237 18:1 5011:1 10059:1 15366:1 
0.26482916189563171505128025273734 375:1 5294:1 10294:1 15042:1 
-0.25235959374059557802638664725237 2168:1 5018:1 10379:1 15010:1 
-0.25235959374059557802638664725237 34:1 5493:1 10011:1 15114:1 
2.5235959374059557802638664725237 19:1 6405:1 10094:1 15020:1 
0.54932336529390779489290252968203 19:1 6140:1 11140:1 15568:1 
-0.25235959374059557802638664725237 19:1 7275:1 12275:1 15031:1 
-0.25235959374059557802638664725237 19:1 5472:1 10041:1 15033:1 
-0.24441303488525900622363451475394 6:1 6079:1 10683:1 15021:1 
-0.25235959374059557802638664725237 19:1 6405:1 10094:1 15030:1 
-0.25235959374059557802638664725237 19:1 5234:1 10041:1 15002:1 
-0.25235959374059557802638664725237 18:1 5011:1 10011:1 15044:1 
-0.25235959374059557802638664725237 18:1 5011:1 10011:1 15044:1 
-0.25235959374059557802638664725237 18:1 5011:1 10011:1 15048:1 
-0.25235959374059557802638664725237 18:1 5011:1 10011:1 15048:1 
-0.25235959374059557802638664725237 18:1 5011:1 10011:1 15029:1 
-0.25235959374059557802638664725237 386:1 5043:1 10011:1 15023:1 
-0.092718163242205303697929252848553 4193:1 5011:1 13392:1 15021:1 
-0.25235959374059557802638664725237 19:1 5367:1 10059:1 15021:1 
-0.008254089510204173224527934848993 90:1 5011:1 11012:1 16532:1 
-0.040185169681591893786620772743845 22:1 7943:1 10011:1 15031:1 
-0.25235959374059557802638664725237 34:1 5011:1 10011:1 15019:1 
-0.25235959374059557802638664725237 34:1 5011:1 10011:1 15023:1 
-0.25235959374059557802638664725237 34:1 5011:1 10011:1 15256:1 
-0.25235959374059557802638664725237 34:1 5011:1 10011:1 15695:1 
-0.03122037508147593523610829890913 19:1 5719:1 10035:1 15020:1 
2.5235959374059557802638664725237 19:1 5982:1 10982:1 15021:1 
1.554087410424692006216673689778 19:1 5477:1 10477:1 15021:1 
0.093039488909787623760472285994183 19:1 5011:1 10011:1 15024:1 
1.3022017584081599927969818963902 6:1 9227:1 14227:1 15086:1 
-0.25235959374059557802638664725237 11:1 5011:1 11311:1 15030:1 
-0.25235959374059557802638664725237 24:1 5011:1 12934:1 15006:1 
-0.25235959374059557802638664725237 6:1 5058:1 10338:1 15021:1 
-0.15942973273358723718118312717706 6:1 5058:1 10724:1 15021:1 
-0.0034475666284275803714909347519324 284:1 5031:1 12406:1 16597:1 
-0.028183153801167211416345281804752 18:1 5220:1 10011:1 15052:1 
-0.25235959374059557802638664725237 40:1 5011:1 10160:1 15042:1 
-0.018672742186394211683087007713766 3371:1 9180:1 12857:1 15027:1 
-0.15019215064718199892368488690408 6:1 5011:1 11208:1 19010:1 
-0.25235959374059557802638664725237 4737:1 5011:1 10011:1 15002:1 
-0.13112414250547799188240105650038 47:1 5723:1 10059:1 15023:1 
-0.029280555118159821981205226393286 6:1 6307:1 11450:1 16681:1 
-0.25235959374059557802638664725237 45:1 5136:1 10011:1 16108:1 
-0.014379284830101791980982994800797 6:1 9143:1 11259:1 15272:1 
0.69925007138056971545125861666747 2384:1 9737:1 10011:1 15002:1 
-0.25235959374059557802638664725237 24:1 5011:1 10011:1 15006:1 
-0.25235959374059557802638664725237 24:1 5011:1 10011:1 15006:1 
-0.25235959374059557802638664725237 33:1 5011:1 10011:1 15006:1 
-0.25235959374059557802638664725237 30:1 5011:1 10011:1 15006:1 
-0.25235959374059557802638664725237 1188:1 5011:1 10179:1 15086:1 
1.1755287839228363289123535651015 6:1 8147:1 11820:1 15002:1 
1.2517204010798546054417101913714 6:1 9332:1 10001:1 15079:1 
-0.25235959374059557802638664725237 19:1 5018:1 10011:1 15157:1 
-0.25235959374059557802638664725237 19:1 6873:1 10001:1 15002:1 
-0.25235959374059557802638664725237 34:1 5119:1 10031:1 15002:1 
-0.25235959374059557802638664725237 6:1 5058:1 10001:1 15002:1 
-0.25235959374059557802638664725237 21:1 5434:1 10001:1 15002:1 
-0.25235959374059557802638664725237 6:1 8053:1 10001:1 15002:1 
0.46400453081482806449997724485002 3810:1 5011:1 10011:1 15021:1 
0.87215727796149100647937757457839 497:1 5011:1 10011:1 15021:1 
1.2725433782742161525902702123858 234:1 5011:1 10011:1 15021:1 
-0.038092575042693546660821368732286 6:1 5011:1 10713:1 15700:1 
1.1437440031944767770966109310393 407:1 5011:1 10011:1 15021:1 
-0.25235959374059557802638664725237 18:1 5011:1 10011:1 15079:1 
-0.25235959374059557802638664725237 19:1 5011:1 10011:1 15021:1 
-0.25235959374059557802638664725237 18:1 5011:1 10011:1 15065:1 
-0.25235959374059557802638664725237 1685:1 5011:1 10011:1 15021:1 
-0.12122416786539211286388706412254 18:1 5183:1 10011:1 15068:1 
0.21318666321730694868108457740163 24:1 6994:1 10041:1 15002:1 
-0.20911876606880760998130597272393 6:1 5011:1 10155:1 15028:1 
-0.25235959374059557802638664725237 24:1 5057:1 10041:1 15011:1 
-0.059037253633647195083522518643804 24:1 5516:1 10001:1 15011:1 
1.1269030920752978186527570869657 32:1 5562:1 10562:1 15082:1 
-0.25235959374059557802638664725237 3580:1 5315:1 10011:1 15336:1 
-0.25235959374059557802638664725237 24:1 5405:1 11185:1 15023:1 
-0.25235959374059557802638664725237 18:1 5011:1 10011:1 15032:1 
0.81371251300866465072658684221096 24:1 6248:1 11248:1 15011:1 
1.1537103106806672059292395715602 24:1 7194:1 10031:1 15006:1 
1.1235255774672643358513823841349 24:1 8748:1 10031:1 15548:1 
1.3681661305400449890612435410731 24:1 8991:1 13991:1 15006:1 
-0.25235959374059557802638664725237 22:1 8936:1 10001:1 15029:1 
-0.25235959374059557802638664725237 6:1 5011:1 10608:1 15011:1 
-0.25235959374059557802638664725237 21:1 5258:1 10537:1 15006:1 
-0.029457482423229656293139910872014 18:1 5011:1 10504:1 18919:1 
-0.25235959374059557802638664725237 32:1 5114:1 10415:1 15006:1 
-0.25235959374059557802638664725237 19:1 5075:1 10073:1 15001:1 
-0.22957992247542949315608495908236 106:1 5030:1 10041:1 15002:1 
0.49073721491256078186538047702925 43:1 5011:1 10011:1 15029:1 
0.84255482200348874588513581329607 4042:1 5011:1 10011:1 15096:1 
-0.25235959374059557802638664725237 66:1 5011:1 10011:1 15002:1 
-0.25235959374059557802638664725237 24:1 5011:1 10011:1 15002:1 
-0.25235959374059557802638664725237 4:1 5011:1 10011:1 15027:1 
-0.25235959374059557802638664725237 7:1 5011:1 10011:1 15010:1 
-0.25235959374059557802638664725237 19:1 5546:1 10543:1 15006:1 
-0.04657294433410136963447101265956 19:1 5325:1 10049:1 15006:1 
-0.25235959374059557802638664725237 19:1 5939:1 10294:1 15006:1 
-0.25235959374059557802638664725237 4:1 5011:1 10011:1 15029:1 
-0.25235959374059557802638664725237 4:1 5011:1 10011:1 15029:1 
-0.25235959374059557802638664725237 4:1 5011:1 10011:1 15035:1 
-0.25235959374059557802638664725237 4:1 5011:1 10011:1 15042:1 
-0.25235959374059557802638664725237 4:1 5011:1 10011:1 15004:1 
0.2933460517506065734494313801406 19:1 5031:1 10058:1 19720:1 
2.0078225929025093066115914552938 32:1 5001:1 10943:1 15219:1 
2.5235959374059557802638664725237 30:1 5256:1 10041:1 15075:1 
-0.25235959374059557802638664725237 19:1 5256:1 14672:1 15002:1 
-0.25235959374059557802638664725237 3295:1 5031:1 10058:1 15002:1 
-0.25235959374059557802638664725237 1389:1 5031:1 10058:1 15002:1 
-0.25235959374059557802638664725237 19:1 8025:1 11820:1 15002:1 
-0.25235959374059557802638664725237 19:1 5057:1 10041:1 15002:1 
-0.25235959374059557802638664725237 21:1 5011:1 10011:1 15003:1 
-0.25235959374059557802638664725237 378:1 5011:1 10011:1 15023:1 
-0.25235959374059557802638664725237 32:1 5011:1 10011:1 15023:1 
-0.21267477479404389706374445268011 472:1 6282:1 10041:1 15033:1 
1.5290218608635615105129090807168 25:1 6047:1 10058:1 15002:1 
-0.25235959374059557802638664725237 69:1 5697:1 10001:1 15147:1 
-0.25235959374059557802638664725237 19:1 5294:1 11053:1 15002:1 
-0.25235959374059557802638664725237 19:1 5288:1 10031:1 15002:1 
-0.199208431104626354501974105915 18:1 5153:1 10011:1 15038:1 
-0.25235959374059557802638664725237 19:1 6951:1 11951:1 15120:1 
0.85489891732761014164765356326825 21:1 5011:1 10011:1 15044:1 
-0.25235959374059557802638664725237 21:1 5011:1 10011:1 15024:1 
-0.25235959374059557802638664725237 21:1 5011:1 10011:1 17392:1 
-0.25235959374059557802638664725237 21:1 5011:1 10011:1 15066:1 
-0.25235959374059557802638664725237 21:1 5011:1 10011:1 15415:1 
1.5222370504720628137107496513636 19:1 8060:1 13060:1 15120:1 
-0.046635960653899764805085936814066 1942:1 5036:1 10379:1 18633:1 
-0.0037976786794640697217384506245708 19:1 5018:1 10059:1 15023:1 
-0.25235959374059557802638664725237 19:1 6351:1 10058:1 15023:1 
-0.25235959374059557802638664725237 19:1 5375:1 14919:1 15023:1 
-0.25235959374059557802638664725237 32:1 5011:1 10209:1 15033:1 
-0.25146650102244361146830442521605 45:1 5316:1 10505:1 15027:1 
1.0044622854291171965002149590873 19:1 5519:1 10011:1 15031:1 
0.32879588706708190448679829387402 69:1 5011:1 10011:1 16837:1 
0.35792018667047315050311340201006 69:1 5011:1 10011:1 16742:1 
0.58115548080599332969597980991239 69:1 5011:1 10011:1 15867:1 
-0.25235959374059557802638664725237 69:1 5011:1 10011:1 15114:1 
-0.25235959374059557802638664725237 1882:1 5011:1 10011:1 15044:1 
-0.25235959374059557802638664725237 87:1 5011:1 10011:1 15044:1 
1.1852493740068441585577829755493 69:1 5915:1 10915:1 15004:1 
-0.0067989951871697306209907374352497 1559:1 5422:1 10089:1 15304:1 
-0.16905064855247922683822991984925 34:1 5011:1 10894:1 15639:1 
-0.25235959374059557802638664725237 19:1 5596:1 10361:1 15011:1 
-0.25235959374059557802638664725237 32:1 5860:1 10668:1 15085:1 
-0.25235959374059557802638664725237 19:1 6070:1 10001:1 15021:1 
1.2538281745665722510807427170221 19:1 5011:1 10011:1 15309:1 
1.001796429393038811994642856007 6:1 5011:1 10011:1 15023:1 
-0.033731874622757729298427875619382 6:1 6396:1 10041:1 15001:1 
-0.23049694412553123346043548735906 302:1 5142:1 10739:1 15094:1 
-0.040381083459180337758009926574232 22:1 5031:1 12374:1 15006:1 
-0.25235959374059557802638664725237 23:1 5247:1 11196:1 15004:1 
-0.068056500121017785009946976515494 30:1 8018:1 14414:1 15073:1 
-0.25235959374059557802638664725237 32:1 5698:1 11280:1 15067:1 
-0.25235959374059557802638664725237 25:1 5739:1 10952:1 15021:1 
-0.21641830095319097848616252122156 3859:1 9855:1 10011:1 15004:1 
-0.25235959374059557802638664725237 19:1 5315:1 10315:1 15027:1 
-0.25235959374059557802638664725237 18:1 5011:1 10043:1 15075:1 
-0.25235959374059557802638664725237 23:1 5594:1 10011:1 15049:1 
-0.25235959374059557802638664725237 19:1 5747:1 11037:1 15006:1 
-0.25235959374059557802638664725237 187:1 5011:1 10011:1 15011:1 
-0.25235959374059557802638664725237 28:1 5011:1 10011:1 15011:1 
-0.25235959374059557802638664725237 2:1 5011:1 10011:1 15011:1 
-0.25235959374059557802638664725237 2:1 5011:1 10011:1 15011:1 
-0.25235959374059557802638664725237 2:1 5011:1 10011:1 15011:1 
1.1497949871354162798553488755715 19:1 5315:1 10315:1 15104:1 
-0.25235959374059557802638664725237 18:1 5325:1 10922:1 15004:1 
-0.25235959374059557802638664725237 30:1 9569:1 10860:1 15006:1 
-0.25235959374059557802638664725237 11:1 10011:1 15011:1 
-0.25235959374059557802638664725237 22:1 5011:1 10011:1 15042:1 
-0.25235959374059557802638664725237 22:1 5011:1 10011:1 15010:1 
1.9746829868420647802196299380739 25:1 6001:1 11003:1 15011:1 
1.7795319439726045018801414698828 25:1 6234:1 11234:1 15011:1 
1.4247245368775092178026397959911 187:1 5994:1 10994:1 15006:1 
-0.25235959374059557802638664725237 25:1 5256:1 10031:1 15011:1 
-0.25235959374059557802638664725237 25:1 5256:1 10031:1 15011:1 
-0.25235959374059557802638664725237 39:1 5262:1 10001:1 15029:1 
-0.25235959374059557802638664725237 33:1 6803:1 10001:1 15029:1 
-0.25235959374059557802638664725237 18:1 8723:1 10043:1 15072:1 
-0.25235959374059557802638664725237 234:1 5011:1 10011:1 15004:1 
-0.25235959374059557802638664725237 234:1 5011:1 10011:1 15004:1 
-0.25235959374059557802638664725237 30:1 5011:1 10011:1 15004:1 
-0.0015699208544441565268273697242307 23:1 6156:1 10011:1 18487:1 
1.0152093317905932501332699757768 37:1 7892:1 10001:1 15010:1 
2.1720732564340585746265333000338 34:1 6873:1 10031:1 15081:1 
-0.25235959374059557802638664725237 19:1 6040:1 10031:1 15086:1 
-0.25235959374059557802638664725237 10:1 5653:1 10031:1 15474:1 
-0.25235959374059557802638664725237 19:1 5519:1 10031:1 15020:1 
-0.25235959374059557802638664725237 6:1 5011:1 10011:1 15078:1 
-0.25235959374059557802638664725237 6:1 5011:1 10011:1 15019:1 
-0.25235959374059557802638664725237 6:1 5011:1 10011:1 15029:1 
-0.25235959374059557802638664725237 6:1 5011:1 10011:1 
1.3683670471414668412535320385359 234:1 9554:1 14554:1 15006:1 
-0.18186228686307540081124045627803 237:1 5011:1 11203:1 15833:1 
1.3588441592753925934999870150932 25:1 8697:1 10031:1 15023:1 
-0.25235959374059557802638664725237 1875:1 5337:1 10041:1 15002:1 
-0.25235959374059557802638664725237 18:1 5252:1 10634:1 15006:1 
2.5235959374059557802638664725237 3:1 5011:1 10011:1 15029:1 
-0.13761782595770843951044071218348 18:1 6631:1 14466:1 15031:1 
-0.10212850420861283029516641818191 18:1 5031:1 12779:1 17873:1 
-0.25235959374059557802638664725237 3:1 5011:1 10011:1 15004:1 
-0.25235959374059557802638664725237 25:1 5256:1 10011:1 15004:1 
-0.25235959374059557802638664725237 25:1 5256:1 10011:1 15004:1 
-0.25235959374059557802638664725237 19:1 5011:1 10011:1 15004:1 
-0.25235959374059557802638664725237 19:1 5011:1 10011:1 15004:1 
-0.0069593179605378571728202530266572 1299:1 5885:1 10238:1 15094:1 
2.5235959374059557802638664725237 18:1 10041:1 15002:1 
2.5235959374059557802638664725237 18:1 10041:1 15002:1 
-0.25235959374059557802638664725237 19:1 5337:1 10048:1 15020:1 
-0.18702740709162291032896519027418 18:1 5498:1 11034:1 15023:1 
-0.25235959374059557802638664725237 18:1 7800:1 10031:1 15006:1 
-0.25235959374059557802638664725237 18:1 7444:1 10031:1 15006:1 
-0.0012235179173902090751097082588217 6:1 6092:1 10011:1 15024:1 
-0.25235959374059557802638664725237 30:1 5011:1 10011:1 15002:1 
-0.25235959374059557802638664725237 30:1 5011:1 10011:1 15002:1 
-0.25235959374059557802638664725237 6:1 5011:1 10011:1 15020:1 
-0.25235959374059557802638664725237 6:1 5011:1 10011:1 15020:1 
-0.2310686293074659669599668632145 9543:1 10423:1 16742:1 
-0.25235959374059557802638664725237 20:1 5514:1 10001:1 15006:1 
-0.1160923570972611229557003298396 21:1 5046:1 10001:1 15006:1 
-0.25235959374059557802638664725237 20:1 5077:1 10043:1 15006:1 
-0.25002278787216042355012746156717 1276:1 5001:1 10001:1 15006:1 
-0.25235959374059557802638664725237 75:1 5001:1 10001:1 15006:1 
0.69484295764135106665548846649472 2168:1 5011:1 10011:1 15020:1 
0.44260062380637194001664624920522 1305:1 5011:1 10011:1 15020:1 
2.5235959374059557802638664725237 45:1 5011:1 10011:1 15020:1 
-0.25235959374059557802638664725237 632:1 5142:1 10011:1 15027:1 
1.4691069672695760139902176888427 130:1 5011:1 10011:1 15020:1 
-0.25235959374059557802638664725237 24:1 5011:1 10011:1 15020:1 
-0.25235959374059557802638664725237 22:1 5011:1 10550:1 15020:1 
-0.25235959374059557802638664725237 18:1 5011:1 10011:1 15020:1 
-0.25235959374059557802638664725237 22:1 5011:1 10031:1 15020:1 
-0.25235959374059557802638664725237 45:1 5011:1 10011:1 15004:1 
0.37981066905808319456028243621404 4:1 5011:1 10011:1 15006:1 
2.4937843921200673058535812742775 30:1 5985:1 10985:1 15006:1 
-0.16532525882753074109032809246855 19:1 5234:1 10011:1 15002:1 
-0.25235959374059557802638664725237 37:1 5477:1 10653:1 15023:1 
-0.25235959374059557802638664725237 10:1 5985:1 12193:1 15006:1 
-0.25235959374059557802638664725237 553:1 5820:1 11708:1 15023:1 
-0.25235959374059557802638664725237 19:1 5472:1 11282:1 15023:1 
-0.25235959374059557802638664725237 30:1 6567:1 10001:1 15006:1 
1.4754718613236565971646996331401 20:1 5011:1 10011:1 15020:1 
-0.25235959374059557802638664725237 18:1 5011:1 10011:1 15035:1 
-0.25235959374059557802638664725237 2:1 5011:1 10011:1 15001:1 
-0.25235959374059557802638664725237 2:1 5011:1 10011:1 15003:1 
-0.012921971811352753189972020209098 23:1 7794:1 10208:1 18831:1 
-0.0049600019809610713938941017886464 24:1 5011:1 11642:1 15019:1 
-0.16929875390657309064401658815768 21:1 5093:1 10011:1 15105:1 
-0.079459372402613373531643503611122 18:1 5011:1 10241:1 15038:1 
-0.25235959374059557802638664725237 19:1 5315:1 10985:1 15027:1 
-0.25235959374059557802638664725237 19:1 7316:1 10752:1 15023:1 
-0.25235959374059557802638664725237 19:1 6405:1 11166:1 15006:1 
-0.25235959374059557802638664725237 19:1 5238:1 10094:1 15021:1 
-0.25235959374059557802638664725237 18:1 5011:1 10011:1 15052:1 
-0.25235959374059557802638664725237 81:1 5998:1 10823:1 15586:1 
-0.25235959374059557802638664725237 536:1 5445:1 10247:1 19053:1 
-0.25235959374059557802638664725237 19:1 5802:1 10869:1 15021:1 
-0.25235959374059557802638664725237 19:1 5328:1 10482:1 15021:1 
-0.25235959374059557802638664725237 19:1 5328:1 12024:1 15021:1 
-0.026666913615800525577670399002272 25:1 6278:1 11278:1 15099:1 
-0.15229562817135275376578817940754 37:1 5811:1 11413:1 15703:1 
0.41919117143968503969020389376965 10:1 7962:1 12962:1 15003:1 
-0.063513404713801152601249100371206 161:1 5856:1 10011:1 16421:1 
0.01883274087801395726970987709592 25:1 5011:1 10031:1 15139:1 
-0.0063589004656609002599787494602879 23:1 6222:1 10107:1 15021:1 
-0.25235959374059557802638664725237 25:1 5011:1 10011:1 15048:1 
-0.25235959374059557802638664725237 25:1 5011:1 10011:1 15048:1 
-0.25235959374059557802638664725237 69:1 5011:1 10011:1 15031:1 
-0.25235959374059557802638664725237 34:1 5011:1 10011:1 15029:1 
-0.25235959374059557802638664725237 23:1 5011:1 10011:1 15219:1 
2.2480336256999615685003846010659 19:1 5328:1 10328:1 15021:1 
0.20823739929434112450046256981295 4:1 5644:1 10644:1 15171:1 
-0.25235959374059557802638664725237 334:1 5250:1 10075:1 15485:1 
-0.25235959374059557802638664725237 18:1 5060:1 10059:1 15021:1 
-0.25235959374059557802638664725237 18:1 5060:1 10059:1 15021:1 
-0.25235959374059557802638664725237 19:1 5353:1 10750:1 15021:1 
-0.25235959374059557802638664725237 19:1 5177:1 10107:1 15021:1 
2.5235959374059557802638664725237 23:1 5011:1 10011:1 15073:1 
0.577573927808606502054544762359 1559:1 5011:1 10011:1 15048:1 
-0.25235959374059557802638664725237 23:1 5011:1 10011:1 15011:1 
-0.25235959374059557802638664725237 23:1 5011:1 10011:1 15011:1 
-0.25235959374059557802638664725237 23:1 5011:1 10011:1 15011:1 
-0.140466669867204047017494872307 465:1 6066:1 10011:1 15011:1 
-0.25235959374059557802638664725237 18:1 5074:1 10415:1 15024:1 
-0.25235959374059557802638664725237 25:1 5011:1 10235:1 15023:1 
-0.25235959374059557802638664725237 19:1 7741:1 10233:1 17732:1 
-0.25235959374059557802638664725237 1012:1 5011:1 10011:1 15004:1 
-0.25235959374059557802638664725237 45:1 5011:1 10011:1 15004:1 
-0.25235959374059557802638664725237 4:1 5011:1 10011:1 15004:1 
-0.25235959374059557802638664725237 4:1 5011:1 10011:1 15004:1 
-0.25235959374059557802638664725237 25:1 6316:1 10031:1 15011:1 
-0.25235959374059557802638664725237 25:1 6316:1 10031:1 15011:1 
-0.11231614938768930134216361693689 32:1 5011:1 12344:1 15725:1 
-0.12690006092308062091156273254455 21:1 7003:1 10011:1 16999:1 
-0.25235959374059557802638664725237 22:1 5011:1 10011:1 15004:1 
-0.25235959374059557802638664725237 22:1 5011:1 10011:1 15004:1 
-0.25235959374059557802638664725237 41:1 5011:1 10011:1 15004:1 
-0.25235959374059557802638664725237 53:1 5011:1 10011:1 15004:1 
-0.25235959374059557802638664725237 1:1 5011:1 10011:1 15004:1 
1.4766579768283323303990073327441 4:1 7450:1 10011:1 15085:1 
1.147929249827191355848299281206 19:1 9795:1 10053:1 19962:1 
-0.21854278719342518089163718286727 11:1 5011:1 10488:1 15002:1 
-0.25235959374059557802638664725237 492:1 5213:1 10512:1 15744:1 
-0.25235959374059557802638664725237 19:1 5596:1 10596:1 15361:1 
-0.25235959374059557802638664725237 19:1 5962:1 10001:1 15021:1 
-0.024495041530709599914006346921269 68:1 5471:1 10011:1 15020:1 
-0.11766271859434224156260029303667 21:1 5446:1 10011:1 15004:1 
-0.19530738972520794716203340612992 25:1 5075:1 10726:1 15032:1 
-0.25235959374059557802638664725237 21:1 6154:1 10011:1 15004:1 
-0.25235959374059557802638664725237 21:1 5859:1 10011:1 15004:1 
1.4529285769803885752793348729028 19:1 5781:1 10781:1 15361:1 
-0.079355370925071333498834746933426 18:1 6923:1 10159:1 15006:1 
0.74911368715866688550164553817012 27:1 5448:1 10448:1 15023:1 
1.680207484815113838649835997785 19:1 6002:1 10001:1 15024:1 
-0.25235959374059557802638664725237 19:1 5011:1 10058:1 15020:1 
-0.25235959374059557802638664725237 19:1 5011:1 10058:1 16724:1 
-0.25235959374059557802638664725237 19:1 5011:1 10943:1 15132:1 
-0.25235959374059557802638664725237 21:1 5051:1 10011:1 15004:1 
-0.25235959374059557802638664725237 21:1 5839:1 10011:1 15004:1 
-0.25235959374059557802638664725237 6:1 5058:1 10011:1 15004:1 
1.4754358511399043862866165000014 19:1 7083:1 12083:1 15020:1 
2.1639088128669117239155639254022 19:1 5073:1 12099:1 15020:1 
-0.25235959374059557802638664725237 11:1 5336:1 10011:1 15030:1 
0.880306572685212174178559507709 19:1 5926:1 10926:1 15020:1 
-0.25235959374059557802638664725237 19:1 6405:1 10332:1 15020:1 
-0.25235959374059557802638664725237 19:1 5011:1 10062:1 15020:1 
-0.25235959374059557802638664725237 19:1 5011:1 10255:1 15020:1 
-0.034964703078018369297730316702655 10:1 5011:1 10128:1 15159:1 
-0.25235959374059557802638664725237 19:1 5011:1 12411:1 15020:1 
-0.25235959374059557802638664725237 21:1 6662:1 10679:1 15004:1 
-0.1002539104182674084553283933019 21:1 6361:1 10956:1 15004:1 
-0.25235959374059557802638664725237 21:1 5163:1 10011:1 15004:1 
-0.25235959374059557802638664725237 1340:1 5011:1 10240:1 15274:1 
-0.039389755421654362721461950513913 518:1 5011:1 11659:1 15216:1 
-0.0039704462617870363641547903910123 325:1 5281:1 10059:1 15006:1 
0.97567472626285978165583401278127 19:1 5760:1 10760:1 15020:1 
0.69174716334904595704813345946604 19:1 5750:1 10750:1 15020:1 
-0.25235959374059557802638664725237 19:1 5031:1 11468:1 15020:1 
-0.25235959374059557802638664725237 19:1 5760:1 11151:1 15020:1 
-0.25235959374059557802638664725237 19:1 6087:1 11937:1 15020:1 
-0.25235959374059557802638664725237 18:1 5062:1 10059:1 15020:1 
-0.12265460165557008631598279180253 485:1 5041:1 10011:1 15058:1 
-0.25235959374059557802638664725237 11:1 5011:1 10238:1 15004:1 
-0.25235959374059557802638664725237 11:1 10011:1 15005:1 
-0.25235959374059557802638664725237 23:1 6627:1 10161:1 15020:1 
-0.039139078438292569661616226994738 239:1 5758:1 10011:1 15021:1 
0.83695054921326095254130450484809 32:1 5011:1 10011:1 15023:1 
-0.25235959374059557802638664725237 19:1 5048:1 10618:1 15023:1 
0.093122018331656467027279688863928 19:1 5011:1 10011:1 15024:1 
-0.25235959374059557802638664725237 19:1 6448:1 10094:1 15006:1 
-0.25235959374059557802638664725237 19:1 9210:1 10094:1 15006:1 
-0.096567439837346127906592130329955 19:1 5423:1 10168:1 15085:1 
2.5235959374059557802638664725237 11:1 6105:1 11105:1 15086:1 
0.80423364896867144402392568736104 11:1 5943:1 10943:1 15168:1 
2.0816824044685251493547184509225 11:1 5719:1 10719:1 15212:1 
-0.014694654520787879536936060276275 1564:1 6465:1 10031:1 16974:1 
-0.25235959374059557802638664725237 21:1 5011:1 10011:1 15168:1 
-0.25235959374059557802638664725237 18:1 5129:1 10059:1 15060:1 
-0.25235959374059557802638664725237 34:1 6702:1 10011:1 15029:1 
-0.25235959374059557802638664725237 23:1 5011:1 10011:1 15066:1 
-0.25235959374059557802638664725237 23:1 5011:1 10011:1 15031:1 
1.9621239238561787310288764274446 115:1 5612:1 10094:1 15006:1 
2.1561188936577062591481990239117 45:1 6277:1 11277:1 15006:1 
-0.25235959374059557802638664725237 33:1 5223:1 10375:1 15006:1 
-0.23962372394237996253707478899742 18:1 5031:1 10879:1 15020:1 
-0.034518961088233178491346819782848 23:1 9238:1 10828:1 18331:1 
-0.23192553307387969718789122453018 19:1 5138:1 10011:1 15027:1 
-0.25235959374059557802638664725237 19:1 5448:1 11393:1 15006:1 
2.5235959374059557802638664725237 41:1 5011:1 10011:1 15029:1 
2.5235959374059557802638664725237 53:1 5011:1 10011:1 15029:1 
-0.15627921258052884789790937247744 446:1 5258:1 10551:1 15002:1 
-0.25235959374059557802638664725237 34:1 8295:1 10053:1 15058:1 
-0.25235959374059557802638664725237 20:1 5011:1 10011:1 15029:1 
-0.09044083204079905735639499653189 2314:1 5173:1 10011:1 15004:1 
-0.25235959374059557802638664725237 11:1 5011:1 14796:1 15029:1 
-0.25235959374059557802638664725237 18:1 5783:1 10011:1 16510:1 
-0.25235959374059557802638664725237 43:1 5029:1 10043:1 15002:1 
0.20015676820913078093333581364277 21:1 5011:1 10011:1 15078:1 
-0.25235959374059557802638664725237 18:1 5011:1 11843:1 15039:1 
-0.25235959374059557802638664725237 11:1 5011:1 10011:1 15020:1 
-0.23398361567735342925189456764201 18:1 5011:1 10011:1 15050:1 
-0.25235959374059557802638664725237 18:1 5011:1 10011:1 15026:1 
-0.25235959374059557802638664725237 19:1 5315:1 10996:1 15006:1 
-0.25235959374059557802638664725237 19:1 5041:1 10011:1 15004:1 
-0.22805909000499022254437875290023 18:1 5345:1 10091:1 15130:1 
-0.25235959374059557802638664725237 20:1 5011:1 10505:1 15027:1 
-0.25235959374059557802638664725237 18:1 5011:1 10031:1 15023:1 
-0.25235959374059557802638664725237 18:1 5031:1 10011:1 15023:1 
-0.25235959374059557802638664725237 18:1 6956:1 10011:1 15031:1 
-0.064874916147421357592861568264198 30:1 6205:1 10001:1 15021:1 
1.3418939412574828473623256286373 19:1 9088:1 14088:1 15004:1 
-0.075768466658783228950824195635505 734:1 7588:1 12588:1 15523:1 
-0.25235959374059557802638664725237 19:1 5233:1 11577:1 15004:1 
-0.25235959374059557802638664725237 19:1 5820:1 10781:1 15302:1 
-0.25235959374059557802638664725237 19:1 5719:1 10719:1 17877:1 
-0.25235959374059557802638664725237 18:1 5011:1 10011:1 15038:1 
-0.25235959374059557802638664725237 18:1 5011:1 10011:1 15117:1 
-0.25235959374059557802638664725237 18:1 5011:1 10011:1 16143:1 
-0.25235959374059557802638664725237 18:1 5011:1 10011:1 18036:1 
0.38913090800330385476968331204262 19:1 5448:1 10448:1 15291:1 
0.38913089616285484462210320089071 19:1 5448:1 10448:1 15291:1 
0.38913129307400667888927614512795 19:1 5448:1 10448:1 15291:1 
0.38913093443389351611116921958455 19:1 5448:1 10448:1 15291:1 
0.38900897573263037987345569490572 19:1 5448:1 10448:1 15291:1 
-0.25235959374059557802638664725237 19:1 6061:1 10448:1 15291:1 
-0.25235959374059557802638664725237 19:1 6105:1 10987:1 15023:1 
-0.22225972970012097817971152835526 19:1 9795:1 14962:1 15023:1 
2.5235959374059557802638664725237 6:1 5011:1 10075:1 15060:1 
0.24525002923894975714880217765312 378:1 5011:1 10361:1 15011:1 
0.26602341114045097159035435652186 32:1 5011:1 10785:1 16062:1 
2.4180958261905964867821694497252 908:1 5011:1 10199:1 15170:1 
-0.25235959374059557802638664725237 6:1 5011:1 10011:1 15020:1 
-0.25235959374059557802638664725237 32:1 5011:1 10011:1 15037:1 
1.8343132241458710574022461514687 19:1 6995:1 11995:1 15023:1 
1.0224644577329904393536708084866 19:1 7129:1 10549:1 15023:1 
-0.25235959374059557802638664725237 130:1 5319:1 10902:1 15033:1 
1.9282337252291252838176660588942 19:1 6370:1 11370:1 15023:1 
-0.25235959374059557802638664725237 21:1 5677:1 11261:1 15023:1 
-0.20924677506868824550245733462361 18:1 9068:1 13483:1 18707:1 
-0.20957174257114402626811511254346 93:1 6036:1 11245:1 15673:1 
2.5235959374059557802638664725237 32:1 5011:1 10011:1 15020:1 
-0.066628356157236098833429593923938 153:1 5361:1 10011:1 15006:1 
0.91012193193575130489847424541949 23:1 5011:1 10011:1 15088:1 
-0.10227861481410153998705681033243 18:1 5026:1 10317:1 15010:1 
-0.25235959374059557802638664725237 519:1 5011:1 10011:1 15020:1 
-0.25235959374059557802638664725237 3156:1 5011:1 10011:1 15020:1 
-0.25235959374059557802638664725237 31:1 5011:1 10011:1 15020:1 
-0.25235959374059557802638664725237 7:1 5011:1 10011:1 15020:1 
-0.25235959374059557802638664725237 11:1 5824:1 10011:1 15044:1 
-0.25235959374059557802638664725237 24:1 5025:1 10233:1 15726:1 
-0.047311980021017975561736790268696 130:1 5472:1 10088:1 15057:1 
-0.25235959374059557802638664725237 19:1 5448:1 10291:1 15081:1 
-0.25235959374059557802638664725237 19:1 5781:1 10361:1 15074:1 
-0.25235959374059557802638664725237 19:1 5291:1 10075:1 15485:1 
-0.25235959374059557802638664725237 19:1 5448:1 10291:1 15002:1 
-0.22698910086247289785710279375053 30:1 5682:1 10053:1 15252:1 
-0.25235959374059557802638664725237 23:1 5011:1 10011:1 15035:1 
-0.25235959374059557802638664725237 24:1 5011:1 10011:1 15004:1 
-0.25235959374059557802638664725237 24:1 5011:1 10011:1 15004:1 
-0.25235959374059557802638664725237 25:1 5011:1 10011:1 15004:1 
1.9203946538757032946875824563904 19:1 5247:1 10247:1 15117:1 
2.5235959374059557802638664725237 19:1 5041:1 10533:1 15397:1 
-0.10230292239216576266613856205367 277:1 5011:1 10352:1 15028:1 
0.0023878495899926155746073597185841 41:1 6298:1 10031:1 15002:1 
1.4297557222604797555476352499682 19:1 6448:1 11302:1 15072:1 
-0.25235959374059557802638664725237 19:1 5011:1 10571:1 15021:1 
-0.11897935244869192739081142917712 331:1 5050:1 10011:1 15108:1 
-0.25235959374059557802638664725237 19:1 5011:1 11277:1 15029:1 
-0.25235959374059557802638664725237 19:1 5926:1 10777:1 15021:1 
-0.25235959374059557802638664725237 19:1 5438:1 10059:1 15117:1 
-0.25235959374059557802638664725237 10:1 5343:1 10011:1 15004:1 
-0.25235959374059557802638664725237 4:1 5011:1 10011:1 15004:1 
-0.25235959374059557802638664725237 4:1 5011:1 10011:1 15004:1 
-0.25235959374059557802638664725237 19:1 5403:1 10578:1 15030:1 
-0.25235959374059557802638664725237 19:1 5403:1 10880:1 15045:1 
1.3125135198553561366452413494699 6:1 8643:1 13643:1 15223:1 
-0.25235959374059557802638664725237 23:1 5011:1 10011:1 15003:1 
-0.25235959374059557802638664725237 23:1 5011:1 10011:1 15003:1 
-0.25235959374059557802638664725237 2:1 5011:1 10011:1 15003:1 
-0.25235959374059557802638664725237 2:1 5011:1 10011:1 15003:1 
-0.24426144446215716787840221968509 274:1 5735:1 10983:1 15032:1 
0.41876998021570793762080597844033 19:1 7413:1 12413:1 15004:1 
0.95653647216690873555933194438694 19:1 5403:1 10403:1 15283:1 
-0.25235959374059557802638664725237 32:1 5177:1 10192:1 15029:1 
-0.25235959374059557802638664725237 57:1 5041:1 10041:1 15072:1 
-0.25235959374059557802638664725237 19:1 5018:1 10073:1 15002:1 
-0.25235959374059557802638664725237 4:1 5011:1 10011:1 15004:1 
-0.25235959374059557802638664725237 11:1 8595:1 10011:1 17076:1 
-0.25235959374059557802638664725237 11:1 7392:1 10011:1 15066:1 
-0.25235959374059557802638664725237 21:1 5612:1 11453:1 15006:1 
-0.25235959374059557802638664725237 21:1 5612:1 11946:1 15006:1 
-0.25235959374059557802638664725237 21:1 5853:1 10058:1 15212:1 
-0.25235959374059557802638664725237 21:1 6449:1 10325:1 15006:1 
-0.25235959374059557802638664725237 21:1 5366:1 10325:1 15128:1 
0.32305331355918087687939532770542 2259:1 5177:1 10011:1 18877:1 
-0.25235959374059557802638664725237 30:1 5011:1 10011:1 15004:1 
-0.0063921144533673228058101578596961 25:1 5956:1 10003:1 15023:1 
-0.011633101346498720199407195252661 34:1 6787:1 11374:1 15053:1 
-0.087004284901276179864382243067666 594:1 7487:1 10077:1 15006:1 
-0.0094167748610212275578446039503433 4:1 5212:1 10011:1 16740:1 
1.3495494775896050843044804423698 21:1 5318:1 10318:1 15006:1 
-0.20137521113500697622633595074149 951:1 5011:1 10011:1 15066:1 
-0.25235959374059557802638664725237 2:1 5011:1 10011:1 15073:1 
-0.25235959374059557802638664725237 2:1 5011:1 10011:1 15073:1 
-0.019651770735390667460551483713971 105:1 5943:1 10270:1 15004:1 
-0.012922977641731506898148396089709 31:1 5053:1 10252:1 15002:1 
-0.25235959374059557802638664725237 21:1 6977:1 10318:1 15006:1 
-0.25235959374059557802638664725237 18:1 5691:1 11354:1 15006:1 
-0.046846966696340155977829056155315 45:1 5303:1 13698:1 16054:1 
-0.25235959374059557802638664725237 18:1 5864:1 10031:1 15006:1 
-0.25235959374059557802638664725237 4:1 5011:1 10011:1 15004:1 
-0.25235959374059557802638664725237 25:1 5192:1 10031:1 15004:1 
-0.25235959374059557802638664725237 110:1 5057:1 10177:1 15004:1 
-0.25235959374059557802638664725237 4232:1 5379:1 10031:1 16066:1 
-0.25235959374059557802638664725237 11:1 5872:1 10031:1 15139:1 
-0.25235959374059557802638664725237 18:1 5011:1 10011:1 17607:1 
-0.25235959374059557802638664725237 18:1 5011:1 10011:1 17075:1 
-0.25235959374059557802638664725237 18:1 5011:1 10011:1 15126:1 
-0.25235959374059557802638664725237 18:1 5011:1 10011:1 15095:1 
-0.25235959374059557802638664725237 18:1 5011:1 10011:1 15278:1 
2.4795206339145083873631847382057 11:1 5343:1 10343:1 15055:1 
2.4795206339015978258544237178285 11:1 5343:1 10343:1 15055:1 
-0.25235959374059557802638664725237 113:1 5472:1 10041:1 15002:1 
-0.25235959374059557802638664725237 30:1 5303:1 10059:1 15027:1 
-0.25235959374059557802638664725237 19:1 5011:1 10315:1 15027:1 
-0.25235959374059557802638664725237 19:1 5011:1 10315:1 15027:1 
-0.25235959374059557802638664725237 19:1 5011:1 10634:1 15027:1 
1.4700755740685662598110639009974 31:1 5192:1 10192:1 15006:1 
-0.072752944764698554425130794243159 19:1 7366:1 10078:1 16771:1 
-0.11143713488388810872731227163968 97:1 5388:1 11006:1 15021:1 
-0.25235959374059557802638664725237 18:1 5414:1 10031:1 15006:1 
-0.25235959374059557802638664725237 1316:1 5031:1 10011:1 15006:1 
-0.25235959374059557802638664725237 892:1 5031:1 10011:1 15006:1 
0.79409467054029170274276339114294 19:1 6588:1 11588:1 15095:1 
-0.25235959374059557802638664725237 518:1 5060:1 10423:1 15048:1 
0.74538398401210859134380370960571 510:1 5001:1 10059:1 15302:1 
-0.23893922340825582417700445603259 19:1 6188:1 10776:1 15106:1 
-0.16194077559253780562720237412577 100:1 7184:1 10001:1 15082:1 
-0.25235959374059557802638664725237 19:1 6588:1 10095:1 15021:1 
-0.25235959374059557802638664725237 19:1 7014:1 10677:1 15264:1 
-0.25235959374059557802638664725237 23:1 5011:1 10011:1 15010:1 
-0.25235959374059557802638664725237 23:1 5011:1 10011:1 15039:1 
-0.097587193275802855407796698727907 1954:1 6288:1 11159:1 15212:1 
-0.25235959374059557802638664725237 19:1 5192:1 10339:1 15006:1 
-0.064323101141477961872894297812309 30:1 5011:1 10133:1 17583:1 
-0.25235959374059557802638664725237 19:1 5362:1 10540:1 15006:1 
-0.18051468029868611431254521448864 21:1 5011:1 13722:1 19296:1 
2.5235959374059557802638664725237 4:1 5011:1 10031:1 15023:1 
-0.15300029365639691847356118614698 90:1 5031:1 11831:1 15042:1 
-0.25235959374059557802638664725237 133:1 5011:1 10031:1 15033:1 
-0.25235959374059557802638664725237 69:1 7302:1 10011:1 15161:1 
-0.25235959374059557802638664725237 32:1 5784:1 10011:1 15004:1 
-0.25235959374059557802638664725237 66:1 6413:1 10011:1 15020:1 
1.4203219885882236717122850677697 21:1 8746:1 13746:1 15039:1 
1.488376751073948955905734692351 21:1 5011:1 10011:1 15020:1 
1.6899460630268372529627640687977 3398:1 5011:1 10338:1 15002:1 
-0.25235959374059557802638664725237 21:1 5011:1 10001:1 15006:1 
-0.25235959374059557802638664725237 115:1 5011:1 10093:1 15024:1 
-0.25235959374059557802638664725237 19:1 5011:1 10414:1 15006:1 
0.75906816604819771221457358478801 1932:1 5360:1 10011:1 15095:1 
-0.25235959374059557802638664725237 30:1 7694:1 10011:1 15004:1 
-0.25235959374059557802638664725237 30:1 9330:1 10011:1 15004:1 
-0.25235959374059557802638664725237 18:1 5266:1 10011:1 15254:1 
0.83695056080559970812515757643268 32:1 5011:1 10011:1 15023:1 
2.0379631514442917428198143170448 525:1 5011:1 10299:1 15006:1 
1.2428139388485872629530604172032 575:1 5011:1 14196:1 15006:1 
0.3467662718394136645017056252982 40:1 5011:1 10031:1 15020:1 
-0.023707920074505658969421517667797 6:1 5011:1 10373:1 15459:1 
-0.25235959374059557802638664725237 19:1 5011:1 10985:1 15006:1 
-0.25235959374059557802638664725237 19:1 5011:1 10037:1 15095:1 
-0.25235959374059557802638664725237 6:1 5011:1 10546:1 15010:1 
-0.25235959374059557802638664725237 608:1 5011:1 10546:1 15010:1 
0.54636659613381166611389971876633 18:1 5519:1 10011:1 15163:1 
-0.25235959374059557802638664725237 18:1 5513:1 10031:1 15042:1 
-0.25235959374059557802638664725237 18:1 5473:1 10214:1 15086:1 
-0.18195631744342133373493197723292 18:1 5090:1 10031:1 15042:1 
-0.25235959374059557802638664725237 18:1 5326:1 10031:1 15006:1 
-0.25235959374059557802638664725237 18:1 5325:1 10050:1 15006:1 
0.91891480364484268150704338040669 19:1 5733:1 10733:1 15024:1 
-0.096780669757272189124286398964614 8053:1 10011:1 15002:1 
1.8679492007695075450612876011292 19:1 5011:1 10011:1 15032:1 
-0.25235959374059557802638664725237 19:1 5407:1 10011:1 15002:1 
-0.25235959374059557802638664725237 19:1 5905:1 10011:1 15002:1 
-0.25235959374059557802638664725237 19:1 5273:1 10011:1 15002:1 
-0.25235959374059557802638664725237 19:1 5150:1 10011:1 15002:1 
2.4021961140674261692140589730116 27:1 5905:1 10031:1 15006:1 
-0.25235959374059557802638664725237 2:1 5798:1 10031:1 15019:1 
-0.25235959374059557802638664725237 2:1 5057:1 10041:1 15019:1 
-0.25235959374059557802638664725237 28:1 5750:1 10156:1 15019:1 
2.5235959374059557802638664725237 6:1 10011:1 15002:1 
-0.25235959374059557802638664725237 23:1 5011:1 10130:1 15021:1 
-0.25235959374059557802638664725237 6:1 8545:1 10011:1 15004:1 
-0.25235959374059557802638664725237 6:1 8880:1 10011:1 15004:1 
-0.25235959374059557802638664725237 6:1 7864:1 10011:1 15004:1 
-0.15015088940196774647262145663262 32:1 5011:1 10300:1 18023:1 
-0.1502557283796740195125352101968 32:1 5011:1 12056:1 18039:1 
-0.25235959374059557802638664725237 19:1 5755:1 10755:1 15002:1 
-0.25235959374059557802638664725237 19:1 5419:1 10419:1 15002:1 
-0.25235959374059557802638664725237 553:1 5755:1 14020:1 15023:1 
1.6073677090538374123696030437713 28:1 8562:1 10001:1 15006:1 
-0.17796778797191986631887061776069 561:1 6091:1 13253:1 15031:1 
-0.10056418357351615266992439501337 1194:1 7435:1 10011:1 15006:1 
-0.011966248868056252388503146733001 1490:1 5011:1 12997:1 15062:1 
-0.0072481907741990068277937453444792 2:1 5414:1 10281:1 15031:1 
-0.24633087473816933643533388931246 234:1 5337:1 14525:1 15982:1 
-0.046834656860168757952500584451627 25:1 7551:1 11129:1 17959:1 
1.8104881235153256202607963132323 19:1 5922:1 10922:1 15004:1 
1.1706294040508331555372478760546 19:1 6757:1 11757:1 15366:1 
-0.14522154184824087597149855355383 24:1 5011:1 10388:1 15021:1 
-0.25235959374059557802638664725237 19:1 5011:1 10795:1 15006:1 
-0.25235959374059557802638664725237 19:1 5011:1 11557:1 15006:1 
-0.25235959374059557802638664725237 19:1 5011:1 11347:1 15006:1 
-0.25235959374059557802638664725237 23:1 5453:1 10001:1 17402:1 
-0.25235959374059557802638664725237 21:1 5341:1 10001:1 15073:1 
-0.0747976561022006825041330557724 27:1 5071:1 10001:1 15004:1 
-0.25235959374059557802638664725237 11:1 5521:1 10521:1 15004:1 
-0.25235959374059557802638664725237 3709:1 6032:1 10001:1 15020:1 
-0.25235959374059557802638664725237 19:1 5011:1 10011:1 15023:1 
-0.25235959374059557802638664725237 19:1 5011:1 10011:1 15023:1 
-0.25235959374059557802638664725237 19:1 5011:1 10011:1 15023:1 
-0.25235959374059557802638664725237 19:1 5011:1 10011:1 15023:1 
-0.25235959374059557802638664725237 19:1 5011:1 10011:1 15023:1 
0.81925450249164866178830379794817 69:1 8993:1 10001:1 18784:1 
-0.20176083280030335243004913081677 237:1 5031:1 11670:1 15021:1 
0.57892017773083326304117690597195 28:1 6040:1 10001:1 15020:1 
0.57892017009318463838241086705239 28:1 6040:1 10001:1 15020:1 
-0.036622619393731688230975152009705 19:1 5423:1 10359:1 15011:1 
-0.075495772301221217293054621677584 22:1 5866:1 10200:1 15004:1 
-0.25235959374059557802638664725237 90:1 5840:1 10011:1 15024:1 
-0.24909190800836195078815649139869 30:1 5011:1 10224:1 15304:1 
-0.25235959374059557802638664725237 30:1 5653:1 11074:1 15020:1 
-0.071567157336938566625228475004405 34:1 5074:1 10192:1 15023:1 
-0.25235959374059557802638664725237 237:1 5706:1 10039:1 15093:1 
1.1856021596835419895654695210396 19:1 7693:1 12693:1 16930:1 
-0.25235959374059557802638664725237 19:1 5060:1 10177:1 15030:1 
-0.25235959374059557802638664725237 19:1 5562:1 10073:1 15088:1 
-0.22646337147510078868783978123247 265:1 5001:1 10011:1 15061:1 
-0.19951390068541099975796271337458 1856:1 6731:1 10011:1 15021:1 
-0.1056492450048244630123051024384 19:1 5424:1 10208:1 15030:1 
1.388935416879253814670391875552 90:1 5409:1 10011:1 15079:1 
-0.25235959374059557802638664725237 23:1 5011:1 10011:1 15061:1 
-0.25235959374059557802638664725237 19:1 5011:1 10011:1 15003:1 
-0.17589881440349350305574205322046 23:1 6573:1 10071:1 15037:1 
-0.14761393749723333845835782085487 18:1 8135:1 10039:1 15011:1 
-0.25235959374059557802638664725237 34:1 5031:1 12008:1 15002:1 
-0.25235959374059557802638664725237 99:1 5041:1 10001:1 15002:1 
0.48783680791957162448113649588777 149:1 5041:1 10001:1 15065:1 
-0.25235959374059557802638664725237 725:1 5713:1 10041:1 15339:1 
-0.25235959374059557802638664725237 18:1 5011:1 10240:1 15023:1 
-0.25235959374059557802638664725237 18:1 5011:1 11273:1 15023:1 
-0.25235959374059557802638664725237 18:1 5011:1 10278:1 15023:1 
-0.25235959374059557802638664725237 1928:1 5041:1 10001:1 15002:1 
-0.25235959374059557802638664725237 1928:1 5041:1 10001:1 15002:1 
-0.25235959374059557802638664725237 958:1 5041:1 10001:1 15002:1 
-0.25235959374059557802638664725237 216:1 5041:1 10001:1 15002:1 
-0.25235959374059557802638664725237 581:1 5041:1 10001:1 15002:1 
-0.25235959374059557802638664725237 19:1 5011:1 10011:1 15004:1 
-0.25235959374059557802638664725237 19:1 5011:1 10011:1 15004:1 
-0.25235959374059557802638664725237 19:1 5011:1 10011:1 15004:1 
-0.25235959374059557802638664725237 19:1 5011:1 10011:1 15004:1 
-0.058192975572078239898665685814194 4:1 6571:1 10031:1 15019:1 
0.22945215701387480788930872677156 25:1 5627:1 10447:1 15002:1 
1.4047752956406249769116811876302 40:1 9009:1 10095:1 15002:1 
1.8679492008021270077477993254433 19:1 5011:1 10011:1 15032:1 
1.8679498095743609642482851995737 19:1 5011:1 10011:1 15032:1 
-0.25235959374059557802638664725237 23:1 5011:1 10011:1 15094:1 
-0.25235959374059557802638664725237 23:1 5011:1 10011:1 15139:1 
-0.25235959374059557802638664725237 110:1 5011:1 10011:1 15065:1 
-0.25235959374059557802638664725237 23:1 5011:1 10011:1 15295:1 
-0.25235959374059557802638664725237 19:1 5057:1 10094:1 15020:1 
-0.25235959374059557802638664725237 19:1 6159:1 10703:1 15032:1 
-0.25235959374059557802638664725237 19:1 6116:1 10001:1 15029:1 
-0.25235959374059557802638664725237 103:1 5011:1 10653:1 15004:1 
-0.25235959374059557802638664725237 31:1 5011:1 10011:1 15004:1 
-0.25235959374059557802638664725237 23:1 9361:1 10001:1 15004:1 
-0.25235959374059557802638664725237 23:1 7882:1 10001:1 15004:1 
0.60072852828885969778127673635026 19:1 6186:1 11186:1 15030:1 
-0.18742231170574860654731708109466 19:1 6186:1 10712:1 15006:1 
-0.25235959374059557802638664725237 19:1 5238:1 10060:1 15030:1 
-0.25235959374059557802638664725237 19:1 5247:1 10927:1 15006:1 
-0.25235959374059557802638664725237 40:1 6751:1 10001:1 15004:1 
-0.25235959374059557802638664725237 4:1 5011:1 10011:1 15004:1 
-0.25235959374059557802638664725237 4:1 5011:1 10011:1 15004:1 
-0.25235959374059557802638664725237 4:1 5011:1 10011:1 15004:1 
-0.25235959374059557802638664725237 4:1 5011:1 10011:1 15004:1 
-0.16591435811338595129882378387265 18:1 5011:1 10260:1 15038:1 
-0.13515325838433614458189424567536 19:1 5011:1 10123:1 16557:1 
-0.25235959374059557802638664725237 4:1 5011:1 10011:1 15004:1 
-0.25235959374059557802638664725237 19:1 5026:1 10041:1 15002:1 
-0.19414551094768403571855230893561 616:1 5011:1 10469:1 15006:1 
-0.25235959374059557802638664725237 23:1 5011:1 10011:1 15053:1 
-0.25235959374059557802638664725237 23:1 5011:1 10011:1 
-0.25235959374059557802638664725237 23:1 5011:1 10011:1 15239:1 
0.73609353523973453103934616592596 19:1 6901:1 11901:1 18725:1 
-0.20255573375788657464191544477217 22:1 7171:1 10094:1 15006:1 
1.5777684504886353433761314590811 19:1 6704:1 11704:1 15067:1 
2.5235959374059557802638664725237 19:1 6268:1 11268:1 15157:1 
-0.25235959374059557802638664725237 19:1 6107:1 10111:1 15240:1 
-0.22064210768665770689977989604813 492:1 5124:1 11021:1 19548:1 
-0.25235959374059557802638664725237 19:1 6107:1 11158:1 16131:1 
-0.25235959374059557802638664725237 19:1 6107:1 11131:1 16550:1 
-0.25235959374059557802638664725237 19:1 6107:1 11158:1 16131:1 
-0.16643414498034475590415581791603 22:1 5011:1 12197:1 15020:1 
-0.010867073472110050369465739095176 29:1 9152:1 10546:1 15200:1 
0.45037634029254924872276433234219 19:1 6107:1 11550:1 15049:1 
-0.25235959374059557802638664725237 2:1 5011:1 10011:1 15003:1 
-0.25235959374059557802638664725237 2:1 5011:1 10011:1 15003:1 
-0.25235959374059557802638664725237 2:1 5011:1 10011:1 15003:1 
-0.25235959374059557802638664725237 2:1 5011:1 10011:1 15003:1 
-0.25235959374059557802638664725237 2:1 5011:1 10011:1 15003:1 
0.24277208761268817549527909704921 19:1 5512:1 10512:1 17788:1 
1.7260520996005224159119961768738 19:1 6825:1 11825:1 15169:1 
-0.25235959374059557802638664725237 21:1 6277:1 10478:1 15030:1 
-0.25235959374059557802638664725237 19:1 6268:1 10607:1 15125:1 
-0.0090485000132943960854392528858625 2945:1 5068:1 11368:1 15010:1 
-0.25235959374059557802638664725237 18:1 5554:1 10011:1 15038:1 
1.1856227906941925187567221655627 19:1 8822:1 13822:1 17015:1 
0.72215047017993816425018849258777 19:1 6546:1 11546:1 15292:1 
1.6769602606854840942673945392016 36:1 6407:1 11407:1 15371:1 
-0.030205062343453339956944603272859 36:1 5011:1 10590:1 15950:1 
0.71725454355774620474051062046783 36:1 6768:1 11768:1 15799:1 
0.34803839636668926216245267823979 4375:1 5177:1 10177:1 15065:1 
-0.25235959374059557802638664725237 24:1 5407:1 10011:1 15066:1 
-0.25235959374059557802638664725237 18:1 5863:1 10750:1 15006:1 
-0.25235959374059557802638664725237 21:1 7269:1 12269:1 15066:1 
-0.25235959374059557802638664725237 21:1 6307:1 10427:1 15021:1 
-0.25235959374059557802638664725237 19:1 5011:1 10738:1 15004:1 
-0.25235959374059557802638664725237 19:1 5011:1 10240:1 15004:1 
-0.25235959374059557802638664725237 53:1 5011:1 10011:1 15004:1 
-0.096435050186609472255838682031026 7:1 9111:1 10484:1 16027:1 
-0.17351587130861031993411813800776 27:1 5647:1 11650:1 15042:1 
1.3606609722898557190973178876447 21:1 6442:1 11442:1 15259:1 
-0.25235959374059557802638664725237 21:1 5596:1 11277:1 15006:1 
-0.25235959374059557802638664725237 21:1 7992:1 10739:1 15006:1 
-0.25235959374059557802638664725237 21:1 6828:1 10361:1 15006:1 
-0.25235959374059557802638664725237 21:1 5238:1 12812:1 15006:1 
-0.11421994094228385407951975594187 11:1 5464:1 10827:1 15052:1 
-0.25235959374059557802638664725237 19:1 5129:1 10296:1 15259:1 
-0.039707110690363263405533444938555 18:1 5697:1 11962:1 16174:1 
-0.25235959374059557802638664725237 27:1 5087:1 10011:1 15004:1 
-0.011753834465312404389258915671235 23:1 5303:1 11890:1 15005:1 
-0.25235959374059557802638664725237 32:1 6381:1 10011:1 15004:1 
-0.0038752853377208131349651587527205 2659:1 6779:1 10238:1 15586:1 
-0.25235959374059557802638664725237 19:1 5018:1 10059:1 15072:1 
-0.25235959374059557802638664725237 3492:1 5781:1 10781:1 15072:1 
-0.25235959374059557802638664725237 23:1 7606:1 10043:1 15072:1 
-0.25235959374059557802638664725237 18:1 5011:1 10011:1 15068:1 
-0.25235959374059557802638664725237 18:1 5011:1 10011:1 16171:1 
-0.25235959374059557802638664725237 18:1 5011:1 10011:1 16171:1 
-0.25235959374059557802638664725237 18:1 5011:1 10011:1 15341:1 
-0.0092237522081504152993147727102041 64:1 5619:1 10059:1 15027:1 
1.3131570267997418888228366995463 18:1 5011:1 10011:1 15031:1 
-0.19289681603689623479169767961139 18:1 5529:1 10523:1 15048:1 
1.1234993603629821468103955339757 18:1 5011:1 10011:1 15031:1 
-0.25235959374059557802638664725237 19:1 5607:1 10248:1 15151:1 
-0.25235959374059557802638664725237 19:1 5607:1 10248:1 15151:1 
-0.25235959374059557802638664725237 32:1 5171:1 10753:1 15105:1 
-0.25235959374059557802638664725237 19:1 5315:1 10268:1 15996:1 
-0.25235959374059557802638664725237 18:1 5011:1 10011:1 15869:1 
-0.25235959374059557802638664725237 18:1 5011:1 10011:1 16445:1 
-0.25235959374059557802638664725237 18:1 5011:1 10011:1 15268:1 
-0.25235959374059557802638664725237 18:1 5011:1 10011:1 15097:1 
-0.25235959374059557802638664725237 18:1 5011:1 10011:1 15707:1 
0.21000633982120556209061135177762 19:1 5738:1 10738:1 16156:1 
-0.25235959374059557802638664725237 113:1 5318:1 10281:1 15031:1 
1.5851878005179438346772258228157 19:1 7366:1 12366:1 15048:1 
-0.25235959374059557802638664725237 19:1 5073:1 10367:1 15024:1 
-0.20555298597921953240863501832791 19:1 5733:1 10410:1 15748:1 
-0.25235959374059557802638664725237 48:1 5060:1 10618:1 15023:1 
-0.25235959374059557802638664725237 19:1 5075:1 10367:1 15790:1 
-0.25235959374059557802638664725237 18:1 5011:1 10011:1 15127:1 
-0.25235959374059557802638664725237 18:1 5011:1 10011:1 15196:1 
-0.25235959374059557802638664725237 18:1 5011:1 10011:1 15196:1 
-0.25235959374059557802638664725237 18:1 5011:1 10011:1 15196:1 
2.0102179072798707082370128773618 21:1 5073:1 10341:1 15481:1 
-0.25235959374059557802638664725237 30:1 6205:1 10001:1 15004:1 
-0.25235959374059557802638664725237 133:1 5011:1 10011:1 15019:1 
-0.25235959374059557802638664725237 19:1 5011:1 10011:1 15024:1 
-0.25235959374059557802638664725237 19:1 5011:1 10011:1 15024:1 
-0.25235959374059557802638664725237 19:1 5011:1 10011:1 15024:1 
0.57972120064483056989246279044892 124:1 7475:1 10001:1 15147:1 
1.2224288029996390747555778943934 10:1 8095:1 10001:1 15055:1 
1.2798263159655123288871436670888 801:1 7451:1 10001:1 15030:1 
1.8681923110405469490302721169428 19:1 5011:1 10011:1 15032:1 
-0.25235959374059557802638664725237 22:1 5011:1 15107:1 
-0.21211768426848126578576625433925 19:1 5082:1 10011:1 15029:1 
-0.25235959374059557802638664725237 19:1 5011:1 10011:1 15030:1 
2.0830578340051610908290058432613 25:1 5901:1 10001:1 15024:1 
-0.25235959374059557802638664725237 3:1 10001:1 15004:1 
-0.25235959374059557802638664725237 18:1 5031:1 10001:1 16081:1 
-0.25235959374059557802638664725237 18:1 6941:1 10001:1 15004:1 
-0.25235959374059557802638664725237 18:1 7739:1 10001:1 15004:1 
-0.25235959374059557802638664725237 19:1 5011:1 10318:1 15006:1 
-0.25235959374059557802638664725237 19:1 5011:1 14763:1 15006:1 
-0.25235959374059557802638664725237 19:1 5011:1 10374:1 15006:1 
-0.10180854760728112740064688068742 797:1 5377:1 10041:1 15079:1 
-0.25235959374059557802638664725237 19:1 5011:1 10950:1 15006:1 
2.5235959374059557802638664725237 11:1 5031:1 10549:1 15790:1 
2.5235959374059557802638664725237 5:1 5041:1 10001:1 15020:1 
-0.25235959374059557802638664725237 11:1 5801:1 10059:1 15020:1 
-0.25235959374059557802638664725237 5:1 5011:1 10011:1 15004:1 
-0.25235959374059557802638664725237 442:1 5031:1 10011:1 15006:1 
-0.25235959374059557802638664725237 2275:1 5031:1 10011:1 15006:1 
-0.25235959374059557802638664725237 3120:1 5031:1 10011:1 15006:1 
-0.25235959374059557802638664725237 1952:1 5031:1 10011:1 15006:1 
0.90808278527546948399873372181901 11:1 7346:1 12346:1 15986:1 
-0.25235959374059557802638664725237 19:1 5011:1 11724:1 15002:1 
-0.25235959374059557802638664725237 21:1 5258:1 10043:1 15002:1 
-0.14499781617802942612627248308854 19:1 5011:1 10217:1 15032:1 
-0.25235959374059557802638664725237 19:1 5011:1 10228:1 15032:1 
2.0365209517526943194809518900001 27:1 5949:1 10949:1 15006:1 
-0.071407491461940572619049305558292 1205:1 7596:1 10001:1 15004:1 
-0.015956190874336185353543626774808 22:1 8101:1 13121:1 15004:1 
0.73329147500840008433442562818527 4899:1 5360:1 10011:1 15037:1 
2.4987563914655543939602466707584 2838:1 5011:1 10075:1 15257:1 
-0.25235959374059557802638664725237 25:1 5901:1 11116:1 15004:1 
-0.16823188146128162379078219146322 18:1 5901:1 13259:1 17354:1 
-0.25235959374059557802638664725237 11:1 7472:1 10039:1 15004:1 
1.8663541114425072908744596134056 19:1 5011:1 10011:1 15032:1 
-0.25235959374059557802638664725237 23:1 5011:1 10011:1 15469:1 
-0.10976314463783942709795837799902 6:1 6875:1 10011:1 15023:1 
-0.25235959374059557802638664725237 18:1 5355:1 10011:1 15027:1 
-0.25235959374059557802638664725237 10:1 5830:1 10325:1 15004:1 
-0.25235959374059557802638664725237 21:1 8708:1 10031:1 15047:1 
-0.12420036231013352467922317146076 94:1 7819:1 10627:1 15302:1 
-0.25235959374059557802638664725237 19:1 5011:1 10011:1 15023:1 
-0.25235959374059557802638664725237 19:1 5011:1 10011:1 15023:1 
-0.25235959374059557802638664725237 19:1 5011:1 10011:1 15023:1 
-0.039120580435047139222781709122501 20:1 5011:1 10026:1 15002:1 
-0.25235959374059557802638664725237 18:1 5473:1 10481:1 15006:1 
-0.25235959374059557802638664725237 18:1 6584:1 10668:1 15006:1 
-0.22370072059553691712352474496583 110:1 5047:1 10607:1 15248:1 
-0.25235959374059557802638664725237 853:1 5294:1 11177:1 15055:1 
-0.25235959374059557802638664725237 21:1 5011:1 10011:1 15329:1 
-0.25235959374059557802638664725237 21:1 5011:1 10011:1 15416:1 
-0.25235959374059557802638664725237 21:1 5011:1 10011:1 15059:1 
-0.25235959374059557802638664725237 19:1 6467:1 10655:1 15006:1 
0.71806775919262111340657384062069 21:1 5345:1 10345:1 15322:1 
0.76657602795182033794674225646304 21:1 6794:1 11794:1 15434:1 
0.41589891010534241200247151937219 21:1 6239:1 11239:1 16635:1 
-0.016832967920234719050309735166593 848:1 6384:1 11262:1 17360:1 
-0.044643115634185465134819992272242 518:1 5403:1 10096:1 15514:1 
-0.25235959374059557802638664725237 4:1 5011:1 10011:1 15004:1 
-0.25235959374059557802638664725237 4:1 5011:1 10011:1 15004:1 
-0.25235959374059557802638664725237 4:1 5011:1 10011:1 15004:1 
-0.25235959374059557802638664725237 4:1 5011:1 10011:1 15004:1 
-0.25235959374059557802638664725237 18:1 6439:1 10041:1 15037:1 
-0.25235959374059557802638664725237 18:1 6278:1 10041:1 18417:1 
-0.25235959374059557802638664725237 18:1 6278:1 10041:1 18417:1 
-0.25235959374059557802638664725237 23:1 5011:1 10011:1 19347:1 
-0.25235959374059557802638664725237 23:1 5011:1 10011:1 15490:1 
-0.25235959374059557802638664725237 23:1 5011:1 10011:1 15674:1 
-0.25235959374059557802638664725237 23:1 5011:1 10011:1 15719:1 
-0.25235959374059557802638664725237 23:1 5011:1 10011:1 15173:1 
-0.0022478603674993859196096224195571 3613:1 5011:1 12692:1 15801:1 
-0.14759090030758842404523534241889 18:1 5797:1 10377:1 15027:1 
-0.25235959374059557802638664725237 45:1 5517:1 10011:1 15006:1 
-0.25235959374059557802638664725237 18:1 5057:1 10059:1 15020:1 
-0.25235959374059557802638664725237 4:1 5011:1 10059:1 15020:1 
-0.25235959374059557802638664725237 36:1 6276:1 10001:1 15020:1 
0.40603993884475370057529630685167 19:1 6140:1 11140:1 16847:1 
-0.25235959374059557802638664725237 2:1 5409:1 10073:1 15003:1 
-0.25235959374059557802638664725237 23:1 5011:1 10011:1 15191:1 
-0.25235959374059557802638664725237 23:1 5011:1 10011:1 15678:1 
