SVM-light Version V5.00
0 # kernel type
3 # kernel parameter -d 
1 # kernel parameter -g 
1 # kernel parameter -s 
1 # kernel parameter -r 
empty# kernel parameter -u 
15002 # highest feature index 
117693 # number of training documents 
12978 # number of support vectors plus 1 
-0.59467023 # threshold b, each following line is a SV (starting with alpha*y)
-0.068475975071816783112943483047275 1:3 2266:1 5050:1 11832:1 
-0.068475975071816783112943483047275 1:4 2005:1 5651:1 10005:1 10042:1 
0.41241019128134343008085238579952 1:3 1945:1 5056:1 10003:1 
-0.068475975071816783112943483047275 1:4 637:1 5062:1 10059:1 10080:1 
-0.068475975071816783112943483047275 1:4 374:1 5044:1 10003:1 10052:1 
-0.030837970412026023681040243218376 1:2 222:1 9682:1 
0.4434893135354029958250521303853 1:3 1944:1 5032:1 10031:1 
0.68475975071816785888501044610166 1:6 1048:1 6631:1 10041:1 10052:1 10089:1 10897:1 
0.2814899880581335223084238350566 1:2 494:1 5003:1 
-0.068475975071816783112943483047275 1:1 494:1 5494:1 
-0.068475975071816783112943483047275 1:1 494:1 5494:1 
-0.068475975071816783112943483047275 1:1 1631:1 6631:1 
-0.068475975071816783112943483047275 1:1 1048:1 6048:1 
-0.068475975071816783112943483047275 1:1 1048:1 6048:1 
-0.068475975071816783112943483047275 1:1 1631:1 6631:1 
0.22599263335943545194517412255664 1:8 919:1 5041:1 10003:1 10038:1 10099:1 10105:1 10933:1 13913:1 
0.22599579317197709960041152044141 1:8 919:1 5041:1 10003:1 10038:1 10099:1 10105:1 10933:1 13913:1 
-0.068475975071816783112943483047275 1:4 112:1 5032:1 10423:1 10968:1 
0.68475975071816785888501044610166 1:1 13:1 5013:1 
0.68475975071816785888501044610166 1:1 13:1 5013:1 
0.33777528380582816369681609103282 1:1 2619:1 7619:1 
0.39094330199921206725477418331138 1:1 2823:1 7823:1 
0.68251040159935683071523726539453 1:1 1688:1 6688:1 
-0.068475975071816783112943483047275 1:1 32:1 5032:1 
-0.068475975071816783112943483047275 1:1 1631:1 6631:1 
0.12768071967252117571156588837766 1:8 330:1 5038:1 10026:1 10032:1 10094:1 10292:1 12033:1 12878:1 
0.68475975071816785888501044610166 1:7 2391:1 5013:1 10003:1 10042:1 10096:1 10562:1 11285:1 
0.68475975071816785888501044610166 1:7 738:1 5096:1 10003:1 10021:1 10032:1 10610:1 13611:1 
-0.068475975071816783112943483047275 1:1 613:1 5613:1 
0.68475975071816785888501044610166 1:1 2212:1 7212:1 
0.27548220940394918532234669328318 1:1 1015:1 6015:1 
0.47404931883508860668285933570587 1:1 183:1 5183:1 
0.68475975071816785888501044610166 1:1 3433:1 8433:1 
0.6220417340893201751939045607287 1:1 4238:1 9238:1 
-0.068475975071816783112943483047275 1:1 1631:1 6631:1 
-0.068475975071816783112943483047275 1:3 273:1 5128:1 10003:1 
0.3957882441349245272732559897122 1:1 776:1 5776:1 
0.39578824328985651170853543590056 1:1 776:1 5776:1 
0.3468782357032423879772409236466 1:1 721:1 5721:1 
-0.068475975071816783112943483047275 1:2 13:1 5112:1 
0.58776706132742806421020986817894 1:1 3674:1 8674:1 
-0.068475975071816783112943483047275 1:1 13:1 5013:1 
-0.068475975071816783112943483047275 1:1 13:1 5013:1 
-0.068475975071816783112943483047275 1:1 13:1 5013:1 
-0.068475975071816783112943483047275 1:1 13:1 5013:1 
-0.068475975071816783112943483047275 1:1 13:1 5013:1 
-0.068475975071816783112943483047275 1:1 13:1 5013:1 
-0.068475975071816783112943483047275 1:1 888:1 5888:1 
0.28880663288306779312719640984142 1:2 50:1 5451:1 
0.68475975071816785888501044610166 1:1 13:1 5013:1 
0.68475975071816785888501044610166 1:1 13:1 5013:1 
0.68475975071816785888501044610166 1:1 13:1 5013:1 
0.68475975071816785888501044610166 1:8 13:1 5041:1 10004:1 10005:1 10013:1 11956:1 12530:1 
-0.068475975071816783112943483047275 1:1 1921:1 6921:1 
0.26789989330995744865049346117303 1:2 3075:1 5013:1 
0.01682002746077117943945822275964 1:1 1286:1 6286:1 
0.016820027486854349785261319993879 1:1 1286:1 6286:1 
0.68475975071816785888501044610166 1:1 845:1 5845:1 
0.016820027601671817818473897432341 1:1 1286:1 6286:1 
0.68475975071816785888501044610166 1:1 3012:1 8012:1 
0.68475975071816785888501044610166 1:1 3094:1 8094:1 
0.61757006759489696534615177370142 1:1 618:1 5618:1 
0.61909365858289022721550054484396 1:1 618:1 5618:1 
0.20509182725951449755008582087612 1:1 547:1 5547:1 
0.20508408873679914719012629120698 1:1 547:1 5547:1 
-0.068475975071816783112943483047275 1:1 96:1 5096:1 
-0.068475975071816783112943483047275 1:1 96:1 5096:1 
-0.068475975071816783112943483047275 1:1 96:1 5096:1 
-0.068475975071816783112943483047275 1:1 96:1 5096:1 
-0.068475975071816783112943483047275 1:1 96:1 5096:1 
0.31022721130863301075564208986179 1:1 4226:1 9226:1 
0.24762484843434368064762907124532 1:1 1438:1 6438:1 
0.34441071143848750457649998679699 1:1 1176:1 6176:1 
0.24762481386046539255652021438436 1:1 1438:1 6438:1 
0.34443744731153042026861044178077 1:1 1176:1 6176:1 
-0.068475975071816783112943483047275 1:1 38:1 5038:1 
-0.068475975071816783112943483047275 1:1 38:1 5038:1 
-0.068475975071816783112943483047275 1:1 38:1 5038:1 
-0.068475975071816783112943483047275 1:1 38:1 5038:1 
-0.068475975071816783112943483047275 1:1 721:1 5721:1 
0.3099952967253395419433559254685 1:1 4955:1 9955:1 
0.30999530588149221133065225330938 1:1 4955:1 9955:1 
0.48714360648521143337674743634125 1:1 701:1 5701:1 
0.4871436065554571870350741846778 1:1 701:1 5701:1 
-0.068475975071816783112943483047275 1:1 1286:1 6286:1 
-0.068475975071816783112943483047275 1:1 3012:1 8012:1 
-0.068475975071816783112943483047275 1:1 547:1 5547:1 
-0.068475975071816783112943483047275 1:1 547:1 5547:1 
-0.068475975071816783112943483047275 1:1 618:1 5618:1 
0.32000247202843962179841241777467 1:1 593:1 5593:1 
0.3200024729325880445962582143693 1:1 593:1 5593:1 
0.61978900053655783253248046094086 1:1 4520:1 9520:1 
0.68475975071816785888501044610166 1:1 680:1 5680:1 
0.31996611908171307403492278353951 1:1 593:1 5593:1 
-0.068475975071816783112943483047275 1:1 3094:1 8094:1 
-0.068475975071816783112943483047275 1:1 3094:1 8094:1 
-0.068475975071816783112943483047275 1:1 3094:1 8094:1 
-0.068475975071816783112943483047275 1:1 2823:1 7823:1 
-0.068475975071816783112943483047275 1:1 1263:1 6263:1 
0.6198211711533655465800052297709 1:1 3562:1 8562:1 
0.20242538409752333650182265500916 1:1 913:1 5913:1 
0.20242540309769260775674126762169 1:1 913:1 5913:1 
-0.068475975071816783112943483047275 1:4 1048:1 5041:1 10089:1 10897:1 
-0.068475975071816783112943483047275 1:3 487:1 5041:1 10032:1 
-0.068475975071816783112943483047275 1:4 738:1 5032:1 10610:1 13611:1 
-0.068475975071816783112943483047275 1:4 111:1 5041:1 10089:1 10897:1 
0.27446407057353000569221990190272 1:2 44:1 5050:1 
-0.068475975071816783112943483047275 1:1 13:1 5013:1 
-0.068475975071816783112943483047275 1:1 13:1 5013:1 
-0.068475975071816783112943483047275 1:6 2391:1 5042:1 10003:1 10096:1 10562:1 11285:1 
-0.068475975071816783112943483047275 1:5 1048:1 5052:1 10041:1 10089:1 10897:1 
-0.068475975071816783112943483047275 1:5 2391:1 6285:1 10003:1 10096:1 10562:1 
-0.068475975071816783112943483047275 1:1 13:1 5013:1 
-0.068475975071816783112943483047275 1:1 13:1 5013:1 
-0.068475975071816783112943483047275 1:1 13:1 5013:1 
-0.068475975071816783112943483047275 1:5 450:1 5003:1 10005:1 10026:1 10032:1 
-0.068475975071816783112943483047275 1:5 3611:1 5003:1 10021:1 10032:1 10610:1 
0.28663896384636067260487379826372 1:1 718:1 5718:1 
0.28663896426266305406116430276597 1:1 718:1 5718:1 
0.28663896387431664347644755252986 1:1 718:1 5718:1 
0.68475975071816785888501044610166 1:1 1383:1 6383:1 
0.68475975071816785888501044610166 1:1 1244:1 6244:1 
-0.068475975071816783112943483047275 1:1 468:1 5468:1 
-0.068475975071816783112943483047275 1:1 468:1 5468:1 
-0.068475975071816783112943483047275 1:1 468:1 5468:1 
-0.068475975071816783112943483047275 1:1 468:1 5468:1 
-0.068475975071816783112943483047275 1:1 468:1 5468:1 
-0.054158805171839054237725719076479 1:2 2454:1 5042:1 
-0.062280857148104933063148536120934 1:2 1449:1 
-0.005026512124259554376015657339849 1:2 509:1 7455:1 
0.29441952271660865037006260536145 1:1 450:1 5450:1 
0.29441952274618360396729599415266 1:1 450:1 5450:1 
0.29441954699618788637849320366513 1:1 450:1 5450:1 
0.29441954697692174214296301215654 1:1 450:1 5450:1 
0.29441952210946936707713916803186 1:1 450:1 5450:1 
-0.068475975071816783112943483047275 1:5 860:1 5041:1 10089:1 10111:1 10897:1 
-0.068475975071816783112943483047275 1:4 31:1 5041:1 10038:1 10099:1 
0.68475975071816785888501044610166 1:1 3242:1 8242:1 
0.35660482144590749387091932476324 1:1 888:1 5888:1 
0.51766614877854710830007434196887 1:1 2043:1 7043:1 
0.35660483640600471044734831593814 1:1 888:1 5888:1 
0.35660483640600476595849954719597 1:1 888:1 5888:1 
-0.068475975071816783112943483047275 1:1 13:1 5013:1 
-0.068475975071816783112943483047275 1:4 920:1 5041:1 10041:1 10637:1 
-0.068475975071816783112943483047275 1:4 123:1 5041:1 10022:1 10041:1 
-0.068475975071816783112943483047275 1:3 450:1 5041:1 10005:1 
-0.068475975071816783112943483047275 1:3 13:1 5041:1 11956:1 
0.27032193716986030462834378340631 1:1 2333:1 7333:1 
0.27032463938189682517432288477721 1:1 2333:1 7333:1 
0.27032160198630916791984191149822 1:1 2333:1 7333:1 
0.61979642957906455613681373506552 1:1 4993:1 9993:1 
0.19501883122088270461347292439314 1:1 555:1 5555:1 
-0.068475975071816783112943483047275 1:1 13:1 5013:1 
-0.068475975071816783112943483047275 1:1 13:1 5013:1 
0.56801931015863693641421150459792 1:1 838:1 5838:1 
0.56801928535898327243813810127904 1:1 838:1 5838:1 
-0.068475975071816783112943483047275 1:4 562:1 5144:1 10032:1 11285:1 
-0.020776923560932483714402962959866 1:3 738:1 5610:1 13611:1 
-0.068475975071816783112943483047275 1:4 610:1 5003:1 10021:1 10032:1 
-0.068475975071816783112943483047275 1:4 24:1 5003:1 10021:1 10032:1 
-0.068475975071816783112943483047275 1:1 13:1 5013:1 
-0.068475975071816783112943483047275 1:1 13:1 5013:1 
-0.068475975071816783112943483047275 1:1 13:1 5013:1 
-0.068475975071816783112943483047275 1:1 13:1 5013:1 
-0.068475975071816783112943483047275 1:1 13:1 5013:1 
0.37272151884512111363889630410995 1:1 1763:1 6763:1 
0.61978288242042889333305311083677 1:1 3733:1 8733:1 
0.37272151886728016600969226601592 1:1 1763:1 6763:1 
0.68475975071816785888501044610166 1:1 672:1 5672:1 
0.4057998816697090394001179447514 1:1 362:1 5362:1 
0.20963324282282966293244896860415 1:1 1603:1 6603:1 
0.20977956908126024759830841048824 1:1 1603:1 6603:1 
0.20977956909112571715070316713536 1:1 1603:1 6603:1 
0.68475975071816785888501044610166 1:1 3554:1 8554:1 
0.68475975071816785888501044610166 1:1 923:1 5923:1 
0.22192292888232159620010008893587 1:1 3718:1 8718:1 
0.13100102122662449222190161890467 1:1 1837:1 6837:1 
0.13100102122067688870110657717305 1:1 1837:1 6837:1 
0.3117666856358308202779028306395 1:1 2273:1 7273:1 
0.13100065260332530159281816395378 1:1 1837:1 6837:1 
-0.068475975071816783112943483047275 1:2 208:1 5013:1 
-0.068475975071816783112943483047275 1:4 1158:1 5041:1 10031:1 10194:1 
-0.016120130723178447557097925368907 1:2 380:1 5805:1 
-0.068475975071816783112943483047275 1:3 2905:1 5032:1 10032:1 
-0.068475975071816783112943483047275 1:1 13:1 5013:1 
-0.068475975071816783112943483047275 1:1 13:1 5013:1 
-0.068475975071816783112943483047275 1:1 13:1 5013:1 
-0.068475975071816783112943483047275 1:1 13:1 5013:1 
-0.068475975071816783112943483047275 1:4 2900:1 5715:1 10032:1 10089:1 
-0.068475975071816783112943483047275 1:3 1901:1 5032:1 10032:1 
-0.068475975071816783112943483047275 1:3 93:1 5032:1 10032:1 
0.68475975071816785888501044610166 1:1 1558:1 6558:1 
-0.049761558683529709401494045550862 1:2 317:1 5037:1 
0.3304767308366073907954785227048 1:1 249:1 5249:1 
0.33047660714524101921441001650237 1:1 249:1 5249:1 
0.33047638827720604570714613146265 1:1 249:1 5249:1 
-0.051966986245549191825165991076574 1:2 738:1 6170:1 
-0.068475975071816783112943483047275 1:2 738:1 8611:1 
-0.051966986808868242952996752137551 1:2 738:1 6170:1 
0.13765775350514930508438737888355 1:1 1140:1 6140:1 
0.13765775673974478543470922886627 1:1 1140:1 6140:1 
0.13765775352332645931063836997055 1:1 1140:1 6140:1 
0.13765759526709214766171385235793 1:1 1140:1 6140:1 
0.13765775356736409396063436361146 1:1 1140:1 6140:1 
-0.068475975071816783112943483047275 1:4 24:1 5003:1 10021:1 10032:1 
-0.068475975071816783112943483047275 1:4 24:1 5003:1 10021:1 10032:1 
0.68475975071816785888501044610166 1:1 3147:1 8147:1 
0.22660080371951954458786815393978 1:1 2920:1 7920:1 
0.22660080518567901619597648732451 1:1 2920:1 7920:1 
0.65403776778511080181033321423456 1:1 3086:1 8086:1 
0.58554974944060567132453343219822 1:1 4828:1 9828:1 
-0.068475975071816783112943483047275 1:1 913:1 5913:1 
0.1582759503928691802165928947943 1:1 1152:1 6152:1 
0.15827595477733855111601712906122 1:1 1152:1 6152:1 
0.15827595412856781953436779986077 1:1 1152:1 6152:1 
0.15832571096508557539905837074912 1:1 1152:1 6152:1 
0.15834511164115688819364891060104 1:1 1152:1 6152:1 
0.61981068994128529769938040772104 1:1 4232:1 9232:1 
-0.068475975071816783112943483047275 1:2 2391:1 5378:1 
0.68475975071816785888501044610166 1:1 527:1 5527:1 
0.68475975071816785888501044610166 1:1 527:1 5527:1 
0.62035681576596968245240759642911 1:1 803:1 5803:1 
0.30102558665041939667261772228812 1:1 4247:1 9247:1 
-0.068475975071816783112943483047275 1:1 13:1 5013:1 
-0.068475975071816783112943483047275 1:1 13:1 5013:1 
-0.068475975071816783112943483047275 1:1 13:1 5013:1 
-0.068475975071816783112943483047275 1:1 13:1 5013:1 
-0.068475975071816783112943483047275 1:1 13:1 5013:1 
0.20243401144592670926058985969576 1:1 913:1 5913:1 
0.20255436395238149427378004929778 1:1 913:1 5913:1 
0.2025543639718229427248985530241 1:1 913:1 5913:1 
-0.068475975071816783112943483047275 1:1 13:1 5013:1 
-0.068475975071816783112943483047275 1:1 13:1 5013:1 
-0.068475975071816783112943483047275 1:1 13:1 5013:1 
-0.068475975071816783112943483047275 1:1 13:1 5013:1 
-0.068475975071816783112943483047275 1:1 13:1 5013:1 
-0.068475975071816783112943483047275 1:2 738:1 5610:1 
-0.068475975071816783112943483047275 1:3 29:1 5041:1 10031:1 
-0.068475975071816783112943483047275 1:3 194:1 5041:1 10031:1 
-0.051966741827098567041431920188188 1:2 738:1 6170:1 
-0.051966741826802553827491237825598 1:2 738:1 6170:1 
-0.068475975071816783112943483047275 1:1 13:1 5013:1 
-0.068475975071816783112943483047275 1:1 13:1 5013:1 
-0.068475975071816783112943483047275 1:1 13:1 5013:1 
-0.068475975071816783112943483047275 1:1 13:1 5013:1 
-0.068475975071816783112943483047275 1:1 13:1 5013:1 
-0.068475975071816783112943483047275 1:3 13:1 5041:1 10105:1 
-0.068475975071816783112943483047275 1:3 13:1 5041:1 10005:1 
-0.068475975071816783112943483047275 1:3 767:1 5032:1 10032:1 
-0.068475975071816783112943483047275 1:3 22:1 5032:1 10032:1 
-0.068475975071816783112943483047275 1:3 1735:1 5032:1 10032:1 
-0.068475975071816783112943483047275 1:3 1391:1 5032:1 10032:1 
-0.068475975071816783112943483047275 1:1 13:1 5013:1 
-0.068475975071816783112943483047275 1:1 13:1 5013:1 
-0.068475975071816783112943483047275 1:1 13:1 5013:1 
-0.068475975071816783112943483047275 1:1 13:1 5013:1 
-0.068475975071816783112943483047275 1:1 13:1 5013:1 
-0.068475975071816783112943483047275 1:1 13:1 5013:1 
-0.068475975071816783112943483047275 1:3 815:1 5041:1 10005:1 
-0.068475975071816783112943483047275 1:3 815:1 5041:1 10005:1 
-0.068475975071816783112943483047275 1:1 13:1 5013:1 
-0.068475975071816783112943483047275 1:1 13:1 5013:1 
-0.068475975071816783112943483047275 1:1 13:1 5013:1 
-0.068475975071816783112943483047275 1:1 13:1 5013:1 
-0.068475975071816783112943483047275 1:1 13:1 5013:1 
-0.068475975071816783112943483047275 1:1 13:1 5013:1 
-0.068475975071816783112943483047275 1:1 13:1 5013:1 
-0.068475975071816783112943483047275 1:1 13:1 5013:1 
-0.068475975071816783112943483047275 1:1 13:1 5013:1 
-0.068475975071816783112943483047275 1:1 13:1 5013:1 
-0.068475975071816783112943483047275 1:1 13:1 5013:1 
-0.068475975071816783112943483047275 1:1 13:1 5013:1 
-0.068475975071816783112943483047275 1:1 13:1 5013:1 
-0.068475975071816783112943483047275 1:1 13:1 5013:1 
-0.068475975071816783112943483047275 1:1 13:1 5013:1 
-0.068475975071816783112943483047275 1:1 13:1 5013:1 
-0.068475975071816783112943483047275 1:1 13:1 5013:1 
-0.068475975071816783112943483047275 1:3 846:1 5041:1 10105:1 
-0.068475975071816783112943483047275 1:3 846:1 5041:1 10105:1 
-0.068475975071816783112943483047275 1:3 846:1 5041:1 10105:1 
-0.068475975071816783112943483047275 1:3 99:1 5041:1 10038:1 
-0.068475975071816783112943483047275 1:2 1152:1 5041:1 
-0.051966741826900413048218041467408 1:2 738:1 6170:1 
-0.068475975071816783112943483047275 1:3 1285:1 5003:1 10032:1 
-0.068475975071816783112943483047275 1:3 202:1 5003:1 10032:1 
-0.068475975071816783112943483047275 1:3 202:1 5003:1 10032:1 
-0.068475975071816783112943483047275 1:3 26:1 5003:1 10032:1 
-0.068475975071816783112943483047275 1:1 13:1 5013:1 
-0.068475975071816783112943483047275 1:1 13:1 5013:1 
-0.068475975071816783112943483047275 1:1 13:1 5013:1 
-0.068475975071816783112943483047275 1:1 13:1 5013:1 
-0.068475975071816783112943483047275 1:3 22:1 5041:1 10041:1 
-0.068475975071816783112943483047275 1:3 402:1 5041:1 10021:1 
-0.068475975071816783112943483047275 1:3 897:1 5041:1 10089:1 
-0.068475975071816783112943483047275 1:3 897:1 5041:1 10089:1 
-0.068475975071816783112943483047275 1:3 20:1 5041:1 10031:1 
-0.068475975071816783112943483047275 1:4 1024:1 5298:1 10041:1 12054:1 
-0.068475975071816783112943483047275 1:2 13:1 5580:1 
-0.068475975071816783112943483047275 1:1 56:1 5056:1 
-0.03986620423141277319567521431054 1:5 396:1 6399:1 10038:1 10054:1 10274:1 
-0.068475975071816783112943483047275 1:3 52:1 7206:1 10100:1 
0.68475975071816785888501044610166 1:4 202:1 5013:1 10032:1 13770:1 
-0.068475975071816783112943483047275 1:1 183:1 5183:1 
-0.068475975071816783112943483047275 1:1 183:1 5183:1 
-0.068475975071816783112943483047275 1:1 838:1 5838:1 
-0.068475975071816783112943483047275 1:1 838:1 5838:1 
-0.068475975071816783112943483047275 1:1 838:1 5838:1 
-0.068475975071816783112943483047275 1:1 888:1 5888:1 
-0.068475975071816783112943483047275 1:2 810:1 5527:1 
-0.068475975071816783112943483047275 1:1 625:1 5625:1 
-0.068475975071816783112943483047275 1:2 13:1 5056:1 
0.35943220943485010288043213222409 1:2 13:1 5041:1 
0.39513083754252781298887953198573 1:2 13:1 5041:1 
0.39513144701493219113075383575051 1:2 13:1 5041:1 
0.39513080587970922374907445373537 1:2 13:1 5041:1 
-0.068475975071816783112943483047275 1:1 450:1 5450:1 
-0.068475975071816783112943483047275 1:1 450:1 5450:1 
-0.068475975071816783112943483047275 1:1 450:1 5450:1 
-0.068475975071816783112943483047275 1:1 450:1 5450:1 
-0.068475975071816783112943483047275 1:1 450:1 5450:1 
-0.068475975071816783112943483047275 1:7 2878:1 5038:1 10026:1 10032:1 10094:1 10292:1 12033:1 
-0.068475975071816783112943483047275 1:2 13:1 5130:1 
-0.068475975071816783112943483047275 1:3 652:1 6158:1 10003:1 
0.027611531255474851265230284980134 1:1 468:1 5468:1 
0.027874575319672734857734397451168 1:1 468:1 5468:1 
0.027874574929035684373035408611941 1:1 468:1 5468:1 
0.027874575467363403580289826777516 1:1 468:1 5468:1 
-0.068475975071816783112943483047275 1:1 249:1 5249:1 
-0.068475975071816783112943483047275 1:1 249:1 5249:1 
-0.068475975071816783112943483047275 1:1 249:1 5249:1 
-0.068475975071816783112943483047275 1:1 1558:1 6558:1 
-0.068475975071816783112943483047275 1:1 1558:1 6558:1 
0.68475975071816785888501044610166 1:6 3177:1 5013:1 10026:1 10032:1 11127:1 12704:1 
-0.068475975071816783112943483047275 1:7 2696:1 5032:1 10003:1 10044:1 11147:1 11526:1 12890:1 
-0.068475975071816783112943483047275 1:1 3433:1 8433:1 
-0.068475975071816783112943483047275 1:1 2212:1 7212:1 
-0.068475975071816783112943483047275 1:1 2212:1 7212:1 
-0.068475975071816783112943483047275 1:1 527:1 5527:1 
-0.068475975071816783112943483047275 1:1 527:1 5527:1 
0.54626654039374877847023981303209 1:6 3:1 5032:1 10044:1 11147:1 11526:1 12890:1 
-0.068475975071816783112943483047275 1:3 652:1 7114:1 10003:1 
0.027611531727819035864079921793746 1:1 468:1 5468:1 
-0.068475975071816783112943483047275 1:1 721:1 5721:1 
-0.068475975071816783112943483047275 1:1 721:1 5721:1 
-0.068475975071816783112943483047275 1:1 888:1 5888:1 
0.61197432541818308493475342402235 1:5 1798:1 5041:1 10004:1 10005:1 10815:1 
-0.068475975071816783112943483047275 1:3 1323:1 5528:1 10121:1 
-0.011041538667672112089546132551732 1:4 58:1 5003:1 10003:1 10004:1 
-0.068475975071816783112943483047275 1:1 1798:1 6798:1 
-0.068475975071816783112943483047275 1:1 1798:1 6798:1 
-0.068475975071816783112943483047275 1:1 2043:1 7043:1 
0.10980569392203450018730137571765 1:1 815:1 5815:1 
0.10980569387376902523723032345515 1:1 815:1 5815:1 
-0.068475975071816783112943483047275 1:1 1244:1 6244:1 
-0.068475975071816783112943483047275 1:1 1244:1 6244:1 
0.68475975071816785888501044610166 1:4 387:1 5003:1 10200:1 10787:1 
-0.068475975071816783112943483047275 1:1 56:1 5056:1 
0.68475975071816785888501044610166 1:2 13:1 5052:1 
-0.068475975071816783112943483047275 1:4 181:1 5003:1 10032:1 10111:1 
-0.0037907628208847963732774921652435 1:2 2693:1 5347:1 
-0.013404675214822078105347813448134 1:2 1598:1 5606:1 
-0.0054821908251047324345250899568782 1:2 801:1 6200:1 
-0.0036940018980953018279400623669062 1:2 1095:1 7135:1 
-2.9081935482407956410424998416886e-07 1:2 1174:1 8813:1 
0.68475975071816785888501044610166 1:5 59:1 5013:1 10013:1 10062:1 10080:1 
0.68475975071816785888501044610166 1:5 156:1 5003:1 10013:1 10026:1 10032:1 
-0.068475975071816783112943483047275 1:1 13:1 5013:1 
-0.068475975071816783112943483047275 1:1 546:1 5546:1 
0.10980569329407138812193522880989 1:1 815:1 5815:1 
0.10980552501584446567495234603484 1:1 815:1 5815:1 
0.10980552502876830822664544484724 1:1 815:1 5815:1 
-0.068475975071816783112943483047275 1:2 1944:1 5031:1 
-0.068475975071816783112943483047275 1:2 1944:1 5031:1 
-0.068475975071816783112943483047275 1:2 1944:1 5031:1 
0.68475975071816785888501044610166 1:5 281:1 5041:1 10003:1 10044:1 10108:1 
0.68475975071816785888501044610166 1:8 3249:1 5732:1 10004:1 10005:1 10243:1 11030:1 11553:1 13465:1 
-0.068475975071816783112943483047275 1:2 13:1 6819:1 
-0.068475975071816783112943483047275 1:1 281:1 5281:1 
-0.068475975071816783112943483047275 1:1 718:1 5718:1 
-0.068475975071816783112943483047275 1:1 718:1 5718:1 
-0.068475975071816783112943483047275 1:1 2333:1 7333:1 
-0.068475975071816783112943483047275 1:1 2333:1 7333:1 
0.68475975071816785888501044610166 1:5 228:1 5032:1 10053:1 10065:1 11662:1 
0.29613777747430508613390998107207 1:2 38:1 5181:1 
-0.068475975071816783112943483047275 1:1 228:1 5228:1 
-0.068475975071816783112943483047275 1:1 555:1 5555:1 
-0.068475975071816783112943483047275 1:1 555:1 5555:1 
-0.068475975071816783112943483047275 1:1 555:1 5555:1 
-0.068475975071816783112943483047275 1:1 1763:1 6763:1 
0.68475975071816785888501044610166 1:5 154:1 5003:1 10032:1 10301:1 10302:1 
-0.0609666557585195056923055290099 1:2 6280:1 
-0.068475975071816783112943483047275 1:2 13:1 8972:1 
-0.068475975071816783112943483047275 1:3 1653:1 5032:1 10116:1 
-0.068475975071816783112943483047275 1:5 253:1 5050:1 10028:1 10032:1 10056:1 
-0.068475975071816783112943483047275 1:1 1149:1 6149:1 
0.68475975071816785888501044610166 1:2 13:1 5052:1 
-0.068475975071816783112943483047275 1:4 13:1 5044:1 10052:1 10154:1 
-0.030510592379066874685333843331136 1:2 2533:1 7564:1 
-0.068475975071816783112943483047275 1:1 154:1 5154:1 
-0.068475975071816783112943483047275 1:1 154:1 5154:1 
-0.068475975071816783112943483047275 1:1 362:1 5362:1 
-0.068475975071816783112943483047275 1:1 362:1 5362:1 
-0.068475975071816783112943483047275 1:1 362:1 5362:1 
-0.068475975071816783112943483047275 1:3 43:1 5837:1 10003:1 
-0.068475975071816783112943483047275 1:7 13:1 5052:1 10003:1 10004:1 10038:1 10224:1 14427:1 
0.68475975071816785888501044610166 1:2 24:1 5044:1 
0.68475975071816785888501044610166 1:2 24:1 5044:1 
0.68475975071816785888501044610166 1:2 24:1 5044:1 
0.68475975071816785888501044610166 1:2 24:1 5044:1 
0.68475975071816785888501044610166 1:2 24:1 5044:1 
-0.068475975071816783112943483047275 1:1 672:1 5672:1 
-0.068475975071816783112943483047275 1:1 672:1 5672:1 
-0.068475975071816783112943483047275 1:1 672:1 5672:1 
-0.068475975071816783112943483047275 1:1 672:1 5672:1 
-0.068475975071816783112943483047275 1:1 618:1 5618:1 
-0.068475975071816783112943483047275 1:4 955:1 5032:1 10026:1 11025:1 
-0.068475975071816783112943483047275 1:6 2033:1 5038:1 10026:1 10032:1 10094:1 10292:1 
-0.068475975071816783112943483047275 1:5 3177:1 5032:1 10026:1 11127:1 12704:1 
-0.068475975071816783112943483047275 1:3 607:1 5037:1 10105:1 
-0.068475975071816783112943483047275 1:6 919:1 5032:1 10026:1 10038:1 10099:1 10105:1 
0.68475975071816785888501044610166 1:2 13:1 5024:1 
-0.068475975071816783112943483047275 1:4 73:1 5003:1 10013:1 11490:1 
-0.068475975071816783112943483047275 1:1 547:1 5547:1 
0.68475975071816785888501044610166 1:9 330:1 5468:1 10003:1 10004:1 10005:1 10029:1 10108:1 10215:1 10682:1 
-0.068475975071816783112943483047275 1:3 3133:1 5013:1 10294:1 
-0.068475975071816783112943483047275 1:2 704:1 5032:1 
-0.068475975071816783112943483047275 1:2 312:1 5109:1 
0.68475975071816785888501044610166 1:2 38:1 5394:1 
0.68475975071816785888501044610166 1:2 38:1 5394:1 
0.68475975071816785888501044610166 1:2 38:1 5598:1 
0.68475975071816785888501044610166 1:2 38:1 5394:1 
0.68475975071816785888501044610166 1:2 38:1 5181:1 
-0.068475975071816783112943483047275 1:1 394:1 5394:1 
-0.068475975071816783112943483047275 1:1 394:1 5394:1 
-0.068475975071816783112943483047275 1:1 394:1 5394:1 
-0.068475975071816783112943483047275 1:1 394:1 5394:1 
-0.068475975071816783112943483047275 1:1 394:1 5394:1 
-0.068475975071816783112943483047275 1:2 91:1 5032:1 
-0.068475975071816783112943483047275 1:4 59:1 5456:1 10003:1 10043:1 
-0.068475975071816783112943483047275 1:4 93:1 5044:1 10003:1 10052:1 
-0.068475975071816783112943483047275 1:4 32:1 5013:1 10003:1 10004:1 
0.68475975071816785888501044610166 1:2 24:1 5044:1 
-0.068475975071816783112943483047275 1:7 396:1 5148:1 10038:1 10041:1 10044:1 10099:1 10224:1 
-0.030634133782558681940999534276671 1:2 2959:1 6704:1 
-0.0069518861398931838455061971160376 1:2 707:1 6229:1 
0.68475975071816785888501044610166 1:5 3672:1 5013:1 10038:1 11355:1 12769:1 
-0.068475975071816783112943483047275 1:3 202:1 5003:1 10032:1 
-0.068475975071816783112943483047275 1:3 202:1 5003:1 10032:1 
-0.068475975071816783112943483047275 1:3 330:1 7033:1 12878:1 
-0.068475975071816783112943483047275 1:1 1424:1 6424:1 
-0.068475975071816783112943483047275 1:1 1436:1 6436:1 
0.43828708798766452536810334095208 1:4 294:1 5032:1 10969:1 13485:1 
0.67825088244177211826979601028142 1:3 846:1 5109:1 10105:1 
0.67825088244177467178275264814147 1:3 846:1 5109:1 10105:1 
-0.068475975071816783112943483047275 1:4 919:1 5038:1 10099:1 10105:1 
-0.068475975071816783112943483047275 1:4 919:1 5038:1 10099:1 10105:1 
-0.068475975071816783112943483047275 1:4 919:1 5038:1 10099:1 10105:1 
-0.068475975071816783112943483047275 1:3 32:1 5034:1 10032:1 
0.68475975071816785888501044610166 1:3 13:1 5032:1 10013:1 
0.68475975071816785888501044610166 1:2 3:1 5032:1 
0.68475975071816785888501044610166 1:2 3:1 5032:1 
0.68475975071816785888501044610166 1:2 3:1 5032:1 
0.68475975071816785888501044610166 1:2 703:1 5032:1 
-0.068475975071816783112943483047275 1:1 1331:1 6331:1 
-0.068475975071816783112943483047275 1:6 13:1 5041:1 10004:1 10005:1 10013:1 11956:1 
-0.068475975071816783112943483047275 1:5 38:1 5041:1 10003:1 10933:1 13913:1 
-0.068475975071816783112943483047275 1:5 38:1 5041:1 10003:1 10933:1 13913:1 
-0.068475975071816783112943483047275 1:4 13:1 5032:1 10026:1 11956:1 
0.68475975071816785888501044610166 1:3 718:1 5013:1 10052:1 
0.38871900095517175621750993741443 1:3 1512:1 5489:1 11709:1 
-0.068475975071816783112943483047275 1:1 13:1 5013:1 
-0.068475975071816783112943483047275 1:1 13:1 5013:1 
-0.068475975071816783112943483047275 1:1 13:1 5013:1 
-0.068475975071816783112943483047275 1:2 3131:1 5024:1 
-0.068475975071816783112943483047275 1:4 355:1 5056:1 10041:1 10113:1 
-0.068475975071816783112943483047275 1:1 581:1 5581:1 
-0.068475975071816783112943483047275 1:1 181:1 5181:1 
-0.068475975071816783112943483047275 1:1 598:1 5598:1 
-0.068475975071816783112943483047275 1:1 598:1 5598:1 
-0.068475975071816783112943483047275 1:1 598:1 5598:1 
-0.068475975071816783112943483047275 1:1 598:1 5598:1 
-0.068475975071816783112943483047275 1:3 13:1 6113:1 10005:1 
-0.068475975071816783112943483047275 1:2 13:1 5760:1 
-0.068309467644136034891744202468544 1:3 85:1 5041:1 10072:1 
-0.068475975071816783112943483047275 1:3 2164:1 5898:1 10026:1 
-0.068475975071816783112943483047275 1:2 516:1 5339:1 
-0.068475975071816783112943483047275 1:1 13:1 5013:1 
-0.068475975071816783112943483047275 1:1 13:1 5013:1 
-0.068475975071816783112943483047275 1:3 308:1 5437:1 10114:1 
-0.068475975071816783112943483047275 1:4 52:1 5003:1 10012:1 10044:1 
-0.0051905028990415300743643811642869 1:6 877:1 5586:1 10003:1 10032:1 10056:1 10116:1 
0.68475975071816785888501044610166 1:1 13:1 5013:1 
0.68475975071816785888501044610166 1:1 13:1 5013:1 
0.68475975071816785888501044610166 1:1 13:1 5013:1 
0.68475975071816785888501044610166 1:1 13:1 5013:1 
0.68475975071816785888501044610166 1:1 13:1 5013:1 
-0.019415343410260674228418054099166 1:3 833:1 5176:1 12822:1 
-0.068475975071816783112943483047275 1:1 527:1 5527:1 
0.68475975071816785888501044610166 1:5 1726:1 5003:1 10101:1 10159:1 10221:1 
-0.068475975071816783112943483047275 1:4 1108:1 5062:1 10059:1 10080:1 
-0.068475975071816783112943483047275 1:1 1558:1 6558:1 
-0.068475975071816783112943483047275 1:3 32:1 5529:1 10046:1 
-0.068475975071816783112943483047275 1:1 1310:1 6310:1 
-0.01771708174413434352945095895393 1:3 4244:1 5274:1 10396:1 
-0.068475975071816783112943483047275 1:1 618:1 5618:1 
-0.068475975071816783112943483047275 1:1 618:1 5618:1 
-0.068475975071816783112943483047275 1:1 618:1 5618:1 
-0.068475975071816783112943483047275 1:1 618:1 5618:1 
-0.068475975071816783112943483047275 1:2 885:1 5024:1 
-0.068475975071816783112943483047275 1:4 4082:1 5003:1 10005:1 10108:1 
0.14419880066775889182473235905491 1:2 59:1 5525:1 
0.68475975071816785888501044610166 1:2 74:1 9839:1 
-0.011856413099074815734046417503578 1:2 4327:1 6032:1 
-0.068475975071816783112943483047275 1:3 211:1 5136:1 10005:1 
-0.068475975071816783112943483047275 1:4 330:1 5108:1 10215:1 10682:1 
-0.068475975071816783112943483047275 1:1 923:1 5923:1 
-0.068475975071816783112943483047275 1:1 923:1 5923:1 
-0.068475975071816783112943483047275 1:1 3554:1 8554:1 
-0.068475975071816783112943483047275 1:4 32:1 5187:1 10013:1 10056:1 
-0.06821248073350352769672610975249 1:2 59:1 5080:1 
-0.068475975071816783112943483047275 1:5 139:1 5032:1 10027:1 10041:1 10094:1 
0.68475975071816785888501044610166 1:2 24:1 5301:1 
-0.068475975071816783112943483047275 1:4 20:1 5032:1 10094:1 10099:1 
-0.068475975071816783112943483047275 1:4 27:1 5032:1 10041:1 10094:1 
-0.068475975071816783112943483047275 1:4 24:1 5302:1 10038:1 10099:1 
-0.068475975071816783112943483047275 1:4 911:1 5022:1 10038:1 10099:1 
-0.068475975071816783112943483047275 1:1 13:1 5013:1 
-0.068475975071816783112943483047275 1:1 13:1 5013:1 
-0.068475975071816783112943483047275 1:1 13:1 5013:1 
-0.068475975071816783112943483047275 1:1 13:1 5013:1 
-0.068475975071816783112943483047275 1:1 13:1 5013:1 
-0.068475975071816783112943483047275 1:3 154:1 5302:1 10301:1 
0.43462441546100527567375593207544 1:5 219:1 5003:1 10120:1 10437:1 10518:1 
0.43465736955575456912370668760559 1:5 219:1 5003:1 10120:1 10437:1 10518:1 
-0.068475975071816783112943483047275 1:2 330:1 6546:1 
-0.068475975071816783112943483047275 1:2 330:1 5243:1 
-0.068475975071816783112943483047275 1:2 330:1 5315:1 
-0.068475975071816783112943483047275 1:2 330:1 5682:1 
-0.068475975071816783112943483047275 1:2 330:1 6587:1 
0.68475975071816785888501044610166 1:5 258:1 5013:1 10056:1 10192:1 10233:1 
0.68475975071816785888501044610166 1:5 258:1 5013:1 10056:1 10192:1 10233:1 
-0.068475975071816783112943483047275 1:1 1767:1 6767:1 
-0.037740538912545563976497220437523 1:3 258:1 5233:1 10192:1 
-0.037740543144497915029056400726404 1:3 258:1 5233:1 10192:1 
-0.067843721250847643933212793854182 1:3 258:1 5233:1 10192:1 
-0.068167840182947581073591436506831 1:3 258:1 5233:1 10192:1 
-0.068167840182997263553943412262015 1:3 258:1 5233:1 10192:1 
0.68475975071816785888501044610166 1:4 13:1 5062:1 10059:1 10080:1 
0.68475975071816785888501044610166 1:4 13:1 5062:1 10059:1 10080:1 
0.68475975071816785888501044610166 1:2 13:1 5240:1 
0.68475975071816785888501044610166 1:2 13:1 5240:1 
0.68475975071816785888501044610166 1:4 13:1 5200:1 10201:1 10228:1 
-0.068475975071816783112943483047275 1:3 13:1 5569:1 10094:1 
-0.068475975071816783112943483047275 1:3 219:1 5437:1 10518:1 
-0.068475975071816783112943483047275 1:3 219:1 5437:1 10518:1 
-0.068475975071816783112943483047275 1:3 219:1 5102:1 10518:1 
-0.066057818139811708135766821214929 1:4 219:1 5036:1 10041:1 10518:1 
0.68475975071816785888501044610166 1:4 1755:1 5041:1 10003:1 10043:1 
0.68475975071816785888501044610166 1:4 1755:1 5041:1 10003:1 10043:1 
-0.014463065920242466205758447017615 1:4 52:1 5028:1 10041:1 10191:1 
0.68475975071816785888501044610166 1:3 815:1 5092:1 12444:1 
0.68475975071816785888501044610166 1:3 815:1 5092:1 12444:1 
-0.068475975071816783112943483047275 1:2 13:1 5041:1 
-0.068475975071816783112943483047275 1:2 13:1 5041:1 
-0.068475975071816783112943483047275 1:2 13:1 5041:1 
-0.068475975071816783112943483047275 1:2 13:1 5041:1 
-0.062265566631741001146771452567918 1:2 6779:1 
0.68475975071816785888501044610166 1:4 1371:1 5032:1 11037:1 11093:1 
0.68475975071816785888501044610166 1:3 41:1 5032:1 10254:1 
0.68475975071816785888501044610166 1:3 38:1 5660:1 10181:1 
0.34795593572028804540963164981804 1:3 1331:1 5013:1 10317:1 
-0.068475975071816783112943483047275 1:3 43:1 5840:1 10003:1 
-0.068475975071816783112943483047275 1:1 1331:1 6331:1 
-0.068475975071816783112943483047275 1:1 1331:1 6331:1 
-0.068475975071816783112943483047275 1:1 1331:1 6331:1 
-0.068475975071816783112943483047275 1:1 1331:1 6331:1 
0.68475975071816785888501044610166 1:5 13:1 9155:1 10013:1 10032:1 14273:1 
0.68475975071816785888501044610166 1:5 2528:1 5056:1 10032:1 10069:1 12039:1 
-0.068475975071816783112943483047275 1:5 1295:1 6214:1 10003:1 10481:1 10756:1 
-0.068475975071816783112943483047275 1:1 150:1 5150:1 
-0.068475975071816783112943483047275 1:1 13:1 5013:1 
-0.068475975071816783112943483047275 1:1 13:1 5013:1 
-0.068475975071816783112943483047275 1:1 13:1 5013:1 
-0.068475975071816783112943483047275 1:1 13:1 5013:1 
-0.068475975071816783112943483047275 1:1 13:1 5013:1 
-0.068475975071816783112943483047275 1:3 50:1 5357:1 10048:1 
-0.068475975071816783112943483047275 1:2 156:1 5041:1 
-0.068475975071816783112943483047275 1:2 156:1 5041:1 
-0.068475975071816783112943483047275 1:2 38:1 5041:1 
-0.068475975071816783112943483047275 1:2 38:1 5041:1 
-0.068475975071816783112943483047275 1:1 62:1 5062:1 
0.68475975071816785888501044610166 1:5 330:1 5041:1 10315:1 10450:1 13540:1 
0.26789988862604735553318846541515 1:2 3075:1 5013:1 
-0.068475975071816783112943483047275 1:2 281:1 5044:1 
-0.068475975071816783112943483047275 1:2 281:1 5044:1 
-0.068475975071816783112943483047275 1:2 281:1 5044:1 
-0.068475975071816783112943483047275 1:2 281:1 5044:1 
-0.068475975071816783112943483047275 1:2 281:1 5044:1 
0.68475975071816785888501044610166 1:4 2376:1 5013:1 10003:1 12810:1 
-0.068475975071816783112943483047275 1:4 330:1 5450:1 10315:1 13540:1 
-0.068475975071816783112943483047275 1:4 39:1 5092:1 10815:1 12444:1 
-0.068475975071816783112943483047275 1:4 496:1 5041:1 10032:1 10356:1 
-0.068475975071816783112943483047275 1:4 298:1 5041:1 10032:1 10628:1 
-0.068475975071816783112943483047275 1:4 298:1 5041:1 10032:1 10628:1 
-0.015281542130652425032222296863438 1:2 3535:1 8976:1 
-0.015281540028875740047653586373144 1:2 3535:1 8976:1 
-0.068475975071816783112943483047275 1:1 13:1 5013:1 
-0.068475975071816783112943483047275 1:1 13:1 5013:1 
-0.068475975071816783112943483047275 1:1 13:1 5013:1 
-0.068475975071816783112943483047275 1:1 13:1 5013:1 
-0.068475975071816783112943483047275 1:1 13:1 5013:1 
-0.068475975071816783112943483047275 1:2 13:1 5077:1 
-0.068475975071816783112943483047275 1:6 579:1 5003:1 10003:1 10004:1 10032:1 10273:1 
0.10823507602902700253100221061686 1:5 1868:1 5003:1 10032:1 10041:1 10111:1 
-0.068475975071816783112943483047275 1:3 613:1 6685:1 10003:1 
-0.068475975071816783112943483047275 1:2 338:1 5003:1 
-0.068475975071816783112943483047275 1:2 338:1 5003:1 
-0.068475975071816783112943483047275 1:2 44:1 5321:1 
-0.068475975071816783112943483047275 1:1 56:1 5056:1 
-0.068475975071816783112943483047275 1:3 1052:1 5176:1 10405:1 
0.68475975071816785888501044610166 1:7 330:1 6526:1 10052:1 10176:1 11546:1 13557:1 14109:1 
-0.068475975071816783112943483047275 1:4 52:1 5003:1 10003:1 10044:1 
0.00079199638679761921386535128419837 1:1 13:1 5013:1 
-0.068475975071816783112943483047275 1:4 52:1 5003:1 10003:1 10044:1 
-0.068475975071816783112943483047275 1:4 52:1 5003:1 10003:1 10044:1 
-0.068475975071816783112943483047275 1:4 229:1 5003:1 10003:1 10108:1 
0.5417219801852209970505214187142 1:2 38:1 6125:1 
0.54172198169360497033153478696477 1:2 38:1 6125:1 
0.54172750072434128210119297364145 1:2 38:1 6125:1 
0.54172198162465190485193033964606 1:2 38:1 6125:1 
-0.068475975071816783112943483047275 1:1 1125:1 6125:1 
-0.068475975071816783112943483047275 1:1 1125:1 6125:1 
-0.068475975071816783112943483047275 1:1 1125:1 6125:1 
-0.068475975071816783112943483047275 1:1 1125:1 6125:1 
-0.068475975071816783112943483047275 1:1 1125:1 6125:1 
-0.068475975071816783112943483047275 1:4 62:1 5062:1 10080:1 10111:1 
-0.068475975071816783112943483047275 1:4 62:1 5062:1 10080:1 10111:1 
-0.059234896989208779549684891208017 1:4 1139:1 6835:1 10111:1 10473:1 
-0.068475975071816783112943483047275 1:3 32:1 5013:1 10004:1 
-0.068475975071816783112943483047275 1:3 32:1 5013:1 10004:1 
-0.068475975071816783112943483047275 1:3 32:1 5013:1 10004:1 
-0.068475975071816783112943483047275 1:3 519:1 5232:1 10003:1 
-0.068475975071816783112943483047275 1:3 519:1 5232:1 10003:1 
0.68475975071816785888501044610166 1:5 228:1 5452:1 10032:1 10065:1 10113:1 
0.29613855539844352593448206789617 1:2 38:1 5181:1 
0.29613869356257299658707893286191 1:2 38:1 5181:1 
-0.068475975071816783112943483047275 1:3 114:1 5003:1 10032:1 
-0.068475975071816783112943483047275 1:3 2144:1 5003:1 10032:1 
-0.068475975071816783112943483047275 1:3 254:1 5003:1 10032:1 
0.68475975071816785888501044610166 1:4 1470:1 5003:1 10202:1 10662:1 
0.68475975071816785888501044610166 1:4 338:1 5013:1 10003:1 10608:1 
0.68475975071816785888501044610166 1:4 338:1 5013:1 10003:1 10608:1 
0.68475975071816785888501044610166 1:3 13:1 5925:1 10392:1 
0.68475975071816785888501044610166 1:3 13:1 5590:1 10057:1 
-0.034476411871427845023951874736667 1:4 1030:1 5732:1 10005:1 10243:1 
-0.068475975071816783112943483047275 1:4 1726:1 5221:1 10065:1 10101:1 
-0.068475975071816783112943483047275 1:4 82:1 5109:1 10003:1 10108:1 
-0.068475975071816783112943483047275 1:4 3913:1 5041:1 10003:1 10933:1 
-0.068475975071816783112943483047275 1:4 3913:1 5041:1 10003:1 10933:1 
-0.068475975071816783112943483047275 1:1 13:1 5013:1 
-0.068475975071816783112943483047275 1:1 13:1 5013:1 
-0.068475975071816783112943483047275 1:1 13:1 5013:1 
-0.068475975071816783112943483047275 1:1 13:1 5013:1 
0.68475975071816785888501044610166 1:5 410:1 5003:1 10105:1 10500:1 11894:1 
-0.068475975071816783112943483047275 1:4 806:1 5056:1 10041:1 10446:1 
-0.068475975071816783112943483047275 1:1 13:1 5013:1 
-0.068475975071816783112943483047275 1:4 59:1 5385:1 10062:1 10080:1 
-0.068475975071816783112943483047275 1:4 1276:1 5032:1 10094:1 10202:1 
-0.068475975071816783112943483047275 1:4 2704:1 5032:1 10026:1 11127:1 
-0.068475975071816783112943483047275 1:1 13:1 5013:1 
-0.068475975071816783112943483047275 1:1 13:1 5013:1 
-0.068475975071816783112943483047275 1:1 13:1 5013:1 
-0.068475975071816783112943483047275 1:1 13:1 5013:1 
-0.068475975071816783112943483047275 1:1 13:1 5013:1 
-0.068475975071816783112943483047275 1:3 43:1 6621:1 10003:1 
-0.068475975071816783112943483047275 1:3 13:1 5094:1 10032:1 
-0.068475975071816783112943483047275 1:4 842:1 5041:1 10032:1 10487:1 
-0.068475975071816783112943483047275 1:2 281:1 5044:1 
0.68475975071816785888501044610166 1:5 842:1 5013:1 10032:1 10041:1 10487:1 
0.68475975071816785888501044610166 1:5 4179:1 5013:1 10032:1 10704:1 12721:1 
-0.068475975071816783112943483047275 1:4 1868:1 5032:1 10041:1 10111:1 
-0.031231587926478027866794562328323 1:2 1996:1 7283:1 
-0.068475975071816783112943483047275 1:4 233:1 5056:1 10030:1 10032:1 
-0.031147973623274701621133075946091 1:2 3002:1 6996:1 
-0.068475975071816783112943483047275 1:4 59:1 5107:1 10062:1 10080:1 
-0.027180681277932848549649946789941 1:2 1416:1 5034:1 
0.68475975071816785888501044610166 1:1 13:1 5013:1 
0.68475975071816785888501044610166 1:2 13:1 5052:1 
0.68475975071816785888501044610166 1:1 13:1 5013:1 
-0.068475975071816783112943483047275 1:3 302:1 5003:1 10032:1 
-0.068475975071816783112943483047275 1:3 38:1 5052:1 10003:1 
-0.068475975071816783112943483047275 1:1 13:1 5013:1 
-0.068475975071816783112943483047275 1:1 13:1 5013:1 
-0.068475975071816783112943483047275 1:1 13:1 5013:1 
-0.068475975071816783112943483047275 1:5 149:1 5003:1 10003:1 10004:1 10043:1 
0.68475975071816785888501044610166 1:4 1375:1 5032:1 10111:1 10312:1 
-0.068475975071816783112943483047275 1:4 1868:1 5032:1 10041:1 10111:1 
-0.068475975071816783112943483047275 1:3 3611:1 5032:1 10610:1 
-0.068475975071816783112943483047275 1:3 1375:1 5111:1 10312:1 
-0.068475975071816783112943483047275 1:4 2881:1 5590:1 10057:1 10111:1 
-0.068475975071816783112943483047275 1:1 13:1 5013:1 
-0.068475975071816783112943483047275 1:1 13:1 5013:1 
0.028447049260764727812711427645809 1:4 1694:1 5003:1 10378:1 12499:1 
-0.068475975071816783112943483047275 1:7 32:1 5003:1 10003:1 10004:1 10181:1 10278:1 12001:1 
-0.068475975071816783112943483047275 1:3 1694:1 7499:1 10378:1 
-0.068475975071816783112943483047275 1:3 945:1 5003:1 10038:1 
-0.068475975071816783112943483047275 1:3 1639:1 5003:1 10038:1 
0.38423143466431119996684628858929 1:2 773:1 5013:1 
-0.068475975071816783112943483047275 1:3 111:1 5003:1 10032:1 
-0.068475975071816783112943483047275 1:2 54:1 5913:1 
-0.068475975071816783112943483047275 1:2 54:1 5913:1 
-0.068475975071816783112943483047275 1:4 43:1 5052:1 10003:1 10041:1 
-0.068475975071816783112943483047275 1:4 43:1 5052:1 10003:1 10041:1 
-0.068475975071816783112943483047275 1:4 43:1 5052:1 10003:1 10041:1 
-0.068475975071816783112943483047275 1:4 2391:1 5562:1 10003:1 10096:1 
-0.068475975071816783112943483047275 1:3 1048:1 5089:1 10897:1 
0.68475975071816785888501044610166 1:2 13:1 5221:1 
-0.068475975071816783112943483047275 1:1 13:1 5013:1 
-0.068475975071816783112943483047275 1:1 13:1 5013:1 
-0.068475975071816783112943483047275 1:1 13:1 5013:1 
-0.068475975071816783112943483047275 1:2 13:1 8619:1 
-0.068475975071816783112943483047275 1:1 546:1 5546:1 
-0.068475975071816783112943483047275 1:4 146:1 5056:1 10025:1 10032:1 
-0.068475975071816783112943483047275 1:1 13:1 5013:1 
-0.068475975071816783112943483047275 1:1 13:1 5013:1 
-0.068475975071816783112943483047275 1:1 13:1 5013:1 
-0.068475975071816783112943483047275 1:1 13:1 5013:1 
-0.068475975071816783112943483047275 1:1 13:1 5013:1 
-0.068475975071816783112943483047275 1:3 1587:1 6631:1 10013:1 
-0.068475975071816783112943483047275 1:3 1587:1 6631:1 10013:1 
-0.068475975071816783112943483047275 1:3 330:1 5146:1 10013:1 
-0.068475975071816783112943483047275 1:3 330:1 5057:1 10013:1 
-0.068475975071816783112943483047275 1:2 13:1 6107:1 
-0.068475975071816783112943483047275 1:3 59:1 5225:1 10013:1 
-0.068475975071816783112943483047275 1:3 59:1 5456:1 10013:1 
-0.068475975071816783112943483047275 1:3 59:1 5075:1 10013:1 
-0.068475975071816783112943483047275 1:3 201:1 5200:1 10228:1 
-0.068475975071816783112943483047275 1:3 3:1 9240:1 10005:1 
-0.068475975071816783112943483047275 1:3 3:1 6199:1 10005:1 
-0.068475975071816783112943483047275 1:4 259:1 5003:1 10094:1 10770:1 
-0.068475975071816783112943483047275 1:3 3249:1 6553:1 13465:1 
-0.068475975071816783112943483047275 1:4 330:1 5038:1 10243:1 10573:1 
-0.068475975071816783112943483047275 1:3 330:1 5573:1 10243:1 
0.68475975071816785888501044610166 1:2 43:1 5013:1 
0.68475975071816785888501044610166 1:2 43:1 5013:1 
0.68475975071816785888501044610166 1:2 43:1 5013:1 
0.68475975071816785888501044610166 1:2 43:1 5013:1 
0.68475975071816785888501044610166 1:2 32:1 5013:1 
0.067074607145507253447291873271752 1:5 1276:1 5003:1 10032:1 10094:1 10202:1 
-0.068475975071816783112943483047275 1:3 1418:1 5032:1 10094:1 
-0.068475975071816783112943483047275 1:3 1418:1 5032:1 10094:1 
-0.068475975071816783112943483047275 1:3 1062:1 5032:1 10094:1 
-0.068475975071816783112943483047275 1:3 672:1 5032:1 10005:1 
0.34795612701071221284365719839116 1:3 1331:1 5013:1 10317:1 
0.34795593201874019939623394748196 1:3 1331:1 5013:1 10317:1 
0.34841342862842938910006296282518 1:3 1331:1 5013:1 10317:1 
0.34841342862842938910006296282518 1:3 1331:1 5013:1 10317:1 
-0.068475975071816783112943483047275 1:1 13:1 5013:1 
-0.068475975071816783112943483047275 1:1 13:1 5013:1 
-0.068475975071816783112943483047275 1:1 13:1 5013:1 
-0.068475975071816783112943483047275 1:1 13:1 5013:1 
-0.068475975071816783112943483047275 1:1 13:1 5013:1 
-0.068475975071816783112943483047275 1:1 13:1 5013:1 
-0.068475975071816783112943483047275 1:1 888:1 5888:1 
-0.068475975071816783112943483047275 1:1 888:1 5888:1 
-0.068475975071816783112943483047275 1:1 888:1 5888:1 
-0.068475975071816783112943483047275 1:2 228:1 5200:1 
-0.068475975071816783112943483047275 1:4 281:1 5032:1 10026:1 10044:1 
-0.068475975071816783112943483047275 1:3 163:1 5003:1 10038:1 
-0.068475975071816783112943483047275 1:3 279:1 5003:1 10038:1 
-0.068475975071816783112943483047275 1:3 279:1 5003:1 10038:1 
-0.068475975071816783112943483047275 1:1 13:1 5013:1 
-0.068475975071816783112943483047275 1:1 13:1 5013:1 
-0.068475975071816783112943483047275 1:1 13:1 5013:1 
-0.068475975071816783112943483047275 1:1 13:1 5013:1 
-0.068475975071816783112943483047275 1:4 32:1 5013:1 10003:1 10004:1 
-0.068475975071816783112943483047275 1:2 20:1 5041:1 
-0.068475975071816783112943483047275 1:4 3:1 9537:1 10056:1 10187:1 
-0.068475975071816783112943483047275 1:4 441:1 5058:1 10121:1 10285:1 
0.65895516255470432120944224152481 1:2 13:1 5847:1 
0.65895516255408970174300975486403 1:2 13:1 5847:1 
0.65895516212695737223725700459909 1:2 13:1 5847:1 
0.039734740195018644626223647264851 1:2 13:1 5317:1 
0.68475975071816785888501044610166 1:2 13:1 9829:1 
-0.033270993928562635211232390020086 1:3 2597:1 5375:1 10029:1 
-0.068475975071816783112943483047275 1:4 59:1 5161:1 10062:1 10080:1 
-0.068475975071816783112943483047275 1:4 59:1 7865:1 10062:1 10080:1 
-0.068475975071816783112943483047275 1:4 59:1 5448:1 10062:1 10080:1 
-0.068475975071816783112943483047275 1:3 919:1 5099:1 10105:1 
-0.068475975071816783112943483047275 1:3 1048:1 5106:1 10005:1 
-0.068475975071816783112943483047275 1:3 808:1 5032:1 10005:1 
-0.068475975071816783112943483047275 1:3 330:1 5215:1 10682:1 
-0.068475975071816783112943483047275 1:3 1375:1 8026:1 10312:1 
-0.068475975071816783112943483047275 1:3 38:1 5221:1 10003:1 
-0.030846095513520917219540962150859 1:2 1812:1 6184:1 
-0.045538734363607773214521756699469 1:3 701:1 5162:1 10233:1 
-0.068475975071816783112943483047275 1:3 1594:1 5468:1 10013:1 
-0.068475975071816783112943483047275 1:3 187:1 5181:1 10038:1 
-0.068475975071816783112943483047275 1:3 798:1 5181:1 10038:1 
-0.068475975071816783112943483047275 1:3 187:1 5181:1 10038:1 
0.68475975071816785888501044610166 1:2 13:1 5050:1 
0.68475975071816785888501044610166 1:2 13:1 9345:1 
0.68475975071816785888501044610166 1:2 13:1 6576:1 
0.68475975071816785888501044610166 1:2 13:1 5273:1 
0.68475975071816785888501044610166 1:2 13:1 5273:1 
-0.068475975071816783112943483047275 1:4 593:1 5592:1 10003:1 10026:1 
-0.068475975071816783112943483047275 1:1 13:1 5013:1 
-0.068475975071816783112943483047275 1:1 13:1 5013:1 
-0.068475975071816783112943483047275 1:1 13:1 5013:1 
-0.068475975071816783112943483047275 1:1 13:1 5013:1 
-0.068475975071816783112943483047275 1:1 13:1 5013:1 
0.6058454466367559909656392846955 1:4 473:1 5003:1 10187:1 11301:1 
0.60584543697432247100209679047111 1:4 473:1 5003:1 10187:1 11301:1 
0.68475975071816785888501044610166 1:4 61:1 5013:1 10038:1 10356:1 
0.68475975071816785888501044610166 1:4 315:1 5041:1 10003:1 10149:1 
-0.068475975071816783112943483047275 1:3 253:1 5003:1 10038:1 
-0.068475975071816783112943483047275 1:3 68:1 5003:1 10038:1 
-0.068475975071816783112943483047275 1:3 68:1 5003:1 10038:1 
-0.068475975071816783112943483047275 1:3 174:1 5003:1 10038:1 
-0.068475975071816783112943483047275 1:3 600:1 5003:1 10038:1 
0.68475975071816785888501044610166 1:2 13:1 6335:1 
0.68475975071816785888501044610166 1:2 13:1 5698:1 
0.68475975071816785888501044610166 1:2 13:1 6010:1 
0.68475975071816785888501044610166 1:2 13:1 6369:1 
0.68475975071816785888501044610166 1:2 13:1 6369:1 
-0.068475975071816783112943483047275 1:1 13:1 5013:1 
-0.068475975071816783112943483047275 1:1 13:1 5013:1 
-0.068475975071816783112943483047275 1:1 13:1 5013:1 
-0.068475975071816783112943483047275 1:1 13:1 5013:1 
-0.068475975071816783112943483047275 1:1 13:1 5013:1 
-0.068475975071816783112943483047275 1:4 32:1 5013:1 10004:1 10013:1 
-0.00080949193839283399738715463200833 1:2 218:1 5272:1 
-0.068475975071816783112943483047275 1:2 315:1 5041:1 
-0.068475975071816783112943483047275 1:2 450:1 5041:1 
-0.068475975071816783112943483047275 1:2 52:1 5041:1 
-0.068475975071816783112943483047275 1:2 89:1 5041:1 
-0.068475975071816783112943483047275 1:2 89:1 5041:1 
0.42066980015962807115670329949353 1:4 278:1 5003:1 10181:1 12001:1 
0.41947943050104119500076649273979 1:4 278:1 5003:1 10181:1 12001:1 
-0.068475975071816783112943483047275 1:2 900:1 6631:1 
-0.068475975071816783112943483047275 1:2 913:1 6471:1 
-0.068475975071816783112943483047275 1:2 913:1 5129:1 
-0.030669645322778795598628320817625 1:2 744:1 7034:1 
-0.030588149237477203074009324268445 1:2 644:1 6796:1 
-0.068475975071816783112943483047275 1:2 356:1 5041:1 
-0.068475975071816783112943483047275 1:2 356:1 5041:1 
-0.068475975071816783112943483047275 1:2 356:1 5041:1 
-0.068475975071816783112943483047275 1:2 356:1 5041:1 
-0.068475975071816783112943483047275 1:2 626:1 5041:1 
0.2807447664632232720016702387511 1:4 538:1 5013:1 10038:1 13365:1 
0.23938786487244234635340944805648 1:3 339:1 5013:1 11586:1 
0.23938785153972799712995822574158 1:3 339:1 5013:1 11586:1 
0.2393879013479912887252254449777 1:3 339:1 5013:1 11586:1 
0.23938785153972799712995822574158 1:3 339:1 5013:1 11586:1 
-0.068475975071816783112943483047275 1:2 13:1 5032:1 
-0.068475975071816783112943483047275 1:1 13:1 5013:1 
-0.068475975071816783112943483047275 1:1 13:1 5013:1 
-0.068475975071816783112943483047275 1:2 339:1 5301:1 
-0.068475975071816783112943483047275 1:2 339:1 5301:1 
-0.068475975071816783112943483047275 1:1 43:1 5043:1 
-0.068475975071816783112943483047275 1:1 43:1 5043:1 
-0.068475975071816783112943483047275 1:1 43:1 5043:1 
0.68475975071816785888501044610166 1:3 13:1 5056:1 10684:1 
-0.068475975071816783112943483047275 1:3 1639:1 5003:1 10038:1 
-0.068475975071816783112943483047275 1:3 183:1 5032:1 10026:1 
-0.068475975071816783112943483047275 1:3 2391:1 7499:1 10378:1 
-0.046145204574484163795311530975596 1:3 701:1 5162:1 10233:1 
-0.046504552774436089257470428037777 1:3 1673:1 5013:1 12292:1 
-0.068475975071816783112943483047275 1:3 13:1 5269:1 10005:1 
-0.068475975071816783112943483047275 1:1 13:1 5013:1 
-0.068475975071816783112943483047275 1:1 13:1 5013:1 
-0.068475975071816783112943483047275 1:1 13:1 5013:1 
-0.068475975071816783112943483047275 1:1 13:1 5013:1 
-0.068475975071816783112943483047275 1:1 13:1 5013:1 
-0.068475975071816783112943483047275 1:3 1827:1 5032:1 10013:1 
-0.068475975071816783112943483047275 1:3 1870:1 5032:1 10013:1 
-0.068475975071816783112943483047275 1:2 24:1 9520:1 
-0.068475975071816783112943483047275 1:2 1139:1 5056:1 
-0.068475975071816783112943483047275 1:2 61:1 5109:1 
-0.068475975071816783112943483047275 1:2 61:1 5109:1 
-0.013953681572147682427020853879185 1:2 1173:1 5471:1 
-0.068475975071816783112943483047275 1:3 838:1 5032:1 12639:1 
-0.068475975071816783112943483047275 1:3 838:1 5032:1 12639:1 
-0.068475975071816783112943483047275 1:3 1519:1 5032:1 10292:1 
-0.030847305703781309482724992676594 1:2 13:1 5169:1 
-0.030847305702092590873331090506326 1:2 13:1 5169:1 
0.68475975071816785888501044610166 1:2 13:1 5374:1 
0.41313416862621976655134403699776 1:2 13:1 5052:1 
0.41331583019475909290818549379765 1:2 13:1 5052:1 
0.41331575838412909496000224862655 1:2 13:1 5052:1 
-0.068475975071816783112943483047275 1:1 13:1 5013:1 
-0.068475975071816783112943483047275 1:1 13:1 5013:1 
-0.068475975071816783112943483047275 1:1 13:1 5013:1 
-0.068475975071816783112943483047275 1:1 13:1 5013:1 
-0.068475975071816783112943483047275 1:1 13:1 5013:1 
0.67818103116617600711890645470703 1:4 294:1 5032:1 10969:1 11492:1 
0.48296841616432767407829373951245 1:4 294:1 5032:1 10969:1 13414:1 
-0.068475975071816783112943483047275 1:3 1048:1 5052:1 11029:1 
-0.068475975071816783112943483047275 1:2 538:1 6897:1 
-0.068475975071816783112943483047275 1:2 538:1 6766:1 
-0.068475975071816783112943483047275 1:2 538:1 5068:1 
-0.068475975071816783112943483047275 1:2 449:1 5024:1 
-0.068475975071816783112943483047275 1:2 294:1 8801:1 
-0.068475975071816783112943483047275 1:4 21:1 5050:1 10032:1 10056:1 
-0.068475975071816783112943483047275 1:3 680:1 5701:1 10392:1 
-0.068475975071816783112943483047275 1:3 1446:1 5593:1 10224:1 
-0.03107990824876236124474360167369 1:2 3755:1 8216:1 
-0.068475975071816783112943483047275 1:3 20:1 5044:1 10281:1 
-0.068475975071816783112943483047275 1:2 4239:1 5041:1 
-0.068475975071816783112943483047275 1:2 312:1 5041:1 
-0.068475975071816783112943483047275 1:2 312:1 5041:1 
-0.068475975071816783112943483047275 1:2 72:1 5041:1 
-0.068475975071816783112943483047275 1:2 116:1 5041:1 
-0.068475975071816783112943483047275 1:2 30:1 5041:1 
-0.068475975071816783112943483047275 1:2 761:1 5041:1 
-0.068475975071816783112943483047275 1:2 4807:1 5041:1 
-0.068475975071816783112943483047275 1:2 2026:1 5041:1 
-0.068475975071816783112943483047275 1:2 704:1 5041:1 
0.68475975071816785888501044610166 1:4 59:1 5013:1 10062:1 10080:1 
-0.068475975071816783112943483047275 1:1 13:1 5013:1 
-0.068475975071816783112943483047275 1:1 13:1 5013:1 
-0.068475975071816783112943483047275 1:1 13:1 5013:1 
-0.068475975071816783112943483047275 1:1 13:1 5013:1 
-0.068475975071816783112943483047275 1:1 13:1 5013:1 
0.61157685542625117580683991036494 1:5 1798:1 5041:1 10004:1 10005:1 10815:1 
-0.068475975071816783112943483047275 1:3 4232:1 5123:1 10005:1 
-0.068475975071816783112943483047275 1:3 4378:1 5040:1 10005:1 
0.32046581944098406768972608915647 1:3 1955:1 5032:1 10013:1 
0.5163701246017755597250697974232 1:3 3943:1 5003:1 10301:1 
0.68475975071816785888501044610166 1:4 1832:1 5003:1 10050:1 10958:1 
-0.0064623385504790145650311217195849 1:2 1266:1 6991:1 
-0.040162673959116483579645517920653 1:2 13:1 5102:1 
-0.006462338489698068316746670802786 1:2 1266:1 6991:1 
-0.020395582175091332699512491899441 1:2 482:1 9709:1 
-0.068475975071816783112943483047275 1:3 1477:1 5092:1 10089:1 
-0.068475975071816783112943483047275 1:1 13:1 5013:1 
-0.068475975071816783112943483047275 1:1 13:1 5013:1 
-0.068475975071816783112943483047275 1:1 13:1 5013:1 
-0.068475975071816783112943483047275 1:1 13:1 5013:1 
-0.068475975071816783112943483047275 1:3 1912:1 5024:1 10038:1 
-0.068475975071816783112943483047275 1:4 21:1 5050:1 10032:1 10056:1 
-0.068475975071816783112943483047275 1:3 91:1 5032:1 10013:1 
-0.068475975071816783112943483047275 1:3 428:1 5032:1 10013:1 
-0.068475975071816783112943483047275 1:3 1375:1 5111:1 10312:1 
-0.068475975071816783112943483047275 1:3 1375:1 5111:1 10312:1 
-0.068475975071816783112943483047275 1:3 1375:1 5111:1 10312:1 
-0.068475975071816783112943483047275 1:2 59:1 6270:1 
-0.068475975071816783112943483047275 1:2 59:1 6270:1 
-0.068475975071816783112943483047275 1:2 59:1 6270:1 
-0.068475975071816783112943483047275 1:2 59:1 6270:1 
-0.068475975071816783112943483047275 1:2 59:1 5080:1 
0.039734740208490264279372894407061 1:2 13:1 5317:1 
0.040088550705190337253291943397926 1:2 13:1 5317:1 
0.04008855070168219209003623859644 1:2 13:1 5317:1 
0.040088550707939984985017645158223 1:2 13:1 5317:1 
-0.068475975071816783112943483047275 1:1 13:1 5013:1 
-0.068475975071816783112943483047275 1:1 13:1 5013:1 
-0.068475975071816783112943483047275 1:1 13:1 5013:1 
-0.068475975071816783112943483047275 1:1 13:1 5013:1 
-0.068475975071816783112943483047275 1:1 13:1 5013:1 
0.46670776598909741172960252697521 1:2 52:1 5013:1 
0.46669993400940740224669411873037 1:2 52:1 5013:1 
0.46819989542855039443836062673654 1:2 52:1 5013:1 
0.68475975071816785888501044610166 1:2 52:1 5013:1 
0.68475975071816785888501044610166 1:2 52:1 5013:1 
-0.068475975071816783112943483047275 1:3 208:1 5032:1 10013:1 
-0.068475975071816783112943483047275 1:4 476:1 5056:1 10021:1 10032:1 
-0.049280786057114230047648817389927 1:3 1737:1 5342:1 10005:1 
-0.068475975071816783112943483047275 1:4 443:1 5867:1 10003:1 10044:1 
-0.068475975071816783112943483047275 1:1 2004:1 7004:1 
0.14673622612188189084925227234635 1:2 3163:1 5317:1 
-0.068475975071816783112943483047275 1:1 13:1 5013:1 
-0.068475975071816783112943483047275 1:1 13:1 5013:1 
-0.068475975071816783112943483047275 1:1 13:1 5013:1 
-0.068475975071816783112943483047275 1:1 13:1 5013:1 
-0.068475975071816783112943483047275 1:1 13:1 5013:1 
0.38320517881631693812849448477209 1:4 172:1 5041:1 10537:1 10626:1 
0.38248526296408191793574360417551 1:4 172:1 5041:1 10537:1 10626:1 
0.38243935932842876290749245526968 1:4 172:1 5041:1 10537:1 10626:1 
-0.068475975071816783112943483047275 1:3 1048:1 5052:1 11029:1 
-0.068475975071816783112943483047275 1:3 573:1 5052:1 10038:1 
-0.068475975071816783112943483047275 1:3 573:1 5052:1 10038:1 
0.68475975071816785888501044610166 1:2 38:1 5181:1 
0.68475975071816785888501044610166 1:2 38:1 5181:1 
-0.068475975071816783112943483047275 1:2 52:1 6631:1 
-0.068475975071816783112943483047275 1:2 721:1 5317:1 
-0.068475975071816783112943483047275 1:2 721:1 5317:1 
-0.068475975071816783112943483047275 1:2 92:1 5041:1 
-0.068475975071816783112943483047275 1:2 4429:1 5041:1 
0.68475975071816785888501044610166 1:2 348:1 5013:1 
0.44502618968895624185222459345823 1:2 428:1 5013:1 
0.37849119285237542431588053659652 1:2 428:1 5013:1 
0.68475975071816785888501044610166 1:2 428:1 5013:1 
0.68475975071816785888501044610166 1:2 428:1 5013:1 
-0.068475975071816783112943483047275 1:1 13:1 5013:1 
-0.068475975071816783112943483047275 1:1 13:1 5013:1 
-0.068475975071816783112943483047275 1:1 13:1 5013:1 
-0.068475975071816783112943483047275 1:1 13:1 5013:1 
-0.068475975071816783112943483047275 1:1 13:1 5013:1 
-0.068475975071816783112943483047275 1:3 330:1 8540:1 10315:1 
-0.068475975071816783112943483047275 1:3 4126:1 5032:1 10026:1 
-0.068475975071816783112943483047275 1:3 501:1 5032:1 10026:1 
-0.068475975071816783112943483047275 1:3 46:1 5032:1 10026:1 
-0.068475975071816783112943483047275 1:3 46:1 5032:1 10026:1 
-0.068475975071816783112943483047275 1:1 13:1 5013:1 
-0.068475975071816783112943483047275 1:1 13:1 5013:1 
-0.068475975071816783112943483047275 1:1 13:1 5013:1 
-0.068475975071816783112943483047275 1:1 13:1 5013:1 
-0.068475975071816783112943483047275 1:1 13:1 5013:1 
-0.068475975071816783112943483047275 1:3 721:1 7207:1 10105:1 
-0.01572773322512657084848441968461 1:4 1751:1 5213:1 10013:1 10026:1 
-0.068475975071816783112943483047275 1:3 3242:1 7868:1 10105:1 
-0.030771607776009752416301878952254 1:2 524:1 6854:1 
-0.013182976927401182654087108403473 1:2 367:1 8723:1 
-0.068475975071816783112943483047275 1:3 3007:1 5032:1 10013:1 
-0.068475975071816783112943483047275 1:3 789:1 5032:1 10013:1 
-0.068475975071816783112943483047275 1:3 2584:1 5032:1 10013:1 
-0.068475975071816783112943483047275 1:3 1259:1 5032:1 10013:1 
-0.068475975071816783112943483047275 1:2 309:1 5041:1 
-0.068475975071816783112943483047275 1:2 431:1 5041:1 
-0.068475975071816783112943483047275 1:2 1008:1 5041:1 
-0.068475975071816783112943483047275 1:2 120:1 5041:1 
-0.068475975071816783112943483047275 1:2 399:1 5041:1 
0.22311194669581282945536315764912 1:2 2199:1 5032:1 
0.16813826851825650066096784485126 1:2 1742:1 5032:1 
0.22311194321992783295982576419192 1:2 2199:1 5032:1 
0.22308101083725356827969221740204 1:2 2199:1 5032:1 
-0.068475975071816783112943483047275 1:1 13:1 5013:1 
0.30000914645236981259657227383286 1:3 1024:1 5041:1 10013:1 
0.30002339496785618289109720535635 1:3 1024:1 5041:1 10013:1 
0.30011994943563757853866036384716 1:3 1024:1 5041:1 10013:1 
0.30047370319773869518087394681061 1:3 1024:1 5041:1 10013:1 
-0.068475975071816783112943483047275 1:1 362:1 5362:1 
0.68475975071816785888501044610166 1:3 43:1 5013:1 10013:1 
0.68475975071816785888501044610166 1:3 43:1 5013:1 10013:1 
-0.068475975071816783112943483047275 1:3 108:1 5032:1 10013:1 
-0.068475975071816783112943483047275 1:3 3347:1 5032:1 10013:1 
-0.068475975071816783112943483047275 1:3 519:1 5032:1 10013:1 
-0.068475975071816783112943483047275 1:2 52:1 5249:1 
-0.068475975071816783112943483047275 1:2 348:1 5200:1 
0.58560784403801724451454902009573 1:2 789:1 5013:1 
0.58560784427051526535024095210247 1:2 789:1 5013:1 
0.58560784407681443219928496546345 1:2 789:1 5013:1 
-0.068475975071816783112943483047275 1:1 13:1 5013:1 
-0.068475975071816783112943483047275 1:1 13:1 5013:1 
-0.068475975071816783112943483047275 1:1 13:1 5013:1 
-0.068475975071816783112943483047275 1:1 13:1 5013:1 
-0.068475975071816783112943483047275 1:1 13:1 5013:1 
-0.061129527429081224887408296808644 1:2 5577:1 
-0.020661799320709006017038333880009 1:2 1358:1 6684:1 
-0.068475975071816783112943483047275 1:2 22:1 5038:1 
-0.010819491183543687717882875176656 1:2 36:1 5013:1 
-0.015239548103620062513563482298196 1:2 1717:1 6459:1 
-0.068475975071816783112943483047275 1:1 362:1 5362:1 
-0.068475975071816783112943483047275 1:1 362:1 5362:1 
-0.068475975071816783112943483047275 1:1 362:1 5362:1 
-0.068475975071816783112943483047275 1:1 362:1 5362:1 
-0.068475975071816783112943483047275 1:1 362:1 5362:1 
-0.068475975071816783112943483047275 1:2 3:1 5056:1 
-0.068475975071816783112943483047275 1:2 3:1 5056:1 
-0.068475975071816783112943483047275 1:2 3:1 5056:1 
-0.068475975071816783112943483047275 1:2 3:1 5056:1 
-0.068475975071816783112943483047275 1:2 3:1 5056:1 
0.41394148850857181987095145814237 1:5 1813:1 5052:1 10013:1 10032:1 10728:1 
0.41394152624981839228013313913834 1:5 1813:1 5052:1 10013:1 10032:1 10728:1 
-0.068475975071816783112943483047275 1:2 339:1 5052:1 
-0.068475975071816783112943483047275 1:2 339:1 5052:1 
-0.068475975071816783112943483047275 1:2 339:1 5052:1 
-0.068475975071816783112943483047275 1:2 339:1 5052:1 
-0.068475975071816783112943483047275 1:2 339:1 5052:1 
0.68475975071816785888501044610166 1:2 13:1 5056:1 
-0.0059075956350367504754661496235713 1:4 64:1 5003:1 10003:1 10135:1 
-0.068475975071816783112943483047275 1:3 13:1 5533:1 10031:1 
-0.068475975071816783112943483047275 1:3 880:1 5200:1 10013:1 
-0.068475975071816783112943483047275 1:3 569:1 5013:1 10025:1 
-0.068475975071816783112943483047275 1:1 2333:1 7333:1 
-0.068475975071816783112943483047275 1:2 593:1 5109:1 
-0.068475975071816783112943483047275 1:2 593:1 5109:1 
-0.068475975071816783112943483047275 1:3 372:1 5394:1 10038:1 
-0.068475975071816783112943483047275 1:3 69:1 5394:1 10038:1 
-0.068475975071816783112943483047275 1:2 637:1 5041:1 
-0.068475975071816783112943483047275 1:1 13:1 5013:1 
-0.068475975071816783112943483047275 1:1 13:1 5013:1 
-0.030813623519887103907599623653368 1:2 3492:1 7698:1 
-0.012654061011075953824267514846724 1:2 1478:1 5079:1 
-0.011056645892142325654505796705962 1:2 172:1 8168:1 
-0.068475975071816783112943483047275 1:3 50:1 5136:1 10131:1 
-0.025257616442175667703651242845808 1:3 29:1 5003:1 10498:1 
0.68475975071816785888501044610166 1:2 2584:1 5013:1 
0.68475975071816785888501044610166 1:2 519:1 5013:1 
0.68475975071816785888501044610166 1:2 32:1 5013:1 
0.68475975071816785888501044610166 1:2 32:1 5013:1 
-0.068475975071816783112943483047275 1:1 13:1 5013:1 
-0.068475975071816783112943483047275 1:1 13:1 5013:1 
-0.068475975071816783112943483047275 1:1 13:1 5013:1 
-0.068475975071816783112943483047275 1:2 32:1 5041:1 
-0.068475975071816783112943483047275 1:2 278:1 5181:1 
-0.068475975071816783112943483047275 1:2 44:1 5301:1 
-0.068475975071816783112943483047275 1:2 44:1 5301:1 
-0.068475975071816783112943483047275 1:2 44:1 5301:1 
-0.068475975071816783112943483047275 1:1 13:1 5013:1 
-0.068475975071816783112943483047275 1:1 13:1 5013:1 
-0.068475975071816783112943483047275 1:1 13:1 5013:1 
-0.068475975071816783112943483047275 1:1 13:1 5013:1 
-0.045563587102968206021813557526912 1:2 745:1 5040:1 
-0.068475975071816783112943483047275 1:3 41:1 6631:1 10052:1 
-0.068475975071816783112943483047275 1:2 1683:1 5041:1 
-0.068475975071816783112943483047275 1:2 1683:1 5041:1 
-0.068475975071816783112943483047275 1:2 220:1 5041:1 
-0.068475975071816783112943483047275 1:2 616:1 5041:1 
0.41363325120318983341149987609242 1:2 13:1 5052:1 
0.41412520889973730708888410845248 1:2 13:1 5052:1 
-0.068475975071816783112943483047275 1:2 339:1 5052:1 
-0.068475975071816783112943483047275 1:2 339:1 5052:1 
-0.068475975071816783112943483047275 1:2 339:1 5052:1 
-0.068475975071816783112943483047275 1:2 339:1 5052:1 
-0.068475975071816783112943483047275 1:3 50:1 5266:1 10048:1 
-0.068475975071816783112943483047275 1:3 50:1 5957:1 10048:1 
-0.068475975071816783112943483047275 1:1 13:1 5013:1 
-0.068475975071816783112943483047275 1:1 13:1 5013:1 
-0.068475975071816783112943483047275 1:1 13:1 5013:1 
-0.068475975071816783112943483047275 1:1 13:1 5013:1 
-0.068475975071816783112943483047275 1:1 13:1 5013:1 
-0.068475975071816783112943483047275 1:3 300:1 5032:1 10026:1 
-0.068475975071816783112943483047275 1:3 619:1 5032:1 10026:1 
-0.068475975071816783112943483047275 1:3 615:1 5032:1 10026:1 
-0.068475975071816783112943483047275 1:3 1465:1 5032:1 10026:1 
-0.068475975071816783112943483047275 1:3 1127:1 5032:1 10026:1 
-0.068475975071816783112943483047275 1:1 13:1 5013:1 
-0.068475975071816783112943483047275 1:1 13:1 5013:1 
-0.068475975071816783112943483047275 1:1 13:1 5013:1 
-0.068475975071816783112943483047275 1:1 13:1 5013:1 
-0.068475975071816783112943483047275 1:1 13:1 5013:1 
-0.068475975071816783112943483047275 1:2 57:1 5590:1 
-0.068475975071816783112943483047275 1:2 200:1 5041:1 
-0.068475975071816783112943483047275 1:2 1604:1 5041:1 
-0.068475975071816783112943483047275 1:2 863:1 5041:1 
-0.068475975071816783112943483047275 1:2 645:1 5041:1 
-0.068475975071816783112943483047275 1:2 513:1 5041:1 
-0.010934281531842757889672057558528 1:2 4393:1 5425:1 
0.088148676446065235556837080821424 1:2 616:1 5041:1 
0.088148664223247616411605065422918 1:2 616:1 5041:1 
0.1861756776206846819565754458381 1:2 3528:1 5041:1 
0.18577809025096439499158407215873 1:2 3528:1 5041:1 
0.37195376787097439441609481036721 1:2 3351:1 5041:1 
-0.068475975071816783112943483047275 1:1 3943:1 8943:1 
-0.068475975071816783112943483047275 1:1 3943:1 8943:1 
-0.068475975071816783112943483047275 1:1 3943:1 8943:1 
-0.068475975071816783112943483047275 1:4 13:1 5013:1 10004:1 11956:1 
-0.068475975071816783112943483047275 1:2 616:1 5041:1 
-0.068475975071816783112943483047275 1:3 61:1 5021:1 10038:1 
-0.068475975071816783112943483047275 1:3 61:1 5021:1 10038:1 
-0.021139301885848556933344966068944 1:2 2127:1 7884:1 
-0.031124440061990998884766668197699 1:2 1417:1 5553:1 
0.68475975071816785888501044610166 1:2 32:1 5013:1 
0.68475975071816785888501044610166 1:3 61:1 5013:1 10038:1 
-0.068475975071816783112943483047275 1:1 13:1 5013:1 
-0.068475975071816783112943483047275 1:1 13:1 5013:1 
-0.068475975071816783112943483047275 1:1 13:1 5013:1 
-0.068475975071816783112943483047275 1:1 13:1 5013:1 
-0.068475975071816783112943483047275 1:1 13:1 5013:1 
-0.068475975071816783112943483047275 1:2 32:1 5200:1 
-0.068475975071816783112943483047275 1:2 32:1 5200:1 
-0.038631467013681614064424252319441 1:2 61:1 5356:1 
-0.046557784450523581609715506601788 1:2 61:1 5356:1 
-0.046557778961124653138714535316467 1:2 61:1 5356:1 
0.1431891524630367340531478248522 1:2 219:1 5518:1 
0.68475975071816785888501044610166 1:2 378:1 5013:1 
-0.068475975071816783112943483047275 1:1 13:1 5013:1 
-0.068475975071816783112943483047275 1:1 13:1 5013:1 
-0.068475975071816783112943483047275 1:1 13:1 5013:1 
-0.068475975071816783112943483047275 1:1 13:1 5013:1 
-0.068475975071816783112943483047275 1:1 13:1 5013:1 
-0.068475975071816783112943483047275 1:3 1025:1 5032:1 10026:1 
-0.068475975071816783112943483047275 1:2 1024:1 5185:1 
-0.068475975071816783112943483047275 1:2 1024:1 7054:1 
-0.068475975071816783112943483047275 1:2 141:1 5701:1 
-0.068475975071816783112943483047275 1:2 392:1 5701:1 
-0.068475975071816783112943483047275 1:2 701:1 5078:1 
0.68475975071816785888501044610166 1:2 13:1 5013:1 
0.68475975071816785888501044610166 1:2 13:1 5013:1 
0.68475975071816785888501044610166 1:2 13:1 5013:1 
0.68475975071816785888501044610166 1:2 13:1 5013:1 
-0.068475975071816783112943483047275 1:1 13:1 5013:1 
-0.068475975071816783112943483047275 1:1 13:1 5013:1 
-0.068475975071816783112943483047275 1:1 13:1 5013:1 
-0.068475975071816783112943483047275 1:1 13:1 5013:1 
-0.068475975071816783112943483047275 1:1 13:1 5013:1 
-0.068475975071816783112943483047275 1:2 45:1 5721:1 
-0.068475975071816783112943483047275 1:2 45:1 5721:1 
-0.068475975071816783112943483047275 1:2 52:1 5044:1 
-0.068475975071816783112943483047275 1:2 3476:1 6152:1 
0.68475975071816785888501044610166 1:1 13:1 5013:1 
0.68475975071816785888501044610166 1:1 13:1 5013:1 
0.68475975071816785888501044610166 1:1 13:1 5013:1 
0.68475975071816785888501044610166 1:1 13:1 5013:1 
0.68475975071816785888501044610166 1:1 13:1 5013:1 
-0.068475975071816783112943483047275 1:1 13:1 5013:1 
-0.068475975071816783112943483047275 1:1 13:1 5013:1 
-0.068475975071816783112943483047275 1:1 13:1 5013:1 
-0.068475975071816783112943483047275 1:1 13:1 5013:1 
-0.068475975071816783112943483047275 1:1 13:1 5013:1 
-0.068475975071816783112943483047275 1:2 362:1 5527:1 
-0.068475975071816783112943483047275 1:2 362:1 5527:1 
-0.068475975071816783112943483047275 1:2 336:1 5041:1 
-0.068475975071816783112943483047275 1:2 336:1 5041:1 
-0.068475975071816783112943483047275 1:1 13:1 5013:1 
-0.068475975071816783112943483047275 1:1 13:1 5013:1 
-0.068475975071816783112943483047275 1:1 13:1 5013:1 
-0.068475975071816783112943483047275 1:1 13:1 5013:1 
-0.068475975071816783112943483047275 1:1 13:1 5013:1 
-0.068475975071816783112943483047275 1:3 1127:1 5032:1 10026:1 
-0.068475975071816783112943483047275 1:1 13:1 5013:1 
-0.023656627670366740801011218309213 1:2 3286:1 5700:1 
0.28123985922823202532327968583559 1:3 247:1 5041:1 10184:1 
0.28159265735004046504741381795611 1:3 247:1 5041:1 10184:1 
0.28159266720762593516624860967568 1:3 247:1 5041:1 10184:1 
0.28159266655748255159252835255757 1:3 247:1 5041:1 10184:1 
-0.068475975071816783112943483047275 1:2 2338:1 5680:1 
-0.068475975071816783112943483047275 1:2 1041:1 5680:1 
-0.068475975071816783112943483047275 1:2 577:1 5680:1 
0.68475975071816785888501044610166 1:3 61:1 5013:1 10038:1 
0.68475975071816785888501044610166 1:2 5013:1 
0.63059405272780255646836167215952 1:2 836:1 5013:1 
-0.068475975071816783112943483047275 1:1 13:1 5013:1 
-0.068475975071816783112943483047275 1:1 13:1 5013:1 
-0.068475975071816783112943483047275 1:1 13:1 5013:1 
-0.068475975071816783112943483047275 1:1 13:1 5013:1 
-0.068475975071816783112943483047275 1:1 13:1 5013:1 
0.60591897755691437321701187102008 1:4 1127:1 5013:1 10026:1 10032:1 
-0.068475975071816783112943483047275 1:1 13:1 5013:1 
-0.068475975071816783112943483047275 1:1 13:1 5013:1 
-0.068475975071816783112943483047275 1:1 13:1 5013:1 
-0.068475975071816783112943483047275 1:1 13:1 5013:1 
-0.068475975071816783112943483047275 1:1 13:1 5013:1 
-0.068475975071816783112943483047275 1:2 307:1 5838:1 
-0.068475975071816783112943483047275 1:2 70:1 5317:1 
-0.068475975071816783112943483047275 1:2 315:1 5450:1 
-0.068475975071816783112943483047275 1:2 1371:1 5312:1 
-0.068475975071816783112943483047275 1:2 1371:1 5312:1 
-0.068475975071816783112943483047275 1:1 13:1 5013:1 
-0.068475975071816783112943483047275 1:1 13:1 5013:1 
-0.068475975071816783112943483047275 1:1 13:1 5013:1 
-0.068475975071816783112943483047275 1:1 13:1 5013:1 
-0.068475975071816783112943483047275 1:1 13:1 5013:1 
-0.068475975071816783112943483047275 1:3 1139:1 5056:1 10111:1 
-0.068475975071816783112943483047275 1:3 46:1 5032:1 10026:1 
-0.061086778025944983572248503378432 1:2 5141:1 
-0.068475975071816783112943483047275 1:2 680:1 5392:1 
-0.068475975071816783112943483047275 1:2 680:1 5047:1 
-0.068475975071816783112943483047275 1:2 680:1 6768:1 
-0.068475975071816783112943483047275 1:2 680:1 8301:1 
-0.060898358424899705354516044053526 1:2 680:1 5054:1 
-0.068475975071816783112943483047275 1:1 13:1 5013:1 
-0.068475975071816783112943483047275 1:1 13:1 5013:1 
-0.068475975071816783112943483047275 1:1 13:1 5013:1 
-0.068475975071816783112943483047275 1:1 13:1 5013:1 
-0.068475975071816783112943483047275 1:1 13:1 5013:1 
-0.068475975071816783112943483047275 1:2 1813:1 5728:1 
-0.068475975071816783112943483047275 1:2 1813:1 5728:1 
-0.068475975071816783112943483047275 1:2 249:1 8146:1 
-0.068475975071816783112943483047275 1:3 13:1 5013:1 10004:1 
-0.068475975071816783112943483047275 1:2 249:1 7741:1 
-0.068475975071816783112943483047275 1:1 13:1 5013:1 
-0.068475975071816783112943483047275 1:1 13:1 5013:1 
-0.068475975071816783112943483047275 1:1 13:1 5013:1 
-0.068475975071816783112943483047275 1:1 13:1 5013:1 
-0.068475975071816783112943483047275 1:1 13:1 5013:1 
-0.068475975071816783112943483047275 1:2 57:1 5590:1 
-0.068475975071816783112943483047275 1:2 57:1 5590:1 
-0.068475975071816783112943483047275 1:2 57:1 5590:1 
-0.068475975071816783112943483047275 1:2 625:1 5249:1 
-0.065715102979382711279043860486127 1:2 36:1 5249:1 
-0.068475975071816783112943483047275 1:1 13:1 5013:1 
-0.068475975071816783112943483047275 1:1 13:1 5013:1 
-0.068475975071816783112943483047275 1:1 13:1 5013:1 
-0.068475975071816783112943483047275 1:1 13:1 5013:1 
-0.068475975071816783112943483047275 1:1 13:1 5013:1 
-0.068475975071816783112943483047275 1:2 1127:1 5615:1 
-0.0085409318408162879926459609691847 1:2 136:1 5024:1 
-0.068475975071816783112943483047275 1:2 3147:1 5092:1 
-0.068475975071816783112943483047275 1:1 13:1 5013:1 
-0.068475975071816783112943483047275 1:2 3540:1 5450:1 
-0.068475975071816783112943483047275 1:2 50:1 5556:1 
-0.068475975071816783112943483047275 1:2 50:1 5556:1 
-0.068475975071816783112943483047275 1:2 1114:1 5913:1 
-0.068475975071816783112943483047275 1:2 1114:1 5913:1 
-0.068475975071816783112943483047275 1:2 1920:1 5913:1 
0.67204348008403524961096309198183 1:3 1891:1 5041:1 14429:1 
0.0032146766765543278304706475978492 1:1 13:1 5013:1 
-0.068475975071816783112943483047275 1:1 4829:1 9829:1 
-0.068475975071816783112943483047275 1:1 149:1 5149:1 
-0.068475975071816783112943483047275 1:1 149:1 5149:1 
-0.068475975071816783112943483047275 1:1 149:1 5149:1 
0.68475975071816785888501044610166 1:2 4229:1 5013:1 
-0.068475975071816783112943483047275 1:1 13:1 5013:1 
-0.068475975071816783112943483047275 1:1 13:1 5013:1 
-0.068475975071816783112943483047275 1:1 13:1 5013:1 
-0.068475975071816783112943483047275 1:1 13:1 5013:1 
-0.068475975071816783112943483047275 1:1 13:1 5013:1 
-0.068475975071816783112943483047275 1:3 179:1 5013:1 
-0.068475975071816783112943483047275 1:2 2662:1 5183:1 
-0.068475975071816783112943483047275 1:2 2937:1 5183:1 
-0.068475975071816783112943483047275 1:2 913:1 5136:1 
-0.03103787499099597280149964717566 1:2 913:1 5036:1 
-0.068475975071816783112943483047275 1:1 13:1 5013:1 
-0.068475975071816783112943483047275 1:1 13:1 5013:1 
-0.068475975071816783112943483047275 1:1 13:1 5013:1 
-0.068475975071816783112943483047275 1:1 13:1 5013:1 
-0.068475975071816783112943483047275 1:1 13:1 5013:1 
-0.068475975071816783112943483047275 1:2 637:1 5041:1 
-0.068475975071816783112943483047275 1:1 13:1 5013:1 
-0.068475975071816783112943483047275 1:1 13:1 5013:1 
-0.068475975071816783112943483047275 1:1 13:1 5013:1 
-0.068475975071816783112943483047275 1:1 13:1 5013:1 
-0.068475975071816783112943483047275 1:1 13:1 5013:1 
0.30806586530771584708787713680067 1:3 330:1 5013:1 11587:1 
-0.068475975071816783112943483047275 1:2 61:1 5600:1 
-0.068475975071816783112943483047275 1:2 61:1 8060:1 
-0.068475975071816783112943483047275 1:2 61:1 8527:1 
-0.068475975071816783112943483047275 1:2 61:1 5689:1 
-0.068475975071816783112943483047275 1:2 61:1 6099:1 
0.32290865236655208470040179236094 1:2 13:1 5556:1 
0.31069113987968327572630755639693 1:2 13:1 5556:1 
0.31069113988378127544365270296112 1:2 13:1 5556:1 
0.31069112094822087799528276264027 1:2 13:1 5556:1 
0.3106911398867113760502434161026 1:2 13:1 5556:1 
-0.068475975071816783112943483047275 1:1 13:1 5013:1 
-0.068475975071816783112943483047275 1:1 13:1 5013:1 
-0.068475975071816783112943483047275 1:1 13:1 5013:1 
-0.068475975071816783112943483047275 1:1 13:1 5013:1 
-0.068475975071816783112943483047275 1:1 13:1 5013:1 
-0.068475975071816783112943483047275 1:3 573:1 5052:1 10038:1 
-0.068475975071816783112943483047275 1:3 573:1 5052:1 10038:1 
-0.068475975071816783112943483047275 1:3 573:1 5052:1 10038:1 
-0.068475975071816783112943483047275 1:3 187:1 5394:1 10038:1 
-0.068475975071816783112943483047275 1:3 28:1 5181:1 10038:1 
-0.068475975071816783112943483047275 1:1 13:1 5013:1 
-0.068475975071816783112943483047275 1:1 13:1 5013:1 
-0.068475975071816783112943483047275 1:1 13:1 5013:1 
-0.068475975071816783112943483047275 1:1 13:1 5013:1 
-0.068475975071816783112943483047275 1:1 13:1 5013:1 
-0.068475975071816783112943483047275 1:2 61:1 8323:1 
-0.030815450828775063640829756650419 1:2 1460:1 5299:1 
-0.063659416423433326515102237408428 1:2 61:1 5491:1 
-0.048056057301358152955561564567688 1:2 169:1 5024:1 
-0.063659416423436990251083500425011 1:2 61:1 5270:1 
-0.068475975071816783112943483047275 1:5 59:1 5797:1 10062:1 10069:1 10080:1 
-0.068475975071816783112943483047275 1:3 30:1 5052:1 10013:1 
0.68475975071816785888501044610166 1:2 13:1 5052:1 
0.68475975071816785888501044610166 1:1 13:1 5013:1 
-0.068475975071816783112943483047275 1:2 527:1 5647:1 
-0.068475975071816783112943483047275 1:2 527:1 7976:1 
-0.068475975071816783112943483047275 1:2 527:1 5035:1 
-0.068475975071816783112943483047275 1:2 527:1 5435:1 
-0.068475975071816783112943483047275 1:2 638:1 5776:1 
-0.068475975071816783112943483047275 1:2 3562:1 6367:1 
-0.068475975071816783112943483047275 1:2 776:1 6143:1 
-0.068475975071816783112943483047275 1:2 776:1 9489:1 
-0.068475975071816783112943483047275 1:2 776:1 5066:1 
-0.068475975071816783112943483047275 1:2 1333:1 8147:1 
-0.068475975071816783112943483047275 1:2 810:1 5527:1 
-0.068475975071816783112943483047275 1:2 810:1 5527:1 
-0.068475975071816783112943483047275 1:2 810:1 5527:1 
-0.068475975071816783112943483047275 1:2 810:1 5527:1 
-0.068475975071816783112943483047275 1:1 13:1 5013:1 
-0.068475975071816783112943483047275 1:1 13:1 5013:1 
-0.068475975071816783112943483047275 1:1 13:1 5013:1 
-0.068475975071816783112943483047275 1:3 352:1 5003:1 11061:1 
-0.068475975071816783112943483047275 1:3 52:1 5037:1 10003:1 
-0.068475975071816783112943483047275 1:3 943:1 5032:1 10055:1 
-0.068475975071816783112943483047275 1:3 965:1 5222:1 10003:1 
-0.068475975071816783112943483047275 1:3 852:1 5525:1 10003:1 
-0.068475975071816783112943483047275 1:2 170:1 5593:1 
-0.068475975071816783112943483047275 1:2 3249:1 8465:1 
-0.068475975071816783112943483047275 1:2 243:1 5732:1 
-0.068475975071816783112943483047275 1:2 243:1 5732:1 
-0.068475975071816783112943483047275 1:2 243:1 5732:1 
-0.068475975071816783112943483047275 1:1 13:1 5013:1 
-0.068475975071816783112943483047275 1:1 13:1 5013:1 
-0.068475975071816783112943483047275 1:1 13:1 5013:1 
-0.068475975071816783112943483047275 1:1 13:1 5013:1 
-0.068475975071816783112943483047275 1:1 13:1 5013:1 
-0.068475975071816783112943483047275 1:1 2379:1 7379:1 
0.68475975071816785888501044610166 1:2 38:1 5181:1 
-0.068475975071816783112943483047275 1:1 2022:1 7022:1 
-0.068475975071816783112943483047275 1:1 1369:1 6369:1 
-0.068475975071816783112943483047275 1:1 1369:1 6369:1 
-0.068475975071816783112943483047275 1:1 1369:1 6369:1 
-0.068475975071816783112943483047275 1:1 1369:1 6369:1 
-0.068475975071816783112943483047275 1:1 1335:1 6335:1 
0.68475975071816785888501044610166 1:2 2990:1 5013:1 
0.68475975071816785888501044610166 1:2 2326:1 5013:1 
0.68475975071816785888501044610166 1:2 2022:1 5013:1 
-0.068475975071816783112943483047275 1:1 13:1 5013:1 
-0.068475975071816783112943483047275 1:1 13:1 5013:1 
-0.068475975071816783112943483047275 1:1 13:1 5013:1 
-0.068475975071816783112943483047275 1:1 13:1 5013:1 
-0.068475975071816783112943483047275 1:1 13:1 5013:1 
-0.068475975071816783112943483047275 1:1 1010:1 6010:1 
-0.068475975071816783112943483047275 1:1 1010:1 6010:1 
-0.068475975071816783112943483047275 1:1 1010:1 6010:1 
-0.068475975071816783112943483047275 1:1 1010:1 6010:1 
-0.068475975071816783112943483047275 1:1 1010:1 6010:1 
-0.068475975071816783112943483047275 1:1 13:1 5013:1 
-0.068475975071816783112943483047275 1:1 13:1 5013:1 
-0.068475975071816783112943483047275 1:1 13:1 5013:1 
-0.068475975071816783112943483047275 1:1 13:1 5013:1 
-0.068475975071816783112943483047275 1:1 13:1 5013:1 
-0.068475975071816783112943483047275 1:2 1029:1 5052:1 
-0.068475975071816783112943483047275 1:2 1029:1 5052:1 
-0.068475975071816783112943483047275 1:2 2076:1 5052:1 
-0.068475975071816783112943483047275 1:2 2076:1 5052:1 
-0.068475975071816783112943483047275 1:2 2076:1 5052:1 
-0.068475975071816783112943483047275 1:2 32:1 5024:1 
-0.068475975071816783112943483047275 1:2 32:1 5024:1 
-0.068475975071816783112943483047275 1:2 32:1 9155:1 
-0.068475975071816783112943483047275 1:2 293:1 5052:1 
-0.068475975071816783112943483047275 1:2 3745:1 5052:1 
-0.068475975071816783112943483047275 1:1 13:1 5013:1 
-0.068475975071816783112943483047275 1:1 13:1 5013:1 
-0.068475975071816783112943483047275 1:1 13:1 5013:1 
-0.068475975071816783112943483047275 1:1 13:1 5013:1 
-0.068475975071816783112943483047275 1:1 13:1 5013:1 
-0.068475975071816783112943483047275 1:2 701:1 5073:1 
-0.068475975071816783112943483047275 1:2 555:1 6384:1 
-0.068475975071816783112943483047275 1:2 275:1 5555:1 
-0.068475975071816783112943483047275 1:2 555:1 6159:1 
-0.068475975071816783112943483047275 1:2 555:1 7320:1 
-0.068475975071816783112943483047275 1:1 13:1 5013:1 
-0.068475975071816783112943483047275 1:1 13:1 5013:1 
-0.068475975071816783112943483047275 1:1 13:1 5013:1 
-0.068475975071816783112943483047275 1:1 13:1 5013:1 
-0.068475975071816783112943483047275 1:1 13:1 5013:1 
-0.068475975071816783112943483047275 1:2 32:1 5056:1 
-0.068475975071816783112943483047275 1:2 32:1 5056:1 
-0.068475975071816783112943483047275 1:2 32:1 5056:1 
-0.068475975071816783112943483047275 1:2 32:1 5056:1 
-0.068475975071816783112943483047275 1:2 32:1 5056:1 
-0.068475975071816783112943483047275 1:1 13:1 5013:1 
-0.068475975071816783112943483047275 1:1 13:1 5013:1 
-0.068475975071816783112943483047275 1:1 13:1 5013:1 
-0.068475975071816783112943483047275 1:1 13:1 5013:1 
-0.068475975071816783112943483047275 1:1 13:1 5013:1 
-0.068475975071816783112943483047275 1:2 1118:1 5555:1 
-0.068475975071816783112943483047275 1:2 718:1 6493:1 
-0.068475975071816783112943483047275 1:2 1176:1 5464:1 
-0.068475975071816783112943483047275 1:2 1176:1 5376:1 
-0.068475975071816783112943483047275 1:2 407:1 5776:1 
-0.068475975071816783112943483047275 1:1 13:1 5013:1 
-0.068475975071816783112943483047275 1:1 13:1 5013:1 
-0.068475975071816783112943483047275 1:1 13:1 5013:1 
-0.068475975071816783112943483047275 1:1 13:1 5013:1 
-0.068475975071816783112943483047275 1:1 13:1 5013:1 
-0.068475975071816783112943483047275 1:2 32:1 5718:1 
-0.068475975071816783112943483047275 1:2 32:1 5718:1 
-0.068475975071816783112943483047275 1:2 638:1 5776:1 
-0.068475975071816783112943483047275 1:2 32:1 5221:1 
-0.028366261340521097683575746373208 1:2 183:1 6645:1 
-0.068475975071816783112943483047275 1:1 13:1 5013:1 
-0.068475975071816783112943483047275 1:1 13:1 5013:1 
-0.068475975071816783112943483047275 1:1 13:1 5013:1 
-0.068475975071816783112943483047275 1:1 13:1 5013:1 
-0.068475975071816783112943483047275 1:1 13:1 5013:1 
-0.068475975071816783112943483047275 1:2 626:1 5041:1 
-0.068475975071816783112943483047275 1:2 399:1 5041:1 
-0.068475975071816783112943483047275 1:2 120:1 5041:1 
-0.068475975071816783112943483047275 1:2 200:1 5041:1 
-0.068475975071816783112943483047275 1:2 626:1 5041:1 
-0.068475975071816783112943483047275 1:1 13:1 5013:1 
-0.068475975071816783112943483047275 1:1 13:1 5013:1 
-0.068475975071816783112943483047275 1:1 13:1 5013:1 
-0.068475975071816783112943483047275 1:1 13:1 5013:1 
-0.068475975071816783112943483047275 1:2 920:1 5041:1 
-0.068475975071816783112943483047275 1:2 355:1 5041:1 
-0.068475975071816783112943483047275 1:2 32:1 5056:1 
-0.068475975071816783112943483047275 1:2 32:1 5056:1 
-0.068475975071816783112943483047275 1:2 32:1 5056:1 
-0.068475975071816783112943483047275 1:1 13:1 5013:1 
-0.068475975071816783112943483047275 1:1 13:1 5013:1 
-0.068475975071816783112943483047275 1:1 13:1 5013:1 
-0.068475975071816783112943483047275 1:1 13:1 5013:1 
-0.068475975071816783112943483047275 1:1 13:1 5013:1 
-0.068475975071816783112943483047275 1:2 450:1 5109:1 
-0.068475975071816783112943483047275 1:2 845:1 5109:1 
-0.068475975071816783112943483047275 1:2 1891:1 5109:1 
-0.068475975071816783112943483047275 1:1 13:1 5013:1 
-0.068475975071816783112943483047275 1:1 13:1 5013:1 
-0.068475975071816783112943483047275 1:1 13:1 5013:1 
-0.068475975071816783112943483047275 1:1 13:1 5013:1 
-0.068475975071816783112943483047275 1:1 13:1 5013:1 
-0.068475975071816783112943483047275 1:2 1136:1 5701:1 
-0.068475975071816783112943483047275 1:1 13:1 5013:1 
-0.068475975071816783112943483047275 1:1 13:1 5013:1 
-0.068475975071816783112943483047275 1:1 13:1 5013:1 
-0.068475975071816783112943483047275 1:1 13:1 5013:1 
-0.068475975071816783112943483047275 1:1 13:1 5013:1 
-0.068475975071816783112943483047275 1:2 113:1 5056:1 
-0.068475975071816783112943483047275 1:2 113:1 5056:1 
-0.068475975071816783112943483047275 1:2 113:1 5056:1 
-0.068475975071816783112943483047275 1:2 113:1 5056:1 
-0.068475975071816783112943483047275 1:2 113:1 5056:1 
-0.068475975071816783112943483047275 1:1 13:1 5013:1 
-0.068475975071816783112943483047275 1:1 13:1 5013:1 
-0.068475975071816783112943483047275 1:1 13:1 5013:1 
-0.068475975071816783112943483047275 1:1 13:1 5013:1 
-0.068475975071816783112943483047275 1:1 13:1 5013:1 
-0.068475975071816783112943483047275 1:2 124:1 5845:1 
-0.068475975071816783112943483047275 1:2 845:1 6655:1 
-0.048230502436673303168213067237957 1:2 845:1 5339:1 
-0.048230502436294939161420813888981 1:2 845:1 5339:1 
-0.068475975071816783112943483047275 1:2 410:1 6335:1 
-0.068475975071816783112943483047275 1:1 13:1 5013:1 
-0.068475975071816783112943483047275 1:1 13:1 5013:1 
-0.068475975071816783112943483047275 1:1 13:1 5013:1 
-0.068475975071816783112943483047275 1:1 13:1 5013:1 
-0.068475975071816783112943483047275 1:1 13:1 5013:1 
-0.068475975071816783112943483047275 1:2 352:1 6176:1 
-0.0088352369500000471624900910683209 1:2 632:1 5110:1 
-0.068475975071816783112943483047275 1:2 312:1 5041:1 
-0.068475975071816783112943483047275 1:2 312:1 5041:1 
-0.068475975071816783112943483047275 1:1 13:1 5013:1 
-0.068475975071816783112943483047275 1:1 13:1 5013:1 
-0.068475975071816783112943483047275 1:1 13:1 5013:1 
-0.068475975071816783112943483047275 1:1 13:1 5013:1 
-0.068475975071816783112943483047275 1:1 13:1 5013:1 
-0.068475975071816783112943483047275 1:2 377:1 7619:1 
-0.068475975071816783112943483047275 1:2 2619:1 6552:1 
-0.068475975071816783112943483047275 1:2 1868:1 5041:1 
-0.068475975071816783112943483047275 1:2 41:1 5041:1 
-0.068475975071816783112943483047275 1:2 30:1 5041:1 
-0.068475975071816783112943483047275 1:2 30:1 5041:1 
-0.068475975071816783112943483047275 1:1 13:1 5013:1 
-0.068475975071816783112943483047275 1:1 13:1 5013:1 
-0.068475975071816783112943483047275 1:1 13:1 5013:1 
-0.068475975071816783112943483047275 1:1 13:1 5013:1 
-0.068475975071816783112943483047275 1:1 13:1 5013:1 
-0.068475975071816783112943483047275 1:2 219:1 5809:1 
-0.068475975071816783112943483047275 1:2 219:1 5809:1 
-0.068475975071816783112943483047275 1:2 1688:1 5040:1 
-0.068475975071816783112943483047275 1:2 473:1 6301:1 
-0.068475975071816783112943483047275 1:2 473:1 6301:1 
-0.068475975071816783112943483047275 1:2 473:1 6301:1 
-0.068475975071816783112943483047275 1:2 89:1 5041:1 
-0.068475975071816783112943483047275 1:2 31:1 5041:1 
-0.068475975071816783112943483047275 1:2 28:1 5041:1 
-0.068475975071816783112943483047275 1:2 22:1 5041:1 
-0.068475975071816783112943483047275 1:2 28:1 5041:1 
-0.068475975071816783112943483047275 1:1 13:1 5013:1 
-0.068475975071816783112943483047275 1:1 13:1 5013:1 
-0.068475975071816783112943483047275 1:1 13:1 5013:1 
-0.068475975071816783112943483047275 1:1 13:1 5013:1 
-0.068475975071816783112943483047275 1:1 13:1 5013:1 
-0.058797269325466888778564111817104 1:2 1024:1 5148:1 
-0.068475975071816783112943483047275 1:2 1891:1 7196:1 
-0.068475975071816783112943483047275 1:1 13:1 5013:1 
-0.068475975071816783112943483047275 1:1 13:1 5013:1 
-0.068475975071816783112943483047275 1:1 13:1 5013:1 
-0.068475975071816783112943483047275 1:1 13:1 5013:1 
-0.068475975071816783112943483047275 1:1 13:1 5013:1 
-0.068475975071816783112943483047275 1:2 626:1 5041:1 
-0.068475975071816783112943483047275 1:2 626:1 5041:1 
-0.068475975071816783112943483047275 1:2 626:1 5041:1 
-0.068475975071816783112943483047275 1:2 31:1 5041:1 
-0.068475975071816783112943483047275 1:2 31:1 5041:1 
-0.068475975071816783112943483047275 1:2 249:1 7298:1 
-0.068475975071816783112943483047275 1:2 249:1 5458:1 
-0.068475975071816783112943483047275 1:2 249:1 5885:1 
-0.068475975071816783112943483047275 1:2 249:1 5236:1 
-0.068475975071816783112943483047275 1:2 1330:1 5249:1 
-0.068475975071816783112943483047275 1:1 13:1 5013:1 
-0.068475975071816783112943483047275 1:1 13:1 5013:1 
-0.068475975071816783112943483047275 1:1 13:1 5013:1 
-0.068475975071816783112943483047275 1:1 13:1 5013:1 
-0.068475975071816783112943483047275 1:1 13:1 5013:1 
-0.068475975071816783112943483047275 1:2 313:1 5249:1 
-0.068475975071816783112943483047275 1:2 299:1 5249:1 
-0.068475975071816783112943483047275 1:2 299:1 5249:1 
-0.068475975071816783112943483047275 1:2 313:1 5249:1 
-0.068475975071816783112943483047275 1:2 1546:1 5240:1 
-0.068475975071816783112943483047275 1:2 1066:1 5052:1 
-0.068475975071816783112943483047275 1:2 374:1 5052:1 
-0.068475975071816783112943483047275 1:2 374:1 5052:1 
-0.068475975071816783112943483047275 1:1 13:1 5013:1 
-0.068475975071816783112943483047275 1:1 13:1 5013:1 
-0.068475975071816783112943483047275 1:2 1068:1 6286:1 
-0.068475975071816783112943483047275 1:2 183:1 5604:1 
-0.068475975071816783112943483047275 1:2 183:1 5617:1 
-0.068475975071816783112943483047275 1:2 183:1 7968:1 
-0.068475975071816783112943483047275 1:2 183:1 6531:1 
-0.068475975071816783112943483047275 1:2 183:1 9242:1 
-0.068475975071816783112943483047275 1:2 183:1 8680:1 
-0.068475975071816783112943483047275 1:2 1837:1 8884:1 
-0.068475975071816783112943483047275 1:2 608:1 7273:1 
-0.068475975071816783112943483047275 1:2 568:1 5547:1 
-0.068475975071816783112943483047275 1:2 547:1 5760:1 
-0.068475975071816783112943483047275 1:2 2461:1 5240:1 
-0.068475975071816783112943483047275 1:1 13:1 5013:1 
-0.068475975071816783112943483047275 1:1 13:1 5013:1 
-0.068475975071816783112943483047275 1:1 13:1 5013:1 
-0.068475975071816783112943483047275 1:1 13:1 5013:1 
-0.068475975071816783112943483047275 1:1 13:1 5013:1 
-0.068475975071816783112943483047275 1:1 428:1 5428:1 
-0.068475975071816783112943483047275 1:1 428:1 5428:1 
-0.068475975071816783112943483047275 1:1 428:1 5428:1 
-0.068475975071816783112943483047275 1:1 428:1 5428:1 
-0.068475975071816783112943483047275 1:1 428:1 5428:1 
-0.068475975071816783112943483047275 1:2 2920:1 5231:1 
-0.068475975071816783112943483047275 1:2 2212:1 5651:1 
-0.068475975071816783112943483047275 1:1 4229:1 9229:1 
-0.068475975071816783112943483047275 1:2 249:1 8703:1 
-0.068475975071816783112943483047275 1:2 840:1 5672:1 
-0.068475975071816783112943483047275 1:2 2958:1 5672:1 
-0.068475975071816783112943483047275 1:2 166:1 5183:1 
-0.068475975071816783112943483047275 1:2 616:1 8637:1 
-0.068475975071816783112943483047275 1:1 13:1 5013:1 
-0.068475975071816783112943483047275 1:1 13:1 5013:1 
-0.068475975071816783112943483047275 1:1 13:1 5013:1 
-0.068475975071816783112943483047275 1:1 13:1 5013:1 
-0.068475975071816783112943483047275 1:1 13:1 5013:1 
-0.068475975071816783112943483047275 1:2 672:1 5487:1 
-0.068475975071816783112943483047275 1:2 921:1 5618:1 
-0.068475975071816783112943483047275 1:2 1079:1 5618:1 
-0.068475975071816783112943483047275 1:2 618:1 5739:1 
-0.068475975071816783112943483047275 1:2 1864:1 5618:1 
-0.068475975071816783112943483047275 1:1 13:1 5013:1 
-0.068475975071816783112943483047275 1:1 13:1 5013:1 
-0.068475975071816783112943483047275 1:1 13:1 5013:1 
-0.068475975071816783112943483047275 1:1 13:1 5013:1 
-0.068475975071816783112943483047275 1:1 13:1 5013:1 
-0.068475975071816783112943483047275 1:2 2159:1 7212:1 
-0.016227826153833068562049035676864 1:2 3105:1 6619:1 
-0.031124440061988466188491742059341 1:2 3846:1 5559:1 
-0.068475975071816783112943483047275 1:2 2212:1 6302:1 
-0.068475975071816783112943483047275 1:2 721:1 6849:1 
-0.068475975071816783112943483047275 1:1 13:1 5013:1 
-0.068475975071816783112943483047275 1:1 13:1 5013:1 
-0.068475975071816783112943483047275 1:1 13:1 5013:1 
-0.068475975071816783112943483047275 1:1 13:1 5013:1 
-0.068475975071816783112943483047275 1:1 13:1 5013:1 
-0.004440030215616297577796434126185 1:1 46:1 5046:1 
-0.068475975071816783112943483047275 1:2 1152:1 6460:1 
-0.068475975071816783112943483047275 1:2 1152:1 5320:1 
-0.068475975071816783112943483047275 1:2 483:1 6152:1 
-0.068475975071816783112943483047275 1:3 994:1 5142:1 10003:1 
-0.068475975071816783112943483047275 1:2 1372:1 5050:1 
-0.068475975071816783112943483047275 1:2 1372:1 5050:1 
-0.068475975071816783112943483047275 1:2 292:1 5050:1 
-0.068475975071816783112943483047275 1:2 292:1 5050:1 
-0.068475975071816783112943483047275 1:2 433:1 5050:1 
-0.068475975071816783112943483047275 1:2 32:1 5452:1 
-0.068475975071816783112943483047275 1:2 32:1 5452:1 
-0.068475975071816783112943483047275 1:1 13:1 5013:1 
-0.068475975071816783112943483047275 1:1 13:1 5013:1 
-0.068475975071816783112943483047275 1:1 13:1 5013:1 
-0.068475975071816783112943483047275 1:2 417:1 6763:1 
-0.068475975071816783112943483047275 1:2 2823:1 5082:1 
-0.068475975071816783112943483047275 1:2 2823:1 5082:1 
-0.068475975071816783112943483047275 1:2 838:1 7639:1 
-0.068475975071816783112943483047275 1:2 838:1 7639:1 
-0.068475975071816783112943483047275 1:1 13:1 5013:1 
-0.068475975071816783112943483047275 1:1 13:1 5013:1 
-0.068475975071816783112943483047275 1:1 13:1 5013:1 
-0.068475975071816783112943483047275 1:1 13:1 5013:1 
-0.068475975071816783112943483047275 1:1 13:1 5013:1 
-0.068475975071816783112943483047275 1:2 32:1 5743:1 
-0.068475975071816783112943483047275 1:2 32:1 5203:1 
-0.068475975071816783112943483047275 1:2 32:1 5628:1 
-0.068475975071816783112943483047275 1:2 32:1 5346:1 
-0.068475975071816783112943483047275 1:2 32:1 6261:1 
-0.068475975071816783112943483047275 1:2 593:1 5116:1 
-0.015267298498114929838909148429593 1:2 1525:1 6993:1 
-0.019978676041910618105257313459333 1:2 2950:1 6632:1 
-0.068475975071816783112943483047275 1:2 443:1 5044:1 
-0.068475975071816783112943483047275 1:2 1043:1 5044:1 
-0.068475975071816783112943483047275 1:1 13:1 5013:1 
-0.068475975071816783112943483047275 1:1 13:1 5013:1 
-0.068475975071816783112943483047275 1:1 13:1 5013:1 
-0.068475975071816783112943483047275 1:1 13:1 5013:1 
-0.068475975071816783112943483047275 1:1 13:1 5013:1 
-0.068475975071816783112943483047275 1:2 514:1 8554:1 
-0.068475975071816783112943483047275 1:3 166:1 5003:1 10211:1 
-0.068475975071816783112943483047275 1:2 1763:1 5078:1 
-0.068475975071816783112943483047275 1:2 348:1 6345:1 
-0.068475975071816783112943483047275 1:2 348:1 6250:1 
-0.068475975071816783112943483047275 1:2 155:1 5044:1 
-0.068475975071816783112943483047275 1:2 3978:1 5044:1 
-0.068475975071816783112943483047275 1:2 3745:1 5044:1 
-0.068475975071816783112943483047275 1:2 3745:1 5044:1 
-0.068475975071816783112943483047275 1:2 3745:1 5044:1 
-0.068475975071816783112943483047275 1:1 13:1 5013:1 
-0.068475975071816783112943483047275 1:1 13:1 5013:1 
-0.068475975071816783112943483047275 1:1 13:1 5013:1 
-0.068475975071816783112943483047275 1:1 13:1 5013:1 
-0.068475975071816783112943483047275 1:1 13:1 5013:1 
-0.068475975071816783112943483047275 1:1 836:1 5836:1 
-0.068475975071816783112943483047275 1:3 50:1 5106:1 10947:1 
-0.0016037415724025846398836936401722 1:2 79:1 6770:1 
-0.068475975071816783112943483047275 1:2 405:1 5044:1 
-0.068475975071816783112943483047275 1:2 405:1 5044:1 
-0.068475975071816783112943483047275 1:2 52:1 5100:1 
-0.068475975071816783112943483047275 1:2 52:1 5278:1 
-0.068475975071816783112943483047275 1:2 52:1 5278:1 
-0.068475975071816783112943483047275 1:2 52:1 5278:1 
-0.068475975071816783112943483047275 1:2 52:1 5278:1 
-0.068475975071816783112943483047275 1:1 13:1 5013:1 
-0.068475975071816783112943483047275 1:1 13:1 5013:1 
-0.068475975071816783112943483047275 1:1 13:1 5013:1 
-0.068475975071816783112943483047275 1:1 13:1 5013:1 
-0.068475975071816783112943483047275 1:1 13:1 5013:1 
-0.068475975071816783112943483047275 1:2 2377:1 8718:1 
-0.068475975071816783112943483047275 1:2 32:1 5506:1 
-0.068475975071816783112943483047275 1:2 32:1 8234:1 
-0.068475975071816783112943483047275 1:2 32:1 5244:1 
-0.068475975071816783112943483047275 1:2 32:1 6000:1 
-0.068475975071816783112943483047275 1:2 52:1 5174:1 
-0.068475975071816783112943483047275 1:2 52:1 5176:1 
-0.068475975071816783112943483047275 1:2 52:1 5176:1 
-0.068475975071816783112943483047275 1:2 52:1 5174:1 
-0.068475975071816783112943483047275 1:2 52:1 5373:1 
-0.068475975071816783112943483047275 1:2 308:1 5698:1 
-0.068475975071816783112943483047275 1:2 443:1 5044:1 
-0.068475975071816783112943483047275 1:2 2071:1 5240:1 
-0.068475975071816783112943483047275 1:1 13:1 5013:1 
-0.068475975071816783112943483047275 1:1 13:1 5013:1 
-0.068475975071816783112943483047275 1:1 13:1 5013:1 
-0.068475975071816783112943483047275 1:1 13:1 5013:1 
-0.068475975071816783112943483047275 1:1 13:1 5013:1 
-0.068475975071816783112943483047275 1:2 117:1 5923:1 
-0.045172206599923797609719144929841 1:2 923:1 5051:1 
